{"agentName":"0-5","fitness":0.09757233411073685,"data":{"A1":[[309.19630302652706,208.4629643815854,496.06874986707703,0.0,0.0]],"b2":[[0.6456121712599778],[0.8264783725578371]],"A2":[[1.0,1.0]],"W1":[[0.4551273600657362,0.36644694351969087,-0.38256108933468047,-0.4458430198517267,0.33109790358914726,0.8067445293443565,-0.2624341731773887,-0.44850386111659524,-0.07269284838169332,0.5658035575800715,0.8386555657374337,-0.1270180511534269,0.499812362510895,-0.22686625128130267,-0.6452430441812433,0.18869982177936828,-0.5804648622673358,0.651931743775642,-0.6555641246242951,0.17485476357259122,0.5025608135349202,0.14208069682973434,0.16004976900412138,0.505019897181302,-0.9371635223468384,-0.2841601610457427,0.6355938616712786,-0.1646249064941625,0.9480713629917628,0.42681251564645817,-0.0388509668871313,-0.4166870051763918,0.8997202693189332,0.6409836467726933,0.273289095712564,-0.26175701211620517,-0.2794902492677298,-0.1306778297187794,-0.08536581111046115,-0.05462315824828923,-0.06195495876886281,0.6546448480299902,-0.6979368909424835,0.6677324708883314,-0.07938725467767771,-0.43885601665437957,-0.608071585153688,-0.6414531182501653,0.7313735926547045,-0.026818676347611925,-0.15805658673794265,0.26573958270655806,0.3997172901343442,-0.3693430998846541,0.14324061105995334,-0.25797542063247825,0.7436291919296774,0.6114618853239959,0.2324273700703574,-0.25128128782199144,0.39449745853945895,0.817229160415142,-0.6077058562362969,0.6182496334554788,0.2558665508269453,-0.07320145794330979,-0.38884168866510227,0.07981886851873865,0.27022202891277614,-0.7474843534024693,-0.005346215048158909,-0.9453716674280683,-0.9270309666195007,-0.032312290091389695,0.31010676221964206,-0.20846743965751569,0.8803449313707621,-0.23077831216541722,0.29246395759528565,0.5409312755478819],[0.7880855916368177,0.19767407429003536,0.9520689432368168,-0.845829774129496,0.5502413918543512,-0.44235539500246457,0.7984106594591154,-0.2523277127589152,-0.1373808897290778,-0.3353514432305029,-0.3697050572653644,-0.11452811582755928,-0.807098168238352,0.4903066124307711,-0.6582805242342049,0.6107814398427647,-0.7204208094262783,-0.8141063661170889,-0.9459402662357332,0.09666938346350307,-0.43560342773870375,0.9349906440170221,0.8090021580031235,-0.3121157071110545,-0.9718883630945336,0.6191882496201251,0.0429886073795116,0.670311110015402,0.16692329718223786,0.37649213869502973,0.11276440263810383,-0.7684997525607482,0.1770172737885798,0.7902845707138706,0.2529503304079441,-0.23483801763662826,0.8072501895004851,0.6673992021927047,-0.4796127376677324,0.9244724404994455,-0.2049276879687938,0.1470694373531216,-0.48366999792166787,0.643491115907358,0.3183669486383729,0.22821350958477082,-0.023605251086149304,-0.2770587742156372,0.47596326458377436,0.7107229819632654,-0.3205057828114841,0.51605972926996,0.45215640988181516,0.01712446974606241,0.5508198371849293,-0.2478254241316491,0.7256483175955235,0.39418662792516,-0.6797384914236382,0.6001217520150142,0.4508991072414843,0.589749448443134,0.6464818311502738,0.7005669004769028,0.9699584106930381,-0.7417466269908464,0.22818964839784495,0.08574936236270037,-0.6945765138377225,0.06915201979238828,0.09798746565879424,-0.34288007110901964,0.440249350802451,-0.22440768392359534,-0.9695067570891225,-0.7942032659310758,-0.792286205517398,-0.6535487038528798,0.7952676470618951,-0.1622831617066689],[0.6949189734965766,-0.32697929564739403,-0.15359663581829275,-0.8951865090520432,0.2057889391931318,-0.6676656789571533,-0.03553655732400762,0.14550349954571096,0.034600542078191854,0.4223352065067103,0.35278245969741096,0.7022211035026023,0.5686638754605697,-0.4202155290448111,-0.26102723928249216,0.010688215941416779,-0.4311544807877927,0.9500151672991208,0.14380635780710693,-0.7549354840975826,-0.13079299081883855,0.0983382230287082,0.15347083875928424,0.45507300685816965,0.1921083467305864,0.6361110540492223,0.7675261182370992,-0.2543488202081907,0.2927051050236915,0.680182444769418,-0.8062832278617296,0.8266289890474885,0.22684501241708888,0.1726291966578266,-0.6778773666126594,0.9993906921393696,0.1789490173139363,0.5584053824232391,0.03495894704368174,-0.8505720014852347,-0.008461200645088818,-0.648273596036564,-0.005334477339629995,0.3781469006858833,0.30565234666790686,-0.2822867492866177,0.10175120738413801,0.5342432888482425,0.05146513075475534,-0.6459729964194652,0.42519013450094767,0.09441503345243984,-0.07898439043103522,-0.32207498048636474,-0.9180071861219266,0.5951317320731633,0.41000814588717693,-0.3926260640533046,0.2789036768568971,0.13163692286014528,0.03324842612749346,0.07055844751995122,-0.47199515597021113,-0.682690342465275,0.3983414713797069,-0.2136729393256811,-0.09066563475481249,-0.4640338194317184,-0.03513782089224482,-0.1711809802758364,0.1774546460228057,-0.6783644553523549,-0.47871398278230504,0.02272121490463097,-0.5047649289302389,0.26479596144873896,-0.32045436544054096,0.3113047940487379,0.6269418147567556,0.9710114516962312],[0.01715676997104909,0.8975962429865936,-0.46594560920034134,0.2873623499953055,0.8894362304584083,0.17973981232418468,0.49105791400707743,-0.7359842740294882,0.38941133808001127,-0.7151884777228046,0.07478785545033317,-0.8672651994084235,0.450599300176334,0.35104802298560056,0.6797318185095045,-0.03891997518827006,-0.33208695871398675,0.6166574577055226,0.5730212324012205,-0.4194925751047054,0.054527683864544096,-0.15591931640565093,0.9266742559542833,0.888522581905147,0.6576203900699167,0.6417770212400336,0.7509788029052338,-0.3104974571382815,0.7234744267051683,-0.15869049651427103,0.20173310976772196,0.8657502566551409,0.9325160601080682,0.24570884032596263,-0.6546108813337841,-0.14020032028377583,-0.8825687891702743,-0.21420166926412865,-0.8600275184792756,-0.7990574622230739,0.8325875503351796,-0.5956350140619129,0.12598048009007923,0.12340188733473134,-0.839435659309717,-0.16623481818728414,0.12028795301041662,-0.7994713170657952,0.2216721974907896,0.8407561415075087,-0.9325810772922609,-0.6411471147334535,0.9949216290375054,0.483048267470493,-0.8736297429070232,-0.36222771685582544,0.26397860162786957,0.45527588775737704,-0.9424989711186325,0.6251162293059616,-0.2307778924009991,0.6977871128979924,0.022830408261390822,0.6257738824362347,0.9770979848265122,0.09985730624684575,-0.9755858424230182,-0.689969833240031,-0.7294587311376761,0.3496326193951331,0.37929821892417404,0.8402056881660709,-0.1806835799958202,0.766314307210441,0.865876513623024,-0.7113501219432434,-0.0932956557986735,-0.7042025810921411,0.47530696925672267,-0.4629102077669889],[-0.9309578475799722,0.7591795880911123,0.06296957473213705,0.786790093290086,-0.9527998391625465,-0.08573982501921895,-0.3812232026687308,-0.6890669703685022,0.25415911467755015,-0.07664746267502509,0.3614756404325046,0.14508027508253818,0.23042774014795753,0.4164348685332022,0.4109091750657461,0.03853098236933272,0.38911994885223145,-0.5031309357181766,-0.596467768575587,0.17884522225228028,0.24508864174863,0.7576193329655578,0.09030511120334461,0.9537528991778741,-0.7224092160621338,-0.34089385162121943,0.6924170720838818,0.32912306214891784,-0.4064624712125904,-0.5344662061201593,0.5891192531479754,0.29862103742464274,-0.36153976712796343,-0.6552669564323226,-0.22672513691161766,0.3001336202535376,0.34490251346382617,0.2072633053920192,-0.5659371284058774,0.49599636156628835,0.31302496164254223,-0.6062773982342133,-0.9874007658402217,-0.6214904627601421,-0.11421073677207683,-0.5850843421161205,0.1250679146774638,-0.7108170726393621,-0.6888351241194393,0.6077343683084389,-0.1407178879203672,0.12960233233004925,-0.4236196478321872,0.7903078296084356,-0.8755754953628643,-0.2062360260394529,-0.045680124889026175,0.783182093429277,-0.02995737262668463,-0.33382351650328435,-0.1802575775708093,-0.991006951265341,-0.9107951763247621,0.9069820084047908,-0.12691921206803047,-0.7087012119383593,-0.9179510577925369,0.18480349982718325,-0.4478459144114004,-0.5560585660624608,0.4797855980916854,0.01997502546020402,-0.8827928315487465,0.2755107907750989,0.015544482147298977,0.9652687138748801,0.6622667860970648,-0.7708138539912186,0.17728148663006627,0.47818190728952925]],"W2":[[-0.5162518174930761,0.24270234207184016,0.7352292800096338,0.8860322286740037,0.6748068653962045],[-0.4683538422180036,0.1469540185936138,0.9113612952591796,-0.9838482669789823,0.4506466371133697]],"b1":[[0.1358843437335564],[0.03643446587894239],[-0.31070823939673287],[0.5283033206569152],[0.3469111543845367]]}}
{"agentName":"0-1","fitness":0.09757233411073685,"data":{"A1":[[309.19630302652706,208.4629643815854,496.06874986707703,0.0,0.0]],"b2":[[0.6456121712599778],[0.8264783725578371]],"A2":[[1.0,1.0]],"W1":[[0.4551273600657362,0.36644694351969087,-0.38256108933468047,-0.4458430198517267,0.33109790358914726,0.8067445293443565,-0.2624341731773887,-0.44850386111659524,-0.07269284838169332,0.5658035575800715,0.8386555657374337,-0.1270180511534269,0.499812362510895,-0.22686625128130267,-0.6452430441812433,0.18869982177936828,-0.5804648622673358,0.651931743775642,-0.6555641246242951,0.17485476357259122,0.5025608135349202,0.14208069682973434,0.16004976900412138,0.505019897181302,-0.9371635223468384,-0.2841601610457427,0.6355938616712786,-0.1646249064941625,0.9480713629917628,0.42681251564645817,-0.0388509668871313,-0.4166870051763918,0.8997202693189332,0.6409836467726933,0.273289095712564,-0.26175701211620517,-0.2794902492677298,-0.1306778297187794,-0.08536581111046115,-0.05462315824828923,-0.06195495876886281,0.6546448480299902,-0.6979368909424835,0.6677324708883314,-0.07938725467767771,-0.43885601665437957,-0.608071585153688,-0.6414531182501653,0.7313735926547045,-0.026818676347611925,-0.15805658673794265,0.26573958270655806,0.3997172901343442,-0.3693430998846541,0.14324061105995334,-0.25797542063247825,0.7436291919296774,0.6114618853239959,0.2324273700703574,-0.25128128782199144,0.39449745853945895,0.817229160415142,-0.6077058562362969,0.6182496334554788,0.2558665508269453,-0.07320145794330979,-0.38884168866510227,0.07981886851873865,0.27022202891277614,-0.7474843534024693,-0.005346215048158909,-0.9453716674280683,-0.9270309666195007,-0.032312290091389695,0.31010676221964206,-0.20846743965751569,0.8803449313707621,-0.23077831216541722,0.29246395759528565,0.5409312755478819],[0.7880855916368177,0.19767407429003536,0.9520689432368168,-0.845829774129496,0.5502413918543512,-0.44235539500246457,0.7984106594591154,-0.2523277127589152,-0.1373808897290778,-0.3353514432305029,-0.3697050572653644,-0.11452811582755928,-0.807098168238352,0.4903066124307711,-0.6582805242342049,0.6107814398427647,-0.7204208094262783,-0.8141063661170889,-0.9459402662357332,0.09666938346350307,-0.43560342773870375,0.9349906440170221,0.8090021580031235,-0.3121157071110545,-0.9718883630945336,0.6191882496201251,0.0429886073795116,0.670311110015402,0.16692329718223786,0.37649213869502973,0.11276440263810383,-0.7684997525607482,0.1770172737885798,0.7902845707138706,0.2529503304079441,-0.23483801763662826,0.8072501895004851,0.6673992021927047,-0.4796127376677324,0.9244724404994455,-0.2049276879687938,0.1470694373531216,-0.48366999792166787,0.643491115907358,0.3183669486383729,0.22821350958477082,-0.023605251086149304,-0.2770587742156372,0.47596326458377436,0.7107229819632654,-0.3205057828114841,0.51605972926996,0.45215640988181516,0.01712446974606241,0.5508198371849293,-0.2478254241316491,0.7256483175955235,0.39418662792516,-0.6797384914236382,0.6001217520150142,0.4508991072414843,0.589749448443134,0.6464818311502738,0.7005669004769028,0.9699584106930381,-0.7417466269908464,0.22818964839784495,0.08574936236270037,-0.6945765138377225,0.06915201979238828,0.09798746565879424,-0.34288007110901964,0.440249350802451,-0.22440768392359534,-0.9695067570891225,-0.7942032659310758,-0.792286205517398,-0.6535487038528798,0.7952676470618951,-0.1622831617066689],[0.6949189734965766,-0.32697929564739403,-0.15359663581829275,-0.8951865090520432,0.2057889391931318,-0.6676656789571533,-0.03553655732400762,0.14550349954571096,0.034600542078191854,0.4223352065067103,0.35278245969741096,0.7022211035026023,0.5686638754605697,-0.4202155290448111,-0.26102723928249216,0.010688215941416779,-0.4311544807877927,0.9500151672991208,0.14380635780710693,-0.7549354840975826,-0.13079299081883855,0.0983382230287082,0.15347083875928424,0.45507300685816965,0.1921083467305864,0.6361110540492223,0.7675261182370992,-0.2543488202081907,0.2927051050236915,0.680182444769418,-0.8062832278617296,0.8266289890474885,0.22684501241708888,0.1726291966578266,-0.6778773666126594,0.9993906921393696,0.1789490173139363,0.5584053824232391,0.03495894704368174,-0.8505720014852347,-0.008461200645088818,-0.648273596036564,-0.005334477339629995,0.3781469006858833,0.30565234666790686,-0.2822867492866177,0.10175120738413801,0.5342432888482425,0.05146513075475534,-0.6459729964194652,0.42519013450094767,0.09441503345243984,-0.07898439043103522,-0.32207498048636474,-0.9180071861219266,0.5951317320731633,0.41000814588717693,-0.3926260640533046,0.2789036768568971,0.13163692286014528,0.03324842612749346,0.07055844751995122,-0.47199515597021113,-0.682690342465275,0.3983414713797069,-0.2136729393256811,-0.09066563475481249,-0.4640338194317184,-0.03513782089224482,-0.1711809802758364,0.1774546460228057,-0.6783644553523549,-0.47871398278230504,0.02272121490463097,-0.5047649289302389,0.26479596144873896,-0.32045436544054096,0.3113047940487379,0.6269418147567556,0.9710114516962312],[0.01715676997104909,0.8975962429865936,-0.46594560920034134,0.2873623499953055,0.8894362304584083,0.17973981232418468,0.49105791400707743,-0.7359842740294882,0.38941133808001127,-0.7151884777228046,0.07478785545033317,-0.8672651994084235,0.450599300176334,0.35104802298560056,0.6797318185095045,-0.03891997518827006,-0.33208695871398675,0.6166574577055226,0.5730212324012205,-0.4194925751047054,0.054527683864544096,-0.15591931640565093,0.9266742559542833,0.888522581905147,0.6576203900699167,0.6417770212400336,0.7509788029052338,-0.3104974571382815,0.7234744267051683,-0.15869049651427103,0.20173310976772196,0.8657502566551409,0.9325160601080682,0.24570884032596263,-0.6546108813337841,-0.14020032028377583,-0.8825687891702743,-0.21420166926412865,-0.8600275184792756,-0.7990574622230739,0.8325875503351796,-0.5956350140619129,0.12598048009007923,0.12340188733473134,-0.839435659309717,-0.16623481818728414,0.12028795301041662,-0.7994713170657952,0.2216721974907896,0.8407561415075087,-0.9325810772922609,-0.6411471147334535,0.9949216290375054,0.483048267470493,-0.8736297429070232,-0.36222771685582544,0.26397860162786957,0.45527588775737704,-0.9424989711186325,0.6251162293059616,-0.2307778924009991,0.6977871128979924,0.022830408261390822,0.6257738824362347,0.9770979848265122,0.09985730624684575,-0.9755858424230182,-0.689969833240031,-0.7294587311376761,0.3496326193951331,0.37929821892417404,0.8402056881660709,-0.1806835799958202,0.766314307210441,0.865876513623024,-0.7113501219432434,-0.0932956557986735,-0.7042025810921411,0.47530696925672267,-0.4629102077669889],[-0.9309578475799722,0.7591795880911123,0.06296957473213705,0.786790093290086,-0.9527998391625465,-0.08573982501921895,-0.3812232026687308,-0.6890669703685022,0.25415911467755015,-0.07664746267502509,0.3614756404325046,0.14508027508253818,0.23042774014795753,0.4164348685332022,0.4109091750657461,0.03853098236933272,0.38911994885223145,-0.5031309357181766,-0.596467768575587,0.17884522225228028,0.24508864174863,0.7576193329655578,0.09030511120334461,0.9537528991778741,-0.7224092160621338,-0.34089385162121943,0.6924170720838818,0.32912306214891784,-0.4064624712125904,-0.5344662061201593,0.5891192531479754,0.29862103742464274,-0.36153976712796343,-0.6552669564323226,-0.22672513691161766,0.3001336202535376,0.34490251346382617,0.2072633053920192,-0.5659371284058774,0.49599636156628835,0.31302496164254223,-0.6062773982342133,-0.9874007658402217,-0.6214904627601421,-0.11421073677207683,-0.5850843421161205,0.1250679146774638,-0.7108170726393621,-0.6888351241194393,0.6077343683084389,-0.1407178879203672,0.12960233233004925,-0.4236196478321872,0.7903078296084356,-0.8755754953628643,-0.2062360260394529,-0.045680124889026175,0.783182093429277,-0.02995737262668463,-0.33382351650328435,-0.1802575775708093,-0.991006951265341,-0.9107951763247621,0.9069820084047908,-0.12691921206803047,-0.7087012119383593,-0.9179510577925369,0.18480349982718325,-0.4478459144114004,-0.5560585660624608,0.4797855980916854,0.01997502546020402,-0.8827928315487465,0.2755107907750989,0.015544482147298977,0.9652687138748801,0.6622667860970648,-0.7708138539912186,0.17728148663006627,0.47818190728952925]],"W2":[[-0.5162518174930761,0.24270234207184016,0.7352292800096338,0.8860322286740037,0.6748068653962045],[-0.4683538422180036,0.1469540185936138,0.9113612952591796,-0.9838482669789823,0.4506466371133697]],"b1":[[0.1358843437335564],[0.03643446587894239],[-0.31070823939673287],[0.5283033206569152],[0.3469111543845367]]}}
{"agentName":"0-5","fitness":0.09757233411073685,"data":{"A1":[[309.19630302652706,208.4629643815854,496.06874986707703,0.0,0.0]],"b2":[[0.6456121712599778],[0.8264783725578371]],"A2":[[1.0,1.0]],"W1":[[0.4551273600657362,0.36644694351969087,-0.38256108933468047,-0.4458430198517267,0.33109790358914726,0.8067445293443565,-0.2624341731773887,-0.44850386111659524,-0.07269284838169332,0.5658035575800715,0.8386555657374337,-0.1270180511534269,0.499812362510895,-0.22686625128130267,-0.6452430441812433,0.18869982177936828,-0.5804648622673358,0.651931743775642,-0.6555641246242951,0.17485476357259122,0.5025608135349202,0.14208069682973434,0.16004976900412138,0.505019897181302,-0.9371635223468384,-0.2841601610457427,0.6355938616712786,-0.1646249064941625,0.9480713629917628,0.42681251564645817,-0.0388509668871313,-0.4166870051763918,0.8997202693189332,0.6409836467726933,0.273289095712564,-0.26175701211620517,-0.2794902492677298,-0.1306778297187794,-0.08536581111046115,-0.05462315824828923,-0.06195495876886281,0.6546448480299902,-0.6979368909424835,0.6677324708883314,-0.07938725467767771,-0.43885601665437957,-0.608071585153688,-0.6414531182501653,0.7313735926547045,-0.026818676347611925,-0.15805658673794265,0.26573958270655806,0.3997172901343442,-0.3693430998846541,0.14324061105995334,-0.25797542063247825,0.7436291919296774,0.6114618853239959,0.2324273700703574,-0.25128128782199144,0.39449745853945895,0.817229160415142,-0.6077058562362969,0.6182496334554788,0.2558665508269453,-0.07320145794330979,-0.38884168866510227,0.07981886851873865,0.27022202891277614,-0.7474843534024693,-0.005346215048158909,-0.9453716674280683,-0.9270309666195007,-0.032312290091389695,0.31010676221964206,-0.20846743965751569,0.8803449313707621,-0.23077831216541722,0.29246395759528565,0.5409312755478819],[0.7880855916368177,0.19767407429003536,0.9520689432368168,-0.845829774129496,0.5502413918543512,-0.44235539500246457,0.7984106594591154,-0.2523277127589152,-0.1373808897290778,-0.3353514432305029,-0.3697050572653644,-0.11452811582755928,-0.807098168238352,0.4903066124307711,-0.6582805242342049,0.6107814398427647,-0.7204208094262783,-0.8141063661170889,-0.9459402662357332,0.09666938346350307,-0.43560342773870375,0.9349906440170221,0.8090021580031235,-0.3121157071110545,-0.9718883630945336,0.6191882496201251,0.0429886073795116,0.670311110015402,0.16692329718223786,0.37649213869502973,0.11276440263810383,-0.7684997525607482,0.1770172737885798,0.7902845707138706,0.2529503304079441,-0.23483801763662826,0.8072501895004851,0.6673992021927047,-0.4796127376677324,0.9244724404994455,-0.2049276879687938,0.1470694373531216,-0.48366999792166787,0.643491115907358,0.3183669486383729,0.22821350958477082,-0.023605251086149304,-0.2770587742156372,0.47596326458377436,0.7107229819632654,-0.3205057828114841,0.51605972926996,0.45215640988181516,0.01712446974606241,0.5508198371849293,-0.2478254241316491,0.7256483175955235,0.39418662792516,-0.6797384914236382,0.6001217520150142,0.4508991072414843,0.589749448443134,0.6464818311502738,0.7005669004769028,0.9699584106930381,-0.7417466269908464,0.22818964839784495,0.08574936236270037,-0.6945765138377225,0.06915201979238828,0.09798746565879424,-0.34288007110901964,0.440249350802451,-0.22440768392359534,-0.9695067570891225,-0.7942032659310758,-0.792286205517398,-0.6535487038528798,0.7952676470618951,-0.1622831617066689],[0.6949189734965766,-0.32697929564739403,-0.15359663581829275,-0.8951865090520432,0.2057889391931318,-0.6676656789571533,-0.03553655732400762,0.14550349954571096,0.034600542078191854,0.4223352065067103,0.35278245969741096,0.7022211035026023,0.5686638754605697,-0.4202155290448111,-0.26102723928249216,0.010688215941416779,-0.4311544807877927,0.9500151672991208,0.14380635780710693,-0.7549354840975826,-0.13079299081883855,0.0983382230287082,0.15347083875928424,0.45507300685816965,0.1921083467305864,0.6361110540492223,0.7675261182370992,-0.2543488202081907,0.2927051050236915,0.680182444769418,-0.8062832278617296,0.8266289890474885,0.22684501241708888,0.1726291966578266,-0.6778773666126594,0.9993906921393696,0.1789490173139363,0.5584053824232391,0.03495894704368174,-0.8505720014852347,-0.008461200645088818,-0.648273596036564,-0.005334477339629995,0.3781469006858833,0.30565234666790686,-0.2822867492866177,0.10175120738413801,0.5342432888482425,0.05146513075475534,-0.6459729964194652,0.42519013450094767,0.09441503345243984,-0.07898439043103522,-0.32207498048636474,-0.9180071861219266,0.5951317320731633,0.41000814588717693,-0.3926260640533046,0.2789036768568971,0.13163692286014528,0.03324842612749346,0.07055844751995122,-0.47199515597021113,-0.682690342465275,0.3983414713797069,-0.2136729393256811,-0.09066563475481249,-0.4640338194317184,-0.03513782089224482,-0.1711809802758364,0.1774546460228057,-0.6783644553523549,-0.47871398278230504,0.02272121490463097,-0.5047649289302389,0.26479596144873896,-0.32045436544054096,0.3113047940487379,0.6269418147567556,0.9710114516962312],[0.01715676997104909,0.8975962429865936,-0.46594560920034134,0.2873623499953055,0.8894362304584083,0.17973981232418468,0.49105791400707743,-0.7359842740294882,0.38941133808001127,-0.7151884777228046,0.07478785545033317,-0.8672651994084235,0.450599300176334,0.35104802298560056,0.6797318185095045,-0.03891997518827006,-0.33208695871398675,0.6166574577055226,0.5730212324012205,-0.4194925751047054,0.054527683864544096,-0.15591931640565093,0.9266742559542833,0.888522581905147,0.6576203900699167,0.6417770212400336,0.7509788029052338,-0.3104974571382815,0.7234744267051683,-0.15869049651427103,0.20173310976772196,0.8657502566551409,0.9325160601080682,0.24570884032596263,-0.6546108813337841,-0.14020032028377583,-0.8825687891702743,-0.21420166926412865,-0.8600275184792756,-0.7990574622230739,0.8325875503351796,-0.5956350140619129,0.12598048009007923,0.12340188733473134,-0.839435659309717,-0.16623481818728414,0.12028795301041662,-0.7994713170657952,0.2216721974907896,0.8407561415075087,-0.9325810772922609,-0.6411471147334535,0.9949216290375054,0.483048267470493,-0.8736297429070232,-0.36222771685582544,0.26397860162786957,0.45527588775737704,-0.9424989711186325,0.6251162293059616,-0.2307778924009991,0.6977871128979924,0.022830408261390822,0.6257738824362347,0.9770979848265122,0.09985730624684575,-0.9755858424230182,-0.689969833240031,-0.7294587311376761,0.3496326193951331,0.37929821892417404,0.8402056881660709,-0.1806835799958202,0.766314307210441,0.865876513623024,-0.7113501219432434,-0.0932956557986735,-0.7042025810921411,0.47530696925672267,-0.4629102077669889],[-0.9309578475799722,0.7591795880911123,0.06296957473213705,0.786790093290086,-0.9527998391625465,-0.08573982501921895,-0.3812232026687308,-0.6890669703685022,0.25415911467755015,-0.07664746267502509,0.3614756404325046,0.14508027508253818,0.23042774014795753,0.4164348685332022,0.4109091750657461,0.03853098236933272,0.38911994885223145,-0.5031309357181766,-0.596467768575587,0.17884522225228028,0.24508864174863,0.7576193329655578,0.09030511120334461,0.9537528991778741,-0.7224092160621338,-0.34089385162121943,0.6924170720838818,0.32912306214891784,-0.4064624712125904,-0.5344662061201593,0.5891192531479754,0.29862103742464274,-0.36153976712796343,-0.6552669564323226,-0.22672513691161766,0.3001336202535376,0.34490251346382617,0.2072633053920192,-0.5659371284058774,0.49599636156628835,0.31302496164254223,-0.6062773982342133,-0.9874007658402217,-0.6214904627601421,-0.11421073677207683,-0.5850843421161205,0.1250679146774638,-0.7108170726393621,-0.6888351241194393,0.6077343683084389,-0.1407178879203672,0.12960233233004925,-0.4236196478321872,0.7903078296084356,-0.8755754953628643,-0.2062360260394529,-0.045680124889026175,0.783182093429277,-0.02995737262668463,-0.33382351650328435,-0.1802575775708093,-0.991006951265341,-0.9107951763247621,0.9069820084047908,-0.12691921206803047,-0.7087012119383593,-0.9179510577925369,0.18480349982718325,-0.4478459144114004,-0.5560585660624608,0.4797855980916854,0.01997502546020402,-0.8827928315487465,0.2755107907750989,0.015544482147298977,0.9652687138748801,0.6622667860970648,-0.7708138539912186,0.17728148663006627,0.47818190728952925]],"W2":[[-0.5162518174930761,0.24270234207184016,0.7352292800096338,0.8860322286740037,0.6748068653962045],[-0.4683538422180036,0.1469540185936138,0.9113612952591796,-0.9838482669789823,0.4506466371133697]],"b1":[[0.1358843437335564],[0.03643446587894239],[-0.31070823939673287],[0.5283033206569152],[0.3469111543845367]]}}
{"agentName":"2-0","fitness":0.09757233411073685,"data":{"A1":[[309.19630302652706,208.4629643815854,496.06874986707703,0.0,0.0]],"b2":[[0.6456121712599778],[-0.8555624501612784]],"A2":[[1.0,-0.17125223509187282]],"W1":[[0.4551273600657362,0.36644694351969087,-0.38256108933468047,-0.4458430198517267,0.33109790358914726,0.8067445293443565,-0.2624341731773887,0.5826442985002787,-0.0773547002692121,0.5658035575800715,0.21829202840889095,-0.1270180511534269,0.499812362510895,-0.22686625128130267,-0.6452430441812433,0.18869982177936828,-0.5804648622673358,0.651931743775642,-0.6555641246242951,0.17485476357259122,0.5025608135349202,0.14208069682973434,0.16004976900412138,0.505019897181302,-0.9371635223468384,-0.2841601610457427,0.6355938616712786,-0.1646249064941625,0.9480713629917628,0.42681251564645817,-0.0388509668871313,-0.4166870051763918,0.8997202693189332,0.6409836467726933,0.273289095712564,-0.26175701211620517,-0.6914231522703247,-0.1306778297187794,0.25650877518152027,-0.05462315824828923,0.8576897574823503,0.7387144372942485,-0.6979368909424835,0.7638027721552718,-0.18852475957975456,0.49626227463235284,-0.608071585153688,-0.6414531182501653,0.7313735926547045,-0.16071090204689953,-0.32951026378415094,-0.2172033896812946,0.3997172901343442,-0.3693430998846541,0.14324061105995334,-0.25797542063247825,0.7436291919296774,0.6114618853239959,0.2324273700703574,-0.25128128782199144,0.39449745853945895,0.817229160415142,0.11807312551418647,0.6182496334554788,0.2558665508269453,-0.07320145794330979,-0.38884168866510227,0.07981886851873865,0.27022202891277614,-0.7474843534024693,-0.005346215048158909,-0.9453716674280683,-0.9270309666195007,-0.032312290091389695,0.31010676221964206,-0.341155869204381,0.8950061810239882,0.5918946980259567,0.29246395759528565,0.5409312755478819],[0.7880855916368177,0.19767407429003536,0.9520689432368168,-0.845829774129496,0.5502413918543512,-0.44235539500246457,0.7984106594591154,0.2245581140502393,-0.1373808897290778,-0.3353514432305029,-0.3697050572653644,-0.11452811582755928,-0.807098168238352,0.14826752863715287,-0.6582805242342049,0.6107814398427647,-0.7204208094262783,-0.8141063661170889,-0.9459402662357332,0.09666938346350307,-0.43560342773870375,0.9349906440170221,0.8090021580031235,-0.3121157071110545,-0.9718883630945336,0.6191882496201251,0.0429886073795116,0.670311110015402,0.16692329718223786,0.37649213869502973,0.11276440263810383,-0.8027863965371105,0.1770172737885798,0.7902845707138706,0.2529503304079441,-0.23483801763662826,0.8072501895004851,0.6673992021927047,-0.4796127376677324,0.9244724404994455,-0.2049276879687938,0.1470694373531216,-0.48366999792166787,0.643491115907358,0.3183669486383729,-0.3796528866115514,-0.023605251086149304,-0.2770587742156372,0.47596326458377436,0.7107229819632654,0.7951173116514345,0.2382406912119326,0.45215640988181516,0.01712446974606241,0.5508198371849293,-0.2478254241316491,0.7256483175955235,0.39418662792516,-0.6797384914236382,0.6001217520150142,0.19609620625274982,0.589749448443134,-0.8602439013916139,0.7005669004769028,0.9699584106930381,-0.7417466269908464,0.22818964839784495,0.3208583332890447,-0.8294773786068643,0.5165364663580934,0.09798746565879424,-0.34288007110901964,-0.9667272360042136,-0.22440768392359534,-0.9695067570891225,0.021760992104270294,-0.792286205517398,-0.6535487038528798,0.7952676470618951,-0.1622831617066689],[0.6949189734965766,-0.32697929564739403,-0.15359663581829275,-0.8951865090520432,0.2057889391931318,-0.6676656789571533,-0.03553655732400762,0.14550349954571096,0.034600542078191854,0.4223352065067103,0.35278245969741096,-0.8392511077325313,0.5686638754605697,0.3963101354895673,-0.26102723928249216,0.010688215941416779,0.8388672800826487,0.9500151672991208,0.14380635780710693,0.044051864095540516,-0.13079299081883855,0.0983382230287082,0.5004362631386594,0.45507300685816965,0.1921083467305864,0.6361110540492223,0.7675261182370992,-0.2543488202081907,0.7035095157544395,0.680182444769418,-0.8062832278617296,0.6873490822438724,0.22684501241708888,0.1726291966578266,-0.6778773666126594,-0.7325256505394968,0.1789490173139363,0.5584053824232391,0.03495894704368174,-0.8505720014852347,-0.5186385138101719,0.8940554001662966,-0.005334477339629995,-0.2753410799237874,0.30565234666790686,-0.2822867492866177,0.10175120738413801,-0.5146998948220798,0.05146513075475534,-0.6459729964194652,0.42519013450094767,0.09441503345243984,-0.07898439043103522,-0.32207498048636474,-0.9180071861219266,0.5951317320731633,0.2863740213914301,-0.3926260640533046,0.2789036768568971,0.2845724970797625,-0.13127371407538302,0.07055844751995122,-0.47199515597021113,-0.682690342465275,0.3983414713797069,-0.2136729393256811,-0.09066563475481249,-0.4640338194317184,0.3780766512494227,0.7582330803336783,0.1774546460228057,-0.6783644553523549,-0.47871398278230504,-0.519769534339731,-0.5047649289302389,-0.7707452405154009,-0.32045436544054096,0.3113047940487379,0.6269418147567556,0.9710114516962312],[0.01715676997104909,0.3892872094452817,-0.46594560920034134,-0.8921357494146682,0.8894362304584083,0.17973981232418468,-0.9510264953215406,-0.7359842740294882,0.38941133808001127,-0.7151884777228046,0.07478785545033317,-0.8672651994084235,0.450599300176334,0.35104802298560056,0.6797318185095045,-0.03891997518827006,-0.33208695871398675,0.6166574577055226,0.5730212324012205,-0.8483095460277152,-0.3723749994300696,-0.15591931640565093,0.9266742559542833,0.888522581905147,0.6576203900699167,0.6417770212400336,-0.646831913432063,-0.3104974571382815,0.7234744267051683,-0.15869049651427103,0.20173310976772196,0.8657502566551409,0.6139458820957686,0.24570884032596263,-0.6546108813337841,-0.864881502860934,-0.8825687891702743,-0.21420166926412865,-0.8600275184792756,-0.7990574622230739,0.8325875503351796,-0.5956350140619129,0.12598048009007923,-0.517860849841878,0.5562688292037381,-0.666881464988351,0.12028795301041662,-0.25782888805127024,0.2216721974907896,0.8407561415075087,0.6787302541469229,-0.20000365834952571,0.9949216290375054,-0.9087681208947878,-0.8736297429070232,-0.36222771685582544,0.26397860162786957,0.45527588775737704,-0.9424989711186325,0.6251162293059616,-0.2307778924009991,-0.5033643125229932,0.022830408261390822,0.6257738824362347,0.9770979848265122,0.09985730624684575,-0.9755858424230182,-0.689969833240031,-0.6961282565940405,0.3496326193951331,0.37929821892417404,0.09377558075225512,-0.1806835799958202,0.766314307210441,0.865876513623024,0.6099615504974201,-0.6877856114263066,-0.7042025810921411,0.47530696925672267,-0.4629102077669889],[-0.9309578475799722,0.7591795880911123,0.06296957473213705,0.0926833703812433,-0.9527998391625465,-0.08573982501921895,-0.4064407447273508,-0.6890669703685022,0.25415911467755015,-0.07664746267502509,0.3614756404325046,0.14508027508253818,0.23042774014795753,0.4164348685332022,-0.6320022059786656,0.03853098236933272,0.38911994885223145,-0.5031309357181766,-0.596467768575587,0.17884522225228028,0.061200554992973055,0.7576193329655578,0.09030511120334461,-0.06906958672519137,-0.7224092160621338,-0.34089385162121943,0.8088356500006004,0.32912306214891784,-0.4064624712125904,-0.5344662061201593,0.5891192531479754,0.29862103742464274,-0.36153976712796343,-0.6552669564323226,-0.22672513691161766,0.3001336202535376,0.5085399937958877,0.2072633053920192,-0.5659371284058774,0.49599636156628835,-0.2037589077979547,-0.6062773982342133,-0.9874007658402217,-0.6214904627601421,-0.11421073677207683,-0.5850843421161205,0.1250679146774638,-0.7108170726393621,-0.6888351241194393,0.6077343683084389,-0.1407178879203672,0.12960233233004925,0.888344115441976,0.7903078296084356,-0.8755754953628643,-0.2062360260394529,-0.045680124889026175,0.783182093429277,-0.02995737262668463,-0.33382351650328435,-0.21512358579925706,-0.991006951265341,-0.9107951763247621,0.7860448773750628,-0.12691921206803047,-0.7087012119383593,-0.7449493388279658,0.18480349982718325,0.11234085003624883,-0.5560585660624608,0.4797855980916854,0.01997502546020402,-0.5465837680355523,0.2755107907750989,0.015544482147298977,0.9652687138748801,0.6622667860970648,-0.7708138539912186,0.17728148663006627,0.47818190728952925]],"W2":[[-0.5162518174930761,0.24270234207184016,0.7352292800096338,0.8860322286740037,0.6748068653962045],[-0.4683538422180036,0.6412377937055482,0.9113612952591796,-0.9838482669789823,0.4506466371133697]],"b1":[[0.1358843437335564],[0.03643446587894239],[-0.31070823939673287],[0.5283033206569152],[0.7294513412441774]]}}
{"agentName":"4-7","fitness":0.09757233411073685,"data":{"A1":[[309.19630302652706,208.4629643815854,496.06874986707703,0.0,0.0]],"b2":[[0.6456121712599778],[0.8264783725578371]],"A2":[[1.0,1.0]],"W1":[[0.4551273600657362,-0.5880906678795843,-0.38256108933468047,-0.4458430198517267,0.33109790358914726,-0.008970614059816251,-0.2624341731773887,-0.44850386111659524,-0.31589876364958713,0.5658035575800715,0.8386555657374337,-0.1270180511534269,-0.018746849291234158,0.36560462700617546,-0.33956592215793524,0.18869982177936828,0.8207620275636744,0.651931743775642,-0.6555641246242951,-0.2647564659258137,0.5025608135349202,0.14208069682973434,-0.509084727236381,0.505019897181302,-0.9371635223468384,-0.2841601610457427,0.6355938616712786,0.22528707581964902,0.9480713629917628,0.42681251564645817,-0.0388509668871313,-0.4166870051763918,0.8997202693189332,-0.48138204478627467,0.5723095423961522,-0.26175701211620517,-0.2794902492677298,-0.1306778297187794,0.47262434066165304,-0.05462315824828923,-0.06195495876886281,0.6546448480299902,-0.6979368909424835,-0.7990343125072639,-0.07938725467767771,-0.43885601665437957,-0.22034030218423428,-0.6414531182501653,-0.6568758204611336,-0.026818676347611925,-0.15805658673794265,0.26573958270655806,0.512651227987809,-0.3693430998846541,0.14324061105995334,-0.25797542063247825,0.8440593977349318,-0.3377709512929705,0.2324273700703574,-0.06717646748818518,0.600998754757792,0.12329169130788875,-0.6077058562362969,0.6182496334554788,0.2558665508269453,-0.07320145794330979,-0.38884168866510227,0.07981886851873865,0.27022202891277614,-0.710786898329056,0.5860738134050905,-0.9453716674280683,-0.9270309666195007,-0.032312290091389695,-0.8582991926309937,-0.20846743965751569,0.8803449313707621,0.15193287837227243,0.29246395759528565,0.5409312755478819],[-0.5927995752268702,0.9369863554269371,-0.8128178824220886,-0.845829774129496,0.5502413918543512,-0.44235539500246457,0.7984106594591154,-0.2523277127589152,-0.1373808897290778,0.08398210869110612,0.022432474150327675,-0.11452811582755928,-0.35670727893717347,0.4903066124307711,-0.6582805242342049,0.98271322554299,-0.7204208094262783,-0.8141063661170889,-0.9459402662357332,0.09666938346350307,0.7852345495761188,-0.5847823713506943,-0.5326708140135032,-0.3121157071110545,-0.9718883630945336,-0.7033247527686115,0.2245787828903847,0.670311110015402,0.16692329718223786,0.37649213869502973,0.11276440263810383,-0.3225092809989507,0.1770172737885798,-0.6079540049071612,0.2529503304079441,-0.23483801763662826,0.8072501895004851,0.6673992021927047,-0.49826712101691695,0.6070524518218772,-0.2049276879687938,0.1470694373531216,-0.48366999792166787,0.643491115907358,-0.9647689193296225,0.22821350958477082,0.8948428276598446,-0.2770587742156372,0.47596326458377436,0.2466752022052645,-0.3205057828114841,0.51605972926996,0.45215640988181516,0.6325984165398693,0.5508198371849293,-0.8278998912304347,0.7256483175955235,0.39418662792516,-0.6797384914236382,0.30922112334120766,0.4508991072414843,0.8107450426650034,0.6464818311502738,0.7005669004769028,0.9699584106930381,-0.15538719395271428,0.22818964839784495,0.08574936236270037,0.04082336051564406,0.4564989980038019,0.09798746565879424,-0.5852505383388931,0.440249350802451,-0.22440768392359534,-0.36785421013854025,0.9721908846067071,-0.792286205517398,-0.6535487038528798,0.7952676470618951,-0.1622831617066689],[0.5213331778309882,-0.32697929564739403,-0.3634201865815103,-0.8951865090520432,0.5188267247241685,-0.6676656789571533,-0.03553655732400762,0.6310267172567448,0.034600542078191854,-0.7822581963437112,0.35278245969741096,0.7022211035026023,0.46049320456414855,-0.4202155290448111,-0.26102723928249216,0.010688215941416779,-0.9826619820700535,0.9500151672991208,0.14380635780710693,-0.6044405481572406,-0.13079299081883855,0.5633598003509932,0.15347083875928424,0.45507300685816965,-0.33698908943309247,0.6361110540492223,0.7675261182370992,-0.19009221399605747,0.2927051050236915,-0.4290202893392683,-0.8062832278617296,0.8266289890474885,0.22684501241708888,0.1726291966578266,0.18715748696804435,-0.31379157053436524,0.1789490173139363,0.5584053824232391,0.03495894704368174,0.2814015297547099,0.19503168780620328,0.49554076230928,-0.005334477339629995,-0.03696619652724742,0.9042406350467882,0.6062843651803851,-0.8593723937993303,0.5342432888482425,0.05146513075475534,-0.6459729964194652,-0.5462955229018776,0.09441503345243984,-0.07898439043103522,-0.32207498048636474,-0.9180071861219266,-0.396866381374233,0.41000814588717693,0.6875417149392811,0.2789036768568971,0.13163692286014528,0.6124283913236923,0.07055844751995122,-0.47199515597021113,0.7699804561437302,0.3983414713797069,-0.2136729393256811,-0.7456071966183122,-0.4640338194317184,0.05011490499667248,-0.1711809802758364,0.1774546460228057,-0.6783644553523549,-0.47871398278230504,0.02272121490463097,-0.5047649289302389,0.26479596144873896,-0.32045436544054096,0.3113047940487379,-0.7908095992149458,0.9710114516962312],[0.01715676997104909,0.8975962429865936,-0.46594560920034134,0.2873623499953055,0.3888910510715158,0.17973981232418468,0.49105791400707743,-0.7359842740294882,0.38941133808001127,0.3145120063344953,0.07478785545033317,-0.8672651994084235,0.450599300176334,0.76378068483661,-0.9832568242019948,-0.03891997518827006,-0.33208695871398675,0.6166574577055226,0.390690545940394,0.6702322917657677,0.054527683864544096,-0.15591931640565093,-0.5859465894151765,0.888522581905147,0.6576203900699167,0.6417770212400336,0.705534228852253,-0.3104974571382815,-0.11728513296927101,-0.2350502248576265,0.20173310976772196,0.49616290512924066,0.8826859999881977,0.24570884032596263,-0.11841255972651243,-0.14020032028377583,-0.25167719204024985,0.38099077618882293,-0.8600275184792756,-0.18258831917898366,-6.402821556044103E-4,-0.5956350140619129,0.12598048009007923,-0.6592478336946568,-0.839435659309717,-0.16623481818728414,0.8799330121296383,-0.7994713170657952,0.2216721974907896,0.8407561415075087,0.7744210280720711,-0.6411471147334535,0.17572249379725324,0.483048267470493,0.598318157918232,-0.36222771685582544,0.26397860162786957,0.45527588775737704,-0.9424989711186325,0.6251162293059616,-0.2307778924009991,0.6977871128979924,0.022830408261390822,0.6257738824362347,0.9770979848265122,0.09985730624684575,-0.9755858424230182,-0.3690861051084233,-0.9414440761776075,0.3496326193951331,0.37929821892417404,0.6833904969478088,0.9756192114686986,-0.7367254492198194,0.1527417813080003,-0.7113501219432434,-0.0932956557986735,-0.7042025810921411,0.9242688713313014,-0.4629102077669889],[-0.9309578475799722,0.7591795880911123,0.9569454164619735,0.29193538167867206,-0.9527998391625465,-0.08573982501921895,-0.3812232026687308,-0.22806052860569181,-0.03624971869566718,-0.07664746267502509,0.3614756404325046,0.14508027508253818,0.23042774014795753,0.9360776854349668,0.4109091750657461,0.23739421709762487,0.38911994885223145,0.30035775218509486,-0.596467768575587,0.17884522225228028,0.24508864174863,0.30093727755112476,-0.49979444652754346,-0.6464738814824149,-0.7224092160621338,0.5275785830551749,0.6924170720838818,0.32912306214891784,-0.4064624712125904,-0.5344662061201593,0.5891192531479754,0.29862103742464274,-0.030499383028532057,-0.6552669564323226,-0.22672513691161766,0.3001336202535376,0.34490251346382617,0.2072633053920192,-0.5659371284058774,0.49599636156628835,0.31302496164254223,-0.6062773982342133,-0.5915423375398423,-0.6214904627601421,-0.11421073677207683,-0.5850843421161205,0.7786746292091875,-0.8074384111392463,-0.6888351241194393,0.6077343683084389,-0.1407178879203672,0.12960233233004925,-0.5494619908369416,0.7903078296084356,-0.36195024083529925,-0.2062360260394529,-0.045680124889026175,0.783182093429277,-0.02995737262668463,-0.33382351650328435,-0.1802575775708093,-0.991006951265341,-0.9107951763247621,0.47427216092618973,0.4749283916523246,0.8793368966701454,-0.9179510577925369,-0.669381914044882,-0.4478459144114004,-0.1793015656697292,0.4797855980916854,0.01997502546020402,-0.8827928315487465,-0.9059103620303617,0.015544482147298977,0.9652687138748801,0.6622667860970648,0.5938863001798513,0.5964698516298534,0.47818190728952925]],"W2":[[-0.5162518174930761,0.24270234207184016,0.7352292800096338,0.8860322286740037,0.6748068653962045],[-0.4683538422180036,0.1469540185936138,0.9113612952591796,-0.9838482669789823,0.4506466371133697]],"b1":[[0.2738142285424672],[0.03643446587894239],[-0.31070823939673287],[0.5283033206569152],[0.3469111543845367]]}}
{"agentName":"5-2","fitness":0.09757233411073685,"data":{"A1":[[-0.608731144063557,208.4629643815854,496.06874986707703,0.0,0.0]],"b2":[[0.6456121712599778],[0.5083669155703365]],"A2":[[-0.6812089222440381,1.0]],"W1":[[0.4551273600657362,-0.5880906678795843,-0.38256108933468047,-0.4458430198517267,0.33109790358914726,-0.008970614059816251,0.9719462425823933,-0.44850386111659524,-0.31589876364958713,0.5658035575800715,0.8386555657374337,-0.9101022085432124,-0.018746849291234158,0.5636514384245517,-0.33956592215793524,0.18869982177936828,0.8975440857763548,0.651931743775642,-0.6555641246242951,-0.2647564659258137,0.5025608135349202,0.14208069682973434,-0.509084727236381,0.505019897181302,-0.9371635223468384,-0.2841601610457427,0.6355938616712786,0.22528707581964902,0.9480713629917628,0.3732101612224248,-0.0388509668871313,-0.4166870051763918,0.8997202693189332,-0.48138204478627467,0.5723095423961522,0.7222292643395312,-0.2794902492677298,-0.1306778297187794,0.47262434066165304,-0.05462315824828923,-0.06195495876886281,-0.26078016495533674,-0.6979368909424835,-0.7990343125072639,-0.07938725467767771,-0.43885601665437957,-0.22034030218423428,-0.6414531182501653,0.2694506337337028,0.3649672886670139,-0.15805658673794265,0.26573958270655806,0.512651227987809,0.43003895535699743,0.14324061105995334,-0.25797542063247825,0.8440593977349318,0.044664264933786724,0.2324273700703574,-0.06717646748818518,0.600998754757792,0.12329169130788875,-0.6077058562362969,0.6182496334554788,0.2558665508269453,-0.07320145794330979,-0.38884168866510227,-0.7869795701700184,0.27022202891277614,-0.710786898329056,0.5860738134050905,-0.9453716674280683,-0.9270309666195007,-0.032312290091389695,-0.8582991926309937,-0.20846743965751569,0.3054928339216614,0.15193287837227243,0.29246395759528565,0.5409312755478819],[-0.5927995752268702,-0.06447610720640173,-0.8128178824220886,-0.845829774129496,-0.2376795251893249,-0.44235539500246457,0.7984106594591154,-0.2523277127589152,-0.1373808897290778,0.08398210869110612,0.022432474150327675,-0.11452811582755928,0.014738382127674088,0.4903066124307711,0.6605708891380999,0.5537724896268699,-0.7204208094262783,-0.8141063661170889,-0.9459402662357332,-0.8356428822847188,0.7852345495761188,-0.5847823713506943,-0.5326708140135032,-0.3121157071110545,-0.9718883630945336,0.7098309979743382,0.2245787828903847,0.670311110015402,0.16692329718223786,-0.5326476567727219,-0.16433263428747513,-0.3225092809989507,0.1770172737885798,-0.6079540049071612,-0.8038152096777802,-0.23483801763662826,0.8072501895004851,0.6673992021927047,-0.49826712101691695,0.6070524518218772,-0.2049276879687938,0.1470694373531216,-0.48366999792166787,0.643491115907358,-0.025347861006516093,0.22821350958477082,0.8948428276598446,-0.2770587742156372,0.47596326458377436,0.2466752022052645,0.7023059675616805,0.51605972926996,0.45215640988181516,0.6325984165398693,0.5508198371849293,-0.8278998912304347,0.7256483175955235,0.5367444238963412,0.34224988847514903,0.30922112334120766,0.4508991072414843,0.8107450426650034,-0.32811803370133097,0.7005669004769028,0.4795371162180906,-0.15538719395271428,0.22818964839784495,0.08574936236270037,0.04082336051564406,0.4564989980038019,0.09798746565879424,-0.5852505383388931,0.440249350802451,-0.22440768392359534,-0.36785421013854025,0.9687111643965058,-0.792286205517398,-0.6535487038528798,0.7952676470618951,-0.40707460486048674],[0.5213331778309882,-0.32697929564739403,0.36443720889007003,-0.8951865090520432,0.5188267247241685,-0.6676656789571533,-0.03553655732400762,0.6310267172567448,0.034600542078191854,-0.7822581963437112,0.6640351084785876,0.7022211035026023,0.46049320456414855,0.1641811649565197,-0.26102723928249216,0.010688215941416779,-0.9826619820700535,0.9500151672991208,0.14380635780710693,-0.6044405481572406,-0.13079299081883855,0.5633598003509932,0.15347083875928424,0.45507300685816965,-0.33698908943309247,0.3833361800997306,0.7675261182370992,-0.19009221399605747,0.2927051050236915,-0.4290202893392683,-0.8062832278617296,0.8266289890474885,0.22684501241708888,0.1726291966578266,0.18715748696804435,-0.31379157053436524,0.1789490173139363,0.5584053824232391,0.03495894704368174,0.8233816197681398,0.19503168780620328,0.49554076230928,-0.005334477339629995,-0.03696619652724742,0.9042406350467882,0.6062843651803851,-0.36475310393081295,0.5342432888482425,0.05146513075475534,-0.6459729964194652,-0.5462955229018776,0.09441503345243984,-0.07898439043103522,-0.32207498048636474,-0.9180071861219266,-0.396866381374233,-0.05705009122789373,0.6875417149392811,0.2789036768568971,0.8037370124316623,0.6124283913236923,0.07055844751995122,0.3755248703817302,0.7699804561437302,0.3983414713797069,-0.2136729393256811,-0.7456071966183122,-0.4640338194317184,0.05011490499667248,-0.1711809802758364,0.1774546460228057,0.028945184901510768,-0.47871398278230504,0.02272121490463097,-0.5047649289302389,0.26479596144873896,-0.32045436544054096,0.3113047940487379,-0.7908095992149458,0.9710114516962312],[0.01715676997104909,0.8975962429865936,-0.46594560920034134,0.2873623499953055,0.3888910510715158,-0.6941390051066101,0.49105791400707743,-0.7359842740294882,0.9043624820290534,0.3145120063344953,0.07478785545033317,-0.8672651994084235,0.9028541693224117,0.7969650533183783,-0.9832568242019948,-0.03891997518827006,-0.33208695871398675,0.6166574577055226,0.7297684209058848,0.6702322917657677,0.054527683864544096,-0.15591931640565093,-0.5859465894151765,0.888522581905147,0.16200758380245772,0.6417770212400336,0.705534228852253,0.08813566620393765,-0.11728513296927101,-0.2350502248576265,-0.4597208584032495,0.49616290512924066,0.8826859999881977,0.24570884032596263,-0.11841255972651243,-0.14020032028377583,-0.25167719204024985,0.28127575625600953,-0.5043632601096575,-0.18258831917898366,-6.402821556044103E-4,-0.5956350140619129,0.12598048009007923,-0.6592478336946568,-0.839435659309717,-0.16623481818728414,0.8799330121296383,-0.7994713170657952,0.2216721974907896,0.2608674643774411,0.7744210280720711,-0.6411471147334535,0.17572249379725324,-0.8099380815762958,0.598318157918232,-0.36222771685582544,0.26397860162786957,0.45527588775737704,-0.25330477251788475,0.6251162293059616,-0.2307778924009991,0.6977871128979924,0.022830408261390822,0.6257738824362347,0.9770979848265122,0.6532302271807475,-0.9755858424230182,-0.3690861051084233,-0.9414440761776075,0.19181633804305598,0.37929821892417404,0.6833904969478088,0.07272694253735201,-0.7367254492198194,0.1527417813080003,-0.7113501219432434,-0.6802469774204389,-0.7042025810921411,0.9242688713313014,-0.4629102077669889],[-0.9309578475799722,0.7591795880911123,0.5821082472854493,0.29193538167867206,-0.9527998391625465,-0.08573982501921895,-0.3812232026687308,-0.6526590420825937,-0.03624971869566718,0.6845544892946764,0.3614756404325046,0.2710133008351747,0.23042774014795753,0.9360776854349668,0.4109091750657461,0.23739421709762487,-0.7313520563586386,0.30035775218509486,-0.596467768575587,0.17884522225228028,0.24508864174863,0.30093727755112476,-0.49979444652754346,-0.6464738814824149,-0.7224092160621338,0.5275785830551749,0.6924170720838818,0.32912306214891784,-0.4064624712125904,-0.95670020240661,-0.49047961682520014,0.29862103742464274,-0.030499383028532057,-0.6552669564323226,0.1546864282795002,0.3001336202535376,0.34490251346382617,0.2072633053920192,-0.5659371284058774,0.42607806865709863,0.31302496164254223,0.8949442588799406,-0.5915423375398423,-0.6214904627601421,0.5377946196428438,0.9510129883286649,0.7786746292091875,-0.8074384111392463,-0.6888351241194393,0.6077343683084389,-0.1407178879203672,-0.2353944745018861,-0.5494619908369416,0.7903078296084356,-0.36195024083529925,-0.2062360260394529,-0.045680124889026175,0.783182093429277,-0.02995737262668463,-0.33382351650328435,0.3674496316167033,-0.991006951265341,-0.9107951763247621,0.47427216092618973,0.4749283916523246,0.8793368966701454,-0.9179510577925369,-0.669381914044882,-0.4478459144114004,-0.1793015656697292,0.4797855980916854,0.01997502546020402,-0.8827928315487465,-0.9059103620303617,0.015544482147298977,0.9652687138748801,0.6622667860970648,0.5938863001798513,0.5964698516298534,0.47818190728952925]],"W2":[[-0.5162518174930761,0.24270234207184016,0.4871473770947856,0.8860322286740037,0.6748068653962045],[-0.4683538422180036,-0.39420048734465474,-0.6195398047215348,-0.9330152765014097,0.4506466371133697]],"b1":[[0.2738142285424672],[0.8001339338811841],[0.7544347651143466],[-0.7090762785134879],[0.3469111543845367]]}}
{"agentName":"6-9","fitness":0.09757233411073685,"data":{"A1":[[0.1893445053 9532244,208.4629643815854,496.06874986707703,0.0,-0.533835190276116]],"b2":[[0.6456121712599778],[0.09060338300388948]],"A2":[[-0.21285144974164294,1.0]],"W1":[[0.4551273600657362,0.36644694351969087,-0.38256108933468047,-0.4458430198517267,-0.8385262421596149,0.8067445293443565,-0.2624341731773887,-0.7552519286725965,-0.07269284838169332,0.5169530282202459,0.8386555657374337,-0.1270180511534269,-0.1535668648046895,-0.22686625128130267,-0.1790505106198006,0.18869982177936828,-0.5804648622673358,0.9510194115453445,-0.37935603455640443,0.43475665926310714,-0.8685121299057625,-0.03333947011476446,0.449117985679933,-0.5528320626338876,-0.9371635223468384,-0.5749536806179913,-0.569587565933642,0.3697979495309094,-0.24945505706767923,-0.3464214139694939,-0.0388509668871313,-0.5298395275757712,-0.5270617213523301,0.6409836467726933,-0.050231570146605176,-0.8284042355641152,-0.2794902492677298,-0.1306778297187794,-0.08536581111046115,-0.3251495753827054,-0.08099648868406129,0.6546448480299902,0.7829797328120436,0.6677324708883314,0.41048687946340134,0.6823342859396513,0.09297591094578439,-0.6414531182501653,0.7313735926547045,-0.026818676347611925,-0.15805658673794265,0.26573958270655806,-0.5939885763232406,-0.7758497489388401,0.14324061105995334,0.7327001780208859,-0.2785222157363756,-0.021379480978483523,0.2324273700703574,-0.25128128782199144,0.17796638880366533,0.817229160415142,-0.47731309215902007,0.6182496334554788,0.38650193114411513,-0.07320145794330979,-0.38884168866510227,0.07981886851873865,0.27022202891277614,0.4964468221192666,0.44284125602329283,-0.9453716674280683,-0.9270309666195007,0.34527115294406285,0.31010676221964206,-0.20846743965751569,-0.1273369308465584,-0.23077831216541722,0.29246395759528565,-0.1258464584151997],[-0.14408879184669354,-0.3814896029747141,-0.5389529839281642,-0.845829774129496,0.5502413918543512,-0.6213925297990202,0.7984106594591154,0.5049366550229157,0.10347332648416585,-0.3353514432305029,-0.3697050572653644,-0.11452811582755928,-0.807098168238352,0.7920955577171318,0.45358918428827355,0.6107814398427647,0.17678612698428053,-0.8141063661170889,-0.9459402662357332,0.09666938346350307,-0.6005960416763974,-0.5628500853753253,0.49133473382040704,-0.3121157071110545,-0.21846180668260873,0.5545616688202621,0.7514259214273453,0.670311110015402,0.16692329718223786,0.37649213869502973,0.11276440263810383,0.8539148915220518,0.1770172737885798,0.08434165073970856,0.2529503304079441,-0.23483801763662826,-0.9996126872234177,0.6673992021927047,-0.4796127376677324,-0.3009821432938171,-0.2049276879687938,0.7701244692053346,-0.48366999792166787,-0.7243255327274747,-0.245064895931544,0.22821350958477082,-0.023605251086149304,0.3674035637513968,0.47596326458377436,0.7107229819632654,-0.3205057828114841,0.51605972926996,0.45215640988181516,-0.1637274527491086,0.5508198371849293,0.5927048908815398,0.2810188688801316,0.39418662792516,0.4014766166181287,0.8376313279164622,0.4508991072414843,0.589749448443134,0.6464818311502738,0.7005669004769028,-0.9880609340370587,-0.7417466269908464,0.22818964839784495,0.8307101428256871,-0.6945765138377225,0.06915201979238828,0.09798746565879424,-0.34288007110901964,0.440249350802451,0.7537208276562224,-0.9695067570891225,-0.7942032659310758,0.47004365892170585,-0.6535487038528798,-0.6056572341069668,-0.1622831617066689],[0.6949189734965766,0.313715563018796,0.5023794888535831,-0.8951865090520432,0.2057889391931318,-0.2649670832738824,-0.03553655732400762,0.18898666069807835,0.034600542078191854,0.4223352065067103,-0.8425609545898354,0.14488700511728614,-0.7888781431404843,-0.4202155290448111,-0.26102723928249216,0.010688215941416779,-0.4311544807877927,0.5578451496406656,0.28931283693913223,-0.7549354840975826,-0.13079299081883855,0.31837010262135435,0.15347083875928424,0.45507300685816965,-0.4505933709936345,0.6361110540492223,0.7675261182370992,-0.8137389137130824,0.2927051050236915,0.680182444769418,-0.29258253017713587,0.8266289890474885,0.22684501241708888,-0.9663038996451141,0.2650125691248004,0.43986435568816207,0.6028173420234533,0.05292180800024737,0.03495894704368174,-0.8505720014852347,-0.3397362922228042,-0.648273596036564,-0.005334477339629995,0.3781469006858833,0.30565234666790686,-0.2822867492866177,0.7336102668188684,0.5342432888482425,0.05146513075475534,-0.3675110562764785,0.42519013450094767,0.09441503345243984,0.40193493849460826,-0.32207498048636474,0.5249872552102084,0.5951317320731633,-0.4795355698295629,-0.3926260640533046,-0.7124691952142166,0.13163692286014528,0.03324842612749346,0.07055844751995122,-0.47199515597021113,-0.682690342465275,-0.4302874062301336,-0.2782103660776247,0.7387908840198825,0.10703506702597676,-0.34508720605992727,-0.3514482545960185,0.1774546460228057,0.690083948336762,-0.14663432572048318,0.6307050068521085,-0.5047649289302389,0.26479596144873896,-0.32045436544054096,0.3113047940487379,0.9247369772138125,-0.7105407644747244],[0.01715676997104909,0.8975962429865936,-0.49077915619934864,0.35939889246259726,0.8797513396793273,0.17973981232418468,-0.29815112444525727,-0.7359842740294882,0.6038727099749277,-0.49510748520932113,-0.27287209471868445,-0.7210467846372268,0.4539475842688725,0.35104802298560056,0.6797318185095045,0.5800856923645368,-0.33208695871398675,0.6166574577055226,-0.7846116849455622,-0.6176203385203134,0.054527683864544096,0.41772365243737,0.9266742559542833,0.5647217242826741,-0.8374421655315585,-0.46311017558635936,0.7509788029052338,-0.3104974571382815,-0.933330067282963,-0.15869049651427103,0.20173310976772196,0.8657502566551409,0.9325160601080682,0.24570884032596263,-0.6546108813337841,-0.14020032028377583,0.5398905109406806,-0.40339154825471857,-0.8600275184792756,-0.7990574622230739,-0.48566197253788834,-0.5956350140619129,-0.17830016657730585,0.12340188733473134,0.43268986565373635,0.7001677710291752,0.12028795301041662,-0.7994713170657952,-0.3024356877074812,-0.24577861982636584,-0.6805793225561219,-0.6411471147334535,0.5244083449307946,0.483048267470493,-0.8736297429070232,-0.36222771685582544,0.26397860162786957,0.45527588775737704,0.8020167011335648,0.675847791398716,-0.2307778924009991,0.5881216346488705,-0.949390243337694,0.6257738824362347,0.9770979848265122,0.09985730624684575,-0.9755858424230182,-0.689969833240031,-0.7294587311376761,-0.06250125372819237,-0.10169482856285383,0.8402056881660709,-0.2575792912368702,0.766314307210441,0.2732568236080257,-0.7113501219432434,-0.35322920407578207,-0.7042025810921411,-0.2591097929885906,-0.4629102077669889],[0.7146451857291418,0.7591795880911123,0.04981350561934583,0.43579320717817316,-0.9527998391625465,-0.08573982501921895,-0.018480541959607244,-0.6890669703685022,0.25415911467755015,-0.07664746267502509,0.3614756404325046,0.03707410390488852,-0.11020601153665632,0.4164348685332022,-0.42791544663481895,0.6023685964407528,0.38911994885223145,0.18988997497168025,0.6911186202899806,0.17884522225228028,0.24508864174863,0.7576193329655578,-0.3812031472494255,0.9537528991778741,-0.7224092160621338,0.9588783659157063,0.6924170720838818,0.32912306214891784,-0.4064624712125904,-0.5344662061201593,0.9216978259799538,0.29862103742464274,-0.36153976712796343,-0.6552669564323226,-0.6083427563486568,-0.7028497124867663,-0.9108840527099764,0.08104111128235547,-0.5659371284058774,0.49599636156628835,0.31302496164254223,-0.6062773982342133,-0.9874007658402217,-0.6214904627601421,-0.11421073677207683,-0.9083978261828305,-0.39906014345793617,-0.7108170726393621,-0.6888351241194393,-0.7437052070163175,-0.1407178879203672,0.12960233233004925,-0.4236196478321872,0.7903078296084356,-0.8755754953628643,-0.09994429443696973,-0.045680124889026175,0.783182093429277,0.965218170323435,-0.33382351650328435,-0.6008701519448438,-0.991006951265341,-0.9107951763247621,0.9069820084047908,0.3534235593554982,-0.7087012119383593,-0.9179510577925369,0.41739761734720027,-0.12831346258317322,0.39922658982009573,0.4797855980916854,0.218086338076241,0.5996766648402283,0.2755107907750989,0.015544482147298977,0.4656782253933631,0.2927180954190314,0.40859501498633377,-0.6277341209609997,0.8137242045735495]],"W2":[[-0.3003980324850013,0.24270234207184016,0.11567152703716288,-0.9855994310591207,0.6748068653962045],[-0.4683538422180036,-0.92707280355555,-0.23386553809082766,0.3158294277812854,-0.30577530147160004]],"b1":[[0.1358843437335564],[0.5717195082423834],[-0.7337284846874992],[0.5283033206569152],[0.3469111543845367]]}}
{"agentName":"0-4","fitness":0.09757233411073685,"data":{"A1":[[309.19630302652706,208.4629643815854,496.06874986707703,0.0,0.0]],"b2":[[0.6456121712599778],[0.8264783725578371]],"A2":[[1.0,1.0]],"W1":[[0.4551273600657362,0.36644694351969087,-0.38256108933468047,-0.4458430198517267,0.33109790358914726,0.8067445293443565,-0.2624341731773887,-0.44850386111659524,-0.07269284838169332,0.5658035575800715,0.8386555657374337,-0.1270180511534269,0.499812362510895,-0.22686625128130267,-0.6452430441812433,0.18869982177936828,-0.5804648622673358,0.651931743775642,-0.6555641246242951,0.17485476357259122,0.5025608135349202,0.14208069682973434,0.16004976900412138,0.505019897181302,-0.9371635223468384,-0.2841601610457427,0.6355938616712786,-0.1646249064941625,0.9480713629917628,0.42681251564645817,-0.0388509668871313,-0.4166870051763918,0.8997202693189332,0.6409836467726933,0.273289095712564,-0.26175701211620517,-0.2794902492677298,-0.1306778297187794,-0.08536581111046115,-0.05462315824828923,-0.06195495876886281,0.6546448480299902,-0.6979368909424835,0.6677324708883314,-0.07938725467767771,-0.43885601665437957,-0.608071585153688,-0.6414531182501653,0.7313735926547045,-0.026818676347611925,-0.15805658673794265,0.26573958270655806,0.3997172901343442,-0.3693430998846541,0.14324061105995334,-0.25797542063247825,0.7436291919296774,0.6114618853239959,0.2324273700703574,-0.25128128782199144,0.39449745853945895,0.817229160415142,-0.6077058562362969,0.6182496334554788,0.2558665508269453,-0.07320145794330979,-0.38884168866510227,0.07981886851873865,0.27022202891277614,-0.7474843534024693,-0.005346215048158909,-0.9453716674280683,-0.9270309666195007,-0.032312290091389695,0.31010676221964206,-0.20846743965751569,0.8803449313707621,-0.23077831216541722,0.29246395759528565,0.5409312755478819],[0.7880855916368177,0.19767407429003536,0.9520689432368168,-0.845829774129496,0.5502413918543512,-0.44235539500246457,0.7984106594591154,-0.2523277127589152,-0.1373808897290778,-0.3353514432305029,-0.3697050572653644,-0.11452811582755928,-0.807098168238352,0.4903066124307711,-0.6582805242342049,0.6107814398427647,-0.7204208094262783,-0.8141063661170889,-0.9459402662357332,0.09666938346350307,-0.43560342773870375,0.9349906440170221,0.8090021580031235,-0.3121157071110545,-0.9718883630945336,0.6191882496201251,0.0429886073795116,0.670311110015402,0.16692329718223786,0.37649213869502973,0.11276440263810383,-0.7684997525607482,0.1770172737885798,0.7902845707138706,0.2529503304079441,-0.23483801763662826,0.8072501895004851,0.6673992021927047,-0.4796127376677324,0.9244724404994455,-0.2049276879687938,0.1470694373531216,-0.48366999792166787,0.643491115907358,0.3183669486383729,0.22821350958477082,-0.023605251086149304,-0.2770587742156372,0.47596326458377436,0.7107229819632654,-0.3205057828114841,0.51605972926996,0.45215640988181516,0.01712446974606241,0.5508198371849293,-0.2478254241316491,0.7256483175955235,0.39418662792516,-0.6797384914236382,0.6001217520150142,0.4508991072414843,0.589749448443134,0.6464818311502738,0.7005669004769028,0.9699584106930381,-0.7417466269908464,0.22818964839784495,0.08574936236270037,-0.6945765138377225,0.06915201979238828,0.09798746565879424,-0.34288007110901964,0.440249350802451,-0.22440768392359534,-0.9695067570891225,-0.7942032659310758,-0.792286205517398,-0.6535487038528798,0.7952676470618951,-0.1622831617066689],[0.6949189734965766,-0.32697929564739403,-0.15359663581829275,-0.8951865090520432,0.2057889391931318,-0.6676656789571533,-0.03553655732400762,0.14550349954571096,0.034600542078191854,0.4223352065067103,0.35278245969741096,0.7022211035026023,0.5686638754605697,-0.4202155290448111,-0.26102723928249216,0.010688215941416779,-0.4311544807877927,0.9500151672991208,0.14380635780710693,-0.7549354840975826,-0.13079299081883855,0.0983382230287082,0.15347083875928424,0.45507300685816965,0.1921083467305864,0.6361110540492223,0.7675261182370992,-0.2543488202081907,0.2927051050236915,0.680182444769418,-0.8062832278617296,0.8266289890474885,0.22684501241708888,0.1726291966578266,-0.6778773666126594,0.9993906921393696,0.1789490173139363,0.5584053824232391,0.03495894704368174,-0.8505720014852347,-0.008461200645088818,-0.648273596036564,-0.005334477339629995,0.3781469006858833,0.30565234666790686,-0.2822867492866177,0.10175120738413801,0.5342432888482425,0.05146513075475534,-0.6459729964194652,0.42519013450094767,0.09441503345243984,-0.07898439043103522,-0.32207498048636474,-0.9180071861219266,0.5951317320731633,0.41000814588717693,-0.3926260640533046,0.2789036768568971,0.13163692286014528,0.03324842612749346,0.07055844751995122,-0.47199515597021113,-0.682690342465275,0.3983414713797069,-0.2136729393256811,-0.09066563475481249,-0.4640338194317184,-0.03513782089224482,-0.1711809802758364,0.1774546460228057,-0.6783644553523549,-0.47871398278230504,0.02272121490463097,-0.5047649289302389,0.26479596144873896,-0.32045436544054096,0.3113047940487379,0.6269418147567556,0.9710114516962312],[0.01715676997104909,0.8975962429865936,-0.46594560920034134,0.2873623499953055,0.8894362304584083,0.17973981232418468,0.49105791400707743,-0.7359842740294882,0.38941133808001127,-0.7151884777228046,0.07478785545033317,-0.8672651994084235,0.450599300176334,0.35104802298560056,0.6797318185095045,-0.03891997518827006,-0.33208695871398675,0.6166574577055226,0.5730212324012205,-0.4194925751047054,0.054527683864544096,-0.15591931640565093,0.9266742559542833,0.888522581905147,0.6576203900699167,0.6417770212400336,0.7509788029052338,-0.3104974571382815,0.7234744267051683,-0.15869049651427103,0.20173310976772196,0.8657502566551409,0.9325160601080682,0.24570884032596263,-0.6546108813337841,-0.14020032028377583,-0.8825687891702743,-0.21420166926412865,-0.8600275184792756,-0.7990574622230739,0.8325875503351796,-0.5956350140619129,0.12598048009007923,0.12340188733473134,-0.839435659309717,-0.16623481818728414,0.12028795301041662,-0.7994713170657952,0.2216721974907896,0.8407561415075087,-0.9325810772922609,-0.6411471147334535,0.9949216290375054,0.483048267470493,-0.8736297429070232,-0.36222771685582544,0.26397860162786957,0.45527588775737704,-0.9424989711186325,0.6251162293059616,-0.2307778924009991,0.6977871128979924,0.022830408261390822,0.6257738824362347,0.9770979848265122,0.09985730624684575,-0.9755858424230182,-0.689969833240031,-0.7294587311376761,0.3496326193951331,0.37929821892417404,0.8402056881660709,-0.1806835799958202,0.766314307210441,0.865876513623024,-0.7113501219432434,-0.0932956557986735,-0.7042025810921411,0.47530696925672267,-0.4629102077669889],[-0.9309578475799722,0.7591795880911123,0.06296957473213705,0.786790093290086,-0.9527998391625465,-0.08573982501921895,-0.3812232026687308,-0.6890669703685022,0.25415911467755015,-0.07664746267502509,0.3614756404325046,0.14508027508253818,0.23042774014795753,0.4164348685332022,0.4109091750657461,0.03853098236933272,0.38911994885223145,-0.5031309357181766,-0.596467768575587,0.17884522225228028,0.24508864174863,0.7576193329655578,0.09030511120334461,0.9537528991778741,-0.7224092160621338,-0.34089385162121943,0.6924170720838818,0.32912306214891784,-0.4064624712125904,-0.5344662061201593,0.5891192531479754,0.29862103742464274,-0.36153976712796343,-0.6552669564323226,-0.22672513691161766,0.3001336202535376,0.34490251346382617,0.2072633053920192,-0.5659371284058774,0.49599636156628835,0.31302496164254223,-0.6062773982342133,-0.9874007658402217,-0.6214904627601421,-0.11421073677207683,-0.5850843421161205,0.1250679146774638,-0.7108170726393621,-0.6888351241194393,0.6077343683084389,-0.1407178879203672,0.12960233233004925,-0.4236196478321872,0.7903078296084356,-0.8755754953628643,-0.2062360260394529,-0.045680124889026175,0.783182093429277,-0.02995737262668463,-0.33382351650328435,-0.1802575775708093,-0.991006951265341,-0.9107951763247621,0.9069820084047908,-0.12691921206803047,-0.7087012119383593,-0.9179510577925369,0.18480349982718325,-0.4478459144114004,-0.5560585660624608,0.4797855980916854,0.01997502546020402,-0.8827928315487465,0.2755107907750989,0.015544482147298977,0.9652687138748801,0.6622667860970648,-0.7708138539912186,0.17728148663006627,0.47818190728952925]],"W2":[[-0.5162518174930761,0.24270234207184016,0.7352292800096338,0.8860322286740037,0.6748068653962045],[-0.4683538422180036,0.1469540185936138,0.9113612952591796,-0.9838482669789823,0.4506466371133697]],"b1":[[0.1358843437335564],[0.03643446587894239],[-0.31070823939673287],[0.5283033206569152],[0.3469111543845367]]}}
{"agentName":"8-9","fitness":0.09757233411073685,"data":{"A1":[[0.7039392812874874,208.4629643815854,-0.190763527305152,0.0,-0.7816267025068495]],"b2":[[-0.3125027182440565],[0.9572022615525315]],"A2":[[0.056995011091034664,1.0]],"W1":[[0.7441200186753953,-0.7140631424123534,0.31566937795505967,-0.4313930974621696,0.33109790358914726,-0.008970614059816251,0.9719462425823933,-0.8472424215409644,0.09412586721020877,0.5465510901311696,0.8386555657374337,-0.0831665245816875,0.2164841894628171,0.5636514384245517,0.5950198613402851,-0.3323280634994612,-0.39248591543448597,0.651931743775642,-0.6014300241876998,0.21002869972697047,0.09094111055258547,0.20292397222699576,-0.509084727236381,-0.5086195715369071,-0.9371635223468384,-0.2841601610457427,0.6355938616712786,0.22528707581964902,0.9480713629917628,0.044411766453879675,-0.0388509668871313,-0.4166870051763918,0.8997202693189332,-0.6599506573434777,0.5723095423961522,0.7222292643395312,-0.2794902492677298,-0.17923889567785567,-0.1345778831990816,-0.05462315824828923,-0.06195495876886281,0.06052907914036654,-0.6979368909424835,-0.39360018865917024,0.9714437416910806,-0.43885601665437957,-0.22034030218423428,-0.6414531182501653,-0.20707957565615676,0.3649672886670139,-0.15805658673794265,-0.8445280564346795,0.751818159655123,0.43003895535699743,0.382203007223084,-0.2260139896158473,-0.9155589619870548,-0.4971016231285632,0.31722263964952924,0.8447002223958766,0.600998754757792,0.12329169130788875,-0.447256453665541,0.6182496334554788,0.2558665508269453,-0.07320145794330979,-0.38884168866510227,-0.7869795701700184,0.0814111233763728,0.8105604201506165,0.5860738134050905,-0.841681064593101,-0.9270309666195007,-0.032312290091389695,-0.8582991926309937,-0.20846743965751569,0.10693948266030207,0.15193287837227243,-0.4596975472726279,0.5409312755478819],[-0.5927995752268702,-0.10654700360121216,-0.8523653548469503,-0.845829774129496,-0.2376795251893249,-0.44235539500246457,-0.1127154231576677,0.6920653806892905,-0.1373808897290778,-0.013779569843174189,0.022432474150327675,-0.11452811582755928,0.014738382127674088,0.6718895766991062,-0.9967588033660923,0.22905594933419304,0.06019617717228054,-0.30371125587724146,-0.9895686170862081,-0.8356428822847188,0.7852345495761188,-0.5847823713506943,-0.23396202880505723,-0.3121157071110545,-0.18589979820562297,-0.566980465822368,0.8903897669096676,0.670311110015402,0.16692329718223786,-0.953190761405182,-0.01308027430503067,0.5890947473386052,-0.8334929156692024,-0.9193626004341302,-0.8038152096777802,-0.23483801763662826,0.8072501895004851,0.6673992021927047,-0.49826712101691695,-0.25090365472407417,-0.2049276879687938,0.6723549984202555,-0.48366999792166787,0.643491115907358,0.06784259226653311,-0.5844645920003164,0.8948428276598446,-0.2770587742156372,-0.2248401103049078,0.2466752022052645,0.7023059675616805,0.10729428931104112,-0.6564865275707232,0.6325984165398693,-0.7750862751167567,0.30763988074842263,0.5092436656409332,0.5367444238963412,0.16284842645547992,0.30922112334120766,0.9540091079137978,0.8513102082379358,-0.32811803370133097,-0.9829096481748825,0.4795371162180906,0.8334673166185995,0.22818964839784495,0.08574936236270037,0.04082336051564406,-0.027110177785963252,0.28117078099626025,-0.9246526745085502,0.09932743288719403,-0.23111664720909797,-0.36785421013854025,-0.2985012404580636,-0.792286205517398,-0.6535487038528798,-0.2653204868763921,0.34186021879225215],[-0.05425909368835091,-0.806266487937809,0.36443720889007003,-0.8951865090520432,-0.9033026638862818,-0.6676656789571533,-0.03553655732400762,0.7942055069633389,0.034600542078191854,-0.7822581963437112,0.6640351084785876,0.7022211035026023,0.46049320456414855,-0.6646484862801485,0.06993158205460848,0.010688215941416779,-0.9826619820700535,-0.19275602923134616,0.14380635780710693,-0.8703252191764801,-0.13079299081883855,0.5633598003509932,-0.6576985074475479,-0.44371020921523163,-0.33698908943309247,0.3833361800997306,-0.6694240126582884,-0.46324660013923435,0.6334119409121934,0.33829342401262474,0.5852252710654222,0.8266289890474885,0.34635235058686953,0.1726291966578266,-0.21802940183639752,-0.7106570200484446,-0.1259761790199001,0.5584053824232391,0.03495894704368174,0.8233816197681398,0.19503168780620328,0.49554076230928,0.8526599578188303,0.0815163860997159,0.9042406350467882,0.6062843651803851,-0.36475310393081295,-0.5957511791539369,0.7923344825978593,-0.91981313769338,-0.7853955299636433,0.2551322750475824,-0.07898439043103522,-0.32207498048636474,-0.9180071861219266,-0.396866381374233,-0.5759957446790516,0.12086084949871179,0.019797854373998502,0.8037370124316623,0.6124283913236923,0.06733809585989592,0.3755248703817302,0.11985901780971919,0.5679181841789733,-0.2459401413834097,0.13383476784685855,-0.6707393458266329,0.05011490499667248,0.13718107082692255,0.1774546460228057,0.028945184901510768,-0.47871398278230504,0.02272121490463097,-0.5747143797101888,0.26479596144873896,0.898511167499572,0.3113047940487379,-0.4633382421416139,0.9710114516962312],[0.01715676997104909,0.18858076582757888,-0.46594560920034134,0.5822366592910124,-0.7711319651700195,-0.6399923108392409,0.49105791400707743,-0.7359842740294882,0.9043624820290534,-0.6940894243906046,-0.2934028635201946,0.7480398370415815,0.9028541693224117,-0.49092468232480546,0.9518922834667223,0.1314839398335983,-0.33208695871398675,0.6166574577055226,-0.5539408719042171,0.6702322917657677,-0.9270845631100539,-0.722294507287742,-0.5859465894151765,0.888522581905147,0.5575828037301553,0.6417770212400336,-0.09605242092751398,-0.979791889708888,-0.11728513296927101,-0.9477974148376507,-0.2868952701936649,0.49616290512924066,-0.7365508832724705,0.24570884032596263,-0.7422635099065522,-0.46243840980245343,-0.25167719204024985,0.2335022817796506,-0.5043632601096575,-0.18258831917898366,-6.402821556044103E-4,-0.5956350140619129,0.12598048009007923,-0.6592478336946568,0.6713326173160603,-0.16623481818728414,-0.8904567576558851,-0.7994713170657952,-0.7896411993757202,0.2608674643774411,0.7744210280720711,-0.6411471147334535,-0.11435218903370004,0.2012704360393005,0.598318157918232,-0.36222771685582544,0.6288896495586245,-0.08061917439673794,-0.25330477251788475,0.6251162293059616,-0.2307778924009991,0.6977871128979924,0.022830408261390822,-0.4704591571561232,0.9770979848265122,0.6532302271807475,-0.9755858424230182,-0.21043548880523555,-0.10100688208217945,0.8933005485396697,0.598868928830316,-0.31920625115098167,0.3889167281848791,-0.15380581533881332,0.1527417813080003,-0.7113501219432434,-0.6802469774204389,-0.7042025810921411,-0.4293499172115314,-0.4629102077669889],[-0.9309578475799722,0.7591795880911123,0.8476250543509039,0.29193538167867206,-0.0772100586565887,-0.08573982501921895,-0.5364221839111762,-0.6526590420825937,0.7961128200402801,0.6845544892946764,0.3614756404325046,0.2710133008351747,0.23042774014795753,-0.46177261452343177,0.4109091750657461,0.9098418342922332,0.6242400985200895,-0.6971625489330595,0.04631845531668399,-0.2800681046345448,0.24508864174863,0.30093727755112476,-0.49979444652754346,-0.6464738814824149,-0.7224092160621338,-0.9677616793856569,0.3718860035059741,-0.16095150407433678,-0.4064624712125904,-0.95670020240661,-0.49047961682520014,0.29862103742464274,-0.030499383028532057,-0.6552669564323226,0.7877673137691557,0.3001336202535376,0.6267387222279708,0.7315569778791369,0.9542765723895785,-0.47247704644236777,0.31302496164254223,0.8949442588799406,-0.5915423375398423,0.08807466945730447,-0.9849990669942128,0.9510129883286649,0.7786746292091875,0.5904119154817529,-0.6888351241194393,0.6077343683084389,0.5431262882011847,-0.2353944745018861,0.3834379862474959,-0.08394435846012649,-0.36195024083529925,-0.6107738179781594,0.17282721249573507,0.5369188243497296,-0.02995737262668463,-0.33382351650328435,0.3674496316167033,-0.991006951265341,-0.9107951763247621,0.47427216092618973,0.4205057917934514,0.8793368966701454,0.8232667874422961,-0.669381914044882,-0.4478459144114004,0.41382678747814583,0.6789453719738321,0.01997502546020402,0.6230929387755848,-0.5673836640131713,0.015544482147298977,0.7969135157917151,0.510423423922131,0.5938863001798513,0.5964698516298534,0.3186923986158523]],"W2":[[-0.5162518174930761,-0.6088799978291832,-0.16026736902439986,0.8860322286740037,0.6748068653962045],[-0.4683538422180036,-0.39420048734465474,-0.27524169719469826,-0.9330152765014097,0.7268000562682362]],"b1":[[-0.6959393298939083],[0.8001339338811841],[0.7544347651143466],[0.7591625444000805],[-0.5725132178785357]]}}
{"agentName":"6-9","fitness":0.09757233411073685,"data":{"A1":[[0.18934450539532244,208.4629643815854,496.06874986707703,0.0,-0.533835190276116]],"b2":[[0.6456121712599778],[0.09060338300388948]],"A2":[[-0.21285144974164294,1.0]],"W1":[[0.4551273600657362,0.36644694351969087,-0.38256108933468047,-0.4458430198517267,-0.8385262421596149,0.8067445293443565,-0.2624341731773887,-0.7552519286725965,-0.07269284838169332,0.5169530282202459,0.8386555657374337,-0.1270180511534269,-0.1535668648046895,-0.22686625128130267,-0.1790505106198006,0.18869982177936828,-0.5804648622673358,0.9510194115453445,-0.37935603455640443,0.43475665926310714,-0.8685121299057625,-0.03333947011476446,0.449117985679933,-0.5528320626338876,-0.9371635223468384,-0.5749536806179913,-0.569587565933642,0.3697979495309094,-0.24945505706767923,-0.3464214139694939,-0.0388509668871313,-0.5298395275757712,-0.5270617213523301,0.6409836467726933,-0.050231570146605176,-0.8284042355641152,-0.2794902492677298,-0.1306778297187794,-0.08536581111046115,-0.3251495753827054,-0.08099648868406129,0.6546448480299902,0.7829797328120436,0.6677324708883314,0.41048687946340134,0.6823342859396513,0.09297591094578439,-0.6414531182501653,0.7313735926547045,-0.026818676347611925,-0.15805658673794265,0.26573958270655806,-0.5939885763232406,-0.7758497489388401,0.14324061105995334,0.7327001780208859,-0.2785222157363756,-0.021379480978483523,0.2324273700703574,-0.25128128782199144,0.17796638880366533,0.817229160415142,-0.47731309215902007,0.6182496334554788,0.38650193114411513,-0.07320145794330979,-0.38884168866510227,0.07981886851873865,0.27022202891277614,0.4964468221192666,0.44284125602329283,-0.9453716674280683,-0.9270309666195007,0.34527115294406285,0.31010676221964206,-0.20846743965751569,-0.1273369308465584,-0.23077831216541722,0.29246395759528565,-0.1258464584151997],[-0.14408879184669354,-0.3814896029747141,-0.5389529839281642,-0.845829774129496,0.5502413918543512,-0.6213925297990202,0.7984106594591154,0.5049366550229157,0.10347332648416585,-0.3353514432305029,-0.3697050572653644,-0.11452811582755928,-0.807098168238352,0.7920955577171318,0.45358918428827355,0.6107814398427647,0.17678612698428053,-0.8141063661170889,-0.9459402662357332,0.09666938346350307,-0.6005960416763974,-0.5628500853753253,0.49133473382040704,-0.3121157071110545,-0.21846180668260873,0.5545616688202621,0.7514259214273453,0.670311110015402,0.16692329718223786,0.37649213869502973,0.11276440263810383,0.8539148915220518,0.1770172737885798,0.08434165073970856,0.2529503304079441,-0.23483801763662826,-0.9996126872234177,0.6673992021927047,-0.4796127376677324,-0.3009821432938171,-0.2049276879687938,0.7701244692053346,-0.48366999792166787,-0.7243255327274747,-0.245064895931544,0.22821350958477082,-0.023605251086149304,0.3674035637513968,0.47596326458377436,0.7107229819632654,-0.3205057828114841,0.51605972926996,0.45215640988181516,-0.1637274527491086,0.5508198371849293,0.5927048908815398,0.2810188688801316,0.39418662792516,0.4014766166181287,0.8376313279164622,0.4508991072414843,0.589749448443134,0.6464818311502738,0.7005669004769028,-0.9880609340370587,-0.7417466269908464,0.22818964839784495,0.8307101428256871,-0.6945765138377225,0.06915201979238828,0.09798746565879424,-0.34288007110901964,0.440249350802451,0.7537208276562224,-0.9695067570891225,-0.7942032659310758,0.47004365892170585,-0.6535487038528798,-0.6056572341069668,-0.1622831617066689],[0.6949189734965766,0.313715563018796,0.5023794888535831,-0.8951865090520432,0.2057889391931318,-0.2649670832738824,-0.03553655732400762,0.18898666069807835,0.034600542078191854,0.4223352065067103,-0.8425609545898354,0.14488700511728614,-0.7888781431404843,-0.4202155290448111,-0.26102723928249216,0.010688215941416779,-0.4311544807877927,0.5578451496406656,0.28931283693913223,-0.7549354840975826,-0.13079299081883855,0.31837010262135435,0.15347083875928424,0.45507300685816965,-0.4505933709936345,0.6361110540492223,0.7675261182370992,-0.8137389137130824,0.2927051050236915,0.680182444769418,-0.29258253017713587,0.8266289890474885,0.22684501241708888,-0.9663038996451141,0.2650125691248004,0.43986435568816207,0.6028173420234533,0.05292180800024737,0.03495894704368174,-0.8505720014852347,-0.3397362922228042,-0.648273596036564,-0.005334477339629995,0.3781469006858833,0.30565234666790686,-0.2822867492866177,0.7336102668188684,0.5342432888482425,0.05146513075475534,-0.3675110562764785,0.42519013450094767,0.09441503345243984,0.40193493849460826,-0.32207498048636474,0.5249872552102084,0.5951317320731633,-0.4795355698295629,-0.3926260640533046,-0.7124691952142166,0.13163692286014528,0.03324842612749346,0.07055844751995122,-0.47199515597021113,-0.682690342465275,-0.4302874062301336,-0.2782103660776247,0.7387908840198825,0.10703506702597676,-0.34508720605992727,-0.3514482545960185,0.1774546460228057,0.690083948336762,-0.14663432572048318,0.6307050068521085,-0.5047649289302389,0.26479596144873896,-0.32045436544054096,0.3113047940487379,0.9247369772138125,-0.7105407644747244],[0.01715676997104909,0.8975962429865936,-0.49077915619934864,0.35939889246259726,0.8797513396793273,0.17973981232418468,-0.29815112444525727,-0.7359842740294882,0.6038727099749277,-0.49510748520932113,-0.27287209471868445,-0.7210467846372268,0.4539475842688725,0.35104802298560056,0.6797318185095045,0.5800856923645368,-0.33208695871398675,0.6166574577055226,-0.7846116849455622,-0.6176203385203134,0.054527683864544096,0.41772365243737,0.9266742559542833,0.5647217242826741,-0.8374421655315585,-0.46311017558635936,0.7509788029052338,-0.3104974571382815,-0.933330067282963,-0.15869049651427103,0.20173310976772196,0.8657502566551409,0.9325160601080682,0.24570884032596263,-0.6546108813337841,-0.14020032028377583,0.5398905109406806,-0.40339154825471857,-0.8600275184792756,-0.7990574622230739,-0.48566197253788834,-0.5956350140619129,-0.17830016657730585,0.12340188733473134,0.43268986565373635,0.7001677710291752,0.12028795301041662,-0.7994713170657952,-0.3024356877074812,-0.24577861982636584,-0.6805793225561219,-0.6411471147334535,0.5244083449307946,0.483048267470493,-0.8736297429070232,-0.36222771685582544,0.26397860162786957,0.45527588775737704,0.8020167011335648,0.675847791398716,-0.2307778924009991,0.5881216346488705,-0.949390243337694,0.6257738824362347,0.9770979848265122,0.09985730624684575,-0.9755858424230182,-0.689969833240031,-0.7294587311376761,-0.06250125372819237,-0.10169482856285383,0.8402056881660709,-0.2575792912368702,0.766314307210441,0.2732568236080257,-0.7113501219432434,-0.35322920407578207,-0.7042025810921411,-0.2591097929885906,-0.4629102077669889],[0.7146451857291418,0.7591795880911123,0.04981350561934583,0.43579320717817316,-0.9527998391625465,-0.08573982501921895,-0.018480541959607244,-0.6890669703685022,0.25415911467755015,-0.07664746267502509,0.3614756404325046,0.03707410390488852,-0.11020601153665632,0.4164348685332022,-0.42791544663481895,0.6023685964407528,0.38911994885223145,0.18988997497168025,0.6911186202899806,0.17884522225228028,0.24508864174863,0.7576193329655578,-0.3812031472494255,0.9537528991778741,-0.7224092160621338,0.9588783659157063,0.6924170720838818,0.32912306214891784,-0.4064624712125904,-0.5344662061201593,0.9216978259799538,0.29862103742464274,-0.36153976712796343,-0.6552669564323226,-0.6083427563486568,-0.7028497124867663,-0.9108840527099764,0.08104111128235547,-0.5659371284058774,0.49599636156628835,0.31302496164254223,-0.6062773982342133,-0.9874007658402217,-0.6214904627601421,-0.11421073677207683,-0.9083978261828305,-0.39906014345793617,-0.7108170726393621,-0.6888351241194393,-0.7437052070163175,-0.1407178879203672,0.12960233233004925,-0.4236196478321872,0.7903078296084356,-0.8755754953628643,-0.09994429443696973,-0.045680124889026175,0.783182093429277,0.965218170323435,-0.33382351650328435,-0.6008701519448438,-0.991006951265341,-0.9107951763247621,0.9069820084047908,0.3534235593554982,-0.7087012119383593,-0.9179510577925369,0.41739761734720027,-0.12831346258317322,0.39922658982009573,0.4797855980916854,0.218086338076241,0.5996766648402283,0.2755107907750989,0.015544482147298977,0.4656782253933631,0.2927180954190314,0.40859501498633377,-0.6277341209609997,0.8137242045735495]],"W2":[[-0.3003980324850013,0.24270234207184016,0.11567152703716288,-0.9855994310591207,0.6748068653962045],[-0.4683538422180036,-0.92707280355555,-0.23386553809082766,0.3158294277812854,-0.30577530147160004]],"b1":[[0.1358843437335564],[0.5717195082423834],[-0.7337284846874992],[0.5283033206569152],[0.3469111543845367]]}}
{"agentName":"0-0","fitness":0.09757233411073685,"data":{"A1":[[309.19630302652706,208.4629643815854,496.06874986707703,0.0,0.0]],"b2":[[0.6456121712599778],[0.8264783725578371]],"A2":[[1.0,1.0]],"W1":[[0.4551273600657362,0.36644694351969087,-0.38256108933468047,-0.4458430198517267,0.33109790358914726,0.8067445293443565,-0.2624341731773887,-0.44850386111659524,-0.07269284838169332,0.5658035575800715,0.8386555657374337,-0.1270180511534269,0.499812362510895,-0.22686625128130267,-0.6452430441812433,0.18869982177936828,-0.5804648622673358,0.651931743775642,-0.6555641246242951,0.17485476357259122,0.5025608135349202,0.14208069682973434,0.16004976900412138,0.505019897181302,-0.9371635223468384,-0.2841601610457427,0.6355938616712786,-0.1646249064941625,0.9480713629917628,0.42681251564645817,-0.0388509668871313,-0.4166870051763918,0.8997202693189332,0.6409836467726933,0.273289095712564,-0.26175701211620517,-0.2794902492677298,-0.1306778297187794,-0.08536581111046115,-0.05462315824828923,-0.06195495876886281,0.6546448480299902,-0.6979368909424835,0.6677324708883314,-0.07938725467767771,-0.43885601665437957,-0.608071585153688,-0.6414531182501653,0.7313735926547045,-0.026818676347611925,-0.15805658673794265,0.26573958270655806,0.3997172901343442,-0.3693430998846541,0.14324061105995334,-0.25797542063247825,0.7436291919296774,0.6114618853239959,0.2324273700703574,-0.25128128782199144,0.39449745853945895,0.817229160415142,-0.6077058562362969,0.6182496334554788,0.2558665508269453,-0.07320145794330979,-0.38884168866510227,0.07981886851873865,0.27022202891277614,-0.7474843534024693,-0.005346215048158909,-0.9453716674280683,-0.9270309666195007,-0.032312290091389695,0.31010676221964206,-0.20846743965751569,0.8803449313707621,-0.23077831216541722,0.29246395759528565,0.5409312755478819],[0.7880855916368177,0.19767407429003536,0.9520689432368168,-0.845829774129496,0.5502413918543512,-0.44235539500246457,0.7984106594591154,-0.2523277127589152,-0.1373808897290778,-0.3353514432305029,-0.3697050572653644,-0.11452811582755928,-0.807098168238352,0.4903066124307711,-0.6582805242342049,0.6107814398427647,-0.7204208094262783,-0.8141063661170889,-0.9459402662357332,0.09666938346350307,-0.43560342773870375,0.9349906440170221,0.8090021580031235,-0.3121157071110545,-0.9718883630945336,0.6191882496201251,0.0429886073795116,0.670311110015402,0.16692329718223786,0.37649213869502973,0.11276440263810383,-0.7684997525607482,0.1770172737885798,0.7902845707138706,0.2529503304079441,-0.23483801763662826,0.8072501895004851,0.6673992021927047,-0.4796127376677324,0.9244724404994455,-0.2049276879687938,0.1470694373531216,-0.48366999792166787,0.643491115907358,0.3183669486383729,0.22821350958477082,-0.023605251086149304,-0.2770587742156372,0.47596326458377436,0.7107229819632654,-0.3205057828114841,0.51605972926996,0.45215640988181516,0.01712446974606241,0.5508198371849293,-0.2478254241316491,0.7256483175955235,0.39418662792516,-0.6797384914236382,0.6001217520150142,0.4508991072414843,0.589749448443134,0.6464818311502738,0.7005669004769028,0.9699584106930381,-0.7417466269908464,0.22818964839784495,0.08574936236270037,-0.6945765138377225,0.06915201979238828,0.09798746565879424,-0.34288007110901964,0.440249350802451,-0.22440768392359534,-0.9695067570891225,-0.7942032659310758,-0.792286205517398,-0.6535487038528798,0.7952676470618951,-0.1622831617066689],[0.6949189734965766,-0.32697929564739403,-0.15359663581829275,-0.8951865090520432,0.2057889391931318,-0.6676656789571533,-0.03553655732400762,0.14550349954571096,0.034600542078191854,0.4223352065067103,0.35278245969741096,0.7022211035026023,0.5686638754605697,-0.4202155290448111,-0.26102723928249216,0.010688215941416779,-0.4311544807877927,0.9500151672991208,0.14380635780710693,-0.7549354840975826,-0.13079299081883855,0.0983382230287082,0.15347083875928424,0.45507300685816965,0.1921083467305864,0.6361110540492223,0.7675261182370992,-0.2543488202081907,0.2927051050236915,0.680182444769418,-0.8062832278617296,0.8266289890474885,0.22684501241708888,0.1726291966578266,-0.6778773666126594,0.9993906921393696,0.1789490173139363,0.5584053824232391,0.03495894704368174,-0.8505720014852347,-0.008461200645088818,-0.648273596036564,-0.005334477339629995,0.3781469006858833,0.30565234666790686,-0.2822867492866177,0.10175120738413801,0.5342432888482425,0.05146513075475534,-0.6459729964194652,0.42519013450094767,0.09441503345243984,-0.07898439043103522,-0.32207498048636474,-0.9180071861219266,0.5951317320731633,0.41000814588717693,-0.3926260640533046,0.2789036768568971,0.13163692286014528,0.03324842612749346,0.07055844751995122,-0.47199515597021113,-0.682690342465275,0.3983414713797069,-0.2136729393256811,-0.09066563475481249,-0.4640338194317184,-0.03513782089224482,-0.1711809802758364,0.1774546460228057,-0.6783644553523549,-0.47871398278230504,0.02272121490463097,-0.5047649289302389,0.26479596144873896,-0.32045436544054096,0.3113047940487379,0.6269418147567556,0.9710114516962312],[0.01715676997104909,0.8975962429865936,-0.46594560920034134,0.2873623499953055,0.8894362304584083,0.17973981232418468,0.49105791400707743,-0.7359842740294882,0.38941133808001127,-0.7151884777228046,0.07478785545033317,-0.8672651994084235,0.450599300176334,0.35104802298560056,0.6797318185095045,-0.03891997518827006,-0.33208695871398675,0.6166574577055226,0.5730212324012205,-0.4194925751047054,0.054527683864544096,-0.15591931640565093,0.9266742559542833,0.888522581905147,0.6576203900699167,0.6417770212400336,0.7509788029052338,-0.3104974571382815,0.7234744267051683,-0.15869049651427103,0.20173310976772196,0.8657502566551409,0.9325160601080682,0.24570884032596263,-0.6546108813337841,-0.14020032028377583,-0.8825687891702743,-0.21420166926412865,-0.8600275184792756,-0.7990574622230739,0.8325875503351796,-0.5956350140619129,0.12598048009007923,0.12340188733473134,-0.839435659309717,-0.16623481818728414,0.12028795301041662,-0.7994713170657952,0.2216721974907896,0.8407561415075087,-0.9325810772922609,-0.6411471147334535,0.9949216290375054,0.483048267470493,-0.8736297429070232,-0.36222771685582544,0.26397860162786957,0.45527588775737704,-0.9424989711186325,0.6251162293059616,-0.2307778924009991,0.6977871128979924,0.022830408261390822,0.6257738824362347,0.9770979848265122,0.09985730624684575,-0.9755858424230182,-0.689969833240031,-0.7294587311376761,0.3496326193951331,0.37929821892417404,0.8402056881660709,-0.1806835799958202,0.766314307210441,0.865876513623024,-0.7113501219432434,-0.0932956557986735,-0.7042025810921411,0.47530696925672267,-0.4629102077669889],[-0.9309578475799722,0.7591795880911123,0.06296957473213705,0.786790093290086,-0.9527998391625465,-0.08573982501921895,-0.3812232026687308,-0.6890669703685022,0.25415911467755015,-0.07664746267502509,0.3614756404325046,0.14508027508253818,0.23042774014795753,0.4164348685332022,0.4109091750657461,0.03853098236933272,0.38911994885223145,-0.5031309357181766,-0.596467768575587,0.17884522225228028,0.24508864174863,0.7576193329655578,0.09030511120334461,0.9537528991778741,-0.7224092160621338,-0.34089385162121943,0.6924170720838818,0.32912306214891784,-0.4064624712125904,-0.5344662061201593,0.5891192531479754,0.29862103742464274,-0.36153976712796343,-0.6552669564323226,-0.22672513691161766,0.3001336202535376,0.34490251346382617,0.2072633053920192,-0.5659371284058774,0.49599636156628835,0.31302496164254223,-0.6062773982342133,-0.9874007658402217,-0.6214904627601421,-0.11421073677207683,-0.5850843421161205,0.1250679146774638,-0.7108170726393621,-0.6888351241194393,0.6077343683084389,-0.1407178879203672,0.12960233233004925,-0.4236196478321872,0.7903078296084356,-0.8755754953628643,-0.2062360260394529,-0.045680124889026175,0.783182093429277,-0.02995737262668463,-0.33382351650328435,-0.1802575775708093,-0.991006951265341,-0.9107951763247621,0.9069820084047908,-0.12691921206803047,-0.7087012119383593,-0.9179510577925369,0.18480349982718325,-0.4478459144114004,-0.5560585660624608,0.4797855980916854,0.01997502546020402,-0.8827928315487465,0.2755107907750989,0.015544482147298977,0.9652687138748801,0.6622667860970648,-0.7708138539912186,0.17728148663006627,0.47818190728952925]],"W2":[[-0.5162518174930761,0.24270234207184016,0.7352292800096338,0.8860322286740037,0.6748068653962045],[-0.4683538422180036,0.1469540185936138,0.9113612952591796,-0.9838482669789823,0.4506466371133697]],"b1":[[0.1358843437335564],[0.03643446587894239],[-0.31070823939673287],[0.5283033206569152],[0.3469111543845367]]}}
