{"agentName":"1-0","fitness":107.82,"data":{"A1":[[171.63925885891888,320.9473542007137,0.0,121.50065913831148,0.0]],"b2":[[-0.4683538422180036]],"A2":[[1.0]],"W1":[[0.4551273600657362,0.36644694351969087,-0.38256108933468047,-0.4458430198517267,0.33109790358914726,0.8067445293443565,-0.2624341731773887,-0.44850386111659524,-0.07269284838169332,0.5658035575800715,-0.2841601610457427,-0.1270180511534269,0.499812362510895,-0.22686625128130267,-0.6452430441812433,0.18869982177936828,-0.5804648622673358,0.651931743775642,-0.6555641246242951,0.17485476357259122,0.5025608135349202,0.14208069682973434,0.16004976900412138,0.505019897181302,-0.9371635223468384,-0.2841601610457427,0.6355938616712786,-0.1646249064941625,0.9480713629917628,0.42681251564645817,-0.0388509668871313,-0.4166870051763918,0.8997202693189332,0.6409836467726933,0.273289095712564,-0.26175701211620517,-0.2794902492677298,-0.1306778297187794,0.6091901514177853,0.15780407422581533,-0.06195495876886281,0.6546448480299902,-0.6979368909424835,0.6677324708883314,-0.07938725467767771,-0.43885601665437957,-0.608071585153688,-0.6414531182501653,0.7313735926547045,-0.026818676347611925,-0.15805658673794265,0.26573958270655806,0.3997172901343442,-0.3693430998846541,0.14324061105995334,-0.25797542063247825,-0.9270309666195007,0.6114618853239959,0.2324273700703574,-0.25128128782199144,0.39449745853945895,0.2468431033653562,-0.6077058562362969,0.6182496334554788,0.2558665508269453,-0.07320145794330979,-0.38884168866510227,0.5502413918543512,0.27022202891277614,-0.7474843534024693,-0.005346215048158909,-0.9453716674280683,-0.9270309666195007,-0.032312290091389695,0.31010676221964206,0.4903066124307711,0.8803449313707621,-0.23077831216541722,0.29246395759528565,-0.9459402662357332],[0.7880855916368177,0.19767407429003536,0.9520689432368168,-4.888270196095057E-4,0.5502413918543512,0.6191882496201251,0.7984106594591154,-0.2523277127589152,-0.1373808897290778,-0.3353514432305029,-0.3697050572653644,-0.11452811582755928,-0.807098168238352,0.4903066124307711,-0.6582805242342049,0.6107814398427647,-0.6470779468607217,-0.8141063661170889,-0.9459402662357332,0.09666938346350307,-0.43560342773870375,0.9349906440170221,0.8090021580031235,-0.3121157071110545,-0.9718883630945336,0.6191882496201251,0.0429886073795116,0.670311110015402,0.16692329718223786,0.37649213869502973,0.11276440263810383,-0.7684997525607482,0.1770172737885798,0.7902845707138706,0.2529503304079441,-0.23483801763662826,0.8072501895004851,0.6673992021927047,-0.4796127376677324,0.9244724404994455,-0.2049276879687938,0.1470694373531216,0.8611869575187896,0.643491115907358,0.3183669486383729,0.22821350958477082,0.5697426971647488,-0.2770587742156372,0.47596326458377436,0.7107229819632654,-0.3205057828114841,0.51605972926996,0.45215640988181516,0.6592209285686903,-0.7942032659310758,-0.2478254241316491,0.7256483175955235,0.39418662792516,-0.6797384914236382,0.6001217520150142,0.4508991072414843,0.589749448443134,0.2057889391931318,0.7005669004769028,0.9699584106930381,-0.7417466269908464,0.22818964839784495,0.08574936236270037,-0.6945765138377225,0.06915201979238828,0.09798746565879424,-0.34288007110901964,0.440249350802451,-0.22440768392359534,-0.9695067570891225,-0.7942032659310758,-0.792286205517398,-0.6535487038528798,0.7952676470618951,-0.1622831617066689],[0.6949189734965766,-0.32697929564739403,-0.15359663581829275,-0.8951865090520432,0.2057889391931318,-0.6676656789571533,-0.03553655732400762,0.14550349954571096,0.8266289890474885,0.4223352065067103,0.35278245969741096,0.7022211035026023,0.5686638754605697,-0.4202155290448111,-0.26102723928249216,0.010688215941416779,-0.008461200645088818,0.9500151672991208,0.14380635780710693,-0.7549354840975826,-0.13079299081883855,0.0983382230287082,0.15347083875928424,0.45507300685816965,0.1921083467305864,0.6361110540492223,0.7675261182370992,-0.2543488202081907,0.2927051050236915,0.680182444769418,0.5951317320731633,0.8266289890474885,0.22684501241708888,0.1726291966578266,-0.6778773666126594,0.9993906921393696,0.1789490173139363,0.9543096383762801,0.03495894704368174,-0.8505720014852347,-0.008461200645088818,-0.648273596036564,-0.005334477339629995,0.3781469006858833,0.30565234666790686,-0.2822867492866177,0.09198647857985232,0.5342432888482425,0.05146513075475534,-0.6459729964194652,0.42519013450094767,0.09441503345243984,-0.07898439043103522,-0.32207498048636474,-0.9180071861219266,0.5951317320731633,0.41000814588717693,-0.3926260640533046,0.2789036768568971,0.13163692286014528,0.03324842612749346,0.07055844751995122,-0.5637934691545672,-0.4923216901915597,-0.1547651813493751,-0.2136729393256811,0.450599300176334,-0.4640338194317184,-0.03513782089224482,-0.1711809802758364,0.1774546460228057,-0.6783644553523549,-0.47871398278230504,0.02272121490463097,-0.5047649289302389,0.26479596144873896,-0.32045436544054096,0.3113047940487379,0.6269418147567556,0.9710114516962312],[0.01715676997104909,0.42132700180827354,-0.46594560920034134,0.8679112109377674,0.8894362304584083,0.17973981232418468,0.29337797938742316,-0.7359842740294882,0.38941133808001127,-0.7151884777228046,-0.21420166926412865,0.47194271125243237,0.450599300176334,0.35104802298560056,0.6797318185095045,-0.03891997518827006,-0.16623481818728414,0.6166574577055226,0.5730212324012205,-0.4194925751047054,-0.20925958437085557,-0.6411471147334535,0.9266742559542833,0.888522581905147,-0.36222771685582544,0.6417770212400336,0.7509788029052338,0.6251162293059616,0.7234744267051683,-0.15869049651427103,0.20173310976772196,0.8657502566551409,0.9325160601080682,0.24570884032596263,-0.689969833240031,-0.14020032028377583,-0.8825687891702743,-0.21420166926412865,-0.8600275184792756,-0.7990574622230739,0.8325875503351796,-0.5956350140619129,0.12598048009007923,0.12340188733473134,-0.839435659309717,-0.16623481818728414,0.12028795301041662,0.7591795880911123,0.2216721974907896,0.8407561415075087,-0.08573982501921895,-0.6411471147334535,0.9949216290375054,0.483048267470493,-0.8736297429070232,-0.36222771685582544,0.26397860162786957,0.45527588775737704,-0.9424989711186325,0.6251162293059616,-0.2307778924009991,0.6977871128979924,0.25750538376376975,0.9105674676753848,0.9770979848265122,0.09985730624684575,-0.9755858424230182,0.007159356555897611,-0.7294587311376761,0.3496326193951331,0.37929821892417404,0.8402056881660709,-0.1806835799958202,0.766314307210441,0.865876513623024,-0.7113501219432434,-0.0932956557986735,-0.7042025810921411,0.47530696925672267,-0.4629102077669889],[-0.9309578475799722,0.7591795880911123,0.06296957473213705,0.786790093290086,-0.9527998391625465,-0.08573982501921895,-0.3812232026687308,-0.6214904627601421,0.25415911467755015,-0.07664746267502509,0.3614756404325046,0.14508027508253818,0.41304209196175257,0.4164348685332022,0.4109091750657461,0.03853098236933272,0.38911994885223145,-0.5031309357181766,-0.2062360260394529,0.17884522225228028,-0.7439716673142398,0.7576193329655578,0.09030511120334461,0.9537528991778741,-0.9107951763247621,-0.34089385162121943,0.6924170720838818,0.32912306214891784,0.18480349982718325,-0.5344662061201593,0.5891192531479754,0.29862103742464274,-0.36153976712796343,0.2755107907750989,-0.22672513691161766,0.3001336202535376,0.34490251346382617,0.2072633053920192,-0.5659371284058774,0.49599636156628835,0.31302496164254223,-0.6062773982342133,-0.9874007658402217,-0.6214904627601421,-0.11421073677207683,0.5461252511055263,0.1250679146774638,-0.8537533138667612,-0.6888351241194393,0.6077343683084389,-0.1407178879203672,0.12960233233004925,-0.4236196478321872,-0.7022804026958895,-0.8755754953628643,-0.2062360260394529,-0.0945946325760949,0.40690300256653256,0.32984303335155785,-0.33382351650328435,-0.1802575775708093,-0.991006951265341,-0.9107951763247621,0.4610134502825909,0.9182854134226501,-0.7087012119383593,-0.9179510577925369,0.18480349982718325,-0.4478459144114004,-0.5560585660624608,0.4797855980916854,0.01997502546020402,-0.8827928315487465,0.2755107907750989,0.015544482147298977,0.9652687138748801,0.6622667860970648,0.7250263461647963,0.17728148663006627,0.47818190728952925]],"W2":[[-0.5162518174930761,0.24270234207184016,0.7352292800096338,0.8860322286740037,0.6748068653962045]],"b1":[[0.1358843437335564],[0.03643446587894239],[0.008643477632712449],[0.5283033206569152],[0.3469111543845367]]}}
{"agentName":"1-0","fitness":107.82,"data":{"A1":[[171.63925885891888,320.9473542007137,0.0,121.50065913831148,0.0]],"b2":[[-0.4683538422180036]],"A2":[[1.0]],"W1":[[0.4551273600657362,0.36644694351969087,-0.38256108933468047,-0.4458430198517267,0.33109790358914726,0.8067445293443565,-0.2624341731773887,-0.44850386111659524,-0.07269284838169332,0.5658035575800715,-0.2841601610457427,-0.1270180511534269,0.499812362510895,-0.22686625128130267,-0.6452430441812433,0.18869982177936828,-0.5804648622673358,0.651931743775642,-0.6555641246242951,0.17485476357259122,0.5025608135349202,0.14208069682973434,0.16004976900412138,0.505019897181302,-0.9371635223468384,-0.2841601610457427,0.6355938616712786,-0.1646249064941625,0.9480713629917628,0.42681251564645817,-0.0388509668871313,-0.4166870051763918,0.8997202693189332,0.6409836467726933,0.273289095712564,-0.26175701211620517,-0.2794902492677298,-0.1306778297187794,0.6091901514177853,0.15780407422581533,-0.06195495876886281,0.6546448480299902,-0.6979368909424835,0.6677324708883314,-0.07938725467767771,-0.43885601665437957,-0.608071585153688,-0.6414531182501653,0.7313735926547045,-0.026818676347611925,-0.15805658673794265,0.26573958270655806,0.3997172901343442,-0.3693430998846541,0.14324061105995334,-0.25797542063247825,-0.9270309666195007,0.6114618853239959,0.2324273700703574,-0.25128128782199144,0.39449745853945895,0.2468431033653562,-0.6077058562362969,0.6182496334554788,0.2558665508269453,-0.07320145794330979,-0.38884168866510227,0.5502413918543512,0.27022202891277614,-0.7474843534024693,-0.005346215048158909,-0.9453716674280683,-0.9270309666195007,-0.032312290091389695,0.31010676221964206,0.4903066124307711,0.8803449313707621,-0.23077831216541722,0.29246395759528565,-0.9459402662357332],[0.7880855916368177,0.19767407429003536,0.9520689432368168,-4.888270196095057E-4,0.5502413918543512,0.6191882496201251,0.7984106594591154,-0.2523277127589152,-0.1373808897290778,-0.3353514432305029,-0.3697050572653644,-0.11452811582755928,-0.807098168238352,0.4903066124307711,-0.6582805242342049,0.6107814398427647,-0.6470779468607217,-0.8141063661170889,-0.9459402662357332,0.09666938346350307,-0.43560342773870375,0.9349906440170221,0.8090021580031235,-0.3121157071110545,-0.9718883630945336,0.6191882496201251,0.0429886073795116,0.670311110015402,0.16692329718223786,0.37649213869502973,0.11276440263810383,-0.7684997525607482,0.1770172737885798,0.7902845707138706,0.2529503304079441,-0.23483801763662826,0.8072501895004851,0.6673992021927047,-0.4796127376677324,0.9244724404994455,-0.2049276879687938,0.1470694373531216,0.8611869575187896,0.643491115907358,0.3183669486383729,0.22821350958477082,0.5697426971647488,-0.2770587742156372,0.47596326458377436,0.7107229819632654,-0.3205057828114841,0.51605972926996,0.45215640988181516,0.6592209285686903,-0.7942032659310758,-0.2478254241316491,0.7256483175955235,0.39418662792516,-0.6797384914236382,0.6001217520150142,0.4508991072414843,0.589749448443134,0.2057889391931318,0.7005669004769028,0.9699584106930381,-0.7417466269908464,0.22818964839784495,0.08574936236270037,-0.6945765138377225,0.06915201979238828,0.09798746565879424,-0.34288007110901964,0.440249350802451,-0.22440768392359534,-0.9695067570891225,-0.7942032659310758,-0.792286205517398,-0.6535487038528798,0.7952676470618951,-0.1622831617066689],[0.6949189734965766,-0.32697929564739403,-0.15359663581829275,-0.8951865090520432,0.2057889391931318,-0.6676656789571533,-0.03553655732400762,0.14550349954571096,0.8266289890474885,0.4223352065067103,0.35278245969741096,0.7022211035026023,0.5686638754605697,-0.4202155290448111,-0.26102723928249216,0.010688215941416779,-0.008461200645088818,0.9500151672991208,0.14380635780710693,-0.7549354840975826,-0.13079299081883855,0.0983382230287082,0.15347083875928424,0.45507300685816965,0.1921083467305864,0.6361110540492223,0.7675261182370992,-0.2543488202081907,0.2927051050236915,0.680182444769418,0.5951317320731633,0.8266289890474885,0.22684501241708888,0.1726291966578266,-0.6778773666126594,0.9993906921393696,0.1789490173139363,0.9543096383762801,0.03495894704368174,-0.8505720014852347,-0.008461200645088818,-0.648273596036564,-0.005334477339629995,0.3781469006858833,0.30565234666790686,-0.2822867492866177,0.09198647857985232,0.5342432888482425,0.05146513075475534,-0.6459729964194652,0.42519013450094767,0.09441503345243984,-0.07898439043103522,-0.32207498048636474,-0.9180071861219266,0.5951317320731633,0.41000814588717693,-0.3926260640533046,0.2789036768568971,0.13163692286014528,0.03324842612749346,0.07055844751995122,-0.5637934691545672,-0.4923216901915597,-0.1547651813493751,-0.2136729393256811,0.450599300176334,-0.4640338194317184,-0.03513782089224482,-0.1711809802758364,0.1774546460228057,-0.6783644553523549,-0.47871398278230504,0.02272121490463097,-0.5047649289302389,0.26479596144873896,-0.32045436544054096,0.3113047940487379,0.6269418147567556,0.9710114516962312],[0.01715676997104909,0.42132700180827354,-0.46594560920034134,0.8679112109377674,0.8894362304584083,0.17973981232418468,0.29337797938742316,-0.7359842740294882,0.38941133808001127,-0.7151884777228046,-0.21420166926412865,0.47194271125243237,0.450599300176334,0.35104802298560056,0.6797318185095045,-0.03891997518827006,-0.16623481818728414,0.6166574577055226,0.5730212324012205,-0.4194925751047054,-0.20925958437085557,-0.6411471147334535,0.9266742559542833,0.888522581905147,-0.36222771685582544,0.6417770212400336,0.7509788029052338,0.6251162293059616,0.7234744267051683,-0.15869049651427103,0.20173310976772196,0.8657502566551409,0.9325160601080682,0.24570884032596263,-0.689969833240031,-0.14020032028377583,-0.8825687891702743,-0.21420166926412865,-0.8600275184792756,-0.7990574622230739,0.8325875503351796,-0.5956350140619129,0.12598048009007923,0.12340188733473134,-0.839435659309717,-0.16623481818728414,0.12028795301041662,0.7591795880911123,0.2216721974907896,0.8407561415075087,-0.08573982501921895,-0.6411471147334535,0.9949216290375054,0.483048267470493,-0.8736297429070232,-0.36222771685582544,0.26397860162786957,0.45527588775737704,-0.9424989711186325,0.6251162293059616,-0.2307778924009991,0.6977871128979924,0.25750538376376975,0.9105674676753848,0.9770979848265122,0.09985730624684575,-0.9755858424230182,0.007159356555897611,-0.7294587311376761,0.3496326193951331,0.37929821892417404,0.8402056881660709,-0.1806835799958202,0.766314307210441,0.865876513623024,-0.7113501219432434,-0.0932956557986735,-0.7042025810921411,0.47530696925672267,-0.4629102077669889],[-0.9309578475799722,0.7591795880911123,0.06296957473213705,0.786790093290086,-0.9527998391625465,-0.08573982501921895,-0.3812232026687308,-0.6214904627601421,0.25415911467755015,-0.07664746267502509,0.3614756404325046,0.14508027508253818,0.41304209196175257,0.4164348685332022,0.4109091750657461,0.03853098236933272,0.38911994885223145,-0.5031309357181766,-0.2062360260394529,0.17884522225228028,-0.7439716673142398,0.7576193329655578,0.09030511120334461,0.9537528991778741,-0.9107951763247621,-0.34089385162121943,0.6924170720838818,0.32912306214891784,0.18480349982718325,-0.5344662061201593,0.5891192531479754,0.29862103742464274,-0.36153976712796343,0.2755107907750989,-0.22672513691161766,0.3001336202535376,0.34490251346382617,0.2072633053920192,-0.5659371284058774,0.49599636156628835,0.31302496164254223,-0.6062773982342133,-0.9874007658402217,-0.6214904627601421,-0.11421073677207683,0.5461252511055263,0.1250679146774638,-0.8537533138667612,-0.6888351241194393,0.6077343683084389,-0.1407178879203672,0.12960233233004925,-0.4236196478321872,-0.7022804026958895,-0.8755754953628643,-0.2062360260394529,-0.0945946325760949,0.40690300256653256,0.32984303335155785,-0.33382351650328435,-0.1802575775708093,-0.991006951265341,-0.9107951763247621,0.4610134502825909,0.9182854134226501,-0.7087012119383593,-0.9179510577925369,0.18480349982718325,-0.4478459144114004,-0.5560585660624608,0.4797855980916854,0.01997502546020402,-0.8827928315487465,0.2755107907750989,0.015544482147298977,0.9652687138748801,0.6622667860970648,0.7250263461647963,0.17728148663006627,0.47818190728952925]],"W2":[[-0.5162518174930761,0.24270234207184016,0.7352292800096338,0.8860322286740037,0.6748068653962045]],"b1":[[0.1358843437335564],[0.03643446587894239],[0.008643477632712449],[0.5283033206569152],[0.3469111543845367]]}}
{"agentName":"1-0","fitness":107.82,"data":{"A1":[[171.63925885891888,320.9473542007137,0.0,121.50065913831148,0.0]],"b2":[[-0.4683538422180036]],"A2":[[1.0]],"W1":[[0.4551273600657362,0.36644694351969087,-0.38256108933468047,-0.4458430198517267,0.33109790358914726,0.8067445293443565,-0.2624341731773887,-0.44850386111659524,-0.07269284838169332,0.5658035575800715,-0.2841601610457427,-0.1270180511534269,0.499812362510895,-0.22686625128130267,-0.6452430441812433,0.18869982177936828,-0.5804648622673358,0.651931743775642,-0.6555641246242951,0.17485476357259122,0.5025608135349202,0.14208069682973434,0.16004976900412138,0.505019897181302,-0.9371635223468384,-0.2841601610457427,0.6355938616712786,-0.1646249064941625,0.9480713629917628,0.42681251564645817,-0.0388509668871313,-0.4166870051763918,0.8997202693189332,0.6409836467726933,0.273289095712564,-0.26175701211620517,-0.2794902492677298,-0.1306778297187794,0.6091901514177853,0.15780407422581533,-0.06195495876886281,0.6546448480299902,-0.6979368909424835,0.6677324708883314,-0.07938725467767771,-0.43885601665437957,-0.608071585153688,-0.6414531182501653,0.7313735926547045,-0.026818676347611925,-0.15805658673794265,0.26573958270655806,0.3997172901343442,-0.3693430998846541,0.14324061105995334,-0.25797542063247825,-0.9270309666195007,0.6114618853239959,0.2324273700703574,-0.25128128782199144,0.39449745853945895,0.2468431033653562,-0.6077058562362969,0.6182496334554788,0.2558665508269453,-0.07320145794330979,-0.38884168866510227,0.5502413918543512,0.27022202891277614,-0.7474843534024693,-0.005346215048158909,-0.9453716674280683,-0.9270309666195007,-0.032312290091389695,0.31010676221964206,0.4903066124307711,0.8803449313707621,-0.23077831216541722,0.29246395759528565,-0.9459402662357332],[0.7880855916368177,0.19767407429003536,0.9520689432368168,-4.888270196095057E-4,0.5502413918543512,0.6191882496201251,0.7984106594591154,-0.2523277127589152,-0.1373808897290778,-0.3353514432305029,-0.3697050572653644,-0.11452811582755928,-0.807098168238352,0.4903066124307711,-0.6582805242342049,0.6107814398427647,-0.6470779468607217,-0.8141063661170889,-0.9459402662357332,0.09666938346350307,-0.43560342773870375,0.9349906440170221,0.8090021580031235,-0.3121157071110545,-0.9718883630945336,0.6191882496201251,0.0429886073795116,0.670311110015402,0.16692329718223786,0.37649213869502973,0.11276440263810383,-0.7684997525607482,0.1770172737885798,0.7902845707138706,0.2529503304079441,-0.23483801763662826,0.8072501895004851,0.6673992021927047,-0.4796127376677324,0.9244724404994455,-0.2049276879687938,0.1470694373531216,0.8611869575187896,0.643491115907358,0.3183669486383729,0.22821350958477082,0.5697426971647488,-0.2770587742156372,0.47596326458377436,0.7107229819632654,-0.3205057828114841,0.51605972926996,0.45215640988181516,0.6592209285686903,-0.7942032659310758,-0.2478254241316491,0.7256483175955235,0.39418662792516,-0.6797384914236382,0.6001217520150142,0.4508991072414843,0.589749448443134,0.2057889391931318,0.7005669004769028,0.9699584106930381,-0.7417466269908464,0.22818964839784495,0.08574936236270037,-0.6945765138377225,0.06915201979238828,0.09798746565879424,-0.34288007110901964,0.440249350802451,-0.22440768392359534,-0.9695067570891225,-0.7942032659310758,-0.792286205517398,-0.6535487038528798,0.7952676470618951,-0.1622831617066689],[0.6949189734965766,-0.32697929564739403,-0.15359663581829275,-0.8951865090520432,0.2057889391931318,-0.6676656789571533,-0.03553655732400762,0.14550349954571096,0.8266289890474885,0.4223352065067103,0.35278245969741096,0.7022211035026023,0.5686638754605697,-0.4202155290448111,-0.26102723928249216,0.010688215941416779,-0.008461200645088818,0.9500151672991208,0.14380635780710693,-0.7549354840975826,-0.13079299081883855,0.0983382230287082,0.15347083875928424,0.45507300685816965,0.1921083467305864,0.6361110540492223,0.7675261182370992,-0.2543488202081907,0.2927051050236915,0.680182444769418,0.5951317320731633,0.8266289890474885,0.22684501241708888,0.1726291966578266,-0.6778773666126594,0.9993906921393696,0.1789490173139363,0.9543096383762801,0.03495894704368174,-0.8505720014852347,-0.008461200645088818,-0.648273596036564,-0.005334477339629995,0.3781469006858833,0.30565234666790686,-0.2822867492866177,0.09198647857985232,0.5342432888482425,0.05146513075475534,-0.6459729964194652,0.42519013450094767,0.09441503345243984,-0.07898439043103522,-0.32207498048636474,-0.9180071861219266,0.5951317320731633,0.41000814588717693,-0.3926260640533046,0.2789036768568971,0.13163692286014528,0.03324842612749346,0.07055844751995122,-0.5637934691545672,-0.4923216901915597,-0.1547651813493751,-0.2136729393256811,0.450599300176334,-0.4640338194317184,-0.03513782089224482,-0.1711809802758364,0.1774546460228057,-0.6783644553523549,-0.47871398278230504,0.02272121490463097,-0.5047649289302389,0.26479596144873896,-0.32045436544054096,0.3113047940487379,0.6269418147567556,0.9710114516962312],[0.01715676997104909,0.42132700180827354,-0.46594560920034134,0.8679112109377674,0.8894362304584083,0.17973981232418468,0.29337797938742316,-0.7359842740294882,0.38941133808001127,-0.7151884777228046,-0.21420166926412865,0.47194271125243237,0.450599300176334,0.35104802298560056,0.6797318185095045,-0.03891997518827006,-0.16623481818728414,0.6166574577055226,0.5730212324012205,-0.4194925751047054,-0.20925958437085557,-0.6411471147334535,0.9266742559542833,0.888522581905147,-0.36222771685582544,0.6417770212400336,0.7509788029052338,0.6251162293059616,0.7234744267051683,-0.15869049651427103,0.20173310976772196,0.8657502566551409,0.9325160601080682,0.24570884032596263,-0.689969833240031,-0.14020032028377583,-0.8825687891702743,-0.21420166926412865,-0.8600275184792756,-0.7990574622230739,0.8325875503351796,-0.5956350140619129,0.12598048009007923,0.12340188733473134,-0.839435659309717,-0.16623481818728414,0.12028795301041662,0.7591795880911123,0.2216721974907896,0.8407561415075087,-0.08573982501921895,-0.6411471147334535,0.9949216290375054,0.483048267470493,-0.8736297429070232,-0.36222771685582544,0.26397860162786957,0.45527588775737704,-0.9424989711186325,0.6251162293059616,-0.2307778924009991,0.6977871128979924,0.25750538376376975,0.9105674676753848,0.9770979848265122,0.09985730624684575,-0.9755858424230182,0.007159356555897611,-0.7294587311376761,0.3496326193951331,0.37929821892417404,0.8402056881660709,-0.1806835799958202,0.766314307210441,0.865876513623024,-0.7113501219432434,-0.0932956557986735,-0.7042025810921411,0.47530696925672267,-0.4629102077669889],[-0.9309578475799722,0.7591795880911123,0.06296957473213705,0.786790093290086,-0.9527998391625465,-0.08573982501921895,-0.3812232026687308,-0.6214904627601421,0.25415911467755015,-0.07664746267502509,0.3614756404325046,0.14508027508253818,0.41304209196175257,0.4164348685332022,0.4109091750657461,0.03853098236933272,0.38911994885223145,-0.5031309357181766,-0.2062360260394529,0.17884522225228028,-0.7439716673142398,0.7576193329655578,0.09030511120334461,0.9537528991778741,-0.9107951763247621,-0.34089385162121943,0.6924170720838818,0.32912306214891784,0.18480349982718325,-0.5344662061201593,0.5891192531479754,0.29862103742464274,-0.36153976712796343,0.2755107907750989,-0.22672513691161766,0.3001336202535376,0.34490251346382617,0.2072633053920192,-0.5659371284058774,0.49599636156628835,0.31302496164254223,-0.6062773982342133,-0.9874007658402217,-0.6214904627601421,-0.11421073677207683,0.5461252511055263,0.1250679146774638,-0.8537533138667612,-0.6888351241194393,0.6077343683084389,-0.1407178879203672,0.12960233233004925,-0.4236196478321872,-0.7022804026958895,-0.8755754953628643,-0.2062360260394529,-0.0945946325760949,0.40690300256653256,0.32984303335155785,-0.33382351650328435,-0.1802575775708093,-0.991006951265341,-0.9107951763247621,0.4610134502825909,0.9182854134226501,-0.7087012119383593,-0.9179510577925369,0.18480349982718325,-0.4478459144114004,-0.5560585660624608,0.4797855980916854,0.01997502546020402,-0.8827928315487465,0.2755107907750989,0.015544482147298977,0.9652687138748801,0.6622667860970648,0.7250263461647963,0.17728148663006627,0.47818190728952925]],"W2":[[-0.5162518174930761,0.24270234207184016,0.7352292800096338,0.8860322286740037,0.6748068653962045]],"b1":[[0.1358843437335564],[0.03643446587894239],[0.008643477632712449],[0.5283033206569152],[0.3469111543845367]]}}
{"agentName":"1-0","fitness":107.82,"data":{"A1":[[171.63925885891888,320.9473542007137,0.0,121.50065913831148,0.0]],"b2":[[-0.4683538422180036]],"A2":[[1.0]],"W1":[[0.4551273600657362,0.36644694351969087,-0.38256108933468047,-0.4458430198517267,0.33109790358914726,0.8067445293443565,-0.2624341731773887,-0.44850386111659524,-0.07269284838169332,0.5658035575800715,-0.2841601610457427,-0.1270180511534269,0.499812362510895,-0.22686625128130267,-0.6452430441812433,0.18869982177936828,-0.5804648622673358,0.651931743775642,-0.6555641246242951,0.17485476357259122,0.5025608135349202,0.14208069682973434,0.16004976900412138,0.505019897181302,-0.9371635223468384,-0.2841601610457427,0.6355938616712786,-0.1646249064941625,0.9480713629917628,0.42681251564645817,-0.0388509668871313,-0.4166870051763918,0.8997202693189332,0.6409836467726933,0.273289095712564,-0.26175701211620517,-0.2794902492677298,-0.1306778297187794,0.6091901514177853,0.15780407422581533,-0.06195495876886281,0.6546448480299902,-0.6979368909424835,0.6677324708883314,-0.07938725467767771,-0.43885601665437957,-0.608071585153688,-0.6414531182501653,0.7313735926547045,-0.026818676347611925,-0.15805658673794265,0.26573958270655806,0.3997172901343442,-0.3693430998846541,0.14324061105995334,-0.25797542063247825,-0.9270309666195007,0.6114618853239959,0.2324273700703574,-0.25128128782199144,0.39449745853945895,0.2468431033653562,-0.6077058562362969,0.6182496334554788,0.2558665508269453,-0.07320145794330979,-0.38884168866510227,0.5502413918543512,0.27022202891277614,-0.7474843534024693,-0.005346215048158909,-0.9453716674280683,-0.9270309666195007,-0.032312290091389695,0.31010676221964206,0.4903066124307711,0.8803449313707621,-0.23077831216541722,0.29246395759528565,-0.9459402662357332],[0.7880855916368177,0.19767407429003536,0.9520689432368168,-4.888270196095057E-4,0.5502413918543512,0.6191882496201251,0.7984106594591154,-0.2523277127589152,-0.1373808897290778,-0.3353514432305029,-0.3697050572653644,-0.11452811582755928,-0.807098168238352,0.4903066124307711,-0.6582805242342049,0.6107814398427647,-0.6470779468607217,-0.8141063661170889,-0.9459402662357332,0.09666938346350307,-0.43560342773870375,0.9349906440170221,0.8090021580031235,-0.3121157071110545,-0.9718883630945336,0.6191882496201251,0.0429886073795116,0.670311110015402,0.16692329718223786,0.37649213869502973,0.11276440263810383,-0.7684997525607482,0.1770172737885798,0.7902845707138706,0.2529503304079441,-0.23483801763662826,0.8072501895004851,0.6673992021927047,-0.4796127376677324,0.9244724404994455,-0.2049276879687938,0.1470694373531216,0.8611869575187896,0.643491115907358,0.3183669486383729,0.22821350958477082,0.5697426971647488,-0.2770587742156372,0.47596326458377436,0.7107229819632654,-0.3205057828114841,0.51605972926996,0.45215640988181516,0.6592209285686903,-0.7942032659310758,-0.2478254241316491,0.7256483175955235,0.39418662792516,-0.6797384914236382,0.6001217520150142,0.4508991072414843,0.589749448443134,0.2057889391931318,0.7005669004769028,0.9699584106930381,-0.7417466269908464,0.22818964839784495,0.08574936236270037,-0.6945765138377225,0.06915201979238828,0.09798746565879424,-0.34288007110901964,0.440249350802451,-0.22440768392359534,-0.9695067570891225,-0.7942032659310758,-0.792286205517398,-0.6535487038528798,0.7952676470618951,-0.1622831617066689],[0.6949189734965766,-0.32697929564739403,-0.15359663581829275,-0.8951865090520432,0.2057889391931318,-0.6676656789571533,-0.03553655732400762,0.14550349954571096,0.8266289890474885,0.4223352065067103,0.35278245969741096,0.7022211035026023,0.5686638754605697,-0.4202155290448111,-0.26102723928249216,0.010688215941416779,-0.008461200645088818,0.9500151672991208,0.14380635780710693,-0.7549354840975826,-0.13079299081883855,0.0983382230287082,0.15347083875928424,0.45507300685816965,0.1921083467305864,0.6361110540492223,0.7675261182370992,-0.2543488202081907,0.2927051050236915,0.680182444769418,0.5951317320731633,0.8266289890474885,0.22684501241708888,0.1726291966578266,-0.6778773666126594,0.9993906921393696,0.1789490173139363,0.9543096383762801,0.03495894704368174,-0.8505720014852347,-0.008461200645088818,-0.648273596036564,-0.005334477339629995,0.3781469006858833,0.30565234666790686,-0.2822867492866177,0.09198647857985232,0.5342432888482425,0.05146513075475534,-0.6459729964194652,0.42519013450094767,0.09441503345243984,-0.07898439043103522,-0.32207498048636474,-0.9180071861219266,0.5951317320731633,0.41000814588717693,-0.3926260640533046,0.2789036768568971,0.13163692286014528,0.03324842612749346,0.07055844751995122,-0.5637934691545672,-0.4923216901915597,-0.1547651813493751,-0.2136729393256811,0.450599300176334,-0.4640338194317184,-0.03513782089224482,-0.1711809802758364,0.1774546460228057,-0.6783644553523549,-0.47871398278230504,0.02272121490463097,-0.5047649289302389,0.26479596144873896,-0.32045436544054096,0.3113047940487379,0.6269418147567556,0.9710114516962312],[0.01715676997104909,0.42132700180827354,-0.46594560920034134,0.8679112109377674,0.8894362304584083,0.17973981232418468,0.29337797938742316,-0.7359842740294882,0.38941133808001127,-0.7151884777228046,-0.21420166926412865,0.47194271125243237,0.450599300176334,0.35104802298560056,0.6797318185095045,-0.03891997518827006,-0.16623481818728414,0.6166574577055226,0.5730212324012205,-0.4194925751047054,-0.20925958437085557,-0.6411471147334535,0.9266742559542833,0.888522581905147,-0.36222771685582544,0.6417770212400336,0.7509788029052338,0.6251162293059616,0.7234744267051683,-0.15869049651427103,0.20173310976772196,0.8657502566551409,0.9325160601080682,0.24570884032596263,-0.689969833240031,-0.14020032028377583,-0.8825687891702743,-0.21420166926412865,-0.8600275184792756,-0.7990574622230739,0.8325875503351796,-0.5956350140619129,0.12598048009007923,0.12340188733473134,-0.839435659309717,-0.16623481818728414,0.12028795301041662,0.7591795880911123,0.2216721974907896,0.8407561415075087,-0.08573982501921895,-0.6411471147334535,0.9949216290375054,0.483048267470493,-0.8736297429070232,-0.36222771685582544,0.26397860162786957,0.45527588775737704,-0.9424989711186325,0.6251162293059616,-0.2307778924009991,0.6977871128979924,0.25750538376376975,0.9105674676753848,0.9770979848265122,0.09985730624684575,-0.9755858424230182,0.007159356555897611,-0.7294587311376761,0.3496326193951331,0.37929821892417404,0.8402056881660709,-0.1806835799958202,0.766314307210441,0.865876513623024,-0.7113501219432434,-0.0932956557986735,-0.7042025810921411,0.47530696925672267,-0.4629102077669889],[-0.9309578475799722,0.7591795880911123,0.06296957473213705,0.786790093290086,-0.9527998391625465,-0.08573982501921895,-0.3812232026687308,-0.6214904627601421,0.25415911467755015,-0.07664746267502509,0.3614756404325046,0.14508027508253818,0.41304209196175257,0.4164348685332022,0.4109091750657461,0.03853098236933272,0.38911994885223145,-0.5031309357181766,-0.2062360260394529,0.17884522225228028,-0.7439716673142398,0.7576193329655578,0.09030511120334461,0.9537528991778741,-0.9107951763247621,-0.34089385162121943,0.6924170720838818,0.32912306214891784,0.18480349982718325,-0.5344662061201593,0.5891192531479754,0.29862103742464274,-0.36153976712796343,0.2755107907750989,-0.22672513691161766,0.3001336202535376,0.34490251346382617,0.2072633053920192,-0.5659371284058774,0.49599636156628835,0.31302496164254223,-0.6062773982342133,-0.9874007658402217,-0.6214904627601421,-0.11421073677207683,0.5461252511055263,0.1250679146774638,-0.8537533138667612,-0.6888351241194393,0.6077343683084389,-0.1407178879203672,0.12960233233004925,-0.4236196478321872,-0.7022804026958895,-0.8755754953628643,-0.2062360260394529,-0.0945946325760949,0.40690300256653256,0.32984303335155785,-0.33382351650328435,-0.1802575775708093,-0.991006951265341,-0.9107951763247621,0.4610134502825909,0.9182854134226501,-0.7087012119383593,-0.9179510577925369,0.18480349982718325,-0.4478459144114004,-0.5560585660624608,0.4797855980916854,0.01997502546020402,-0.8827928315487465,0.2755107907750989,0.015544482147298977,0.9652687138748801,0.6622667860970648,0.7250263461647963,0.17728148663006627,0.47818190728952925]],"W2":[[-0.5162518174930761,0.24270234207184016,0.7352292800096338,0.8860322286740037,0.6748068653962045]],"b1":[[0.1358843437335564],[0.03643446587894239],[0.008643477632712449],[0.5283033206569152],[0.3469111543845367]]}}
{"agentName":"1-0","fitness":107.82,"data":{"A1":[[171.63925885891888,320.9473542007137,0.0,121.50065913831148,0.0]],"b2":[[-0.4683538422180036]],"A2":[[1.0]],"W1":[[0.4551273600657362,0.36644694351969087,-0.38256108933468047,-0.4458430198517267,0.33109790358914726,0.8067445293443565,-0.2624341731773887,-0.44850386111659524,-0.07269284838169332,0.5658035575800715,-0.2841601610457427,-0.1270180511534269,0.499812362510895,-0.22686625128130267,-0.6452430441812433,0.18869982177936828,-0.5804648622673358,0.651931743775642,-0.6555641246242951,0.17485476357259122,0.5025608135349202,0.14208069682973434,0.16004976900412138,0.505019897181302,-0.9371635223468384,-0.2841601610457427,0.6355938616712786,-0.1646249064941625,0.9480713629917628,0.42681251564645817,-0.0388509668871313,-0.4166870051763918,0.8997202693189332,0.6409836467726933,0.273289095712564,-0.26175701211620517,-0.2794902492677298,-0.1306778297187794,0.6091901514177853,0.15780407422581533,-0.06195495876886281,0.6546448480299902,-0.6979368909424835,0.6677324708883314,-0.07938725467767771,-0.43885601665437957,-0.608071585153688,-0.6414531182501653,0.7313735926547045,-0.026818676347611925,-0.15805658673794265,0.26573958270655806,0.3997172901343442,-0.3693430998846541,0.14324061105995334,-0.25797542063247825,-0.9270309666195007,0.6114618853239959,0.2324273700703574,-0.25128128782199144,0.39449745853945895,0.2468431033653562,-0.6077058562362969,0.6182496334554788,0.2558665508269453,-0.07320145794330979,-0.38884168866510227,0.5502413918543512,0.27022202891277614,-0.7474843534024693,-0.005346215048158909,-0.9453716674280683,-0.9270309666195007,-0.032312290091389695,0.31010676221964206,0.4903066124307711,0.8803449313707621,-0.23077831216541722,0.29246395759528565,-0.9459402662357332],[0.7880855916368177,0.19767407429003536,0.9520689432368168,-4.888270196095057E-4,0.5502413918543512,0.6191882496201251,0.7984106594591154,-0.2523277127589152,-0.1373808897290778,-0.3353514432305029,-0.3697050572653644,-0.11452811582755928,-0.807098168238352,0.4903066124307711,-0.6582805242342049,0.6107814398427647,-0.6470779468607217,-0.8141063661170889,-0.9459402662357332,0.09666938346350307,-0.43560342773870375,0.9349906440170221,0.8090021580031235,-0.3121157071110545,-0.9718883630945336,0.6191882496201251,0.0429886073795116,0.670311110015402,0.16692329718223786,0.37649213869502973,0.11276440263810383,-0.7684997525607482,0.1770172737885798,0.7902845707138706,0.2529503304079441,-0.23483801763662826,0.8072501895004851,0.6673992021927047,-0.4796127376677324,0.9244724404994455,-0.2049276879687938,0.1470694373531216,0.8611869575187896,0.643491115907358,0.3183669486383729,0.22821350958477082,0.5697426971647488,-0.2770587742156372,0.47596326458377436,0.7107229819632654,-0.3205057828114841,0.51605972926996,0.45215640988181516,0.6592209285686903,-0.7942032659310758,-0.2478254241316491,0.7256483175955235,0.39418662792516,-0.6797384914236382,0.6001217520150142,0.4508991072414843,0.589749448443134,0.2057889391931318,0.7005669004769028,0.9699584106930381,-0.7417466269908464,0.22818964839784495,0.08574936236270037,-0.6945765138377225,0.06915201979238828,0.09798746565879424,-0.34288007110901964,0.440249350802451,-0.22440768392359534,-0.9695067570891225,-0.7942032659310758,-0.792286205517398,-0.6535487038528798,0.7952676470618951,-0.1622831617066689],[0.6949189734965766,-0.32697929564739403,-0.15359663581829275,-0.8951865090520432,0.2057889391931318,-0.6676656789571533,-0.03553655732400762,0.14550349954571096,0.8266289890474885,0.4223352065067103,0.35278245969741096,0.7022211035026023,0.5686638754605697,-0.4202155290448111,-0.26102723928249216,0.010688215941416779,-0.008461200645088818,0.9500151672991208,0.14380635780710693,-0.7549354840975826,-0.13079299081883855,0.0983382230287082,0.15347083875928424,0.45507300685816965,0.1921083467305864,0.6361110540492223,0.7675261182370992,-0.2543488202081907,0.2927051050236915,0.680182444769418,0.5951317320731633,0.8266289890474885,0.22684501241708888,0.1726291966578266,-0.6778773666126594,0.9993906921393696,0.1789490173139363,0.9543096383762801,0.03495894704368174,-0.8505720014852347,-0.008461200645088818,-0.648273596036564,-0.005334477339629995,0.3781469006858833,0.30565234666790686,-0.2822867492866177,0.09198647857985232,0.5342432888482425,0.05146513075475534,-0.6459729964194652,0.42519013450094767,0.09441503345243984,-0.07898439043103522,-0.32207498048636474,-0.9180071861219266,0.5951317320731633,0.41000814588717693,-0.3926260640533046,0.2789036768568971,0.13163692286014528,0.03324842612749346,0.07055844751995122,-0.5637934691545672,-0.4923216901915597,-0.1547651813493751,-0.2136729393256811,0.450599300176334,-0.4640338194317184,-0.03513782089224482,-0.1711809802758364,0.1774546460228057,-0.6783644553523549,-0.47871398278230504,0.02272121490463097,-0.5047649289302389,0.26479596144873896,-0.32045436544054096,0.3113047940487379,0.6269418147567556,0.9710114516962312],[0.01715676997104909,0.42132700180827354,-0.46594560920034134,0.8679112109377674,0.8894362304584083,0.17973981232418468,0.29337797938742316,-0.7359842740294882,0.38941133808001127,-0.7151884777228046,-0.21420166926412865,0.47194271125243237,0.450599300176334,0.35104802298560056,0.6797318185095045,-0.03891997518827006,-0.16623481818728414,0.6166574577055226,0.5730212324012205,-0.4194925751047054,-0.20925958437085557,-0.6411471147334535,0.9266742559542833,0.888522581905147,-0.36222771685582544,0.6417770212400336,0.7509788029052338,0.6251162293059616,0.7234744267051683,-0.15869049651427103,0.20173310976772196,0.8657502566551409,0.9325160601080682,0.24570884032596263,-0.689969833240031,-0.14020032028377583,-0.8825687891702743,-0.21420166926412865,-0.8600275184792756,-0.7990574622230739,0.8325875503351796,-0.5956350140619129,0.12598048009007923,0.12340188733473134,-0.839435659309717,-0.16623481818728414,0.12028795301041662,0.7591795880911123,0.2216721974907896,0.8407561415075087,-0.08573982501921895,-0.6411471147334535,0.9949216290375054,0.483048267470493,-0.8736297429070232,-0.36222771685582544,0.26397860162786957,0.45527588775737704,-0.9424989711186325,0.6251162293059616,-0.2307778924009991,0.6977871128979924,0.25750538376376975,0.9105674676753848,0.9770979848265122,0.09985730624684575,-0.9755858424230182,0.007159356555897611,-0.7294587311376761,0.3496326193951331,0.37929821892417404,0.8402056881660709,-0.1806835799958202,0.766314307210441,0.865876513623024,-0.7113501219432434,-0.0932956557986735,-0.7042025810921411,0.47530696925672267,-0.4629102077669889],[-0.9309578475799722,0.7591795880911123,0.06296957473213705,0.786790093290086,-0.9527998391625465,-0.08573982501921895,-0.3812232026687308,-0.6214904627601421,0.25415911467755015,-0.07664746267502509,0.3614756404325046,0.14508027508253818,0.41304209196175257,0.4164348685332022,0.4109091750657461,0.03853098236933272,0.38911994885223145,-0.5031309357181766,-0.2062360260394529,0.17884522225228028,-0.7439716673142398,0.7576193329655578,0.09030511120334461,0.9537528991778741,-0.9107951763247621,-0.34089385162121943,0.6924170720838818,0.32912306214891784,0.18480349982718325,-0.5344662061201593,0.5891192531479754,0.29862103742464274,-0.36153976712796343,0.2755107907750989,-0.22672513691161766,0.3001336202535376,0.34490251346382617,0.2072633053920192,-0.5659371284058774,0.49599636156628835,0.31302496164254223,-0.6062773982342133,-0.9874007658402217,-0.6214904627601421,-0.11421073677207683,0.5461252511055263,0.1250679146774638,-0.8537533138667612,-0.6888351241194393,0.6077343683084389,-0.1407178879203672,0.12960233233004925,-0.4236196478321872,-0.7022804026958895,-0.8755754953628643,-0.2062360260394529,-0.0945946325760949,0.40690300256653256,0.32984303335155785,-0.33382351650328435,-0.1802575775708093,-0.991006951265341,-0.9107951763247621,0.4610134502825909,0.9182854134226501,-0.7087012119383593,-0.9179510577925369,0.18480349982718325,-0.4478459144114004,-0.5560585660624608,0.4797855980916854,0.01997502546020402,-0.8827928315487465,0.2755107907750989,0.015544482147298977,0.9652687138748801,0.6622667860970648,0.7250263461647963,0.17728148663006627,0.47818190728952925]],"W2":[[-0.5162518174930761,0.24270234207184016,0.7352292800096338,0.8860322286740037,0.6748068653962045]],"b1":[[0.1358843437335564],[0.03643446587894239],[0.008643477632712449],[0.5283033206569152],[0.3469111543845367]]}}
{"agentName":"1-0","fitness":107.82,"data":{"A1":[[171.63925885891888,320.9473542007137,0.0,121.50065913831148,0.0]],"b2":[[-0.4683538422180036]],"A2":[[1.0]],"W1":[[0.4551273600657362,0.36644694351969087,-0.38256108933468047,-0.4458430198517267,0.33109790358914726,0.8067445293443565,-0.2624341731773887,-0.44850386111659524,-0.07269284838169332,0.5658035575800715,-0.2841601610457427,-0.1270180511534269,0.499812362510895,-0.22686625128130267,-0.6452430441812433,0.18869982177936828,-0.5804648622673358,0.651931743775642,-0.6555641246242951,0.17485476357259122,0.5025608135349202,0.14208069682973434,0.16004976900412138,0.505019897181302,-0.9371635223468384,-0.2841601610457427,0.6355938616712786,-0.1646249064941625,0.9480713629917628,0.42681251564645817,-0.0388509668871313,-0.4166870051763918,0.8997202693189332,0.6409836467726933,0.273289095712564,-0.26175701211620517,-0.2794902492677298,-0.1306778297187794,0.6091901514177853,0.15780407422581533,-0.06195495876886281,0.6546448480299902,-0.6979368909424835,0.6677324708883314,-0.07938725467767771,-0.43885601665437957,-0.608071585153688,-0.6414531182501653,0.7313735926547045,-0.026818676347611925,-0.15805658673794265,0.26573958270655806,0.3997172901343442,-0.3693430998846541,0.14324061105995334,-0.25797542063247825,-0.9270309666195007,0.6114618853239959,0.2324273700703574,-0.25128128782199144,0.39449745853945895,0.2468431033653562,-0.6077058562362969,0.6182496334554788,0.2558665508269453,-0.07320145794330979,-0.38884168866510227,0.5502413918543512,0.27022202891277614,-0.7474843534024693,-0.005346215048158909,-0.9453716674280683,-0.9270309666195007,-0.032312290091389695,0.31010676221964206,0.4903066124307711,0.8803449313707621,-0.23077831216541722,0.29246395759528565,-0.9459402662357332],[0.7880855916368177,0.19767407429003536,0.9520689432368168,-4.888270196095057E-4,0.5502413918543512,0.6191882496201251,0.7984106594591154,-0.2523277127589152,-0.1373808897290778,-0.3353514432305029,-0.3697050572653644,-0.11452811582755928,-0.807098168238352,0.4903066124307711,-0.6582805242342049,0.6107814398427647,-0.6470779468607217,-0.8141063661170889,-0.9459402662357332,0.09666938346350307,-0.43560342773870375,0.9349906440170221,0.8090021580031235,-0.3121157071110545,-0.9718883630945336,0.6191882496201251,0.0429886073795116,0.670311110015402,0.16692329718223786,0.37649213869502973,0.11276440263810383,-0.7684997525607482,0.1770172737885798,0.7902845707138706,0.2529503304079441,-0.23483801763662826,0.8072501895004851,0.6673992021927047,-0.4796127376677324,0.9244724404994455,-0.2049276879687938,0.1470694373531216,0.8611869575187896,0.643491115907358,0.3183669486383729,0.22821350958477082,0.5697426971647488,-0.2770587742156372,0.47596326458377436,0.7107229819632654,-0.3205057828114841,0.51605972926996,0.45215640988181516,0.6592209285686903,-0.7942032659310758,-0.2478254241316491,0.7256483175955235,0.39418662792516,-0.6797384914236382,0.6001217520150142,0.4508991072414843,0.589749448443134,0.2057889391931318,0.7005669004769028,0.9699584106930381,-0.7417466269908464,0.22818964839784495,0.08574936236270037,-0.6945765138377225,0.06915201979238828,0.09798746565879424,-0.34288007110901964,0.440249350802451,-0.22440768392359534,-0.9695067570891225,-0.7942032659310758,-0.792286205517398,-0.6535487038528798,0.7952676470618951,-0.1622831617066689],[0.6949189734965766,-0.32697929564739403,-0.15359663581829275,-0.8951865090520432,0.2057889391931318,-0.6676656789571533,-0.03553655732400762,0.14550349954571096,0.8266289890474885,0.4223352065067103,0.35278245969741096,0.7022211035026023,0.5686638754605697,-0.4202155290448111,-0.26102723928249216,0.010688215941416779,-0.008461200645088818,0.9500151672991208,0.14380635780710693,-0.7549354840975826,-0.13079299081883855,0.0983382230287082,0.15347083875928424,0.45507300685816965,0.1921083467305864,0.6361110540492223,0.7675261182370992,-0.2543488202081907,0.2927051050236915,0.680182444769418,0.5951317320731633,0.8266289890474885,0.22684501241708888,0.1726291966578266,-0.6778773666126594,0.9993906921393696,0.1789490173139363,0.9543096383762801,0.03495894704368174,-0.8505720014852347,-0.008461200645088818,-0.648273596036564,-0.005334477339629995,0.3781469006858833,0.30565234666790686,-0.2822867492866177,0.09198647857985232,0.5342432888482425,0.05146513075475534,-0.6459729964194652,0.42519013450094767,0.09441503345243984,-0.07898439043103522,-0.32207498048636474,-0.9180071861219266,0.5951317320731633,0.41000814588717693,-0.3926260640533046,0.2789036768568971,0.13163692286014528,0.03324842612749346,0.07055844751995122,-0.5637934691545672,-0.4923216901915597,-0.1547651813493751,-0.2136729393256811,0.450599300176334,-0.4640338194317184,-0.03513782089224482,-0.1711809802758364,0.1774546460228057,-0.6783644553523549,-0.47871398278230504,0.02272121490463097,-0.5047649289302389,0.26479596144873896,-0.32045436544054096,0.3113047940487379,0.6269418147567556,0.9710114516962312],[0.01715676997104909,0.42132700180827354,-0.46594560920034134,0.8679112109377674,0.8894362304584083,0.17973981232418468,0.29337797938742316,-0.7359842740294882,0.38941133808001127,-0.7151884777228046,-0.21420166926412865,0.47194271125243237,0.450599300176334,0.35104802298560056,0.6797318185095045,-0.03891997518827006,-0.16623481818728414,0.6166574577055226,0.5730212324012205,-0.4194925751047054,-0.20925958437085557,-0.6411471147334535,0.9266742559542833,0.888522581905147,-0.36222771685582544,0.6417770212400336,0.7509788029052338,0.6251162293059616,0.7234744267051683,-0.15869049651427103,0.20173310976772196,0.8657502566551409,0.9325160601080682,0.24570884032596263,-0.689969833240031,-0.14020032028377583,-0.8825687891702743,-0.21420166926412865,-0.8600275184792756,-0.7990574622230739,0.8325875503351796,-0.5956350140619129,0.12598048009007923,0.12340188733473134,-0.839435659309717,-0.16623481818728414,0.12028795301041662,0.7591795880911123,0.2216721974907896,0.8407561415075087,-0.08573982501921895,-0.6411471147334535,0.9949216290375054,0.483048267470493,-0.8736297429070232,-0.36222771685582544,0.26397860162786957,0.45527588775737704,-0.9424989711186325,0.6251162293059616,-0.2307778924009991,0.6977871128979924,0.25750538376376975,0.9105674676753848,0.9770979848265122,0.09985730624684575,-0.9755858424230182,0.007159356555897611,-0.7294587311376761,0.3496326193951331,0.37929821892417404,0.8402056881660709,-0.1806835799958202,0.766314307210441,0.865876513623024,-0.7113501219432434,-0.0932956557986735,-0.7042025810921411,0.47530696925672267,-0.4629102077669889],[-0.9309578475799722,0.7591795880911123,0.06296957473213705,0.786790093290086,-0.9527998391625465,-0.08573982501921895,-0.3812232026687308,-0.6214904627601421,0.25415911467755015,-0.07664746267502509,0.3614756404325046,0.14508027508253818,0.41304209196175257,0.4164348685332022,0.4109091750657461,0.03853098236933272,0.38911994885223145,-0.5031309357181766,-0.2062360260394529,0.17884522225228028,-0.7439716673142398,0.7576193329655578,0.09030511120334461,0.9537528991778741,-0.9107951763247621,-0.34089385162121943,0.6924170720838818,0.32912306214891784,0.18480349982718325,-0.5344662061201593,0.5891192531479754,0.29862103742464274,-0.36153976712796343,0.2755107907750989,-0.22672513691161766,0.3001336202535376,0.34490251346382617,0.2072633053920192,-0.5659371284058774,0.49599636156628835,0.31302496164254223,-0.6062773982342133,-0.9874007658402217,-0.6214904627601421,-0.11421073677207683,0.5461252511055263,0.1250679146774638,-0.8537533138667612,-0.6888351241194393,0.6077343683084389,-0.1407178879203672,0.12960233233004925,-0.4236196478321872,-0.7022804026958895,-0.8755754953628643,-0.2062360260394529,-0.0945946325760949,0.40690300256653256,0.32984303335155785,-0.33382351650328435,-0.1802575775708093,-0.991006951265341,-0.9107951763247621,0.4610134502825909,0.9182854134226501,-0.7087012119383593,-0.9179510577925369,0.18480349982718325,-0.4478459144114004,-0.5560585660624608,0.4797855980916854,0.01997502546020402,-0.8827928315487465,0.2755107907750989,0.015544482147298977,0.9652687138748801,0.6622667860970648,0.7250263461647963,0.17728148663006627,0.47818190728952925]],"W2":[[-0.5162518174930761,0.24270234207184016,0.7352292800096338,0.8860322286740037,0.6748068653962045]],"b1":[[0.1358843437335564],[0.03643446587894239],[0.008643477632712449],[0.5283033206569152],[0.3469111543845367]]}}
{"agentName":"7-6","fitness":107.91,"data":{"A1":[[0.4952380792524693,-0.11464089360698893,0.0,121.50065913831148,-0.7743343367502893]],"b2":[[0.9210457272560042]],"A2":[[1.0]],"W1":[[-0.4064407447273508,0.36644694351969087,-0.38256108933468047,-0.4458430198517267,0.33109790358914726,0.8067445293443565,-0.2624341731773887,-0.44850386111659524,-0.6320022059786656,0.4117636429771936,-0.6577177233364067,-0.1270180511534269,-0.2175434951690829,-0.22686625128130267,-0.7005449362447573,0.18869982177936828,0.46000586508353614,-0.06906958672519137,-0.25123362706646457,-0.7001794298444595,-0.21891970682925788,0.5227275493542325,0.16004976900412138,0.505019897181302,-0.37213210747743175,0.23307375028657118,0.6355938616712786,-0.1646249064941625,0.9480713629917628,0.42681251564645817,-0.45469090694085534,-0.4166870051763918,0.8409483054135343,-0.8771544896190184,-0.2037589077979547,-0.26175701211620517,0.265557504748144,-0.1306778297187794,-0.46661976112717896,0.15780407422581533,-0.8082264223890936,0.6546448480299902,-0.9845631760153672,0.6677324708883314,-0.07938725467767771,0.1620807284452883,0.33749594518426473,-0.6414531182501653,0.9132489752451824,-0.026818676347611925,-0.15805658673794265,0.26573958270655806,-0.5282465540340324,-0.6943758863582654,-0.21512358579925706,-0.6779533652516021,-0.9270309666195007,-0.428340401914753,0.24474580060072904,-0.25128128782199144,0.39449745853945895,0.2468431033653562,0.31950751706464686,0.6182496334554788,-0.39716674166363797,0.6688237363576621,0.4336323851790913,0.5502413918543512,0.27022202891277614,-0.8555624501612784,-0.005346215048158909,-0.17125223509187282,-0.9270309666195007,-0.032312290091389695,0.2375316192753043,0.6226356996015883,0.4082855870179629,-0.23077831216541722,0.8297014820235209,-0.29873998888397546],[0.7880855916368177,0.5826442985002787,-0.0773547002692121,-4.888270196095057E-4,0.21829202840889095,-0.32034001034499027,-0.9248446340399135,-0.6717816444835336,-0.1373808897290778,-0.3353514432305029,-0.3697050572653644,-0.11452811582755928,-0.9479018046108676,0.4903066124307711,-0.6582805242342049,0.6107814398427647,-0.6470779468607217,-0.8141063661170889,-0.9459402662357332,0.30127024368452515,0.7952336451814228,-0.6999823262974278,-0.7202012741452006,-0.3121157071110545,-0.68937393675138,0.03224723433795362,0.9775516645472899,-0.061766655837633744,0.16692329718223786,0.37649213869502973,-0.6914231522703247,-0.7684997525607482,0.25650877518152027,-0.91490878983207,0.8576897574823503,0.802801876248117,-0.13360921363003997,0.7638027721552718,-0.18852475957975456,-0.0804124466055729,-0.2049276879687938,0.1470694373531216,0.8611869575187896,-0.16071090204689953,-0.32951026378415094,-0.2172033896812946,0.22244041071176035,-0.2770587742156372,0.9423187750086648,0.7107229819632654,-0.9327363199679581,-0.9481390733242798,0.45215640988181516,0.6592209285686903,-0.7942032659310758,-0.2478254241316491,0.11807312551418647,0.39418662792516,0.241230188129544,-0.01199133038895095,0.4508991072414843,-0.05723224635402513,0.2057889391931318,0.7005669004769028,0.9699584106930381,-0.7417466269908464,0.22818964839784495,-0.1313593084680189,-0.8301132079817384,-0.341155869204381,0.8950061810239882,0.5918946980259567,0.012888126412166079,-0.22440768392359534,-0.9695067570891225,-0.7942032659310758,-0.792286205517398,-0.6535487038528798,0.7952676470618951,-0.1622831617066689],[0.6949189734965766,0.2245581140502393,-0.15359663581829275,-0.8951865090520432,0.2057889391931318,-0.10934126185887805,-0.03553655732400762,0.14826752863715287,-0.06293281348945645,0.4223352065067103,0.7155854123266114,0.7022211035026023,-0.0054267825103209155,0.10013925209542385,-0.26102723928249216,0.010688215941416779,-0.008461200645088818,0.19149664737804795,0.14380635780710693,-0.7549354840975826,-0.13079299081883855,-0.3200636493764861,0.15347083875928424,0.45507300685816965,0.1921083467305864,-0.4415459477380588,-0.04629010348662366,-0.2543488202081907,0.557963945418563,0.680182444769418,-0.9868193492722923,0.8266289890474885,-0.43311079737472014,0.1726291966578266,-0.6778773666126594,0.9993906921393696,0.02853723298406119,0.9543096383762801,0.03495894704368174,-0.3796528866115514,-0.008461200645088818,0.4913149749630017,-0.005334477339629995,0.5028129916613366,0.7951173116514345,0.2382406912119326,0.09198647857985232,0.5342432888482425,0.05146513075475534,0.6219295939613363,0.1268986517604549,0.09441503345243984,-0.07898439043103522,-0.32207498048636474,0.19609620625274982,0.5951317320731633,0.38202069577312625,-0.3926260640533046,0.2789036768568971,-0.1718140623934541,0.03324842612749346,-0.15965754121044196,-0.8294773786068643,0.01624459383903365,-0.1547651813493751,-0.2136729393256811,-0.9667272360042136,-0.4640338194317184,-0.011131919504026921,0.5249072912902939,0.39215001883617906,0.777574844324868,-0.47871398278230504,0.02272121490463097,0.060942700856587484,0.26479596144873896,-0.32045436544054096,0.3113047940487379,0.6269418147567556,0.9710114516962312],[-0.012455006209988184,-0.9535348121644429,-0.6547487772203857,0.8679112109377674,0.8894362304584083,-0.5592960925636103,0.29337797938742316,-0.1484460921171027,-0.9538618484055001,-0.7151884777228046,0.8388672800826487,0.47194271125243237,0.450599300176334,0.044051864095540516,0.6797318185095045,0.5819042550162274,-0.3586997841121309,0.6166574577055226,0.5730212324012205,-0.6221548127937524,-0.20925958437085557,-0.6411471147334535,0.7035095157544395,0.2345399211149981,-0.36222771685582544,0.6873490822438724,0.7509788029052338,0.6251162293059616,-0.6233567262129267,-0.7325256505394968,0.20173310976772196,-0.2869145406753686,-0.3854730785122864,-0.2117470067874525,-0.5186385138101719,0.8940554001662966,-0.8825687891702743,-0.2753410799237874,0.9994938603060983,-0.7990574622230739,0.5628723245749354,-0.5146998948220798,0.12598048009007923,0.12340188733473134,-0.839435659309717,-0.41036999011256103,-0.8619749890855313,-0.21669948473604972,0.8676906379376914,-0.08085673480956834,-0.7205131390795687,-0.6733987968026836,0.9949216290375054,0.2845724970797625,-0.13127371407538302,-0.43223317324200194,0.26397860162786957,0.45527588775737704,-0.9424989711186325,-0.6101406276364763,-0.2307778924009991,0.6977871128979924,0.3780766512494227,0.5756388056274442,0.9770979848265122,-0.2718953703494915,-0.9755858424230182,-0.519769534339731,0.7085914685883126,-0.7707452405154009,0.531795760866336,-0.021553400244979537,-0.1806835799958202,0.766314307210441,0.865876513623024,0.3892872094452817,-0.0932956557986735,-0.8921357494146682,0.47530696925672267,-0.4629102077669889],[-0.9510264953215406,0.7591795880911123,0.06296957473213705,0.786790093290086,-0.9527998391625465,-0.08573982501921895,0.46063248519950273,-0.6300791852713106,0.25415911467755015,-0.07664746267502509,-0.07670508770940399,0.14508027508253818,0.41304209196175257,-0.8483095460277152,-0.3723749994300696,0.03853098236933272,0.9619532039581042,-0.5031309357181766,-0.2062360260394529,0.17884522225228028,0.7062860670095161,0.7576193329655578,0.09030511120334461,-0.566581567914348,-0.9107951763247621,-0.34089385162121943,-0.9240459588975201,-0.4212518904108733,0.18480349982718325,0.9096831749095413,0.5891192531479754,0.29862103742464274,-0.36153976712796343,0.2755107907750989,-0.09649124978113521,0.3001336202535376,0.34490251346382617,-0.517860849841878,0.5562688292037381,0.09579006238221122,0.31302496164254223,-0.25782888805127024,-0.9874007658402217,-0.20661318091010905,0.6787302541469229,-0.20000365834952571,0.1250679146774638,-0.9087681208947878,-0.6888351241194393,0.6077343683084389,-0.1407178879203672,0.12960233233004925,-0.4236196478321872,0.404977305063819,-0.8755754953628643,-0.884351103859494,-0.9289030925610586,0.40690300256653256,0.1047791244647105,-0.1347817448365516,-0.1802575775708093,-0.991006951265341,-0.6961282565940405,0.013953616410367298,0.15820786959182898,0.09377558075225512,-0.9179510577925369,-0.8110526002482434,0.15598422797252187,0.8000590966291723,-0.4270167172651922,0.01997502546020402,-0.8827928315487465,0.0015067327562410249,0.015544482147298977,0.9652687138748801,-0.3200177136553326,0.0926833703812433,0.17728148663006627,0.47818190728952925]],"W2":[[-0.5162518174930761,0.5942168461256001,0.7352292800096338,-0.4985685812001237,-0.5914381308256325]],"b1":[[-0.0039053699212856507],[0.08346855607715153],[0.008643477632712449],[0.5283033206569152],[0.7605891881836981]]}}
{"agentName":"7-6","fitness":107.91,"data":{"A1":[[0.4952380792524693,-0.11464089360698893,0.0,121.50065913831148,-0.7743343367502893]],"b2":[[0.9210457272560042]],"A2":[[1.0]],"W1":[[-0.4064407447273508,0.36644694351969087,-0.38256108933468047,-0.4458430198517267,0.33109790358914726,0.8067445293443565,-0.2624341731773887,-0.44850386111659524,-0.6320022059786656,0.4117636429771936,-0.6577177233364067,-0.1270180511534269,-0.2175434951690829,-0.22686625128130267,-0.7005449362447573,0.18869982177936828,0.46000586508353614,-0.06906958672519137,-0.25123362706646457,-0.7001794298444595,-0.21891970682925788,0.5227275493542325,0.16004976900412138,0.505019897181302,-0.37213210747743175,0.23307375028657118,0.6355938616712786,-0.1646249064941625,0.9480713629917628,0.42681251564645817,-0.45469090694085534,-0.4166870051763918,0.8409483054135343,-0.8771544896190184,-0.2037589077979547,-0.26175701211620517,0.265557504748144,-0.1306778297187794,-0.46661976112717896,0.15780407422581533,-0.8082264223890936,0.6546448480299902,-0.9845631760153672,0.6677324708883314,-0.07938725467767771,0.1620807284452883,0.33749594518426473,-0.6414531182501653,0.9132489752451824,-0.026818676347611925,-0.15805658673794265,0.26573958270655806,-0.5282465540340324,-0.6943758863582654,-0.21512358579925706,-0.6779533652516021,-0.9270309666195007,-0.428340401914753,0.24474580060072904,-0.25128128782199144,0.39449745853945895,0.2468431033653562,0.31950751706464686,0.6182496334554788,-0.39716674166363797,0.6688237363576621,0.4336323851790913,0.5502413918543512,0.27022202891277614,-0.8555624501612784,-0.005346215048158909,-0.17125223509187282,-0.9270309666195007,-0.032312290091389695,0.2375316192753043,0.6226356996015883,0.4082855870179629,-0.23077831216541722,0.8297014820235209,-0.29873998888397546],[0.7880855916368177,0.5826442985002787,-0.0773547002692121,-4.888270196095057E-4,0.21829202840889095,-0.32034001034499027,-0.9248446340399135,-0.6717816444835336,-0.1373808897290778,-0.3353514432305029,-0.3697050572653644,-0.11452811582755928,-0.9479018046108676,0.4903066124307711,-0.6582805242342049,0.6107814398427647,-0.6470779468607217,-0.8141063661170889,-0.9459402662357332,0.30127024368452515,0.7952336451814228,-0.6999823262974278,-0.7202012741452006,-0.3121157071110545,-0.68937393675138,0.03224723433795362,0.9775516645472899,-0.061766655837633744,0.16692329718223786,0.37649213869502973,-0.6914231522703247,-0.7684997525607482,0.25650877518152027,-0.91490878983207,0.8576897574823503,0.802801876248117,-0.13360921363003997,0.7638027721552718,-0.18852475957975456,-0.0804124466055729,-0.2049276879687938,0.1470694373531216,0.8611869575187896,-0.16071090204689953,-0.32951026378415094,-0.2172033896812946,0.22244041071176035,-0.2770587742156372,0.9423187750086648,0.7107229819632654,-0.9327363199679581,-0.9481390733242798,0.45215640988181516,0.6592209285686903,-0.7942032659310758,-0.2478254241316491,0.11807312551418647,0.39418662792516,0.241230188129544,-0.01199133038895095,0.4508991072414843,-0.05723224635402513,0.2057889391931318,0.7005669004769028,0.9699584106930381,-0.7417466269908464,0.22818964839784495,-0.1313593084680189,-0.8301132079817384,-0.341155869204381,0.8950061810239882,0.5918946980259567,0.012888126412166079,-0.22440768392359534,-0.9695067570891225,-0.7942032659310758,-0.792286205517398,-0.6535487038528798,0.7952676470618951,-0.1622831617066689],[0.6949189734965766,0.2245581140502393,-0.15359663581829275,-0.8951865090520432,0.2057889391931318,-0.10934126185887805,-0.03553655732400762,0.14826752863715287,-0.06293281348945645,0.4223352065067103,0.7155854123266114,0.7022211035026023,-0.0054267825103209155,0.10013925209542385,-0.26102723928249216,0.010688215941416779,-0.008461200645088818,0.19149664737804795,0.14380635780710693,-0.7549354840975826,-0.13079299081883855,-0.3200636493764861,0.15347083875928424,0.45507300685816965,0.1921083467305864,-0.4415459477380588,-0.04629010348662366,-0.2543488202081907,0.557963945418563,0.680182444769418,-0.9868193492722923,0.8266289890474885,-0.43311079737472014,0.1726291966578266,-0.6778773666126594,0.9993906921393696,0.02853723298406119,0.9543096383762801,0.03495894704368174,-0.3796528866115514,-0.008461200645088818,0.4913149749630017,-0.005334477339629995,0.5028129916613366,0.7951173116514345,0.2382406912119326,0.09198647857985232,0.5342432888482425,0.05146513075475534,0.6219295939613363,0.1268986517604549,0.09441503345243984,-0.07898439043103522,-0.32207498048636474,0.19609620625274982,0.5951317320731633,0.38202069577312625,-0.3926260640533046,0.2789036768568971,-0.1718140623934541,0.03324842612749346,-0.15965754121044196,-0.8294773786068643,0.01624459383903365,-0.1547651813493751,-0.2136729393256811,-0.9667272360042136,-0.4640338194317184,-0.011131919504026921,0.5249072912902939,0.39215001883617906,0.777574844324868,-0.47871398278230504,0.02272121490463097,0.060942700856587484,0.26479596144873896,-0.32045436544054096,0.3113047940487379,0.6269418147567556,0.9710114516962312],[-0.012455006209988184,-0.9535348121644429,-0.6547487772203857,0.8679112109377674,0.8894362304584083,-0.5592960925636103,0.29337797938742316,-0.1484460921171027,-0.9538618484055001,-0.7151884777228046,0.8388672800826487,0.47194271125243237,0.450599300176334,0.044051864095540516,0.6797318185095045,0.5819042550162274,-0.3586997841121309,0.6166574577055226,0.5730212324012205,-0.6221548127937524,-0.20925958437085557,-0.6411471147334535,0.7035095157544395,0.2345399211149981,-0.36222771685582544,0.6873490822438724,0.7509788029052338,0.6251162293059616,-0.6233567262129267,-0.7325256505394968,0.20173310976772196,-0.2869145406753686,-0.3854730785122864,-0.2117470067874525,-0.5186385138101719,0.8940554001662966,-0.8825687891702743,-0.2753410799237874,0.9994938603060983,-0.7990574622230739,0.5628723245749354,-0.5146998948220798,0.12598048009007923,0.12340188733473134,-0.839435659309717,-0.41036999011256103,-0.8619749890855313,-0.21669948473604972,0.8676906379376914,-0.08085673480956834,-0.7205131390795687,-0.6733987968026836,0.9949216290375054,0.2845724970797625,-0.13127371407538302,-0.43223317324200194,0.26397860162786957,0.45527588775737704,-0.9424989711186325,-0.6101406276364763,-0.2307778924009991,0.6977871128979924,0.3780766512494227,0.5756388056274442,0.9770979848265122,-0.2718953703494915,-0.9755858424230182,-0.519769534339731,0.7085914685883126,-0.7707452405154009,0.531795760866336,-0.021553400244979537,-0.1806835799958202,0.766314307210441,0.865876513623024,0.3892872094452817,-0.0932956557986735,-0.8921357494146682,0.47530696925672267,-0.4629102077669889],[-0.9510264953215406,0.7591795880911123,0.06296957473213705,0.786790093290086,-0.9527998391625465,-0.08573982501921895,0.46063248519950273,-0.6300791852713106,0.25415911467755015,-0.07664746267502509,-0.07670508770940399,0.14508027508253818,0.41304209196175257,-0.8483095460277152,-0.3723749994300696,0.03853098236933272,0.9619532039581042,-0.5031309357181766,-0.2062360260394529,0.17884522225228028,0.7062860670095161,0.7576193329655578,0.09030511120334461,-0.566581567914348,-0.9107951763247621,-0.34089385162121943,-0.9240459588975201,-0.4212518904108733,0.18480349982718325,0.9096831749095413,0.5891192531479754,0.29862103742464274,-0.36153976712796343,0.2755107907750989,-0.09649124978113521,0.3001336202535376,0.34490251346382617,-0.517860849841878,0.5562688292037381,0.09579006238221122,0.31302496164254223,-0.25782888805127024,-0.9874007658402217,-0.20661318091010905,0.6787302541469229,-0.20000365834952571,0.1250679146774638,-0.9087681208947878,-0.6888351241194393,0.6077343683084389,-0.1407178879203672,0.12960233233004925,-0.4236196478321872,0.404977305063819,-0.8755754953628643,-0.884351103859494,-0.9289030925610586,0.40690300256653256,0.1047791244647105,-0.1347817448365516,-0.1802575775708093,-0.991006951265341,-0.6961282565940405,0.013953616410367298,0.15820786959182898,0.09377558075225512,-0.9179510577925369,-0.8110526002482434,0.15598422797252187,0.8000590966291723,-0.4270167172651922,0.01997502546020402,-0.8827928315487465,0.0015067327562410249,0.015544482147298977,0.9652687138748801,-0.3200177136553326,0.0926833703812433,0.17728148663006627,0.47818190728952925]],"W2":[[-0.5162518174930761,0.5942168461256001,0.7352292800096338,-0.4985685812001237,-0.5914381308256325]],"b1":[[-0.0039053699212856507],[0.08346855607715153],[0.008643477632712449],[0.5283033206569152],[0.7605891881836981]]}}
{"agentName":"7-6","fitness":107.91,"data":{"A1":[[0.4952380792524693,-0.11464089360698893,0.0,121.50065913831148,-0.7743343367502893]],"b2":[[0.9210457272560042]],"A2":[[1.0]],"W1":[[-0.4064407447273508,0.36644694351969087,-0.38256108933468047,-0.4458430198517267,0.33109790358914726,0.8067445293443565,-0.2624341731773887,-0.44850386111659524,-0.6320022059786656,0.4117636429771936,-0.6577177233364067,-0.1270180511534269,-0.2175434951690829,-0.22686625128130267,-0.7005449362447573,0.18869982177936828,0.46000586508353614,-0.06906958672519137,-0.25123362706646457,-0.7001794298444595,-0.21891970682925788,0.5227275493542325,0.16004976900412138,0.505019897181302,-0.37213210747743175,0.23307375028657118,0.6355938616712786,-0.1646249064941625,0.9480713629917628,0.42681251564645817,-0.45469090694085534,-0.4166870051763918,0.8409483054135343,-0.8771544896190184,-0.2037589077979547,-0.26175701211620517,0.265557504748144,-0.1306778297187794,-0.46661976112717896,0.15780407422581533,-0.8082264223890936,0.6546448480299902,-0.9845631760153672,0.6677324708883314,-0.07938725467767771,0.1620807284452883,0.33749594518426473,-0.6414531182501653,0.9132489752451824,-0.026818676347611925,-0.15805658673794265,0.26573958270655806,-0.5282465540340324,-0.6943758863582654,-0.21512358579925706,-0.6779533652516021,-0.9270309666195007,-0.428340401914753,0.24474580060072904,-0.25128128782199144,0.39449745853945895,0.2468431033653562,0.31950751706464686,0.6182496334554788,-0.39716674166363797,0.6688237363576621,0.4336323851790913,0.5502413918543512,0.27022202891277614,-0.8555624501612784,-0.005346215048158909,-0.17125223509187282,-0.9270309666195007,-0.032312290091389695,0.2375316192753043,0.6226356996015883,0.4082855870179629,-0.23077831216541722,0.8297014820235209,-0.29873998888397546],[0.7880855916368177,0.5826442985002787,-0.0773547002692121,-4.888270196095057E-4,0.21829202840889095,-0.32034001034499027,-0.9248446340399135,-0.6717816444835336,-0.1373808897290778,-0.3353514432305029,-0.3697050572653644,-0.11452811582755928,-0.9479018046108676,0.4903066124307711,-0.6582805242342049,0.6107814398427647,-0.6470779468607217,-0.8141063661170889,-0.9459402662357332,0.30127024368452515,0.7952336451814228,-0.6999823262974278,-0.7202012741452006,-0.3121157071110545,-0.68937393675138,0.03224723433795362,0.9775516645472899,-0.061766655837633744,0.16692329718223786,0.37649213869502973,-0.6914231522703247,-0.7684997525607482,0.25650877518152027,-0.91490878983207,0.8576897574823503,0.802801876248117,-0.13360921363003997,0.7638027721552718,-0.18852475957975456,-0.0804124466055729,-0.2049276879687938,0.1470694373531216,0.8611869575187896,-0.16071090204689953,-0.32951026378415094,-0.2172033896812946,0.22244041071176035,-0.2770587742156372,0.9423187750086648,0.7107229819632654,-0.9327363199679581,-0.9481390733242798,0.45215640988181516,0.6592209285686903,-0.7942032659310758,-0.2478254241316491,0.11807312551418647,0.39418662792516,0.241230188129544,-0.01199133038895095,0.4508991072414843,-0.05723224635402513,0.2057889391931318,0.7005669004769028,0.9699584106930381,-0.7417466269908464,0.22818964839784495,-0.1313593084680189,-0.8301132079817384,-0.341155869204381,0.8950061810239882,0.5918946980259567,0.012888126412166079,-0.22440768392359534,-0.9695067570891225,-0.7942032659310758,-0.792286205517398,-0.6535487038528798,0.7952676470618951,-0.1622831617066689],[0.6949189734965766,0.2245581140502393,-0.15359663581829275,-0.8951865090520432,0.2057889391931318,-0.10934126185887805,-0.03553655732400762,0.14826752863715287,-0.06293281348945645,0.4223352065067103,0.7155854123266114,0.7022211035026023,-0.0054267825103209155,0.10013925209542385,-0.26102723928249216,0.010688215941416779,-0.008461200645088818,0.19149664737804795,0.14380635780710693,-0.7549354840975826,-0.13079299081883855,-0.3200636493764861,0.15347083875928424,0.45507300685816965,0.1921083467305864,-0.4415459477380588,-0.04629010348662366,-0.2543488202081907,0.557963945418563,0.680182444769418,-0.9868193492722923,0.8266289890474885,-0.43311079737472014,0.1726291966578266,-0.6778773666126594,0.9993906921393696,0.02853723298406119,0.9543096383762801,0.03495894704368174,-0.3796528866115514,-0.008461200645088818,0.4913149749630017,-0.005334477339629995,0.5028129916613366,0.7951173116514345,0.2382406912119326,0.09198647857985232,0.5342432888482425,0.05146513075475534,0.6219295939613363,0.1268986517604549,0.09441503345243984,-0.07898439043103522,-0.32207498048636474,0.19609620625274982,0.5951317320731633,0.38202069577312625,-0.3926260640533046,0.2789036768568971,-0.1718140623934541,0.03324842612749346,-0.15965754121044196,-0.8294773786068643,0.01624459383903365,-0.1547651813493751,-0.2136729393256811,-0.9667272360042136,-0.4640338194317184,-0.011131919504026921,0.5249072912902939,0.39215001883617906,0.777574844324868,-0.47871398278230504,0.02272121490463097,0.060942700856587484,0.26479596144873896,-0.32045436544054096,0.3113047940487379,0.6269418147567556,0.9710114516962312],[-0.012455006209988184,-0.9535348121644429,-0.6547487772203857,0.8679112109377674,0.8894362304584083,-0.5592960925636103,0.29337797938742316,-0.1484460921171027,-0.9538618484055001,-0.7151884777228046,0.8388672800826487,0.47194271125243237,0.450599300176334,0.044051864095540516,0.6797318185095045,0.5819042550162274,-0.3586997841121309,0.6166574577055226,0.5730212324012205,-0.6221548127937524,-0.20925958437085557,-0.6411471147334535,0.7035095157544395,0.2345399211149981,-0.36222771685582544,0.6873490822438724,0.7509788029052338,0.6251162293059616,-0.6233567262129267,-0.7325256505394968,0.20173310976772196,-0.2869145406753686,-0.3854730785122864,-0.2117470067874525,-0.5186385138101719,0.8940554001662966,-0.8825687891702743,-0.2753410799237874,0.9994938603060983,-0.7990574622230739,0.5628723245749354,-0.5146998948220798,0.12598048009007923,0.12340188733473134,-0.839435659309717,-0.41036999011256103,-0.8619749890855313,-0.21669948473604972,0.8676906379376914,-0.08085673480956834,-0.7205131390795687,-0.6733987968026836,0.9949216290375054,0.2845724970797625,-0.13127371407538302,-0.43223317324200194,0.26397860162786957,0.45527588775737704,-0.9424989711186325,-0.6101406276364763,-0.2307778924009991,0.6977871128979924,0.3780766512494227,0.5756388056274442,0.9770979848265122,-0.2718953703494915,-0.9755858424230182,-0.519769534339731,0.7085914685883126,-0.7707452405154009,0.531795760866336,-0.021553400244979537,-0.1806835799958202,0.766314307210441,0.865876513623024,0.3892872094452817,-0.0932956557986735,-0.8921357494146682,0.47530696925672267,-0.4629102077669889],[-0.9510264953215406,0.7591795880911123,0.06296957473213705,0.786790093290086,-0.9527998391625465,-0.08573982501921895,0.46063248519950273,-0.6300791852713106,0.25415911467755015,-0.07664746267502509,-0.07670508770940399,0.14508027508253818,0.41304209196175257,-0.8483095460277152,-0.3723749994300696,0.03853098236933272,0.9619532039581042,-0.5031309357181766,-0.2062360260394529,0.17884522225228028,0.7062860670095161,0.7576193329655578,0.09030511120334461,-0.566581567914348,-0.9107951763247621,-0.34089385162121943,-0.9240459588975201,-0.4212518904108733,0.18480349982718325,0.9096831749095413,0.5891192531479754,0.29862103742464274,-0.36153976712796343,0.2755107907750989,-0.09649124978113521,0.3001336202535376,0.34490251346382617,-0.517860849841878,0.5562688292037381,0.09579006238221122,0.31302496164254223,-0.25782888805127024,-0.9874007658402217,-0.20661318091010905,0.6787302541469229,-0.20000365834952571,0.1250679146774638,-0.9087681208947878,-0.6888351241194393,0.6077343683084389,-0.1407178879203672,0.12960233233004925,-0.4236196478321872,0.404977305063819,-0.8755754953628643,-0.884351103859494,-0.9289030925610586,0.40690300256653256,0.1047791244647105,-0.1347817448365516,-0.1802575775708093,-0.991006951265341,-0.6961282565940405,0.013953616410367298,0.15820786959182898,0.09377558075225512,-0.9179510577925369,-0.8110526002482434,0.15598422797252187,0.8000590966291723,-0.4270167172651922,0.01997502546020402,-0.8827928315487465,0.0015067327562410249,0.015544482147298977,0.9652687138748801,-0.3200177136553326,0.0926833703812433,0.17728148663006627,0.47818190728952925]],"W2":[[-0.5162518174930761,0.5942168461256001,0.7352292800096338,-0.4985685812001237,-0.5914381308256325]],"b1":[[-0.0039053699212856507],[0.08346855607715153],[0.008643477632712449],[0.5283033206569152],[0.7605891881836981]]}}
{"agentName":"7-6","fitness":107.91,"data":{"A1":[[0.4952380792524693,-0.11464089360698893,0.0,121.50065913831148,-0.7743343367502893]],"b2":[[0.9210457272560042]],"A2":[[1.0]],"W1":[[-0.4064407447273508,0.36644694351969087,-0.38256108933468047,-0.4458430198517267,0.33109790358914726,0.8067445293443565,-0.2624341731773887,-0.44850386111659524,-0.6320022059786656,0.4117636429771936,-0.6577177233364067,-0.1270180511534269,-0.2175434951690829,-0.22686625128130267,-0.7005449362447573,0.18869982177936828,0.46000586508353614,-0.06906958672519137,-0.25123362706646457,-0.7001794298444595,-0.21891970682925788,0.5227275493542325,0.16004976900412138,0.505019897181302,-0.37213210747743175,0.23307375028657118,0.6355938616712786,-0.1646249064941625,0.9480713629917628,0.42681251564645817,-0.45469090694085534,-0.4166870051763918,0.8409483054135343,-0.8771544896190184,-0.2037589077979547,-0.26175701211620517,0.265557504748144,-0.1306778297187794,-0.46661976112717896,0.15780407422581533,-0.8082264223890936,0.6546448480299902,-0.9845631760153672,0.6677324708883314,-0.07938725467767771,0.1620807284452883,0.33749594518426473,-0.6414531182501653,0.9132489752451824,-0.026818676347611925,-0.15805658673794265,0.26573958270655806,-0.5282465540340324,-0.6943758863582654,-0.21512358579925706,-0.6779533652516021,-0.9270309666195007,-0.428340401914753,0.24474580060072904,-0.25128128782199144,0.39449745853945895,0.2468431033653562,0.31950751706464686,0.6182496334554788,-0.39716674166363797,0.6688237363576621,0.4336323851790913,0.5502413918543512,0.27022202891277614,-0.8555624501612784,-0.005346215048158909,-0.17125223509187282,-0.9270309666195007,-0.032312290091389695,0.2375316192753043,0.6226356996015883,0.4082855870179629,-0.23077831216541722,0.8297014820235209,-0.29873998888397546],[0.7880855916368177,0.5826442985002787,-0.0773547002692121,-4.888270196095057E-4,0.21829202840889095,-0.32034001034499027,-0.9248446340399135,-0.6717816444835336,-0.1373808897290778,-0.3353514432305029,-0.3697050572653644,-0.11452811582755928,-0.9479018046108676,0.4903066124307711,-0.6582805242342049,0.6107814398427647,-0.6470779468607217,-0.8141063661170889,-0.9459402662357332,0.30127024368452515,0.7952336451814228,-0.6999823262974278,-0.7202012741452006,-0.3121157071110545,-0.68937393675138,0.03224723433795362,0.9775516645472899,-0.061766655837633744,0.16692329718223786,0.37649213869502973,-0.6914231522703247,-0.7684997525607482,0.25650877518152027,-0.91490878983207,0.8576897574823503,0.802801876248117,-0.13360921363003997,0.7638027721552718,-0.18852475957975456,-0.0804124466055729,-0.2049276879687938,0.1470694373531216,0.8611869575187896,-0.16071090204689953,-0.32951026378415094,-0.2172033896812946,0.22244041071176035,-0.2770587742156372,0.9423187750086648,0.7107229819632654,-0.9327363199679581,-0.9481390733242798,0.45215640988181516,0.6592209285686903,-0.7942032659310758,-0.2478254241316491,0.11807312551418647,0.39418662792516,0.241230188129544,-0.01199133038895095,0.4508991072414843,-0.05723224635402513,0.2057889391931318,0.7005669004769028,0.9699584106930381,-0.7417466269908464,0.22818964839784495,-0.1313593084680189,-0.8301132079817384,-0.341155869204381,0.8950061810239882,0.5918946980259567,0.012888126412166079,-0.22440768392359534,-0.9695067570891225,-0.7942032659310758,-0.792286205517398,-0.6535487038528798,0.7952676470618951,-0.1622831617066689],[0.6949189734965766,0.2245581140502393,-0.15359663581829275,-0.8951865090520432,0.2057889391931318,-0.10934126185887805,-0.03553655732400762,0.14826752863715287,-0.06293281348945645,0.4223352065067103,0.7155854123266114,0.7022211035026023,-0.0054267825103209155,0.10013925209542385,-0.26102723928249216,0.010688215941416779,-0.008461200645088818,0.19149664737804795,0.14380635780710693,-0.7549354840975826,-0.13079299081883855,-0.3200636493764861,0.15347083875928424,0.45507300685816965,0.1921083467305864,-0.4415459477380588,-0.04629010348662366,-0.2543488202081907,0.557963945418563,0.680182444769418,-0.9868193492722923,0.8266289890474885,-0.43311079737472014,0.1726291966578266,-0.6778773666126594,0.9993906921393696,0.02853723298406119,0.9543096383762801,0.03495894704368174,-0.3796528866115514,-0.008461200645088818,0.4913149749630017,-0.005334477339629995,0.5028129916613366,0.7951173116514345,0.2382406912119326,0.09198647857985232,0.5342432888482425,0.05146513075475534,0.6219295939613363,0.1268986517604549,0.09441503345243984,-0.07898439043103522,-0.32207498048636474,0.19609620625274982,0.5951317320731633,0.38202069577312625,-0.3926260640533046,0.2789036768568971,-0.1718140623934541,0.03324842612749346,-0.15965754121044196,-0.8294773786068643,0.01624459383903365,-0.1547651813493751,-0.2136729393256811,-0.9667272360042136,-0.4640338194317184,-0.011131919504026921,0.5249072912902939,0.39215001883617906,0.777574844324868,-0.47871398278230504,0.02272121490463097,0.060942700856587484,0.26479596144873896,-0.32045436544054096,0.3113047940487379,0.6269418147567556,0.9710114516962312],[-0.012455006209988184,-0.9535348121644429,-0.6547487772203857,0.8679112109377674,0.8894362304584083,-0.5592960925636103,0.29337797938742316,-0.1484460921171027,-0.9538618484055001,-0.7151884777228046,0.8388672800826487,0.47194271125243237,0.450599300176334,0.044051864095540516,0.6797318185095045,0.5819042550162274,-0.3586997841121309,0.6166574577055226,0.5730212324012205,-0.6221548127937524,-0.20925958437085557,-0.6411471147334535,0.7035095157544395,0.2345399211149981,-0.36222771685582544,0.6873490822438724,0.7509788029052338,0.6251162293059616,-0.6233567262129267,-0.7325256505394968,0.20173310976772196,-0.2869145406753686,-0.3854730785122864,-0.2117470067874525,-0.5186385138101719,0.8940554001662966,-0.8825687891702743,-0.2753410799237874,0.9994938603060983,-0.7990574622230739,0.5628723245749354,-0.5146998948220798,0.12598048009007923,0.12340188733473134,-0.839435659309717,-0.41036999011256103,-0.8619749890855313,-0.21669948473604972,0.8676906379376914,-0.08085673480956834,-0.7205131390795687,-0.6733987968026836,0.9949216290375054,0.2845724970797625,-0.13127371407538302,-0.43223317324200194,0.26397860162786957,0.45527588775737704,-0.9424989711186325,-0.6101406276364763,-0.2307778924009991,0.6977871128979924,0.3780766512494227,0.5756388056274442,0.9770979848265122,-0.2718953703494915,-0.9755858424230182,-0.519769534339731,0.7085914685883126,-0.7707452405154009,0.531795760866336,-0.021553400244979537,-0.1806835799958202,0.766314307210441,0.865876513623024,0.3892872094452817,-0.0932956557986735,-0.8921357494146682,0.47530696925672267,-0.4629102077669889],[-0.9510264953215406,0.7591795880911123,0.06296957473213705,0.786790093290086,-0.9527998391625465,-0.08573982501921895,0.46063248519950273,-0.6300791852713106,0.25415911467755015,-0.07664746267502509,-0.07670508770940399,0.14508027508253818,0.41304209196175257,-0.8483095460277152,-0.3723749994300696,0.03853098236933272,0.9619532039581042,-0.5031309357181766,-0.2062360260394529,0.17884522225228028,0.7062860670095161,0.7576193329655578,0.09030511120334461,-0.566581567914348,-0.9107951763247621,-0.34089385162121943,-0.9240459588975201,-0.4212518904108733,0.18480349982718325,0.9096831749095413,0.5891192531479754,0.29862103742464274,-0.36153976712796343,0.2755107907750989,-0.09649124978113521,0.3001336202535376,0.34490251346382617,-0.517860849841878,0.5562688292037381,0.09579006238221122,0.31302496164254223,-0.25782888805127024,-0.9874007658402217,-0.20661318091010905,0.6787302541469229,-0.20000365834952571,0.1250679146774638,-0.9087681208947878,-0.6888351241194393,0.6077343683084389,-0.1407178879203672,0.12960233233004925,-0.4236196478321872,0.404977305063819,-0.8755754953628643,-0.884351103859494,-0.9289030925610586,0.40690300256653256,0.1047791244647105,-0.1347817448365516,-0.1802575775708093,-0.991006951265341,-0.6961282565940405,0.013953616410367298,0.15820786959182898,0.09377558075225512,-0.9179510577925369,-0.8110526002482434,0.15598422797252187,0.8000590966291723,-0.4270167172651922,0.01997502546020402,-0.8827928315487465,0.0015067327562410249,0.015544482147298977,0.9652687138748801,-0.3200177136553326,0.0926833703812433,0.17728148663006627,0.47818190728952925]],"W2":[[-0.5162518174930761,0.5942168461256001,0.7352292800096338,-0.4985685812001237,-0.5914381308256325]],"b1":[[-0.0039053699212856507],[0.08346855607715153],[0.008643477632712449],[0.5283033206569152],[0.7605891881836981]]}}
{"agentName":"7-6","fitness":107.91,"data":{"A1":[[0.4952380792524693,-0.11464089360698893,0.0,121.50065913831148,-0.7743343367502893]],"b2":[[0.9210457272560042]],"A2":[[1.0]],"W1":[[-0.4064407447273508,0.36644694351969087,-0.38256108933468047,-0.4458430198517267,0.33109790358914726,0.8067445293443565,-0.2624341731773887,-0.44850386111659524,-0.6320022059786656,0.4117636429771936,-0.6577177233364067,-0.1270180511534269,-0.2175434951690829,-0.22686625128130267,-0.7005449362447573,0.18869982177936828,0.46000586508353614,-0.06906958672519137,-0.25123362706646457,-0.7001794298444595,-0.21891970682925788,0.5227275493542325,0.16004976900412138,0.505019897181302,-0.37213210747743175,0.23307375028657118,0.6355938616712786,-0.1646249064941625,0.9480713629917628,0.42681251564645817,-0.45469090694085534,-0.4166870051763918,0.8409483054135343,-0.8771544896190184,-0.2037589077979547,-0.26175701211620517,0.265557504748144,-0.1306778297187794,-0.46661976112717896,0.15780407422581533,-0.8082264223890936,0.6546448480299902,-0.9845631760153672,0.6677324708883314,-0.07938725467767771,0.1620807284452883,0.33749594518426473,-0.6414531182501653,0.9132489752451824,-0.026818676347611925,-0.15805658673794265,0.26573958270655806,-0.5282465540340324,-0.6943758863582654,-0.21512358579925706,-0.6779533652516021,-0.9270309666195007,-0.428340401914753,0.24474580060072904,-0.25128128782199144,0.39449745853945895,0.2468431033653562,0.31950751706464686,0.6182496334554788,-0.39716674166363797,0.6688237363576621,0.4336323851790913,0.5502413918543512,0.27022202891277614,-0.8555624501612784,-0.005346215048158909,-0.17125223509187282,-0.9270309666195007,-0.032312290091389695,0.2375316192753043,0.6226356996015883,0.4082855870179629,-0.23077831216541722,0.8297014820235209,-0.29873998888397546],[0.7880855916368177,0.5826442985002787,-0.0773547002692121,-4.888270196095057E-4,0.21829202840889095,-0.32034001034499027,-0.9248446340399135,-0.6717816444835336,-0.1373808897290778,-0.3353514432305029,-0.3697050572653644,-0.11452811582755928,-0.9479018046108676,0.4903066124307711,-0.6582805242342049,0.6107814398427647,-0.6470779468607217,-0.8141063661170889,-0.9459402662357332,0.30127024368452515,0.7952336451814228,-0.6999823262974278,-0.7202012741452006,-0.3121157071110545,-0.68937393675138,0.03224723433795362,0.9775516645472899,-0.061766655837633744,0.16692329718223786,0.37649213869502973,-0.6914231522703247,-0.7684997525607482,0.25650877518152027,-0.91490878983207,0.8576897574823503,0.802801876248117,-0.13360921363003997,0.7638027721552718,-0.18852475957975456,-0.0804124466055729,-0.2049276879687938,0.1470694373531216,0.8611869575187896,-0.16071090204689953,-0.32951026378415094,-0.2172033896812946,0.22244041071176035,-0.2770587742156372,0.9423187750086648,0.7107229819632654,-0.9327363199679581,-0.9481390733242798,0.45215640988181516,0.6592209285686903,-0.7942032659310758,-0.2478254241316491,0.11807312551418647,0.39418662792516,0.241230188129544,-0.01199133038895095,0.4508991072414843,-0.05723224635402513,0.2057889391931318,0.7005669004769028,0.9699584106930381,-0.7417466269908464,0.22818964839784495,-0.1313593084680189,-0.8301132079817384,-0.341155869204381,0.8950061810239882,0.5918946980259567,0.012888126412166079,-0.22440768392359534,-0.9695067570891225,-0.7942032659310758,-0.792286205517398,-0.6535487038528798,0.7952676470618951,-0.1622831617066689],[0.6949189734965766,0.2245581140502393,-0.15359663581829275,-0.8951865090520432,0.2057889391931318,-0.10934126185887805,-0.03553655732400762,0.14826752863715287,-0.06293281348945645,0.4223352065067103,0.7155854123266114,0.7022211035026023,-0.0054267825103209155,0.10013925209542385,-0.26102723928249216,0.010688215941416779,-0.008461200645088818,0.19149664737804795,0.14380635780710693,-0.7549354840975826,-0.13079299081883855,-0.3200636493764861,0.15347083875928424,0.45507300685816965,0.1921083467305864,-0.4415459477380588,-0.04629010348662366,-0.2543488202081907,0.557963945418563,0.680182444769418,-0.9868193492722923,0.8266289890474885,-0.43311079737472014,0.1726291966578266,-0.6778773666126594,0.9993906921393696,0.02853723298406119,0.9543096383762801,0.03495894704368174,-0.3796528866115514,-0.008461200645088818,0.4913149749630017,-0.005334477339629995,0.5028129916613366,0.7951173116514345,0.2382406912119326,0.09198647857985232,0.5342432888482425,0.05146513075475534,0.6219295939613363,0.1268986517604549,0.09441503345243984,-0.07898439043103522,-0.32207498048636474,0.19609620625274982,0.5951317320731633,0.38202069577312625,-0.3926260640533046,0.2789036768568971,-0.1718140623934541,0.03324842612749346,-0.15965754121044196,-0.8294773786068643,0.01624459383903365,-0.1547651813493751,-0.2136729393256811,-0.9667272360042136,-0.4640338194317184,-0.011131919504026921,0.5249072912902939,0.39215001883617906,0.777574844324868,-0.47871398278230504,0.02272121490463097,0.060942700856587484,0.26479596144873896,-0.32045436544054096,0.3113047940487379,0.6269418147567556,0.9710114516962312],[-0.012455006209988184,-0.9535348121644429,-0.6547487772203857,0.8679112109377674,0.8894362304584083,-0.5592960925636103,0.29337797938742316,-0.1484460921171027,-0.9538618484055001,-0.7151884777228046,0.8388672800826487,0.47194271125243237,0.450599300176334,0.044051864095540516,0.6797318185095045,0.5819042550162274,-0.3586997841121309,0.6166574577055226,0.5730212324012205,-0.6221548127937524,-0.20925958437085557,-0.6411471147334535,0.7035095157544395,0.2345399211149981,-0.36222771685582544,0.6873490822438724,0.7509788029052338,0.6251162293059616,-0.6233567262129267,-0.7325256505394968,0.20173310976772196,-0.2869145406753686,-0.3854730785122864,-0.2117470067874525,-0.5186385138101719,0.8940554001662966,-0.8825687891702743,-0.2753410799237874,0.9994938603060983,-0.7990574622230739,0.5628723245749354,-0.5146998948220798,0.12598048009007923,0.12340188733473134,-0.839435659309717,-0.41036999011256103,-0.8619749890855313,-0.21669948473604972,0.8676906379376914,-0.08085673480956834,-0.7205131390795687,-0.6733987968026836,0.9949216290375054,0.2845724970797625,-0.13127371407538302,-0.43223317324200194,0.26397860162786957,0.45527588775737704,-0.9424989711186325,-0.6101406276364763,-0.2307778924009991,0.6977871128979924,0.3780766512494227,0.5756388056274442,0.9770979848265122,-0.2718953703494915,-0.9755858424230182,-0.519769534339731,0.7085914685883126,-0.7707452405154009,0.531795760866336,-0.021553400244979537,-0.1806835799958202,0.766314307210441,0.865876513623024,0.3892872094452817,-0.0932956557986735,-0.8921357494146682,0.47530696925672267,-0.4629102077669889],[-0.9510264953215406,0.7591795880911123,0.06296957473213705,0.786790093290086,-0.9527998391625465,-0.08573982501921895,0.46063248519950273,-0.6300791852713106,0.25415911467755015,-0.07664746267502509,-0.07670508770940399,0.14508027508253818,0.41304209196175257,-0.8483095460277152,-0.3723749994300696,0.03853098236933272,0.9619532039581042,-0.5031309357181766,-0.2062360260394529,0.17884522225228028,0.7062860670095161,0.7576193329655578,0.09030511120334461,-0.566581567914348,-0.9107951763247621,-0.34089385162121943,-0.9240459588975201,-0.4212518904108733,0.18480349982718325,0.9096831749095413,0.5891192531479754,0.29862103742464274,-0.36153976712796343,0.2755107907750989,-0.09649124978113521,0.3001336202535376,0.34490251346382617,-0.517860849841878,0.5562688292037381,0.09579006238221122,0.31302496164254223,-0.25782888805127024,-0.9874007658402217,-0.20661318091010905,0.6787302541469229,-0.20000365834952571,0.1250679146774638,-0.9087681208947878,-0.6888351241194393,0.6077343683084389,-0.1407178879203672,0.12960233233004925,-0.4236196478321872,0.404977305063819,-0.8755754953628643,-0.884351103859494,-0.9289030925610586,0.40690300256653256,0.1047791244647105,-0.1347817448365516,-0.1802575775708093,-0.991006951265341,-0.6961282565940405,0.013953616410367298,0.15820786959182898,0.09377558075225512,-0.9179510577925369,-0.8110526002482434,0.15598422797252187,0.8000590966291723,-0.4270167172651922,0.01997502546020402,-0.8827928315487465,0.0015067327562410249,0.015544482147298977,0.9652687138748801,-0.3200177136553326,0.0926833703812433,0.17728148663006627,0.47818190728952925]],"W2":[[-0.5162518174930761,0.5942168461256001,0.7352292800096338,-0.4985685812001237,-0.5914381308256325]],"b1":[[-0.0039053699212856507],[0.08346855607715153],[0.008643477632712449],[0.5283033206569152],[0.7605891881836981]]}}
{"agentName":"12-8","fitness":108.0,"data":{"A1":[[-0.6260318469666994,-0.07393644196055371,0.30592969348132737,-0.4486514880306143,0.7727315258570273]],"b2":[[-0.7257821516536285]],"A2":[[1.0]],"W1":[[-0.4064407447273508,0.5367444238963412,0.34224988847514903,-0.4458430198517267,-0.16087295277981184,0.8067445293443565,-0.2624341731773887,-0.6305611111716058,-0.5759986652725586,0.7076768449222823,-0.0037032072908746994,0.07852142327315215,0.9529591148099432,-0.7162801738068216,-0.4447782792447148,0.3122205179639288,-0.41535926289082337,-0.06906958672519137,-0.6555641246242951,0.17485476357259122,0.3236605819148628,0.4731404935559438,-0.5312527320562079,0.505019897181302,-0.37213210747743175,-0.32000468253953795,0.6355938616712786,-0.1646249064941625,-0.24120954993458255,-0.7990905810111428,-0.2797991848312835,-0.3187236556867381,0.7829404745791626,-0.6541885434939689,0.6837005255118482,-0.26175701211620517,-0.2794902492677298,0.1641811649565197,-0.6887479498611446,-0.42983296535735627,-0.15084802609446712,-0.6745139728816198,0.8242907401987747,0.6677324708883314,-0.07938725467767771,0.35045778714604836,-0.32762701333842403,-0.6414531182501653,0.5921944044136818,-0.8300257511553704,0.9893935051556009,0.36753159906183663,0.3997172901343442,-0.3693430998846541,-0.21512358579925706,-0.23515400770467476,-0.5829327686191281,-0.4116475304151894,0.2324273700703574,-0.11935964341570204,0.39449745853945895,0.2468431033653562,0.11234085003624883,0.8233816197681398,0.2558665508269453,-0.2331352688540913,-0.5465837680355523,-0.7782111242108654,0.5119063871862317,-0.8555624501612784,-0.6043986458683208,-0.17125223509187282,-0.9270309666195007,-0.6963717147916708,0.18717576306161754,0.45474237257350514,0.8803449313707621,-0.23077831216541722,0.09136380704424174,0.9151021370330776],[-0.09364321109934193,0.5489052917076969,-0.0773547002692121,0.8037370124316623,-0.8881715405816453,0.6191882496201251,-0.4732952637987802,0.5105797378780899,-0.1373808897290778,-0.3353514432305029,-0.7415075944989711,0.18362752778508074,-0.807098168238352,0.4903066124307711,-0.4393353980124799,-0.6429010035475551,-0.0960548600022384,-0.34546127698724094,0.9530620793474875,-0.20580468214814673,-0.7849929227026593,0.4227006389481569,0.8090021580031235,-0.3121157071110545,-0.9718883630945336,0.18553269388545846,0.0429886073795116,0.670311110015402,0.16692329718223786,-0.6941390051066101,-0.6914231522703247,-0.5743045434116167,-0.8213657923952618,-0.5495148096731575,-0.8118770272614171,-0.058393905306898475,0.9028541693224117,0.7264699005845152,-0.18852475957975456,-0.08089041306688483,-0.2049276879687938,0.1470694373531216,0.7297684209058848,0.2506523416366695,-0.32951026378415094,-0.725147406843704,0.5697426971647488,0.06916423790732895,0.47596326458377436,0.7107229819632654,-0.3205057828114841,-0.21303353642494183,0.45215640988181516,-0.9132505145856944,-0.9582169508795049,0.5707718687940757,0.11807312551418647,0.5029517571953444,-0.6797384914236382,0.582614706794292,-0.8422873061087073,-0.023238502353077006,-0.42039282350469764,0.5512906851486301,-0.7230847341398785,-0.7417466269908464,0.3654556123461423,-0.056338057317868895,0.9298796204841986,-0.341155869204381,-0.6770037320641389,-0.36738398297408925,0.6511627718174153,-0.0429009939121856,0.1273565403542134,-0.7942032659310758,-0.07393488085505129,-0.8099380815762958,0.3777738072672272,-0.676945919084927],[0.33031690550008674,0.6418716558446556,-0.15359663581829275,-0.499678192574992,0.2057889391931318,-0.6676656789571533,-0.29753506190274503,0.9043987882512479,-0.5885959767767808,0.4223352065067103,0.35278245969741096,0.7022211035026023,0.5686638754605697,-0.05671811923471104,-0.26102723928249216,0.010688215941416779,-0.8889819013323943,0.16291431605736761,-0.7820597664682181,0.5054847946292962,-0.1211181149177416,0.0983382230287082,0.15347083875928424,0.45507300685816965,-0.22784731758363952,-0.8027863965371105,0.9119094332797095,-0.8836046256075707,0.2927051050236915,0.680182444769418,-0.9144144423580074,0.4310524089828782,-0.9334490474699695,-0.24222786202803404,-0.6778773666126594,0.5138158449235553,0.1789490173139363,0.9543096383762801,-0.8386992355912786,-0.87698776089538,0.6838891922913868,0.6033979783346641,-0.005334477339629995,-0.001741874541200339,0.7951173116514345,0.4169024053700503,0.09198647857985232,0.5342432888482425,0.05146513075475534,-0.636388664131847,0.6349990172757958,-0.26316868308761077,-0.07898439043103522,-0.95670020240661,0.19609620625274982,0.13745159809705254,0.34887274706080085,-0.3926260640533046,0.2789036768568971,-0.04739001406952026,0.03324842612749346,-0.6271093602756359,0.5188360296755763,0.4779300418486736,0.3416929741581791,0.6972022950433363,-0.3560717005247578,-0.4640338194317184,-0.5068183686289025,-0.7001714371627699,-0.5502473309307616,-0.6783644553523549,0.28482625929134686,0.07148962163372174,-0.5047649289302389,0.26479596144873896,-0.32045436544054096,0.32266042410449414,0.6269418147567556,0.873533364599379],[0.01715676997104909,0.42132700180827354,0.7929395111016606,0.8679112109377674,0.8226627245883138,-0.454698470147731,-0.6878270872226702,0.10963208879144815,-0.9348094994936964,-0.6751749897584343,0.8388672800826487,0.47194271125243237,0.450599300176334,0.6983036430129144,0.6797318185095045,-0.8235878948137039,0.5004362631386594,-0.39227224954187756,0.9764115737107883,-0.4194925751047054,-0.20925958437085557,-0.6411471147334535,-0.6946787661316489,-0.3963548745540999,-0.8087570254841763,-0.3844074172895817,0.7509788029052338,0.6251162293059616,0.10107858874430731,-0.7325256505394968,0.20173310976772196,-0.6195398047215348,-0.9330152765014097,-0.4287427668088315,-0.8652952868824035,0.8940554001662966,-0.30973630455371826,0.23961036797185664,0.931865897311686,0.03297021536236344,-0.39420048734465474,-0.5146998948220798,0.12598048009007923,0.9504493583580944,-0.839435659309717,0.2769323821852121,0.7544347651143466,0.9743254862463182,0.5263367687400995,0.8407561415075087,-0.24883887499597535,-0.6411471147334535,-0.3918328316628028,0.17462830847596322,-0.7870468655174649,-0.36222771685582544,0.8079917430352299,0.45527588775737704,-0.7602935510082152,0.2560640186861891,0.7381820343025571,0.6977871128979924,0.3780766512494227,0.4602538092033419,0.6927652103832151,0.09985730624684575,-0.305462725595103,-0.519769534339731,-0.7294587311376761,-0.7707452405154009,0.37929821892417404,-0.023994362084411636,-0.1806835799958202,-0.8636936566440099,0.865876513623024,0.3892872094452817,-0.0932956557986735,0.9586218970357061,0.47530696925672267,-0.4571115053834309],[-0.9510264953215406,0.30209576209596145,-0.7483438060761363,0.786790093290086,0.7910186940880111,0.9946846033576151,-0.7131114601075448,0.7818923771556088,0.25415911467755015,0.7148615170849217,-0.5322060511556375,0.22657828962585902,0.41304209196175257,-0.8600226867572149,-0.3723749994300696,0.10464357614207054,0.644388156775465,-0.5031309357181766,-0.5068964957905915,-0.2536279370129244,-0.646831913432063,0.7576193329655578,0.09030511120334461,-0.041361652976896535,0.4235894771024926,-0.5693796523107029,0.6139458820957686,0.8874117331695022,-0.9570185851370963,-0.10634020919623555,-0.7189435849557588,0.14456387342794907,-0.36153976712796343,0.06513395372386,-0.22672513691161766,0.3001336202535376,0.34490251346382617,0.41630296946795076,0.5562688292037381,0.657403324633723,0.31302496164254223,-0.25782888805127024,-0.8562467573449808,-0.641796559022161,0.6787302541469229,0.40685508943741344,-0.2445200896171471,0.7140593886456357,-0.9964812747161178,-0.011457953473368532,-0.1407178879203672,0.12960233233004925,-0.4236196478321872,0.5543056804368978,-0.8755754953628643,0.43510636172714734,0.6831701568285653,0.975752194237081,0.32984303335155785,0.6773328479023835,-0.15365242972141702,0.3597571290755541,0.1650281870737249,-0.20136679647142275,0.9182854134226501,0.09377558075225512,-0.01845518953939229,0.18480349982718325,0.9172168990099139,0.6099615504974201,-0.6877856114263066,0.7358986157999297,-0.8827928315487465,0.2755107907750989,0.038269331066674406,-0.2309809981978268,0.6622667860970648,0.49835224996909955,0.17728148663006627,-0.2530834498930845]],"W2":[[-0.669985463451992,-0.8922148649379422,0.7352292800096338,0.8860322286740037,0.6748068653962045]],"b1":[[0.9303499699611406],[0.03643446587894239],[0.16161525665743914],[0.10007723014010272],[0.3469111543845367]]}}
