[{"agentName":"0-0","fitness":0.09757233411073685,"data":{"A1":[[0.3190209951376819,3.5756355820893955,0.0,0.0,0.452564653612719]],"b2":[[-0.5850843421161205],[0.1250679146774638]],"A2":[[0.7247966203487074,0.11977260077572803]],"W1":[[0.4551273600657362,0.36644694351969087,-0.38256108933468047,-0.4458430198517267,0.33109790358914726,0.8067445293443565,-0.2624341731773887,-0.44850386111659524,-0.07269284838169332,0.5658035575800715,0.8386555657374337,-0.1270180511534269,0.499812362510895,-0.22686625128130267,-0.6452430441812433,0.18869982177936828,-0.5804648622673358,0.651931743775642,-0.6555641246242951,0.17485476357259122,0.5025608135349202,0.14208069682973434,0.16004976900412138,0.505019897181302,-0.9371635223468384,-0.2841601610457427,0.6355938616712786,-0.1646249064941625,0.9480713629917628,0.42681251564645817,-0.0388509668871313,-0.4166870051763918,0.8997202693189332,0.6409836467726933,0.273289095712564,-0.26175701211620517,-0.2794902492677298,-0.1306778297187794,-0.08536581111046115,-0.05462315824828923,-0.06195495876886281,0.6546448480299902,-0.6979368909424835,0.6677324708883314,-0.07938725467767771,-0.43885601665437957,-0.608071585153688,-0.6414531182501653,0.7313735926547045,-0.026818676347611925,-0.15805658673794265,0.26573958270655806,0.3997172901343442,-0.3693430998846541,0.14324061105995334,-0.25797542063247825,0.7436291919296774,0.6114618853239959,0.2324273700703574,-0.25128128782199144,0.39449745853945895,0.817229160415142,-0.6077058562362969,0.6182496334554788,0.2558665508269453,-0.07320145794330979,-0.38884168866510227,0.07981886851873865,0.27022202891277614,-0.7474843534024693],[-0.005346215048158909,-0.9453716674280683,-0.9270309666195007,-0.032312290091389695,0.31010676221964206,-0.20846743965751569,0.8803449313707621,-0.23077831216541722,0.29246395759528565,0.5409312755478819,0.7880855916368177,0.19767407429003536,0.9520689432368168,-0.845829774129496,0.5502413918543512,-0.44235539500246457,0.7984106594591154,-0.2523277127589152,-0.1373808897290778,-0.3353514432305029,-0.3697050572653644,-0.11452811582755928,-0.807098168238352,0.4903066124307711,-0.6582805242342049,0.6107814398427647,-0.7204208094262783,-0.8141063661170889,-0.9459402662357332,0.09666938346350307,-0.43560342773870375,0.9349906440170221,0.8090021580031235,-0.3121157071110545,-0.9718883630945336,0.6191882496201251,0.0429886073795116,0.670311110015402,0.16692329718223786,0.37649213869502973,0.11276440263810383,-0.7684997525607482,0.1770172737885798,0.7902845707138706,0.2529503304079441,-0.23483801763662826,0.8072501895004851,0.6673992021927047,-0.4796127376677324,0.9244724404994455,-0.2049276879687938,0.1470694373531216,-0.48366999792166787,0.643491115907358,0.3183669486383729,0.22821350958477082,-0.023605251086149304,-0.2770587742156372,0.47596326458377436,0.7107229819632654,-0.3205057828114841,0.51605972926996,0.45215640988181516,0.01712446974606241,0.5508198371849293,-0.2478254241316491,0.7256483175955235,0.39418662792516,-0.6797384914236382,0.6001217520150142],[0.4508991072414843,0.589749448443134,0.6464818311502738,0.7005669004769028,0.9699584106930381,-0.7417466269908464,0.22818964839784495,0.08574936236270037,-0.6945765138377225,0.06915201979238828,0.09798746565879424,-0.34288007110901964,0.440249350802451,-0.22440768392359534,-0.9695067570891225,-0.7942032659310758,-0.792286205517398,-0.6535487038528798,0.7952676470618951,-0.1622831617066689,0.6949189734965766,-0.32697929564739403,-0.15359663581829275,-0.8951865090520432,0.2057889391931318,-0.6676656789571533,-0.03553655732400762,0.14550349954571096,0.034600542078191854,0.4223352065067103,0.35278245969741096,0.7022211035026023,0.5686638754605697,-0.4202155290448111,-0.26102723928249216,0.010688215941416779,-0.4311544807877927,0.9500151672991208,0.14380635780710693,-0.7549354840975826,-0.13079299081883855,0.0983382230287082,0.15347083875928424,0.45507300685816965,0.1921083467305864,0.6361110540492223,0.7675261182370992,-0.2543488202081907,0.2927051050236915,0.680182444769418,-0.8062832278617296,0.8266289890474885,0.22684501241708888,0.1726291966578266,-0.6778773666126594,0.9993906921393696,0.1789490173139363,0.5584053824232391,0.03495894704368174,-0.8505720014852347,-0.008461200645088818,-0.648273596036564,-0.005334477339629995,0.3781469006858833,0.30565234666790686,-0.2822867492866177,0.10175120738413801,0.5342432888482425,0.05146513075475534,-0.6459729964194652],[0.42519013450094767,0.09441503345243984,-0.07898439043103522,-0.32207498048636474,-0.9180071861219266,0.5951317320731633,0.41000814588717693,-0.3926260640533046,0.2789036768568971,0.13163692286014528,0.03324842612749346,0.07055844751995122,-0.47199515597021113,-0.682690342465275,0.3983414713797069,-0.2136729393256811,-0.09066563475481249,-0.4640338194317184,-0.03513782089224482,-0.1711809802758364,0.1774546460228057,-0.6783644553523549,-0.47871398278230504,0.02272121490463097,-0.5047649289302389,0.26479596144873896,-0.32045436544054096,0.3113047940487379,0.6269418147567556,0.9710114516962312,0.01715676997104909,0.8975962429865936,-0.46594560920034134,0.2873623499953055,0.8894362304584083,0.17973981232418468,0.49105791400707743,-0.7359842740294882,0.38941133808001127,-0.7151884777228046,0.07478785545033317,-0.8672651994084235,0.450599300176334,0.35104802298560056,0.6797318185095045,-0.03891997518827006,-0.33208695871398675,0.6166574577055226,0.5730212324012205,-0.4194925751047054,0.054527683864544096,-0.15591931640565093,0.9266742559542833,0.888522581905147,0.6576203900699167,0.6417770212400336,0.7509788029052338,-0.3104974571382815,0.7234744267051683,-0.15869049651427103,0.20173310976772196,0.8657502566551409,0.9325160601080682,0.24570884032596263,-0.6546108813337841,-0.14020032028377583,-0.8825687891702743,-0.21420166926412865,-0.8600275184792756,-0.7990574622230739],[0.8325875503351796,-0.5956350140619129,0.12598048009007923,0.12340188733473134,-0.839435659309717,-0.16623481818728414,0.12028795301041662,-0.7994713170657952,0.2216721974907896,0.8407561415075087,-0.9325810772922609,-0.6411471147334535,0.9949216290375054,0.483048267470493,-0.8736297429070232,-0.36222771685582544,0.26397860162786957,0.45527588775737704,-0.9424989711186325,0.6251162293059616,-0.2307778924009991,0.6977871128979924,0.022830408261390822,0.6257738824362347,0.9770979848265122,0.09985730624684575,-0.9755858424230182,-0.689969833240031,-0.7294587311376761,0.3496326193951331,0.37929821892417404,0.8402056881660709,-0.1806835799958202,0.766314307210441,0.865876513623024,-0.7113501219432434,-0.0932956557986735,-0.7042025810921411,0.47530696925672267,-0.4629102077669889,-0.9309578475799722,0.7591795880911123,0.06296957473213705,0.786790093290086,-0.9527998391625465,-0.08573982501921895,-0.3812232026687308,-0.6890669703685022,0.25415911467755015,-0.07664746267502509,0.3614756404325046,0.14508027508253818,0.23042774014795753,0.4164348685332022,0.4109091750657461,0.03853098236933272,0.38911994885223145,-0.5031309357181766,-0.596467768575587,0.17884522225228028,0.24508864174863,0.7576193329655578,0.09030511120334461,0.9537528991778741,-0.7224092160621338,-0.34089385162121943,0.6924170720838818,0.32912306214891784,-0.4064624712125904,-0.5344662061201593]],"W2":[[0.3001336202535376,0.34490251346382617,0.2072633053920192,-0.5659371284058774,0.49599636156628835],[0.31302496164254223,-0.6062773982342133,-0.9874007658402217,-0.6214904627601421,-0.11421073677207683]],"b1":[[0.5891192531479754],[0.29862103742464274],[-0.36153976712796343],[-0.6552669564323226],[-0.22672513691161766]]}},
  {"agentName":"1-0","fitness":0.09757233411073685,"data":{"A1":[[0.8694895501217755,3.364668186616325,0.0,0.0826847212800157,2.035514057531946]],"b2":[[-0.5850843421161205],[0.1250679146774638]],"A2":[[0.8684824563083647,0.1271331843405916]],"W1":[[0.4551273600657362,0.36644694351969087,-0.38256108933468047,-0.4458430198517267,0.33109790358914726,0.8067445293443565,0.35791991947712865,-0.44850386111659524,-0.07269284838169332,0.5658035575800715,0.8386555657374337,-0.1270180511534269,0.499812362510895,-0.22686625128130267,-0.6452430441812433,0.18869982177936828,-0.5804648622673358,0.651931743775642,-0.6555641246242951,0.7253233185566849,0.5025608135349202,0.14208069682973434,0.16004976900412138,0.7034515012832663,0.6649215166757789,-0.2841601610457427,0.6355938616712786,-0.1646249064941625,0.9480713629917628,0.42681251564645817,0.9591427067113251,-0.4166870051763918,0.8997202693189332,0.6409836467726933,0.273289095712564,-0.26175701211620517,-0.2794902492677298,-0.1306778297187794,-0.08536581111046115,-0.05462315824828923,-0.06195495876886281,0.6546448480299902,-0.6979368909424835,0.6677324708883314,-0.07938725467767771,-0.43885601665437957,-0.608071585153688,-0.6414531182501653,0.7313735926547045,-0.026818676347611925,-0.15805658673794265,0.26573958270655806,0.03648451669024966,-0.3693430998846541,0.14324061105995334,-0.25797542063247825,0.7436291919296774,0.6114618853239959,0.2324273700703574,-0.25128128782199144,0.39449745853945895,0.817229160415142,-0.6077058562362969,0.7751206959271756,0.2558665508269453,-0.07320145794330979,-0.38884168866510227,0.07981886851873865,0.27022202891277614,-0.7474843534024693],[-0.005346215048158909,0.7451533062153856,-0.9270309666195007,-0.032312290091389695,0.31010676221964206,0.02702986688213338,0.8803449313707621,-0.23077831216541722,0.29246395759528565,0.5409312755478819,0.7880855916368177,0.8095941248100625,0.9520689432368168,-0.845829774129496,0.8045950757088927,0.5789020371129077,0.7984106594591154,-0.2523277127589152,-0.1373808897290778,-0.3353514432305029,-0.3697050572653644,-0.11452811582755928,-0.807098168238352,0.4903066124307711,-0.6582805242342049,0.6107814398427647,-0.7204208094262783,-0.8141063661170889,-0.9459402662357332,0.09666938346350307,-0.43560342773870375,0.9349906440170221,0.8090021580031235,-0.3121157071110545,-0.9718883630945336,0.6191882496201251,0.0429886073795116,0.6234215516826781,0.16692329718223786,0.37649213869502973,0.11276440263810383,-0.7684997525607482,0.1770172737885798,0.7902845707138706,0.2529503304079441,-0.23483801763662826,0.8072501895004851,0.6673992021927047,-0.4796127376677324,0.9244724404994455,-0.2049276879687938,0.1470694373531216,-0.48366999792166787,0.643491115907358,0.3183669486383729,0.22821350958477082,-0.023605251086149304,-0.2770587742156372,0.47596326458377436,0.49975558649019525,0.10289836703446209,0.51605972926996,0.45215640988181516,0.01712446974606241,0.5508198371849293,-0.2478254241316491,0.7256483175955235,0.39418662792516,0.6028944695965659,0.6001217520150142],[0.4508991072414843,0.589749448443134,0.17646102656963913,0.7005669004769028,0.9699584106930381,-0.7417466269908464,0.22818964839784495,0.08574936236270037,-0.6945765138377225,0.06915201979238828,0.09798746565879424,-0.34288007110901964,0.440249350802451,-0.22440768392359534,-0.9695067570891225,-0.7942032659310758,-0.792286205517398,-0.6535487038528798,0.7952676470618951,-0.1622831617066689,0.6949189734965766,-0.32697929564739403,-0.15359663581829275,-0.8951865090520432,0.9133144945237442,-0.6676656789571533,-0.03553655732400762,0.14550349954571096,0.9305934787593948,0.4223352065067103,0.35278245969741096,0.7022211035026023,0.7848713485823744,-0.4202155290448111,-0.26102723928249216,0.010688215941416779,-0.4311544807877927,0.9500151672991208,0.14380635780710693,0.8296104642843452,-0.13079299081883855,0.0983382230287082,0.15347083875928424,0.45507300685816965,0.1921083467305864,0.6361110540492223,0.7975658660365816,-0.2543488202081907,0.2927051050236915,0.680182444769418,-0.8062832278617296,0.8266289890474885,0.22684501241708888,0.1726291966578266,-0.6778773666126594,0.9993906921393696,0.1789490173139363,0.5584053824232391,0.03495894704368174,-0.8505720014852347,-0.008461200645088818,-0.648273596036564,-0.005334477339629995,0.3781469006858833,0.30565234666790686,-0.2822867492866177,0.10175120738413801,0.5342432888482425,0.05146513075475534,-0.6459729964194652],[0.42519013450094767,0.09441503345243984,-0.07898439043103522,-0.32207498048636474,-0.9180071861219266,0.5951317320731633,0.41000814588717693,-0.3926260640533046,0.2789036768568971,0.13163692286014528,0.03324842612749346,0.07055844751995122,0.725299650088167,-0.682690342465275,0.3983414713797069,-0.2136729393256811,-0.09066563475481249,-0.4640338194317184,-0.03513782089224482,-0.1711809802758364,0.1774546460228057,-0.6783644553523549,-0.47871398278230504,0.02272121490463097,-0.5047649289302389,0.26479596144873896,-0.32045436544054096,0.3113047940487379,0.6269418147567556,0.9710114516962312,0.01715676997104909,0.8975962429865936,-0.46594560920034134,0.9771548191881401,0.8894362304584083,0.17973981232418468,0.3928991653679357,0.10047126888846303,0.38941133808001127,-0.7151884777228046,0.07478785545033317,-0.8672651994084235,0.5459932392899262,0.35104802298560056,0.6797318185095045,-0.03891997518827006,-0.33208695871398675,0.17942644263327323,0.5730212324012205,-0.4194925751047054,0.3188861415720873,-0.15591931640565093,0.9266742559542833,0.8125581146529808,0.6576203900699167,0.6417770212400336,0.7509788029052338,-0.3104974571382815,0.2181032654227164,0.25383915490422015,0.42261740932531244,0.8657502566551409,0.9325160601080682,0.24570884032596263,-0.6546108813337841,-0.14020032028377583,-0.8825687891702743,-0.21420166926412865,-0.8600275184792756,-0.7990574622230739],[0.8325875503351796,-0.5956350140619129,0.12598048009007923,0.8795897940455562,-0.839435659309717,-0.16623481818728414,0.4571300874903905,0.7106635009041368,0.2216721974907896,0.9339556054688837,-0.9325810772922609,-0.6411471147334535,0.6466889896937116,0.483048267470493,-0.8736297429070232,-0.36222771685582544,0.26397860162786957,0.7359713556262162,-0.9424989711186325,0.6251162293059616,-0.2307778924009991,0.6977871128979924,0.022830408261390822,0.6257738824362347,0.9770979848265122,0.09985730624684575,0.3953702078145722,-0.689969833240031,-0.7294587311376761,0.3496326193951331,0.37929821892417404,0.8402056881660709,-0.1806835799958202,0.766314307210441,0.865876513623024,-0.7113501219432434,-0.0932956557986735,-0.7042025810921411,0.47530696925672267,-0.4629102077669889,-0.9309578475799722,0.7591795880911123,0.06296957473213705,0.18925476861992896,-0.9527998391625465,-0.08573982501921895,-0.3812232026687308,-0.6890669703685022,0.25415911467755015,-0.07664746267502509,0.3614756404325046,0.14508027508253818,0.23042774014795753,0.4164348685332022,0.39688198698027355,0.03853098236933272,0.38911994885223145,-0.5031309357181766,-0.596467768575587,0.17884522225228028,0.04460241183761893,0.7576193329655578,0.09030511120334461,0.9537528991778741,0.5924017499135916,-0.34089385162121943,0.6924170720838818,0.32912306214891784,0.6287526918818849,0.9552837338376924]],"W2":[[0.3001336202535376,0.34490251346382617,0.2072633053920192,0.5035796782779488,0.49599636156628835],[0.31302496164254223,-0.6062773982342133,-0.9874007658402217,-0.6214904627601421,-0.11421073677207683]],"b1":[[0.5891192531479754],[0.29862103742464274],[-0.36153976712796343],[0.7065210459808763],[-0.22672513691161766]]}},
  {"agentName":"2-0","fitness":0.09757233411073685,"data":{"A1":[[0.23359018864769288,3.364668186616325,0.0,0.8251413566572334,3.4458464513231464]],"b2":[[-0.5850843421161205],[0.1250679146774638]],"A2":[[0.9410417623554107,0.06019376501866828]],"W1":[[0.4551273600657362,0.36644694351969087,-0.38256108933468047,-0.4458430198517267,0.33109790358914726,0.8067445293443565,0.35791991947712865,0.7842738355824962,-0.07269284838169332,0.5658035575800715,0.8386555657374337,-0.1270180511534269,0.499812362510895,-0.22686625128130267,-0.6452430441812433,0.18869982177936828,-0.5804648622673358,0.03281096416870777,-0.6555641246242951,0.24418006726826913,0.5025608135349202,0.14208069682973434,0.16004976900412138,0.28411530129243645,0.6649215166757789,-0.2841601610457427,0.6355938616712786,-0.1646249064941625,0.9480713629917628,0.42681251564645817,0.9591427067113251,-0.4166870051763918,0.8997202693189332,0.6409836467726933,0.273289095712564,-0.26175701211620517,0.8966160528295772,0.1491353636631061,-0.08536581111046115,-0.05462315824828923,-0.06195495876886281,0.6546448480299902,0.16744987476390816,0.6677324708883314,0.08460030623058856,-0.43885601665437957,-0.608071585153688,-0.6414531182501653,0.7313735926547045,-0.026818676347611925,-0.15805658673794265,0.26573958270655806,0.03648451669024966,-0.3693430998846541,0.14324061105995334,-0.25797542063247825,0.7436291919296774,0.6114618853239959,0.2324273700703574,-0.25128128782199144,0.39449745853945895,0.817229160415142,-0.6077058562362969,0.7751206959271756,0.2558665508269453,-0.07320145794330979,-0.38884168866510227,0.07981886851873865,0.27022202891277614,-0.7474843534024693],[-0.005346215048158909,0.11283283162485536,0.08781080788008022,-0.032312290091389695,0.8153026828181097,0.02702986688213338,0.7746341460203912,-0.23077831216541722,0.930687461696162,0.5409312755478819,0.7880855916368177,0.8095941248100625,0.9520689432368168,-0.845829774129496,0.8045950757088927,0.5959768883462386,0.17114113833179667,-0.2523277127589152,-0.1373808897290778,-0.3353514432305029,-0.3697050572653644,-0.11452811582755928,-0.807098168238352,0.6992088070750041,-0.6582805242342049,0.6107814398427647,-0.7204208094262783,0.7613637746771162,-0.9459402662357332,0.09666938346350307,0.3139339462612841,0.40779812752245626,0.8090021580031235,-0.3121157071110545,-0.9718883630945336,0.6191882496201251,0.0429886073795116,0.6234215516826781,0.16692329718223786,0.37649213869502973,0.11276440263810383,-0.7684997525607482,0.1770172737885798,0.7902845707138706,0.2666901194364105,-0.23483801763662826,0.4758638507377745,0.6673992021927047,-0.4796127376677324,0.9244724404994455,-0.2049276879687938,0.6484177277198194,0.6687479725921324,0.643491115907358,0.02959062446574179,0.22821350958477082,-0.023605251086149304,-0.2770587742156372,0.47596326458377436,0.49975558649019525,0.10289836703446209,0.51605972926996,0.45215640988181516,0.01712446974606241,0.5508198371849293,-0.2478254241316491,0.7256483175955235,0.517238332378576,0.6028944695965659,0.6001217520150142],[0.4508991072414843,0.07298479884782572,0.17646102656963913,0.7005669004769028,0.831310199796383,0.0722187749193608,0.22818964839784495,0.4143738824540636,-0.6945765138377225,0.06915201979238828,0.09798746565879424,-0.34288007110901964,0.440249350802451,-0.22440768392359534,-0.9695067570891225,-0.7942032659310758,-0.792286205517398,0.7913221492501393,0.46132264986539395,-0.1622831617066689,0.6091460142044455,-0.32697929564739403,-0.15359663581829275,-0.8951865090520432,0.9133144945237442,-0.6676656789571533,-0.03553655732400762,0.14550349954571096,0.9305934787593948,0.4223352065067103,0.35278245969741096,0.7022211035026023,0.7848713485823744,-0.4202155290448111,-0.26102723928249216,0.010688215941416779,-0.4311544807877927,0.9500151672991208,0.14380635780710693,0.8296104642843452,-0.13079299081883855,0.0983382230287082,0.15347083875928424,0.45507300685816965,0.1921083467305864,0.6361110540492223,0.15428842386483765,-0.2543488202081907,0.5818926284950244,0.9227010582393461,-0.8062832278617296,0.8266289890474885,0.22684501241708888,0.1726291966578266,0.9651104326868799,0.9993906921393696,0.1789490173139363,0.5584053824232391,0.03495894704368174,-0.8505720014852347,0.33524486810792453,-0.648273596036564,0.6022078540936439,0.3781469006858833,0.30565234666790686,-0.2822867492866177,0.10175120738413801,0.5342432888482425,0.05146513075475534,-0.6459729964194652],[0.42519013450094767,0.09441503345243984,0.5590365627570932,-0.32207498048636474,-0.9180071861219266,0.20780447335462227,0.41000814588717693,-0.3926260640533046,0.2789036768568971,0.13163692286014528,0.03324842612749346,0.07055844751995122,0.725299650088167,-0.682690342465275,0.3983414713797069,-0.2136729393256811,0.2762797195282235,0.7959473490129784,-0.03513782089224482,-0.1711809802758364,0.1774546460228057,-0.6783644553523549,0.5141441074152888,0.02272121490463097,-0.5047649289302389,0.5704428835064954,-0.32045436544054096,0.6122790570251196,0.6269418147567556,0.9710114516962312,0.01715676997104909,0.8975962429865936,-0.46594560920034134,0.5741337643185764,0.8894362304584083,0.17973981232418468,0.3928991653679357,0.10047126888846303,0.38941133808001127,-0.7151884777228046,0.07478785545033317,-0.8672651994084235,0.010852149339755646,0.35104802298560056,0.6797318185095045,-0.03891997518827006,-0.33208695871398675,0.17942644263327323,0.5730212324012205,0.03479985857092083,0.3188861415720873,-0.15591931640565093,0.9266742559542833,0.8125581146529808,0.37304481750804497,0.6417770212400336,0.7509788029052338,-0.3104974571382815,0.2181032654227164,0.25383915490422015,0.42261740932531244,0.16762947896510605,0.9325160601080682,0.24570884032596263,-0.6546108813337841,-0.14020032028377583,-0.8825687891702743,-0.21420166926412865,-0.8600275184792756,-0.7990574622230739],[0.8975586558257173,0.6191203456059663,0.12598048009007923,0.8795897940455562,-0.839435659309717,-0.16623481818728414,0.4571300874903905,0.7106635009041368,0.35590240478015256,0.9339556054688837,0.5980481031263749,-0.6411471147334535,0.9713286327787741,0.483048267470493,-0.8736297429070232,-0.36222771685582544,0.26397860162786957,0.6604291666445223,0.08526131069656784,0.7582682331790467,-0.2307778924009991,0.6977871128979924,0.022830408261390822,0.6257738824362347,0.36229200944962103,0.5108804960521351,0.3953702078145722,-0.689969833240031,-0.7294587311376761,0.3496326193951331,0.37929821892417404,0.5706416857552377,-0.1806835799958202,0.766314307210441,0.19924645482861414,-0.7113501219432434,0.3348023294310486,-0.7042025810921411,0.47530696925672267,-0.4629102077669889,-0.9309578475799722,0.7591795880911123,0.06296957473213705,0.6981550677447836,-0.9527998391625465,0.004450840052907523,0.9194336400413243,-0.6890669703685022,0.25415911467755015,-0.07664746267502509,0.3614756404325046,0.14508027508253818,0.23042774014795753,0.4164348685332022,0.39688198698027355,0.03853098236933272,0.38911994885223145,-0.5031309357181766,-0.596467768575587,0.17884522225228028,0.04460241183761893,0.8436745411219362,0.09030511120334461,0.9537528991778741,0.5924017499135916,0.5252633484916066,0.6924170720838818,0.32912306214891784,0.6287526918818849,0.9552837338376924]],"W2":[[0.3001336202535376,0.34490251346382617,0.2072633053920192,0.5035796782779488,0.49599636156628835],[0.31302496164254223,-0.6062773982342133,-0.9874007658402217,-0.6214904627601421,-0.11421073677207683]],"b1":[[0.4343631429623085],[0.29862103742464274],[-0.36153976712796343],[0.6890383256247113],[-0.22672513691161766]]}},
  {"agentName":"3-0","fitness":0.09757233411073685,"data":{"A1":[[0.19419117104189398,2.43839415665332,0.0,0.282782727805605,3.6707015677807147]],"b2":[[-0.5850843421161205],[0.1250679146774638]],"A2":[[0.9069765925403731,0.13153332581258684]],"W1":[[0.41565112379348956,0.36644694351969087,-0.38256108933468047,-0.4458430198517267,0.44403939329360487,0.8067445293443565,0.7464691123464261,0.7842738355824962,-0.07269284838169332,0.5658035575800715,0.8386555657374337,-0.1270180511534269,0.499812362510895,0.35934730250756797,-0.6452430441812433,0.18869982177936828,-0.5804648622673358,0.03281096416870777,-0.6555641246242951,0.20478104966247024,0.5025608135349202,0.14208069682973434,0.16004976900412138,0.28411530129243645,0.6649215166757789,-0.2841601610457427,0.02665337456278649,-0.1646249064941625,0.9480713629917628,0.42681251564645817,0.9591427067113251,-0.4166870051763918,0.8997202693189332,0.6409836467726933,0.47650476831949073,-0.26175701211620517,0.8966160528295772,0.581157679953923,-0.08536581111046115,-0.05462315824828923,-0.06195495876886281,0.758141761271607,0.34262662616477035,0.6677324708883314,0.08460030623058856,-0.43885601665437957,-0.608071585153688,-0.6414531182501653,0.8819423525191881,-0.026818676347611925,-0.15805658673794265,0.26573958270655806,0.03648451669024966,-0.3693430998846541,0.4635999919725764,-0.25797542063247825,0.7436291919296774,0.6114618853239959,0.2324273700703574,-0.25128128782199144,0.39449745853945895,0.817229160415142,-0.6077058562362969,0.40088002029584435,0.2558665508269453,-0.07320145794330979,-0.38884168866510227,0.07981886851873865,0.27022202891277614,-0.7474843534024693],[-0.005346215048158909,0.11283283162485536,0.10830263344318403,0.9828844746078769,0.8153026828181097,0.11470362070916906,0.7746341460203912,-0.23077831216541722,0.930687461696162,0.5409312755478819,0.7880855916368177,0.8095941248100625,0.9520689432368168,-0.845829774129496,0.8045950757088927,0.5912466242287622,0.17114113833179667,-0.2523277127589152,-0.1373808897290778,-0.3353514432305029,-0.3697050572653644,-0.11452811582755928,-0.807098168238352,0.6992088070750041,-0.6582805242342049,0.6107814398427647,-0.7204208094262783,0.7613637746771162,-0.9459402662357332,0.09666938346350307,0.3139339462612841,0.40779812752245626,0.8090021580031235,-0.3121157071110545,-0.9718883630945336,0.7127754650725152,0.0429886073795116,0.6234215516826781,0.16692329718223786,0.37649213869502973,0.11276440263810383,0.37805271856496103,0.1770172737885798,0.7902845707138706,0.2666901194364105,-0.23483801763662826,0.4758638507377745,0.7894434006587081,-0.4796127376677324,0.2659851378553054,-0.2049276879687938,0.6484177277198194,0.6687479725921324,0.0034030469806344277,0.02959062446574179,0.5940195936577851,-0.023605251086149304,-0.2770587742156372,0.47596326458377436,0.6710734404150357,0.10289836703446209,0.51605972926996,0.09199733547063293,0.01712446974606241,0.5508198371849293,-0.2478254241316491,0.8059715737124072,0.517238332378576,0.6028944695965659,0.1610171707713085],[0.4508991072414843,0.7725604336871873,0.17646102656963913,0.7005669004769028,0.831310199796383,0.0722187749193608,0.22818964839784495,0.4143738824540636,-0.6945765138377225,0.6302838878139828,0.09798746565879424,0.1136825874521521,0.440249350802451,-0.22440768392359534,-0.9695067570891225,-0.7942032659310758,0.7959220432826344,0.7913221492501393,0.46132264986539395,-0.1622831617066689,0.6091460142044455,-0.32697929564739403,0.6774684190714183,-0.8951865090520432,0.9133144945237442,-0.6676656789571533,0.0972252821710946,0.14550349954571096,0.9305934787593948,0.4223352065067103,0.41754741789226346,0.7022211035026023,0.12023716709754773,-0.4202155290448111,0.5265093981114303,0.010688215941416779,-0.4311544807877927,0.9500151672991208,0.10376111078433259,0.8296104642843452,-0.13079299081883855,0.0983382230287082,0.15347083875928424,0.45507300685816965,0.1921083467305864,0.6361110540492223,0.3102982990723757,-0.2543488202081907,0.5818926284950244,0.9227010582393461,-0.8062832278617296,0.23588003783635092,0.22684501241708888,0.1726291966578266,0.9651104326868799,0.9993906921393696,0.1789490173139363,0.6999121396513597,0.03495894704368174,-0.8505720014852347,0.33524486810792453,-0.648273596036564,0.6022078540936439,0.3781469006858833,0.30565234666790686,-0.2822867492866177,0.9130880742415739,0.5342432888482425,0.6694127152185969,-0.6459729964194652],[0.42519013450094767,0.09441503345243984,0.5590365627570932,-0.32207498048636474,0.7935305657428263,0.2723994795418081,0.41000814588717693,-0.3926260640533046,0.2789036768568971,0.13163692286014528,0.03324842612749346,0.07055844751995122,0.725299650088167,-0.682690342465275,0.3983414713797069,-0.2136729393256811,0.2762797195282235,0.7959473490129784,0.7880888275815155,-0.1711809802758364,0.1774546460228057,-0.6783644553523549,0.5141441074152888,0.02272121490463097,-0.5047649289302389,0.5704428835064954,-0.32045436544054096,0.6122790570251196,0.031863925124585024,0.4286528228446027,0.891222771718016,0.8975962429865936,-0.46594560920034134,0.5741337643185764,0.8894362304584083,0.7819013904604178,0.3928991653679357,0.5617649384409596,0.38941133808001127,-0.7151884777228046,0.07478785545033317,-0.8672651994084235,0.010852149339755646,0.35104802298560056,0.6797318185095045,-0.03891997518827006,-0.33208695871398675,0.17942644263327323,0.5730212324012205,0.03479985857092083,0.3188861415720873,-0.15591931640565093,0.9266742559542833,0.8125581146529808,0.37304481750804497,0.6417770212400336,0.7509788029052338,-0.3104974571382815,0.2181032654227164,0.25383915490422015,0.42261740932531244,0.2931826287156092,0.9325160601080682,0.24570884032596263,-0.6546108813337841,-0.14020032028377583,-0.8825687891702743,-0.21420166926412865,-0.8600275184792756,-0.7990574622230739],[0.8975586558257173,0.6191203456059663,0.12598048009007923,0.8795897940455562,-0.839435659309717,-0.16623481818728414,0.4571300874903905,0.24112223357649443,0.17887425175323401,0.9339556054688837,0.5980481031263749,-0.6411471147334535,0.6405941277532632,0.483048267470493,-0.8736297429070232,-0.36222771685582544,0.26397860162786957,0.6604291666445223,0.08526131069656784,0.9831233496366149,-0.2307778924009991,0.4239191291843152,0.022830408261390822,0.6257738824362347,0.9650769291568899,0.5108804960521351,0.3953702078145722,-0.689969833240031,-0.7294587311376761,0.3496326193951331,0.37929821892417404,0.775484961544938,-0.1806835799958202,0.766314307210441,0.19924645482861414,-0.7113501219432434,0.3348023294310486,-0.7042025810921411,0.47530696925672267,-0.4629102077669889,-0.9309578475799722,0.7591795880911123,0.7924198341913816,0.6981550677447836,-0.9527998391625465,0.004450840052907523,0.9194336400413243,-0.6890669703685022,0.25415911467755015,-0.07664746267502509,0.3614756404325046,0.14508027508253818,0.23042774014795753,0.4164348685332022,0.39688198698027355,0.03853098236933272,0.38911994885223145,-0.5031309357181766,-0.596467768575587,0.17884522225228028,0.04460241183761893,0.8436745411219362,0.09030511120334461,0.9537528991778741,0.5924017499135916,0.5252633484916066,0.6924170720838818,0.32912306214891784,0.6287526918818849,0.9552837338376924]],"W2":[[0.3001336202535376,0.34490251346382617,0.2072633053920192,0.5035796782779488,0.49599636156628835],[0.31302496164254223,-0.6062773982342133,-0.9874007658402217,-0.6214904627601421,-0.11421073677207683]],"b1":[[0.4343631429623085],[0.29862103742464274],[-0.36153976712796343],[0.6890383256247113],[-0.22672513691161766]]}},
  {"agentName":"4-0","fitness":0.09757233411073685,"data":{"A1":[[0.19419117104189398,2.43839415665332,0.5666340160633626,0.6466996984043489,3.4782722644886754]],"b2":[[-0.5850843421161205],[0.1250679146774638]],"A2":[[0.9393318398722436,0.09746154055147357]],"W1":[[0.41565112379348956,0.36644694351969087,0.520411680257822,-0.4458430198517267,0.5975158439031016,0.8067445293443565,0.7464691123464261,0.4815169017363763,0.3160728949307299,0.5658035575800715,0.8386555657374337,-0.1270180511534269,0.499812362510895,0.35934730250756797,0.22685223854906122,0.18869982177936828,-0.5804648622673358,0.03281096416870777,0.7594133623620842,0.20478104966247024,0.5025608135349202,0.14208069682973434,0.16004976900412138,0.28411530129243645,0.6649215166757789,-0.2841601610457427,0.02665337456278649,-0.1646249064941625,0.9480713629917628,0.42681251564645817,0.1271964016908439,-0.4166870051763918,0.5250574524983362,0.6409836467726933,0.47650476831949073,-0.26175701211620517,0.8966160528295772,0.581157679953923,-0.08536581111046115,-0.05462315824828923,-0.06195495876886281,0.758141761271607,0.34262662616477035,0.6677324708883314,0.08460030623058856,-0.43885601665437957,-0.608071585153688,-0.6414531182501653,0.8819423525191881,-0.026818676347611925,-0.15805658673794265,0.26573958270655806,0.03648451669024966,0.640700764877355,0.4635999919725764,0.74777038115464,0.7436291919296774,0.7254818703822545,0.2324273700703574,-0.25128128782199144,0.39449745853945895,0.817229160415142,-0.6077058562362969,0.8351161458828839,0.2558665508269453,-0.07320145794330979,0.20702670529241174,0.07981886851873865,0.27022202891277614,-0.7474843534024693],[-0.005346215048158909,0.8437708574696405,0.10830263344318403,0.7727363311010107,0.8153026828181097,0.11470362070916906,0.7746341460203912,-0.23077831216541722,0.930687461696162,0.5409312755478819,0.7880855916368177,0.6904953880944115,0.9520689432368168,-0.845829774129496,0.8045950757088927,0.5912466242287622,0.17114113833179667,0.1703760831526716,-0.1373808897290778,-0.3353514432305029,-0.3697050572653644,-0.11452811582755928,0.8826092576427699,0.6992088070750041,0.8872105140360356,0.6107814398427647,-0.7204208094262783,0.7613637746771162,0.799159078959116,0.09666938346350307,0.3139339462612841,0.40779812752245626,0.8090021580031235,-0.3121157071110545,-0.9718883630945336,0.7127754650725152,0.0429886073795116,0.881890342418305,0.16692329718223786,0.37649213869502973,0.11276440263810383,0.37805271856496103,0.07150645951310886,0.7902845707138706,0.2666901194364105,-0.23483801763662826,0.4758638507377745,0.7894434006587081,-0.4796127376677324,0.2659851378553054,-0.2049276879687938,0.6484177277198194,0.6687479725921324,0.0034030469806344277,0.02959062446574179,0.5940195936577851,-0.023605251086149304,0.645967690839336,0.47596326458377436,0.6710734404150357,0.3741614039798751,0.51605972926996,0.4818751406521664,0.01712446974606241,0.5508198371849293,-0.2478254241316491,0.8059715737124072,0.517238332378576,0.6028944695965659,0.1610171707713085],[0.9399665060648191,0.08377667176567938,0.17646102656963913,0.7005669004769028,0.831310199796383,0.6504686387755624,0.5878612468986266,0.17676305925879254,-0.6945765138377225,0.6302838878139828,0.09798746565879424,0.1136825874521521,0.440249350802451,-0.22440768392359534,-0.9695067570891225,-0.7942032659310758,0.48475030848573397,0.7913221492501393,0.46132264986539395,-0.1622831617066689,0.6091460142044455,-0.32697929564739403,0.6774684190714183,-0.8951865090520432,0.9133144945237442,-0.6676656789571533,0.0972252821710946,0.14550349954571096,0.5763708906540002,0.4223352065067103,0.41754741789226346,0.7022211035026023,0.12023716709754773,-0.4202155290448111,0.5265093981114303,0.010688215941416779,-0.4311544807877927,0.9500151672991208,0.10376111078433259,0.8296104642843452,-0.13079299081883855,0.0983382230287082,0.15347083875928424,0.45507300685816965,0.1921083467305864,0.6361110540492223,0.3102982990723757,0.42846378089952086,0.5818926284950244,0.9227010582393461,-0.8062832278617296,0.165309042977559,0.22684501241708888,0.1726291966578266,0.9651104326868799,0.9993906921393696,0.1789490173139363,0.6999121396513597,0.03495894704368174,-0.8505720014852347,0.33524486810792453,-0.648273596036564,0.6022078540936439,0.3781469006858833,0.30565234666790686,-0.2822867492866177,0.9130880742415739,0.5342432888482425,0.6694127152185969,0.08605075778261628],[0.42519013450094767,0.09441503345243984,0.34205061817520643,-0.32207498048636474,0.7935305657428263,0.2723994795418081,0.4906265753543829,-0.3926260640533046,0.3302170389210324,0.13163692286014528,0.03324842612749346,0.09628079443037685,0.725299650088167,-0.682690342465275,0.3983414713797069,-0.2136729393256811,0.2454576363818095,0.7959473490129784,0.7880888275815155,-0.1711809802758364,0.1774546460228057,-0.6783644553523549,0.5141441074152888,0.02272121490463097,-0.5047649289302389,0.5704428835064954,-0.32045436544054096,0.6122790570251196,0.031863925124585024,0.9396684483350727,0.891222771718016,0.8975962429865936,-0.46594560920034134,0.5741337643185764,0.8894362304584083,0.7819013904604178,0.3928991653679357,0.04704481898481916,0.38941133808001127,-0.7151884777228046,0.07478785545033317,-0.8672651994084235,0.1715620897694332,0.35104802298560056,0.6797318185095045,-0.03891997518827006,-0.33208695871398675,0.17942644263327323,0.5730212324012205,0.03479985857092083,0.3188861415720873,-0.15591931640565093,0.9266742559542833,0.8125581146529808,0.37304481750804497,0.6417770212400336,0.7509788029052338,-0.3104974571382815,0.2181032654227164,0.25383915490422015,0.42261740932531244,0.2931826287156092,0.9325160601080682,0.24570884032596263,-0.6546108813337841,-0.14020032028377583,-0.8825687891702743,-0.21420166926412865,-0.8600275184792756,-0.7990574622230739],[0.8975586558257173,0.6191203456059663,0.12598048009007923,0.8795897940455562,0.2036002123865649,0.9594613098101189,0.38016288879473936,0.9107302190533164,0.17887425175323401,0.9339556054688837,0.5980481031263749,-0.6411471147334535,0.6405941277532632,0.5419910543455531,-0.8736297429070232,-0.36222771685582544,0.26397860162786957,0.6604291666445223,0.08526131069656784,0.991356612771495,-0.2307778924009991,0.4239191291843152,0.022830408261390822,0.6257738824362347,0.9650769291568899,0.5108804960521351,0.23366459299324838,-0.689969833240031,-0.7294587311376761,0.6938317048569346,0.37929821892417404,0.775484961544938,-0.1806835799958202,0.766314307210441,0.8580605140051123,-0.7113501219432434,0.3348023294310486,0.8888841165947545,0.47530696925672267,-0.4629102077669889,-0.9309578475799722,0.7591795880911123,0.7924198341913816,0.8035262259109386,-0.9527998391625465,0.004450840052907523,0.45285934347106627,-0.6890669703685022,0.25415911467755015,-0.07664746267502509,0.3614756404325046,0.14508027508253818,0.23042774014795753,0.4164348685332022,0.39688198698027355,0.03853098236933272,0.38911994885223145,-0.5031309357181766,-0.596467768575587,0.17884522225228028,0.04460241183761893,0.8436745411219362,0.09030511120334461,0.9537528991778741,0.5924017499135916,0.5252633484916066,0.6924170720838818,0.8584497434930185,0.6287526918818849,0.4104220819489718]],"W2":[[0.3001336202535376,0.34490251346382617,0.2072633053920192,0.9013298480885888,0.49599636156628835],[0.31302496164254223,-0.6062773982342133,-0.9874007658402217,0.03631686665248335,-0.11421073677207683]],"b1":[[0.4343631429623085],[0.29862103742464274],[-0.36153976712796343],[0.5419396707329853],[-0.22672513691161766]]}},
  {"agentName":"5-0","fitness":0.09757233411073685,"data":{"A1":[[1.103439331456587,3.6682255613115204,0.8609337832183477,0.6466996984043489,2.6305206163327695]],"b2":[[0.548169892922628],[0.1250679146774638]],"A2":[[0.9911581253160043,0.21812454861070965]],"W1":[[0.41565112379348956,0.36644694351969087,0.520411680257822,-0.4458430198517267,0.023976058231055863,0.8067445293443565,0.7464691123464261,0.4815169017363763,0.3160728949307299,0.6634859891132443,0.8386555657374337,0.33111452435351474,0.499812362510895,0.4664117662559074,0.800499377378896,0.18869982177936828,-0.5804648622673358,0.03281096416870777,0.7594133623620842,0.20478104966247024,0.5025608135349202,0.14208069682973434,0.16004976900412138,0.14460655083547203,0.6649215166757789,-0.2841601610457427,0.02665337456278649,-0.1646249064941625,0.07085040368450313,0.42681251564645817,0.1271964016908439,0.5759664391861362,0.5250574524983362,0.6409836467726933,0.47650476831949073,0.9684931777134685,0.017489210691275403,0.581157679953923,-0.08536581111046115,-0.05462315824828923,-0.06195495876886281,0.758141761271607,0.34262662616477035,0.6677324708883314,0.08460030623058856,-0.43885601665437957,-0.608071585153688,-0.6414531182501653,0.8819423525191881,-0.026818676347611925,-0.15805658673794265,0.26573958270655806,0.03648451669024966,0.640700764877355,0.8926172747880594,0.74777038115464,0.7436291919296774,0.7254818703822545,0.2324273700703574,0.14833762361569425,0.39449745853945895,0.817229160415142,-0.6077058562362969,0.8351161458828839,0.2558665508269453,0.33874535950052465,0.5833854190746113,0.1960229975464194,0.27022202891277614,-0.7474843534024693],[-0.005346215048158909,0.8437708574696405,0.10830263344318403,0.7727363311010107,0.8153026828181097,0.11470362070916906,0.7746341460203912,-0.23077831216541722,0.930687461696162,0.5409312755478819,0.9474214138299223,0.6904953880944115,0.9520689432368168,0.6233376011026323,0.8045950757088927,0.5912466242287622,0.17114113833179667,0.1703760831526716,0.07115647047942408,-0.3353514432305029,-0.3697050572653644,-0.11452811582755928,0.8826092576427699,0.42405753549805625,0.8872105140360356,0.9053725213325017,-0.7204208094262783,0.7613637746771162,0.47354434995160144,0.42230640302364286,0.5295560685274704,0.9669195558701882,0.8090021580031235,-0.3121157071110545,-0.9718883630945336,0.7127754650725152,0.0429886073795116,0.881890342418305,0.3251995645275535,0.9860954423033536,0.11276440263810383,0.8812089007082657,0.07150645951310886,0.7902845707138706,0.2666901194364105,-0.23483801763662826,0.31828990670924484,0.7894434006587081,0.6463998323046071,0.2659851378553054,-0.2049276879687938,0.6484177277198194,0.6687479725921324,0.0034030469806344277,0.02959062446574179,0.5940195936577851,-0.023605251086149304,0.645967690839336,0.47596326458377436,0.6710734404150357,0.6824889511590961,0.51605972926996,0.4818751406521664,0.01712446974606241,0.5508198371849293,-0.2478254241316491,0.8059715737124072,0.517238332378576,0.6028944695965659,0.1610171707713085],[0.9399665060648191,0.40495389300197127,0.17646102656963913,0.28548985533036586,0.831310199796383,0.6504686387755624,0.5878612468986266,0.17676305925879254,0.5935787434840222,0.6302838878139828,0.09798746565879424,0.1136825874521521,0.440249350802451,-0.22440768392359534,-0.9695067570891225,-0.7942032659310758,0.48475030848573397,0.7913221492501393,0.9521203175233941,0.8031421825901925,0.07031380310033486,-0.32697929564739403,0.6774684190714183,-0.8951865090520432,0.9133144945237442,-0.6676656789571533,0.0972252821710946,0.14550349954571096,0.5763708906540002,0.4223352065067103,0.41754741789226346,0.7022211035026023,0.12023716709754773,-0.4202155290448111,0.8062141956618462,0.010688215941416779,-0.4311544807877927,0.9500151672991208,0.10376111078433259,0.1584848871424689,0.6277250571052629,0.0983382230287082,0.15347083875928424,0.45507300685816965,0.39532875852972227,0.6361110540492223,0.3102982990723757,0.42846378089952086,0.5818926284950244,0.9227010582393461,-0.8062832278617296,0.165309042977559,0.10459520039252712,0.1726291966578266,0.9651104326868799,0.9993906921393696,0.1789490173139363,0.6999121396513597,0.6944455255357579,-0.8505720014852347,0.33524486810792453,-0.648273596036564,0.6022078540936439,0.3781469006858833,0.30565234666790686,-0.2822867492866177,0.9130880742415739,0.5342432888482425,0.008371587899002608,0.08605075778261628],[0.42519013450094767,0.6490383196523573,0.34205061817520643,-0.32207498048636474,0.7935305657428263,0.2723994795418081,0.4906265753543829,-0.3926260640533046,0.3302170389210324,0.13163692286014528,0.03324842612749346,0.09628079443037685,0.4413574335153645,0.38247488757118675,0.3983414713797069,-0.2136729393256811,0.2454576363818095,0.7959473490129784,0.4407937201367438,-0.1711809802758364,0.1774546460228057,-0.6783644553523549,0.5141441074152888,0.02272121490463097,0.4996798589221978,0.5704428835064954,-0.32045436544054096,0.6122790570251196,0.9875771061959584,0.9396684483350727,0.891222771718016,0.33571525438592176,-0.46594560920034134,0.9230051585438835,0.8894362304584083,0.7819013904604178,0.3928991653679357,0.04704481898481916,0.38941133808001127,-0.7151884777228046,0.07478785545033317,-0.8672651994084235,0.1715620897694332,0.9755809537329779,0.6797318185095045,0.8804400090431352,-0.33208695871398675,0.17942644263327323,0.5730212324012205,0.03479985857092083,0.3188861415720873,-0.15591931640565093,0.02927796191119625,0.8125581146529808,0.37304481750804497,0.6417770212400336,0.9878096057343493,-0.3104974571382815,0.2181032654227164,0.25383915490422015,0.42261740932531244,0.22676207758318756,0.9621344356656507,0.24570884032596263,-0.6546108813337841,-0.14020032028377583,-0.8825687891702743,-0.21420166926412865,-0.8600275184792756,-0.7990574622230739],[0.8975586558257173,0.3859697356971541,0.12598048009007923,0.8795897940455562,0.2036002123865649,0.9594613098101189,0.38016288879473936,0.9680388427174834,0.17887425175323401,0.6186971085488124,0.5980481031263749,-0.6411471147334535,0.6405941277532632,0.5419910543455531,-0.8736297429070232,-0.36222771685582544,0.26397860162786957,0.6604291666445223,0.08526131069656784,0.7637892915275875,-0.2307778924009991,0.4239191291843152,0.022830408261390822,0.6257738824362347,0.9650769291568899,0.20595466606020785,0.23366459299324838,-0.689969833240031,-0.7294587311376761,0.6938317048569346,0.37929821892417404,0.775484961544938,-0.1806835799958202,0.766314307210441,0.8580605140051123,-0.7113501219432434,0.3348023294310486,0.6828023135030877,0.47530696925672267,-0.4629102077669889,0.8893373146045938,0.7591795880911123,0.7924198341913816,0.36762176703709315,-0.9527998391625465,0.004450840052907523,0.45285934347106627,-0.6890669703685022,0.25415911467755015,-0.07664746267502509,0.3614756404325046,0.14508027508253818,0.23042774014795753,0.4164348685332022,0.39688198698027355,0.03853098236933272,0.38911994885223145,-0.5031309357181766,0.7374641958261623,0.17884522225228028,0.04460241183761893,0.8436745411219362,0.09030511120334461,0.4103492171651354,0.5924017499135916,0.5252633484916066,0.6924170720838818,0.8584497434930185,0.6287526918818849,0.4104220819489718]],"W2":[[0.3001336202535376,0.34490251346382617,0.7982349258149267,0.9013298480885888,0.49599636156628835],[0.31302496164254223,-0.6062773982342133,-0.9874007658402217,0.03631686665248335,0.4955146929700919]],"b1":[[0.4343631429623085],[0.29862103742464274],[-0.36153976712796343],[0.5419396707329853],[-0.22672513691161766]]}},
  {"agentName":"6-0","fitness":0.13774876296520233,"data":{"A1":[[4.995067422319414,7.388766752436687,4.011376843785831,0.952875949008154,5.827491269366394]],"b2":[[0.8441581139111277],[0.9579892281161227]],"A2":[[0.9999928116456572,0.047575368493496605]],"W1":[[0.41565112379348956,0.36644694351969087,0.520411680257822,-0.4458430198517267,0.023976058231055863,0.8067445293443565,0.7464691123464261,0.4815169017363763,0.3160728949307299,0.6634859891132443,0.8386555657374337,0.33111452435351474,0.001759362641941098,0.4664117662559074,0.800499377378896,0.18869982177936828,-0.5804648622673358,0.03281096416870777,0.7594133623620842,0.20478104966247024,0.5025608135349202,0.14208069682973434,0.16004976900412138,0.8896190979049454,0.6649215166757789,0.6132891448129295,0.02665337456278649,-0.1646249064941625,0.07085040368450313,0.42681251564645817,0.1271964016908439,0.5759664391861362,0.5250574524983362,0.6409836467726933,0.47650476831949073,0.9684931777134685,0.017489210691275403,0.581157679953923,-0.08536581111046115,0.3845095009010866,-0.06195495876886281,0.758141761271607,0.34262662616477035,0.4468298954018822,0.08460030623058856,-0.43885601665437957,-0.608071585153688,-0.6414531182501653,0.8819423525191881,-0.026818676347611925,-0.15805658673794265,0.7081514847339754,0.03648451669024966,0.640700764877355,0.1253733384718183,0.74777038115464,0.7436291919296774,0.7254818703822545,0.2324273700703574,0.14833762361569425,0.3941021862134575,0.817229160415142,-0.6077058562362969,0.8351161458828839,0.2558665508269453,0.8326169213354999,0.5833854190746113,0.1960229975464194,0.27022202891277614,0.339997658730231],[0.2828061192623993,0.8437708574696405,0.10830263344318403,0.7727363311010107,0.8153026828181097,0.11470362070916906,0.7746341460203912,0.17290572825301553,0.930687461696162,0.5409312755478819,0.9474214138299223,0.6904953880944115,0.9586084495049569,0.11962804257799131,0.8045950757088927,0.5912466242287622,0.9121453700993873,0.1703760831526716,0.07115647047942408,0.6752288935730242,-0.3697050572653644,-0.11452811582755928,0.8826092576427699,0.42405753549805625,0.9946967525778004,0.13340432937411006,-0.7204208094262783,0.7613637746771162,0.47354434995160144,0.3824229961476626,0.4429244872177174,0.28088812454137513,0.8090021580031235,-0.3121157071110545,-0.9718883630945336,0.7127754650725152,0.0429886073795116,0.881890342418305,0.3251995645275535,0.9860954423033536,0.11276440263810383,0.8812089007082657,0.07150645951310886,0.7902845707138706,0.2666901194364105,-0.23483801763662826,0.31828990670924484,0.13651181089292141,0.8104964939995792,0.2659851378553054,-0.2049276879687938,0.6484177277198194,0.6687479725921324,0.9575510685165388,0.02959062446574179,0.5940195936577851,-0.023605251086149304,0.645967690839336,0.47596326458377436,0.6710734404150357,0.6824889511590961,0.51605972926996,0.4818751406521664,0.01712446974606241,0.6894049397799235,0.5918137638925404,0.45477921974327007,0.517238332378576,0.6028944695965659,0.6203945268335975],[0.4519725699988808,0.40495389300197127,0.17646102656963913,0.39709765892592663,0.831310199796383,0.6504686387755624,0.5878612468986266,0.17676305925879254,0.5935787434840222,0.5927663469427292,0.09798746565879424,0.1136825874521521,0.440249350802451,-0.22440768392359534,-0.9695067570891225,0.08763354446244331,0.7243881910097755,0.22524259516342127,0.09406148636929146,0.7419071660734604,0.07031380310033486,0.8632349502922576,0.6774684190714183,-0.8951865090520432,0.9133144945237442,-0.6676656789571533,0.4246146301065412,0.14550349954571096,0.5763708906540002,0.4223352065067103,0.41754741789226346,0.7022211035026023,0.6772726340106195,-0.4202155290448111,0.8062141956618462,0.3934832317875291,-0.4311544807877927,0.9500151672991208,0.10376111078433259,0.1347832436479024,0.6277250571052629,0.0983382230287082,0.15347083875928424,0.45507300685816965,0.39532875852972227,0.6361110540492223,0.3102982990723757,0.42846378089952086,0.5818926284950244,0.9227010582393461,-0.8062832278617296,0.165309042977559,0.10459520039252712,0.1726291966578266,0.9651104326868799,0.9993906921393696,0.8353695596948754,0.4785495030439072,0.5636782701771067,-0.8505720014852347,0.33524486810792453,-0.648273596036564,0.07094090384018803,0.3781469006858833,0.30565234666790686,-0.2822867492866177,0.9130880742415739,0.5342432888482425,0.008371587899002608,0.08605075778261628],[0.9682902676003919,0.6490383196523573,0.34205061817520643,-0.32207498048636474,0.7935305657428263,0.2723994795418081,0.4906265753543829,0.4716409403826445,0.3302170389210324,0.13163692286014528,0.5913731899748221,0.09628079443037685,0.10897011676589097,0.38247488757118675,0.3983414713797069,-0.2136729393256811,0.2454576363818095,0.9506915847398636,0.4407937201367438,-0.1711809802758364,0.1774546460228057,0.058197687196214654,0.5141441074152888,0.02272121490463097,0.5970726741862646,0.5704428835064954,0.8084868952632979,0.12318274514736349,0.9875771061959584,0.42932001758378957,0.891222771718016,0.33571525438592176,-0.46594560920034134,0.9230051585438835,0.8894362304584083,0.8888390858126703,0.5580600510393734,0.8459759347903392,0.38941133808001127,-0.7151884777228046,0.07478785545033317,-0.8672651994084235,0.1715620897694332,0.9755809537329779,0.6797318185095045,0.3684156584561946,-0.33208695871398675,0.17942644263327323,0.9296459533727437,0.5687257990485263,0.3188861415720873,0.8100433358627944,0.37842368941670623,0.8125581146529808,0.5119469701566894,0.6417770212400336,0.9878096057343493,-0.3104974571382815,0.2181032654227164,0.25383915490422015,0.42261740932531244,0.22676207758318756,0.9621344356656507,0.24570884032596263,-0.6546108813337841,-0.14020032028377583,-0.8825687891702743,-0.21420166926412865,0.960710624863769,-0.7990574622230739],[0.8975586558257173,0.3859697356971541,0.12598048009007923,0.8795897940455562,0.2036002123865649,0.9594613098101189,0.38016288879473936,0.9680388427174834,0.9113313622941569,0.6186971085488124,0.5980481031263749,-0.6411471147334535,0.5156245458334598,0.5419910543455531,-0.8736297429070232,0.9825213551810038,0.7951399733045091,0.6604291666445223,0.08526131069656784,0.7637892915275875,-0.2307778924009991,0.4239191291843152,0.022830408261390822,0.6257738824362347,0.9650769291568899,0.8869627071850221,0.23366459299324838,-0.689969833240031,-0.7294587311376761,0.6938317048569346,0.37929821892417404,0.775484961544938,-0.1806835799958202,0.766314307210441,0.8580605140051123,-0.7113501219432434,0.3348023294310486,0.6828023135030877,0.47530696925672267,-0.4629102077669889,0.8893373146045938,0.7591795880911123,0.7924198341913816,0.5164851076811817,-0.9527998391625465,0.004450840052907523,0.45285934347106627,-0.6890669703685022,0.25415911467755015,0.18802284443640271,0.3614756404325046,0.33292386575785404,0.23042774014795753,0.4164348685332022,0.39688198698027355,0.03853098236933272,0.38911994885223145,-0.5031309357181766,0.7374641958261623,0.17884522225228028,0.04460241183761893,0.8436745411219362,0.09030511120334461,0.4103492171651354,0.5924017499135916,0.5252633484916066,0.7734196004349342,0.8584497434930185,0.6287526918818849,0.4104220819489718]],"W2":[[0.3001336202535376,0.34490251346382617,0.7982349258149267,0.9013298480885888,0.49599636156628835],[0.31302496164254223,-0.6062773982342133,-0.9874007658402217,0.03631686665248335,0.4955146929700919]],"b1":[[0.4343631429623085],[0.29862103742464274],[-0.36153976712796343],[0.5419396707329853],[-0.22672513691161766]]}},
  {"agentName":"6-0","fitness":0.13774876296520233,"data":{"A1":[[4.995067422319414,7.388766752436687,4.011376843785831,0.952875949008154,5.827491269366394]],"b2":[[0.8441581139111277],[0.9579892281161227]],"A2":[[0.9999928116456572,0.047575368493496605]],"W1":[[0.41565112379348956,0.36644694351969087,0.520411680257822,-0.4458430198517267,0.023976058231055863,0.8067445293443565,0.7464691123464261,0.4815169017363763,0.3160728949307299,0.6634859891132443,0.8386555657374337,0.33111452435351474,0.001759362641941098,0.4664117662559074,0.800499377378896,0.18869982177936828,-0.5804648622673358,0.03281096416870777,0.7594133623620842,0.20478104966247024,0.5025608135349202,0.14208069682973434,0.16004976900412138,0.8896190979049454,0.6649215166757789,0.6132891448129295,0.02665337456278649,-0.1646249064941625,0.07085040368450313,0.42681251564645817,0.1271964016908439,0.5759664391861362,0.5250574524983362,0.6409836467726933,0.47650476831949073,0.9684931777134685,0.017489210691275403,0.581157679953923,-0.08536581111046115,0.3845095009010866,-0.06195495876886281,0.758141761271607,0.34262662616477035,0.4468298954018822,0.08460030623058856,-0.43885601665437957,-0.608071585153688,-0.6414531182501653,0.8819423525191881,-0.026818676347611925,-0.15805658673794265,0.7081514847339754,0.03648451669024966,0.640700764877355,0.1253733384718183,0.74777038115464,0.7436291919296774,0.7254818703822545,0.2324273700703574,0.14833762361569425,0.3941021862134575,0.817229160415142,-0.6077058562362969,0.8351161458828839,0.2558665508269453,0.8326169213354999,0.5833854190746113,0.1960229975464194,0.27022202891277614,0.339997658730231],[0.2828061192623993,0.8437708574696405,0.10830263344318403,0.7727363311010107,0.8153026828181097,0.11470362070916906,0.7746341460203912,0.17290572825301553,0.930687461696162,0.5409312755478819,0.9474214138299223,0.6904953880944115,0.9586084495049569,0.11962804257799131,0.8045950757088927,0.5912466242287622,0.9121453700993873,0.1703760831526716,0.07115647047942408,0.6752288935730242,-0.3697050572653644,-0.11452811582755928,0.8826092576427699,0.42405753549805625,0.9946967525778004,0.13340432937411006,-0.7204208094262783,0.7613637746771162,0.47354434995160144,0.3824229961476626,0.4429244872177174,0.28088812454137513,0.8090021580031235,-0.3121157071110545,-0.9718883630945336,0.7127754650725152,0.0429886073795116,0.881890342418305,0.3251995645275535,0.9860954423033536,0.11276440263810383,0.8812089007082657,0.07150645951310886,0.7902845707138706,0.2666901194364105,-0.23483801763662826,0.31828990670924484,0.13651181089292141,0.8104964939995792,0.2659851378553054,-0.2049276879687938,0.6484177277198194,0.6687479725921324,0.9575510685165388,0.02959062446574179,0.5940195936577851,-0.023605251086149304,0.645967690839336,0.47596326458377436,0.6710734404150357,0.6824889511590961,0.51605972926996,0.4818751406521664,0.01712446974606241,0.6894049397799235,0.5918137638925404,0.45477921974327007,0.517238332378576,0.6028944695965659,0.6203945268335975],[0.4519725699988808,0.40495389300197127,0.17646102656963913,0.39709765892592663,0.831310199796383,0.6504686387755624,0.5878612468986266,0.17676305925879254,0.5935787434840222,0.5927663469427292,0.09798746565879424,0.1136825874521521,0.440249350802451,-0.22440768392359534,-0.9695067570891225,0.08763354446244331,0.7243881910097755,0.22524259516342127,0.09406148636929146,0.7419071660734604,0.07031380310033486,0.8632349502922576,0.6774684190714183,-0.8951865090520432,0.9133144945237442,-0.6676656789571533,0.4246146301065412,0.14550349954571096,0.5763708906540002,0.4223352065067103,0.41754741789226346,0.7022211035026023,0.6772726340106195,-0.4202155290448111,0.8062141956618462,0.3934832317875291,-0.4311544807877927,0.9500151672991208,0.10376111078433259,0.1347832436479024,0.6277250571052629,0.0983382230287082,0.15347083875928424,0.45507300685816965,0.39532875852972227,0.6361110540492223,0.3102982990723757,0.42846378089952086,0.5818926284950244,0.9227010582393461,-0.8062832278617296,0.165309042977559,0.10459520039252712,0.1726291966578266,0.9651104326868799,0.9993906921393696,0.8353695596948754,0.4785495030439072,0.5636782701771067,-0.8505720014852347,0.33524486810792453,-0.648273596036564,0.07094090384018803,0.3781469006858833,0.30565234666790686,-0.2822867492866177,0.9130880742415739,0.5342432888482425,0.008371587899002608,0.08605075778261628],[0.9682902676003919,0.6490383196523573,0.34205061817520643,-0.32207498048636474,0.7935305657428263,0.2723994795418081,0.4906265753543829,0.4716409403826445,0.3302170389210324,0.13163692286014528,0.5913731899748221,0.09628079443037685,0.10897011676589097,0.38247488757118675,0.3983414713797069,-0.2136729393256811,0.2454576363818095,0.9506915847398636,0.4407937201367438,-0.1711809802758364,0.1774546460228057,0.058197687196214654,0.5141441074152888,0.02272121490463097,0.5970726741862646,0.5704428835064954,0.8084868952632979,0.12318274514736349,0.9875771061959584,0.42932001758378957,0.891222771718016,0.33571525438592176,-0.46594560920034134,0.9230051585438835,0.8894362304584083,0.8888390858126703,0.5580600510393734,0.8459759347903392,0.38941133808001127,-0.7151884777228046,0.07478785545033317,-0.8672651994084235,0.1715620897694332,0.9755809537329779,0.6797318185095045,0.3684156584561946,-0.33208695871398675,0.17942644263327323,0.9296459533727437,0.5687257990485263,0.3188861415720873,0.8100433358627944,0.37842368941670623,0.8125581146529808,0.5119469701566894,0.6417770212400336,0.9878096057343493,-0.3104974571382815,0.2181032654227164,0.25383915490422015,0.42261740932531244,0.22676207758318756,0.9621344356656507,0.24570884032596263,-0.6546108813337841,-0.14020032028377583,-0.8825687891702743,-0.21420166926412865,0.960710624863769,-0.7990574622230739],[0.8975586558257173,0.3859697356971541,0.12598048009007923,0.8795897940455562,0.2036002123865649,0.9594613098101189,0.38016288879473936,0.9680388427174834,0.9113313622941569,0.6186971085488124,0.5980481031263749,-0.6411471147334535,0.5156245458334598,0.5419910543455531,-0.8736297429070232,0.9825213551810038,0.7951399733045091,0.6604291666445223,0.08526131069656784,0.7637892915275875,-0.2307778924009991,0.4239191291843152,0.022830408261390822,0.6257738824362347,0.9650769291568899,0.8869627071850221,0.23366459299324838,-0.689969833240031,-0.7294587311376761,0.6938317048569346,0.37929821892417404,0.775484961544938,-0.1806835799958202,0.766314307210441,0.8580605140051123,-0.7113501219432434,0.3348023294310486,0.6828023135030877,0.47530696925672267,-0.4629102077669889,0.8893373146045938,0.7591795880911123,0.7924198341913816,0.5164851076811817,-0.9527998391625465,0.004450840052907523,0.45285934347106627,-0.6890669703685022,0.25415911467755015,0.18802284443640271,0.3614756404325046,0.33292386575785404,0.23042774014795753,0.4164348685332022,0.39688198698027355,0.03853098236933272,0.38911994885223145,-0.5031309357181766,0.7374641958261623,0.17884522225228028,0.04460241183761893,0.8436745411219362,0.09030511120334461,0.4103492171651354,0.5924017499135916,0.5252633484916066,0.7734196004349342,0.8584497434930185,0.6287526918818849,0.4104220819489718]],"W2":[[0.3001336202535376,0.34490251346382617,0.7982349258149267,0.9013298480885888,0.49599636156628835],[0.31302496164254223,-0.6062773982342133,-0.9874007658402217,0.03631686665248335,0.4955146929700919]],"b1":[[0.4343631429623085],[0.29862103742464274],[-0.36153976712796343],[0.5419396707329853],[-0.22672513691161766]]}},
  {"agentName":"6-0","fitness":0.13774876296520233,"data":{"A1":[[4.995067422319414,7.388766752436687,4.011376843785831,0.952875949008154,5.827491269366394]],"b2":[[0.8441581139111277],[0.9579892281161227]],"A2":[[0.9999928116456572,0.047575368493496605]],"W1":[[0.41565112379348956,0.36644694351969087,0.520411680257822,-0.4458430198517267,0.023976058231055863,0.8067445293443565,0.7464691123464261,0.4815169017363763,0.3160728949307299,0.6634859891132443,0.8386555657374337,0.33111452435351474,0.001759362641941098,0.4664117662559074,0.800499377378896,0.18869982177936828,-0.5804648622673358,0.03281096416870777,0.7594133623620842,0.20478104966247024,0.5025608135349202,0.14208069682973434,0.16004976900412138,0.8896190979049454,0.6649215166757789,0.6132891448129295,0.02665337456278649,-0.1646249064941625,0.07085040368450313,0.42681251564645817,0.1271964016908439,0.5759664391861362,0.5250574524983362,0.6409836467726933,0.47650476831949073,0.9684931777134685,0.017489210691275403,0.581157679953923,-0.08536581111046115,0.3845095009010866,-0.06195495876886281,0.758141761271607,0.34262662616477035,0.4468298954018822,0.08460030623058856,-0.43885601665437957,-0.608071585153688,-0.6414531182501653,0.8819423525191881,-0.026818676347611925,-0.15805658673794265,0.7081514847339754,0.03648451669024966,0.640700764877355,0.1253733384718183,0.74777038115464,0.7436291919296774,0.7254818703822545,0.2324273700703574,0.14833762361569425,0.3941021862134575,0.817229160415142,-0.6077058562362969,0.8351161458828839,0.2558665508269453,0.8326169213354999,0.5833854190746113,0.1960229975464194,0.27022202891277614,0.339997658730231],[0.2828061192623993,0.8437708574696405,0.10830263344318403,0.7727363311010107,0.8153026828181097,0.11470362070916906,0.7746341460203912,0.17290572825301553,0.930687461696162,0.5409312755478819,0.9474214138299223,0.6904953880944115,0.9586084495049569,0.11962804257799131,0.8045950757088927,0.5912466242287622,0.9121453700993873,0.1703760831526716,0.07115647047942408,0.6752288935730242,-0.3697050572653644,-0.11452811582755928,0.8826092576427699,0.42405753549805625,0.9946967525778004,0.13340432937411006,-0.7204208094262783,0.7613637746771162,0.47354434995160144,0.3824229961476626,0.4429244872177174,0.28088812454137513,0.8090021580031235,-0.3121157071110545,-0.9718883630945336,0.7127754650725152,0.0429886073795116,0.881890342418305,0.3251995645275535,0.9860954423033536,0.11276440263810383,0.8812089007082657,0.07150645951310886,0.7902845707138706,0.2666901194364105,-0.23483801763662826,0.31828990670924484,0.13651181089292141,0.8104964939995792,0.2659851378553054,-0.2049276879687938,0.6484177277198194,0.6687479725921324,0.9575510685165388,0.02959062446574179,0.5940195936577851,-0.023605251086149304,0.645967690839336,0.47596326458377436,0.6710734404150357,0.6824889511590961,0.51605972926996,0.4818751406521664,0.01712446974606241,0.6894049397799235,0.5918137638925404,0.45477921974327007,0.517238332378576,0.6028944695965659,0.6203945268335975],[0.4519725699988808,0.40495389300197127,0.17646102656963913,0.39709765892592663,0.831310199796383,0.6504686387755624,0.5878612468986266,0.17676305925879254,0.5935787434840222,0.5927663469427292,0.09798746565879424,0.1136825874521521,0.440249350802451,-0.22440768392359534,-0.9695067570891225,0.08763354446244331,0.7243881910097755,0.22524259516342127,0.09406148636929146,0.7419071660734604,0.07031380310033486,0.8632349502922576,0.6774684190714183,-0.8951865090520432,0.9133144945237442,-0.6676656789571533,0.4246146301065412,0.14550349954571096,0.5763708906540002,0.4223352065067103,0.41754741789226346,0.7022211035026023,0.6772726340106195,-0.4202155290448111,0.8062141956618462,0.3934832317875291,-0.4311544807877927,0.9500151672991208,0.10376111078433259,0.1347832436479024,0.6277250571052629,0.0983382230287082,0.15347083875928424,0.45507300685816965,0.39532875852972227,0.6361110540492223,0.3102982990723757,0.42846378089952086,0.5818926284950244,0.9227010582393461,-0.8062832278617296,0.165309042977559,0.10459520039252712,0.1726291966578266,0.9651104326868799,0.9993906921393696,0.8353695596948754,0.4785495030439072,0.5636782701771067,-0.8505720014852347,0.33524486810792453,-0.648273596036564,0.07094090384018803,0.3781469006858833,0.30565234666790686,-0.2822867492866177,0.9130880742415739,0.5342432888482425,0.008371587899002608,0.08605075778261628],[0.9682902676003919,0.6490383196523573,0.34205061817520643,-0.32207498048636474,0.7935305657428263,0.2723994795418081,0.4906265753543829,0.4716409403826445,0.3302170389210324,0.13163692286014528,0.5913731899748221,0.09628079443037685,0.10897011676589097,0.38247488757118675,0.3983414713797069,-0.2136729393256811,0.2454576363818095,0.9506915847398636,0.4407937201367438,-0.1711809802758364,0.1774546460228057,0.058197687196214654,0.5141441074152888,0.02272121490463097,0.5970726741862646,0.5704428835064954,0.8084868952632979,0.12318274514736349,0.9875771061959584,0.42932001758378957,0.891222771718016,0.33571525438592176,-0.46594560920034134,0.9230051585438835,0.8894362304584083,0.8888390858126703,0.5580600510393734,0.8459759347903392,0.38941133808001127,-0.7151884777228046,0.07478785545033317,-0.8672651994084235,0.1715620897694332,0.9755809537329779,0.6797318185095045,0.3684156584561946,-0.33208695871398675,0.17942644263327323,0.9296459533727437,0.5687257990485263,0.3188861415720873,0.8100433358627944,0.37842368941670623,0.8125581146529808,0.5119469701566894,0.6417770212400336,0.9878096057343493,-0.3104974571382815,0.2181032654227164,0.25383915490422015,0.42261740932531244,0.22676207758318756,0.9621344356656507,0.24570884032596263,-0.6546108813337841,-0.14020032028377583,-0.8825687891702743,-0.21420166926412865,0.960710624863769,-0.7990574622230739],[0.8975586558257173,0.3859697356971541,0.12598048009007923,0.8795897940455562,0.2036002123865649,0.9594613098101189,0.38016288879473936,0.9680388427174834,0.9113313622941569,0.6186971085488124,0.5980481031263749,-0.6411471147334535,0.5156245458334598,0.5419910543455531,-0.8736297429070232,0.9825213551810038,0.7951399733045091,0.6604291666445223,0.08526131069656784,0.7637892915275875,-0.2307778924009991,0.4239191291843152,0.022830408261390822,0.6257738824362347,0.9650769291568899,0.8869627071850221,0.23366459299324838,-0.689969833240031,-0.7294587311376761,0.6938317048569346,0.37929821892417404,0.775484961544938,-0.1806835799958202,0.766314307210441,0.8580605140051123,-0.7113501219432434,0.3348023294310486,0.6828023135030877,0.47530696925672267,-0.4629102077669889,0.8893373146045938,0.7591795880911123,0.7924198341913816,0.5164851076811817,-0.9527998391625465,0.004450840052907523,0.45285934347106627,-0.6890669703685022,0.25415911467755015,0.18802284443640271,0.3614756404325046,0.33292386575785404,0.23042774014795753,0.4164348685332022,0.39688198698027355,0.03853098236933272,0.38911994885223145,-0.5031309357181766,0.7374641958261623,0.17884522225228028,0.04460241183761893,0.8436745411219362,0.09030511120334461,0.4103492171651354,0.5924017499135916,0.5252633484916066,0.7734196004349342,0.8584497434930185,0.6287526918818849,0.4104220819489718]],"W2":[[0.3001336202535376,0.34490251346382617,0.7982349258149267,0.9013298480885888,0.49599636156628835],[0.31302496164254223,-0.6062773982342133,-0.9874007658402217,0.03631686665248335,0.4955146929700919]],"b1":[[0.4343631429623085],[0.29862103742464274],[-0.36153976712796343],[0.5419396707329853],[-0.22672513691161766]]}},
  {"agentName":"9-2","fitness":0.1875,"data":{"A1":[[5.826590868695824,7.524785321156774,4.526465638547226,5.2764230155543626,4.961558746602044]],"b2":[[0.8441581139111277],[0.9423243823109033]],"A2":[[0.999999978778997,0.04365114961820154]],"W1":[[0.41565112379348956,0.7004965376118272,0.520411680257822,-0.4458430198517267,0.9331425188091741,0.8067445293443565,0.7464691123464261,0.9444295492589545,0.4009048101867332,0.6634859891132443,0.8386555657374337,0.9051774396639275,0.6778839615220876,0.4664117662559074,0.800499377378896,0.18869982177936828,-0.5804648622673358,0.5812958820992455,0.9465679151217375,0.17445883330465428,0.7670221389633342,0.27012811535427816,0.6367917165135357,0.8896190979049454,0.6954569453407494,0.6132891448129295,0.2768722110627928,-0.1646249064941625,0.07085040368450313,0.42681251564645817,0.1271964016908439,0.5759664391861362,0.5250574524983362,0.6409836467726933,0.47650476831949073,0.9684931777134685,0.017489210691275403,0.581157679953923,0.7809358725981133,0.3845095009010866,-0.06195495876886281,0.758141761271607,0.9612398611870882,0.9349073098179774,0.08460030623058856,-0.43885601665437957,-0.608071585153688,-0.6414531182501653,0.45948901888419624,0.23436271081346494,0.5188501370015446,0.38305693947848307,0.03648451669024966,0.640700764877355,0.18350958038292564,0.74777038115464,0.29079792575918206,0.9264740846865143,0.2324273700703574,0.5480748847381217,0.3941021862134575,0.817229160415142,-0.6077058562362969,0.8351161458828839,0.2558665508269453,0.8326169213354999,0.5833854190746113,0.1677700772998474,0.4196707555957414,0.339997658730231],[0.2828061192623993,0.8437708574696405,0.10830263344318403,0.7727363311010107,0.8153026828181097,0.11470362070916906,0.7746341460203912,0.17290572825301553,0.9197075129892222,0.5409312755478819,0.9474214138299223,0.09371165877912635,0.9586084495049569,0.3890572066032649,0.9928215913872083,0.6979231166000641,0.9121453700993873,0.43890814206957574,0.8287992985300646,0.6752288935730242,-0.3697050572653644,-0.11452811582755928,0.8826092576427699,0.6147167476247821,0.9946967525778004,0.12776178152688744,0.5547879912685055,0.7613637746771162,0.47354434995160144,0.3824229961476626,0.6452565755285459,0.28088812454137513,0.3327243910244294,-0.3121157071110545,0.07526081377771987,0.6782685883298354,0.0429886073795116,0.881890342418305,0.997601830359427,0.9860954423033536,0.11276440263810383,0.3209070810211375,0.07150645951310886,0.7902845707138706,0.8803198247198305,0.29051754119258566,0.31828990670924484,0.13651181089292141,0.8104964939995792,0.2659851378553054,-0.2049276879687938,0.6484177277198194,0.6687479725921324,0.9575510685165388,0.02959062446574179,0.9069952268197913,-0.023605251086149304,0.645967690839336,0.47596326458377436,0.6710734404150357,0.6824889511590961,0.51605972926996,0.4818751406521664,0.01712446974606241,0.6894049397799235,0.20842997101499938,0.45477921974327007,0.7293357823054594,0.8015918646705794,0.6203945268335975],[0.6720195193593205,0.293372287845564,0.9539918953514717,0.39709765892592663,0.831310199796383,0.6504686387755624,0.5878612468986266,0.17676305925879254,0.8400217110392262,0.2781095726091083,0.09798746565879424,0.1136825874521521,0.6775805178936568,0.07469406493776232,-0.9695067570891225,0.08763354446244331,0.7243881910097755,0.22524259516342127,0.5043279957035025,0.7419071660734604,0.7763993354414752,0.8632349502922576,0.6774684190714183,0.46696635269314435,0.9133144945237442,-0.6676656789571533,0.4246146301065412,0.14550349954571096,0.8398382570959974,0.4223352065067103,0.655232821517296,0.022396809773046256,0.6772726340106195,-0.4202155290448111,0.8062141956618462,0.01117193048788423,-0.4311544807877927,0.9443905972463755,0.924789211380282,0.1347832436479024,0.6277250571052629,0.0983382230287082,0.8413587973144377,0.7143857223154791,0.27598776916255874,0.6361110540492223,0.9985423554773807,0.42846378089952086,0.5818926284950244,0.12864901118396643,0.23422679067342378,0.165309042977559,0.10459520039252712,0.1726291966578266,0.9651104326868799,0.0654122570776765,0.00668238142508526,0.4785495030439072,0.5636782701771067,0.07420855702557827,0.33524486810792453,0.3407608221506465,0.07094090384018803,0.93831364809842,0.6855731511555593,0.24583568602019856,0.9130880742415739,0.5342432888482425,0.5257203731099317,0.08605075778261628],[0.9682902676003919,0.6490383196523573,0.5557016464527197,-0.32207498048636474,0.7935305657428263,0.7510823986941763,0.7694566939103574,0.4716409403826445,0.3302170389210324,0.13163692286014528,0.28360237310296876,0.09628079443037685,0.10897011676589097,0.21192108438996082,0.3983414713797069,-0.2136729393256811,0.2454576363818095,0.9506915847398636,0.3193835763437821,-0.1711809802758364,0.8713858971294346,0.47668595951521464,0.5586065843308421,0.02272121490463097,0.5970726741862646,0.5704428835064954,0.8084868952632979,0.12318274514736349,0.9875771061959584,0.42932001758378957,0.891222771718016,0.33571525438592176,-0.46594560920034134,0.3314485276999459,0.8894362304584083,0.8888390858126703,0.5580600510393734,0.8459759347903392,0.38941133808001127,0.3542459580368744,0.07478785545033317,-0.8672651994084235,0.1715620897694332,0.9755809537329779,0.6797318185095045,0.2538253776307674,-0.33208695871398675,0.17942644263327323,0.9296459533727437,0.44352116548940446,0.3188861415720873,0.8100433358627944,0.5330365124131402,0.13388009838011639,0.5119469701566894,0.6417770212400336,0.9878096057343493,-0.3104974571382815,0.2181032654227164,0.25383915490422015,0.42261740932531244,0.22676207758318756,0.9621344356656507,0.24570884032596263,-0.6546108813337841,-0.14020032028377583,0.27233908959688014,0.19733658466741966,0.960710624863769,0.9672993930759269],[0.8975586558257173,0.7978164498214424,0.12598048009007923,0.8795897940455562,0.2036002123865649,0.9594613098101189,0.05708680590134241,0.1019005110515998,0.9113313622941569,0.6186971085488124,0.4564319448838615,-0.6411471147334535,0.5156245458334598,0.7076708711808929,0.790044216852173,0.44454903721002703,0.7951399733045091,0.6604291666445223,0.08526131069656784,0.7637892915275875,0.15233325469219394,0.4239191291843152,0.992670828167442,0.6257738824362347,0.43599566865140726,0.8869627071850221,0.23366459299324838,-0.689969833240031,-0.7294587311376761,0.6938317048569346,0.37929821892417404,0.7896577101202304,-0.1806835799958202,0.766314307210441,0.31869956073458805,0.3868348185123758,0.4764903276509286,0.6828023135030877,0.47530696925672267,-0.4629102077669889,0.8893373146045938,0.7591795880911123,0.7924198341913816,0.20107509649472755,-0.9527998391625465,0.004450840052907523,0.45285934347106627,-0.6890669703685022,0.25415911467755015,0.18802284443640271,0.3614756404325046,0.33292386575785404,0.06203706984281321,0.4164348685332022,0.39688198698027355,0.00243687388332392,0.3116481604592676,-0.5031309357181766,0.7374641958261623,0.16982760358485105,0.04460241183761893,0.8436745411219362,0.15635338668810284,0.4103492171651354,0.9860532967833269,0.5252633484916066,0.7734196004349342,0.8584497434930185,0.6287526918818849,0.4104220819489718]],"W2":[[0.5833434005955487,0.34490251346382617,0.7982349258149267,0.9013298480885888,0.49599636156628835],[0.31302496164254223,-0.6062773982342133,-0.9874007658402217,0.03631686665248335,0.601995059860654]],"b1":[[0.4343631429623085],[0.29862103742464274],[-0.36153976712796343],[0.5419396707329853],[-0.22672513691161766]]}},
  {"agentName":"9-2","fitness":0.1875,"data":{"A1":[[5.826590868695824,7.524785321156774,4.526465638547226,5.2764230155543626,4.961558746602044]],"b2":[[0.8441581139111277],[0.9423243823109033]],"A2":[[0.999999978778997,0.04365114961820154]],"W1":[[0.41565112379348956,0.7004965376118272,0.520411680257822,-0.4458430198517267,0.9331425188091741,0.8067445293443565,0.7464691123464261,0.9444295492589545,0.4009048101867332,0.6634859891132443,0.8386555657374337,0.9051774396639275,0.6778839615220876,0.4664117662559074,0.800499377378896,0.18869982177936828,-0.5804648622673358,0.5812958820992455,0.9465679151217375,0.17445883330465428,0.7670221389633342,0.27012811535427816,0.6367917165135357,0.8896190979049454,0.6954569453407494,0.6132891448129295,0.2768722110627928,-0.1646249064941625,0.07085040368450313,0.42681251564645817,0.1271964016908439,0.5759664391861362,0.5250574524983362,0.6409836467726933,0.47650476831949073,0.9684931777134685,0.017489210691275403,0.581157679953923,0.7809358725981133,0.3845095009010866,-0.06195495876886281,0.758141761271607,0.9612398611870882,0.9349073098179774,0.08460030623058856,-0.43885601665437957,-0.608071585153688,-0.6414531182501653,0.45948901888419624,0.23436271081346494,0.5188501370015446,0.38305693947848307,0.03648451669024966,0.640700764877355,0.18350958038292564,0.74777038115464,0.29079792575918206,0.9264740846865143,0.2324273700703574,0.5480748847381217,0.3941021862134575,0.817229160415142,-0.6077058562362969,0.8351161458828839,0.2558665508269453,0.8326169213354999,0.5833854190746113,0.1677700772998474,0.4196707555957414,0.339997658730231],[0.2828061192623993,0.8437708574696405,0.10830263344318403,0.7727363311010107,0.8153026828181097,0.11470362070916906,0.7746341460203912,0.17290572825301553,0.9197075129892222,0.5409312755478819,0.9474214138299223,0.09371165877912635,0.9586084495049569,0.3890572066032649,0.9928215913872083,0.6979231166000641,0.9121453700993873,0.43890814206957574,0.8287992985300646,0.6752288935730242,-0.3697050572653644,-0.11452811582755928,0.8826092576427699,0.6147167476247821,0.9946967525778004,0.12776178152688744,0.5547879912685055,0.7613637746771162,0.47354434995160144,0.3824229961476626,0.6452565755285459,0.28088812454137513,0.3327243910244294,-0.3121157071110545,0.07526081377771987,0.6782685883298354,0.0429886073795116,0.881890342418305,0.997601830359427,0.9860954423033536,0.11276440263810383,0.3209070810211375,0.07150645951310886,0.7902845707138706,0.8803198247198305,0.29051754119258566,0.31828990670924484,0.13651181089292141,0.8104964939995792,0.2659851378553054,-0.2049276879687938,0.6484177277198194,0.6687479725921324,0.9575510685165388,0.02959062446574179,0.9069952268197913,-0.023605251086149304,0.645967690839336,0.47596326458377436,0.6710734404150357,0.6824889511590961,0.51605972926996,0.4818751406521664,0.01712446974606241,0.6894049397799235,0.20842997101499938,0.45477921974327007,0.7293357823054594,0.8015918646705794,0.6203945268335975],[0.6720195193593205,0.293372287845564,0.9539918953514717,0.39709765892592663,0.831310199796383,0.6504686387755624,0.5878612468986266,0.17676305925879254,0.8400217110392262,0.2781095726091083,0.09798746565879424,0.1136825874521521,0.6775805178936568,0.07469406493776232,-0.9695067570891225,0.08763354446244331,0.7243881910097755,0.22524259516342127,0.5043279957035025,0.7419071660734604,0.7763993354414752,0.8632349502922576,0.6774684190714183,0.46696635269314435,0.9133144945237442,-0.6676656789571533,0.4246146301065412,0.14550349954571096,0.8398382570959974,0.4223352065067103,0.655232821517296,0.022396809773046256,0.6772726340106195,-0.4202155290448111,0.8062141956618462,0.01117193048788423,-0.4311544807877927,0.9443905972463755,0.924789211380282,0.1347832436479024,0.6277250571052629,0.0983382230287082,0.8413587973144377,0.7143857223154791,0.27598776916255874,0.6361110540492223,0.9985423554773807,0.42846378089952086,0.5818926284950244,0.12864901118396643,0.23422679067342378,0.165309042977559,0.10459520039252712,0.1726291966578266,0.9651104326868799,0.0654122570776765,0.00668238142508526,0.4785495030439072,0.5636782701771067,0.07420855702557827,0.33524486810792453,0.3407608221506465,0.07094090384018803,0.93831364809842,0.6855731511555593,0.24583568602019856,0.9130880742415739,0.5342432888482425,0.5257203731099317,0.08605075778261628],[0.9682902676003919,0.6490383196523573,0.5557016464527197,-0.32207498048636474,0.7935305657428263,0.7510823986941763,0.7694566939103574,0.4716409403826445,0.3302170389210324,0.13163692286014528,0.28360237310296876,0.09628079443037685,0.10897011676589097,0.21192108438996082,0.3983414713797069,-0.2136729393256811,0.2454576363818095,0.9506915847398636,0.3193835763437821,-0.1711809802758364,0.8713858971294346,0.47668595951521464,0.5586065843308421,0.02272121490463097,0.5970726741862646,0.5704428835064954,0.8084868952632979,0.12318274514736349,0.9875771061959584,0.42932001758378957,0.891222771718016,0.33571525438592176,-0.46594560920034134,0.3314485276999459,0.8894362304584083,0.8888390858126703,0.5580600510393734,0.8459759347903392,0.38941133808001127,0.3542459580368744,0.07478785545033317,-0.8672651994084235,0.1715620897694332,0.9755809537329779,0.6797318185095045,0.2538253776307674,-0.33208695871398675,0.17942644263327323,0.9296459533727437,0.44352116548940446,0.3188861415720873,0.8100433358627944,0.5330365124131402,0.13388009838011639,0.5119469701566894,0.6417770212400336,0.9878096057343493,-0.3104974571382815,0.2181032654227164,0.25383915490422015,0.42261740932531244,0.22676207758318756,0.9621344356656507,0.24570884032596263,-0.6546108813337841,-0.14020032028377583,0.27233908959688014,0.19733658466741966,0.960710624863769,0.9672993930759269],[0.8975586558257173,0.7978164498214424,0.12598048009007923,0.8795897940455562,0.2036002123865649,0.9594613098101189,0.05708680590134241,0.1019005110515998,0.9113313622941569,0.6186971085488124,0.4564319448838615,-0.6411471147334535,0.5156245458334598,0.7076708711808929,0.790044216852173,0.44454903721002703,0.7951399733045091,0.6604291666445223,0.08526131069656784,0.7637892915275875,0.15233325469219394,0.4239191291843152,0.992670828167442,0.6257738824362347,0.43599566865140726,0.8869627071850221,0.23366459299324838,-0.689969833240031,-0.7294587311376761,0.6938317048569346,0.37929821892417404,0.7896577101202304,-0.1806835799958202,0.766314307210441,0.31869956073458805,0.3868348185123758,0.4764903276509286,0.6828023135030877,0.47530696925672267,-0.4629102077669889,0.8893373146045938,0.7591795880911123,0.7924198341913816,0.20107509649472755,-0.9527998391625465,0.004450840052907523,0.45285934347106627,-0.6890669703685022,0.25415911467755015,0.18802284443640271,0.3614756404325046,0.33292386575785404,0.06203706984281321,0.4164348685332022,0.39688198698027355,0.00243687388332392,0.3116481604592676,-0.5031309357181766,0.7374641958261623,0.16982760358485105,0.04460241183761893,0.8436745411219362,0.15635338668810284,0.4103492171651354,0.9860532967833269,0.5252633484916066,0.7734196004349342,0.8584497434930185,0.6287526918818849,0.4104220819489718]],"W2":[[0.5833434005955487,0.34490251346382617,0.7982349258149267,0.9013298480885888,0.49599636156628835],[0.31302496164254223,-0.6062773982342133,-0.9874007658402217,0.03631686665248335,0.601995059860654]],"b1":[[0.4343631429623085],[0.29862103742464274],[-0.36153976712796343],[0.5419396707329853],[-0.22672513691161766]]}},
  {"agentName":"9-2","fitness":0.1875,"data":{"A1":[[5.826590868695824,7.524785321156774,4.526465638547226,5.2764230155543626,4.961558746602044]],"b2":[[0.8441581139111277],[0.9423243823109033]],"A2":[[0.999999978778997,0.04365114961820154]],"W1":[[0.41565112379348956,0.7004965376118272,0.520411680257822,-0.4458430198517267,0.9331425188091741,0.8067445293443565,0.7464691123464261,0.9444295492589545,0.4009048101867332,0.6634859891132443,0.8386555657374337,0.9051774396639275,0.6778839615220876,0.4664117662559074,0.800499377378896,0.18869982177936828,-0.5804648622673358,0.5812958820992455,0.9465679151217375,0.17445883330465428,0.7670221389633342,0.27012811535427816,0.6367917165135357,0.8896190979049454,0.6954569453407494,0.6132891448129295,0.2768722110627928,-0.1646249064941625,0.07085040368450313,0.42681251564645817,0.1271964016908439,0.5759664391861362,0.5250574524983362,0.6409836467726933,0.47650476831949073,0.9684931777134685,0.017489210691275403,0.581157679953923,0.7809358725981133,0.3845095009010866,-0.06195495876886281,0.758141761271607,0.9612398611870882,0.9349073098179774,0.08460030623058856,-0.43885601665437957,-0.608071585153688,-0.6414531182501653,0.45948901888419624,0.23436271081346494,0.5188501370015446,0.38305693947848307,0.03648451669024966,0.640700764877355,0.18350958038292564,0.74777038115464,0.29079792575918206,0.9264740846865143,0.2324273700703574,0.5480748847381217,0.3941021862134575,0.817229160415142,-0.6077058562362969,0.8351161458828839,0.2558665508269453,0.8326169213354999,0.5833854190746113,0.1677700772998474,0.4196707555957414,0.339997658730231],[0.2828061192623993,0.8437708574696405,0.10830263344318403,0.7727363311010107,0.8153026828181097,0.11470362070916906,0.7746341460203912,0.17290572825301553,0.9197075129892222,0.5409312755478819,0.9474214138299223,0.09371165877912635,0.9586084495049569,0.3890572066032649,0.9928215913872083,0.6979231166000641,0.9121453700993873,0.43890814206957574,0.8287992985300646,0.6752288935730242,-0.3697050572653644,-0.11452811582755928,0.8826092576427699,0.6147167476247821,0.9946967525778004,0.12776178152688744,0.5547879912685055,0.7613637746771162,0.47354434995160144,0.3824229961476626,0.6452565755285459,0.28088812454137513,0.3327243910244294,-0.3121157071110545,0.07526081377771987,0.6782685883298354,0.0429886073795116,0.881890342418305,0.997601830359427,0.9860954423033536,0.11276440263810383,0.3209070810211375,0.07150645951310886,0.7902845707138706,0.8803198247198305,0.29051754119258566,0.31828990670924484,0.13651181089292141,0.8104964939995792,0.2659851378553054,-0.2049276879687938,0.6484177277198194,0.6687479725921324,0.9575510685165388,0.02959062446574179,0.9069952268197913,-0.023605251086149304,0.645967690839336,0.47596326458377436,0.6710734404150357,0.6824889511590961,0.51605972926996,0.4818751406521664,0.01712446974606241,0.6894049397799235,0.20842997101499938,0.45477921974327007,0.7293357823054594,0.8015918646705794,0.6203945268335975],[0.6720195193593205,0.293372287845564,0.9539918953514717,0.39709765892592663,0.831310199796383,0.6504686387755624,0.5878612468986266,0.17676305925879254,0.8400217110392262,0.2781095726091083,0.09798746565879424,0.1136825874521521,0.6775805178936568,0.07469406493776232,-0.9695067570891225,0.08763354446244331,0.7243881910097755,0.22524259516342127,0.5043279957035025,0.7419071660734604,0.7763993354414752,0.8632349502922576,0.6774684190714183,0.46696635269314435,0.9133144945237442,-0.6676656789571533,0.4246146301065412,0.14550349954571096,0.8398382570959974,0.4223352065067103,0.655232821517296,0.022396809773046256,0.6772726340106195,-0.4202155290448111,0.8062141956618462,0.01117193048788423,-0.4311544807877927,0.9443905972463755,0.924789211380282,0.1347832436479024,0.6277250571052629,0.0983382230287082,0.8413587973144377,0.7143857223154791,0.27598776916255874,0.6361110540492223,0.9985423554773807,0.42846378089952086,0.5818926284950244,0.12864901118396643,0.23422679067342378,0.165309042977559,0.10459520039252712,0.1726291966578266,0.9651104326868799,0.0654122570776765,0.00668238142508526,0.4785495030439072,0.5636782701771067,0.07420855702557827,0.33524486810792453,0.3407608221506465,0.07094090384018803,0.93831364809842,0.6855731511555593,0.24583568602019856,0.9130880742415739,0.5342432888482425,0.5257203731099317,0.08605075778261628],[0.9682902676003919,0.6490383196523573,0.5557016464527197,-0.32207498048636474,0.7935305657428263,0.7510823986941763,0.7694566939103574,0.4716409403826445,0.3302170389210324,0.13163692286014528,0.28360237310296876,0.09628079443037685,0.10897011676589097,0.21192108438996082,0.3983414713797069,-0.2136729393256811,0.2454576363818095,0.9506915847398636,0.3193835763437821,-0.1711809802758364,0.8713858971294346,0.47668595951521464,0.5586065843308421,0.02272121490463097,0.5970726741862646,0.5704428835064954,0.8084868952632979,0.12318274514736349,0.9875771061959584,0.42932001758378957,0.891222771718016,0.33571525438592176,-0.46594560920034134,0.3314485276999459,0.8894362304584083,0.8888390858126703,0.5580600510393734,0.8459759347903392,0.38941133808001127,0.3542459580368744,0.07478785545033317,-0.8672651994084235,0.1715620897694332,0.9755809537329779,0.6797318185095045,0.2538253776307674,-0.33208695871398675,0.17942644263327323,0.9296459533727437,0.44352116548940446,0.3188861415720873,0.8100433358627944,0.5330365124131402,0.13388009838011639,0.5119469701566894,0.6417770212400336,0.9878096057343493,-0.3104974571382815,0.2181032654227164,0.25383915490422015,0.42261740932531244,0.22676207758318756,0.9621344356656507,0.24570884032596263,-0.6546108813337841,-0.14020032028377583,0.27233908959688014,0.19733658466741966,0.960710624863769,0.9672993930759269],[0.8975586558257173,0.7978164498214424,0.12598048009007923,0.8795897940455562,0.2036002123865649,0.9594613098101189,0.05708680590134241,0.1019005110515998,0.9113313622941569,0.6186971085488124,0.4564319448838615,-0.6411471147334535,0.5156245458334598,0.7076708711808929,0.790044216852173,0.44454903721002703,0.7951399733045091,0.6604291666445223,0.08526131069656784,0.7637892915275875,0.15233325469219394,0.4239191291843152,0.992670828167442,0.6257738824362347,0.43599566865140726,0.8869627071850221,0.23366459299324838,-0.689969833240031,-0.7294587311376761,0.6938317048569346,0.37929821892417404,0.7896577101202304,-0.1806835799958202,0.766314307210441,0.31869956073458805,0.3868348185123758,0.4764903276509286,0.6828023135030877,0.47530696925672267,-0.4629102077669889,0.8893373146045938,0.7591795880911123,0.7924198341913816,0.20107509649472755,-0.9527998391625465,0.004450840052907523,0.45285934347106627,-0.6890669703685022,0.25415911467755015,0.18802284443640271,0.3614756404325046,0.33292386575785404,0.06203706984281321,0.4164348685332022,0.39688198698027355,0.00243687388332392,0.3116481604592676,-0.5031309357181766,0.7374641958261623,0.16982760358485105,0.04460241183761893,0.8436745411219362,0.15635338668810284,0.4103492171651354,0.9860532967833269,0.5252633484916066,0.7734196004349342,0.8584497434930185,0.6287526918818849,0.4104220819489718]],"W2":[[0.5833434005955487,0.34490251346382617,0.7982349258149267,0.9013298480885888,0.49599636156628835],[0.31302496164254223,-0.6062773982342133,-0.9874007658402217,0.03631686665248335,0.601995059860654]],"b1":[[0.4343631429623085],[0.29862103742464274],[-0.36153976712796343],[0.5419396707329853],[-0.22672513691161766]]}},
  {"agentName":"9-2","fitness":0.1875,"data":{"A1":[[5.826590868695824,7.524785321156774,4.526465638547226,5.2764230155543626,4.961558746602044]],"b2":[[0.8441581139111277],[0.9423243823109033]],"A2":[[0.999999978778997,0.04365114961820154]],"W1":[[0.41565112379348956,0.7004965376118272,0.520411680257822,-0.4458430198517267,0.9331425188091741,0.8067445293443565,0.7464691123464261,0.9444295492589545,0.4009048101867332,0.6634859891132443,0.8386555657374337,0.9051774396639275,0.6778839615220876,0.4664117662559074,0.800499377378896,0.18869982177936828,-0.5804648622673358,0.5812958820992455,0.9465679151217375,0.17445883330465428,0.7670221389633342,0.27012811535427816,0.6367917165135357,0.8896190979049454,0.6954569453407494,0.6132891448129295,0.2768722110627928,-0.1646249064941625,0.07085040368450313,0.42681251564645817,0.1271964016908439,0.5759664391861362,0.5250574524983362,0.6409836467726933,0.47650476831949073,0.9684931777134685,0.017489210691275403,0.581157679953923,0.7809358725981133,0.3845095009010866,-0.06195495876886281,0.758141761271607,0.9612398611870882,0.9349073098179774,0.08460030623058856,-0.43885601665437957,-0.608071585153688,-0.6414531182501653,0.45948901888419624,0.23436271081346494,0.5188501370015446,0.38305693947848307,0.03648451669024966,0.640700764877355,0.18350958038292564,0.74777038115464,0.29079792575918206,0.9264740846865143,0.2324273700703574,0.5480748847381217,0.3941021862134575,0.817229160415142,-0.6077058562362969,0.8351161458828839,0.2558665508269453,0.8326169213354999,0.5833854190746113,0.1677700772998474,0.4196707555957414,0.339997658730231],[0.2828061192623993,0.8437708574696405,0.10830263344318403,0.7727363311010107,0.8153026828181097,0.11470362070916906,0.7746341460203912,0.17290572825301553,0.9197075129892222,0.5409312755478819,0.9474214138299223,0.09371165877912635,0.9586084495049569,0.3890572066032649,0.9928215913872083,0.6979231166000641,0.9121453700993873,0.43890814206957574,0.8287992985300646,0.6752288935730242,-0.3697050572653644,-0.11452811582755928,0.8826092576427699,0.6147167476247821,0.9946967525778004,0.12776178152688744,0.5547879912685055,0.7613637746771162,0.47354434995160144,0.3824229961476626,0.6452565755285459,0.28088812454137513,0.3327243910244294,-0.3121157071110545,0.07526081377771987,0.6782685883298354,0.0429886073795116,0.881890342418305,0.997601830359427,0.9860954423033536,0.11276440263810383,0.3209070810211375,0.07150645951310886,0.7902845707138706,0.8803198247198305,0.29051754119258566,0.31828990670924484,0.13651181089292141,0.8104964939995792,0.2659851378553054,-0.2049276879687938,0.6484177277198194,0.6687479725921324,0.9575510685165388,0.02959062446574179,0.9069952268197913,-0.023605251086149304,0.645967690839336,0.47596326458377436,0.6710734404150357,0.6824889511590961,0.51605972926996,0.4818751406521664,0.01712446974606241,0.6894049397799235,0.20842997101499938,0.45477921974327007,0.7293357823054594,0.8015918646705794,0.6203945268335975],[0.6720195193593205,0.293372287845564,0.9539918953514717,0.39709765892592663,0.831310199796383,0.6504686387755624,0.5878612468986266,0.17676305925879254,0.8400217110392262,0.2781095726091083,0.09798746565879424,0.1136825874521521,0.6775805178936568,0.07469406493776232,-0.9695067570891225,0.08763354446244331,0.7243881910097755,0.22524259516342127,0.5043279957035025,0.7419071660734604,0.7763993354414752,0.8632349502922576,0.6774684190714183,0.46696635269314435,0.9133144945237442,-0.6676656789571533,0.4246146301065412,0.14550349954571096,0.8398382570959974,0.4223352065067103,0.655232821517296,0.022396809773046256,0.6772726340106195,-0.4202155290448111,0.8062141956618462,0.01117193048788423,-0.4311544807877927,0.9443905972463755,0.924789211380282,0.1347832436479024,0.6277250571052629,0.0983382230287082,0.8413587973144377,0.7143857223154791,0.27598776916255874,0.6361110540492223,0.9985423554773807,0.42846378089952086,0.5818926284950244,0.12864901118396643,0.23422679067342378,0.165309042977559,0.10459520039252712,0.1726291966578266,0.9651104326868799,0.0654122570776765,0.00668238142508526,0.4785495030439072,0.5636782701771067,0.07420855702557827,0.33524486810792453,0.3407608221506465,0.07094090384018803,0.93831364809842,0.6855731511555593,0.24583568602019856,0.9130880742415739,0.5342432888482425,0.5257203731099317,0.08605075778261628],[0.9682902676003919,0.6490383196523573,0.5557016464527197,-0.32207498048636474,0.7935305657428263,0.7510823986941763,0.7694566939103574,0.4716409403826445,0.3302170389210324,0.13163692286014528,0.28360237310296876,0.09628079443037685,0.10897011676589097,0.21192108438996082,0.3983414713797069,-0.2136729393256811,0.2454576363818095,0.9506915847398636,0.3193835763437821,-0.1711809802758364,0.8713858971294346,0.47668595951521464,0.5586065843308421,0.02272121490463097,0.5970726741862646,0.5704428835064954,0.8084868952632979,0.12318274514736349,0.9875771061959584,0.42932001758378957,0.891222771718016,0.33571525438592176,-0.46594560920034134,0.3314485276999459,0.8894362304584083,0.8888390858126703,0.5580600510393734,0.8459759347903392,0.38941133808001127,0.3542459580368744,0.07478785545033317,-0.8672651994084235,0.1715620897694332,0.9755809537329779,0.6797318185095045,0.2538253776307674,-0.33208695871398675,0.17942644263327323,0.9296459533727437,0.44352116548940446,0.3188861415720873,0.8100433358627944,0.5330365124131402,0.13388009838011639,0.5119469701566894,0.6417770212400336,0.9878096057343493,-0.3104974571382815,0.2181032654227164,0.25383915490422015,0.42261740932531244,0.22676207758318756,0.9621344356656507,0.24570884032596263,-0.6546108813337841,-0.14020032028377583,0.27233908959688014,0.19733658466741966,0.960710624863769,0.9672993930759269],[0.8975586558257173,0.7978164498214424,0.12598048009007923,0.8795897940455562,0.2036002123865649,0.9594613098101189,0.05708680590134241,0.1019005110515998,0.9113313622941569,0.6186971085488124,0.4564319448838615,-0.6411471147334535,0.5156245458334598,0.7076708711808929,0.790044216852173,0.44454903721002703,0.7951399733045091,0.6604291666445223,0.08526131069656784,0.7637892915275875,0.15233325469219394,0.4239191291843152,0.992670828167442,0.6257738824362347,0.43599566865140726,0.8869627071850221,0.23366459299324838,-0.689969833240031,-0.7294587311376761,0.6938317048569346,0.37929821892417404,0.7896577101202304,-0.1806835799958202,0.766314307210441,0.31869956073458805,0.3868348185123758,0.4764903276509286,0.6828023135030877,0.47530696925672267,-0.4629102077669889,0.8893373146045938,0.7591795880911123,0.7924198341913816,0.20107509649472755,-0.9527998391625465,0.004450840052907523,0.45285934347106627,-0.6890669703685022,0.25415911467755015,0.18802284443640271,0.3614756404325046,0.33292386575785404,0.06203706984281321,0.4164348685332022,0.39688198698027355,0.00243687388332392,0.3116481604592676,-0.5031309357181766,0.7374641958261623,0.16982760358485105,0.04460241183761893,0.8436745411219362,0.15635338668810284,0.4103492171651354,0.9860532967833269,0.5252633484916066,0.7734196004349342,0.8584497434930185,0.6287526918818849,0.4104220819489718]],"W2":[[0.5833434005955487,0.34490251346382617,0.7982349258149267,0.9013298480885888,0.49599636156628835],[0.31302496164254223,-0.6062773982342133,-0.9874007658402217,0.03631686665248335,0.601995059860654]],"b1":[[0.4343631429623085],[0.29862103742464274],[-0.36153976712796343],[0.5419396707329853],[-0.22672513691161766]]}},
