
{"agentName":"0-10","fitness":25.000248029351233,"data":{"A1":[[127.00944277495947,71.51488628762607,326.29715628240507,0.0]],"b2":[[0.23042774014795753],[0.4164348685332022]],"A2":[[0.0,145.1640813609538]],"b3":[[-0.596467768575587],[0.17884522225228028]],"A3":[[0.993286154389603,2.2819449104823202E-32]],"W1":[[0.4551273600657362,0.36644694351969087,-0.38256108933468047,-0.4458430198517267,0.33109790358914726,0.8067445293443565,-0.2624341731773887,-0.44850386111659524,-0.07269284838169332,0.5658035575800715,0.8386555657374337,-0.1270180511534269,0.499812362510895,-0.22686625128130267,-0.6452430441812433,0.18869982177936828,-0.5804648622673358,0.651931743775642,-0.6555641246242951,0.17485476357259122,0.5025608135349202,0.14208069682973434,0.16004976900412138,0.505019897181302,-0.9371635223468384,-0.2841601610457427,0.6355938616712786,-0.1646249064941625,0.9480713629917628,0.42681251564645817,-0.0388509668871313,-0.4166870051763918,0.8997202693189332,0.6409836467726933,0.273289095712564,-0.26175701211620517,-0.2794902492677298,-0.1306778297187794,-0.08536581111046115,-0.05462315824828923,-0.06195495876886281,0.6546448480299902,-0.6979368909424835,0.6677324708883314,-0.07938725467767771,-0.43885601665437957,-0.608071585153688,-0.6414531182501653,0.7313735926547045,-0.026818676347611925,-0.15805658673794265,0.26573958270655806,0.3997172901343442,-0.3693430998846541,0.14324061105995334,-0.25797542063247825,0.7436291919296774,0.6114618853239959,0.2324273700703574,-0.25128128782199144,0.39449745853945895,0.817229160415142,-0.6077058562362969,0.6182496334554788,0.2558665508269453,-0.07320145794330979,-0.38884168866510227,0.07981886851873865,0.27022202891277614,-0.7474843534024693,-0.005346215048158909,-0.9453716674280683,-0.9270309666195007,-0.032312290091389695,0.31010676221964206,-0.20846743965751569,0.8803449313707621,-0.23077831216541722,0.29246395759528565,0.5409312755478819],[0.7880855916368177,0.19767407429003536,0.9520689432368168,-0.845829774129496,0.5502413918543512,-0.44235539500246457,0.7984106594591154,-0.2523277127589152,-0.1373808897290778,-0.3353514432305029,-0.3697050572653644,-0.11452811582755928,-0.807098168238352,0.4903066124307711,-0.6582805242342049,0.6107814398427647,-0.7204208094262783,-0.8141063661170889,-0.9459402662357332,0.09666938346350307,-0.43560342773870375,0.9349906440170221,0.8090021580031235,-0.3121157071110545,-0.9718883630945336,0.6191882496201251,0.0429886073795116,0.670311110015402,0.16692329718223786,0.37649213869502973,0.11276440263810383,-0.7684997525607482,0.1770172737885798,0.7902845707138706,0.2529503304079441,-0.23483801763662826,0.8072501895004851,0.6673992021927047,-0.4796127376677324,0.9244724404994455,-0.2049276879687938,0.1470694373531216,-0.48366999792166787,0.643491115907358,0.3183669486383729,0.22821350958477082,-0.023605251086149304,-0.2770587742156372,0.47596326458377436,0.7107229819632654,-0.3205057828114841,0.51605972926996,0.45215640988181516,0.01712446974606241,0.5508198371849293,-0.2478254241316491,0.7256483175955235,0.39418662792516,-0.6797384914236382,0.6001217520150142,0.4508991072414843,0.589749448443134,0.6464818311502738,0.7005669004769028,0.9699584106930381,-0.7417466269908464,0.22818964839784495,0.08574936236270037,-0.6945765138377225,0.06915201979238828,0.09798746565879424,-0.34288007110901964,0.440249350802451,-0.22440768392359534,-0.9695067570891225,-0.7942032659310758,-0.792286205517398,-0.6535487038528798,0.7952676470618951,-0.1622831617066689],[0.6949189734965766,-0.32697929564739403,-0.15359663581829275,-0.8951865090520432,0.2057889391931318,-0.6676656789571533,-0.03553655732400762,0.14550349954571096,0.034600542078191854,0.4223352065067103,0.35278245969741096,0.7022211035026023,0.5686638754605697,-0.4202155290448111,-0.26102723928249216,0.010688215941416779,-0.4311544807877927,0.9500151672991208,0.14380635780710693,-0.7549354840975826,-0.13079299081883855,0.0983382230287082,0.15347083875928424,0.45507300685816965,0.1921083467305864,0.6361110540492223,0.7675261182370992,-0.2543488202081907,0.2927051050236915,0.680182444769418,-0.8062832278617296,0.8266289890474885,0.22684501241708888,0.1726291966578266,-0.6778773666126594,0.9993906921393696,0.1789490173139363,0.5584053824232391,0.03495894704368174,-0.8505720014852347,-0.008461200645088818,-0.648273596036564,-0.005334477339629995,0.3781469006858833,0.30565234666790686,-0.2822867492866177,0.10175120738413801,0.5342432888482425,0.05146513075475534,-0.6459729964194652,0.42519013450094767,0.09441503345243984,-0.07898439043103522,-0.32207498048636474,-0.9180071861219266,0.5951317320731633,0.41000814588717693,-0.3926260640533046,0.2789036768568971,0.13163692286014528,0.03324842612749346,0.07055844751995122,-0.47199515597021113,-0.682690342465275,0.3983414713797069,-0.2136729393256811,-0.09066563475481249,-0.4640338194317184,-0.03513782089224482,-0.1711809802758364,0.1774546460228057,-0.6783644553523549,-0.47871398278230504,0.02272121490463097,-0.5047649289302389,0.26479596144873896,-0.32045436544054096,0.3113047940487379,0.6269418147567556,0.9710114516962312],[0.01715676997104909,0.8975962429865936,-0.46594560920034134,0.2873623499953055,0.8894362304584083,0.17973981232418468,0.49105791400707743,-0.7359842740294882,0.38941133808001127,-0.7151884777228046,0.07478785545033317,-0.8672651994084235,0.450599300176334,0.35104802298560056,0.6797318185095045,-0.03891997518827006,-0.33208695871398675,0.6166574577055226,0.5730212324012205,-0.4194925751047054,0.054527683864544096,-0.15591931640565093,0.9266742559542833,0.888522581905147,0.6576203900699167,0.6417770212400336,0.7509788029052338,-0.3104974571382815,0.7234744267051683,-0.15869049651427103,0.20173310976772196,0.8657502566551409,0.9325160601080682,0.24570884032596263,-0.6546108813337841,-0.14020032028377583,-0.8825687891702743,-0.21420166926412865,-0.8600275184792756,-0.7990574622230739,0.8325875503351796,-0.5956350140619129,0.12598048009007923,0.12340188733473134,-0.839435659309717,-0.16623481818728414,0.12028795301041662,-0.7994713170657952,0.2216721974907896,0.8407561415075087,-0.9325810772922609,-0.6411471147334535,0.9949216290375054,0.483048267470493,-0.8736297429070232,-0.36222771685582544,0.26397860162786957,0.45527588775737704,-0.9424989711186325,0.6251162293059616,-0.2307778924009991,0.6977871128979924,0.022830408261390822,0.6257738824362347,0.9770979848265122,0.09985730624684575,-0.9755858424230182,-0.689969833240031,-0.7294587311376761,0.3496326193951331,0.37929821892417404,0.8402056881660709,-0.1806835799958202,0.766314307210441,0.865876513623024,-0.7113501219432434,-0.0932956557986735,-0.7042025810921411,0.47530696925672267,-0.4629102077669889]],"W2":[[-0.9527998391625465,-0.08573982501921895,-0.3812232026687308,-0.6890669703685022],[0.25415911467755015,-0.07664746267502509,0.3614756404325046,0.14508027508253818]],"W3":[[0.4109091750657461,0.03853098236933272],[0.38911994885223145,-0.5031309357181766]],"b1":[[-0.9309578475799722],[0.7591795880911123],[0.06296957473213705],[0.786790093290086]]}}
{"agentName":"1-1","fitness":45.191655995686844,"data":{"A1":[[0.4903066124307711,71.51488628762607,326.29715628240507,0.0]],"b2":[[0.23042774014795753],[0.6191882496201251]],"A2":[[0.0,145.1640813609538]],"b3":[[-0.596467768575587],[0.17884522225228028]],"A3":[[0.993286154389603,2.2819449104823202E-32]],"W1":[[0.4551273600657362,0.007159356555897611,-0.38256108933468047,-0.4458430198517267,0.33109790358914726,0.8067445293443565,-0.2624341731773887,-0.44850386111659524,-0.07269284838169332,0.5658035575800715,0.8386555657374337,-0.1270180511534269,0.499812362510895,-0.22686625128130267,-0.6452430441812433,0.18869982177936828,-0.5804648622673358,0.651931743775642,-0.6555641246242951,0.17485476357259122,0.5025608135349202,0.14208069682973434,0.16004976900412138,0.505019897181302,-0.9371635223468384,-0.2841601610457427,0.41304209196175257,-0.1646249064941625,0.9480713629917628,0.42681251564645817,-0.0388509668871313,-0.4166870051763918,-0.29946646506145114,0.6409836467726933,-0.7439716673142398,-0.3675110562764785,-0.2794902492677298,-0.1306778297187794,-0.08536581111046115,-0.05462315824828923,-0.06195495876886281,0.6546448480299902,-0.6979368909424835,0.6677324708883314,-0.07938725467767771,-0.43885601665437957,-0.608071585153688,-0.6414531182501653,0.7313735926547045,-0.026818676347611925,-0.15805658673794265,0.26573958270655806,0.3997172901343442,-0.3693430998846541,0.14324061105995334,-0.25797542063247825,0.7436291919296774,-0.9811997368468401,0.8782018665273386,0.6307050068521085,0.39449745853945895,-0.8537533138667612,-0.6077058562362969,0.6182496334554788,0.2558665508269453,-0.5688746770986652,-0.38884168866510227,-0.7022804026958895,0.5288643233801469,-0.7474843534024693,-0.0945946325760949,-0.9453716674280683,-0.9270309666195007,-0.032312290091389695,-0.7404936009304737,-0.49510748520932113,0.8803449313707621,0.4610134502825909,0.29246395759528565,0.5409312755478819],[0.7880855916368177,0.19767407429003536,0.9520689432368168,-0.845829774129496,0.5502413918543512,-0.44235539500246457,0.7984106594591154,-0.2523277127589152,-0.1373808897290778,-0.3353514432305029,-0.3697050572653644,0.6593783978826002,-0.807098168238352,0.4903066124307711,-0.6582805242342049,0.6107814398427647,-0.7204208094262783,-0.8141063661170889,-0.9459402662357332,0.09666938346350307,-0.43560342773870375,0.9349906440170221,0.8090021580031235,-0.3121157071110545,-0.9718883630945336,0.6191882496201251,-0.2358219003943678,0.670311110015402,0.16692329718223786,0.37649213869502973,0.11276440263810383,-0.7684997525607482,0.1770172737885798,0.7902845707138706,0.2529503304079441,-0.23483801763662826,0.8072501895004851,0.6673992021927047,-0.4796127376677324,0.9244724404994455,-0.2049276879687938,0.1470694373531216,0.31638672033240867,0.643491115907358,0.3183669486383729,0.22821350958477082,-0.023605251086149304,-0.2770587742156372,0.18934450539532244,0.7107229819632654,-0.3205057828114841,0.51605972926996,-0.533835190276116,0.01712446974606241,0.5508198371849293,-0.2478254241316491,-0.9665136866462685,0.39418662792516,0.32024289816988416,0.6001217520150142,0.4508991072414843,0.589749448443134,0.6464818311502738,0.7005669004769028,-0.15497746743367058,-0.7417466269908464,0.22818964839784495,0.08574936236270037,-0.6945765138377225,0.06915201979238828,0.09798746565879424,-0.34288007110901964,0.440249350802451,-0.22440768392359534,-0.9695067570891225,-0.7942032659310758,-0.792286205517398,0.03707410390488852,0.7952676470618951,-0.1622831617066689],[-0.42791544663481895,0.6023685964407528,-0.15359663581829275,-0.8951865090520432,-0.2416258355340175,-0.6676656789571533,-0.03553655732400762,-0.03333947011476446,0.449117985679933,0.4223352065067103,0.35278245969741096,0.7022211035026023,-0.569587565933642,0.3697979495309094,-0.26102723928249216,0.010688215941416779,-0.4311544807877927,-0.5298395275757712,0.39554920787574743,-0.7549354840975826,-0.13079299081883855,0.0983382230287082,0.15347083875928424,0.8774286357993033,0.1921083467305864,0.6361110540492223,0.7675261182370992,-0.2543488202081907,0.2927051050236915,0.680182444769418,0.41048687946340134,0.8266289890474885,0.22684501241708888,0.1726291966578266,-0.6778773666126594,0.9993906921393696,0.1789490173139363,0.5584053824232391,0.03495894704368174,-0.8505720014852347,-0.008461200645088818,-0.648273596036564,-0.005334477339629995,0.3781469006858833,0.965218170323435,-0.2822867492866177,0.10175120738413801,0.5342432888482425,0.05146513075475534,-0.6459729964194652,0.42519013450094767,0.09441503345243984,-0.07898439043103522,-0.32207498048636474,-0.12831346258317322,0.5951317320731633,0.41000814588717693,-0.3926260640533046,0.2789036768568971,0.13163692286014528,0.03324842612749346,0.07055844751995122,0.2927180954190314,-0.682690342465275,0.3983414713797069,-0.3906240514635124,-0.14408879184669354,-0.4640338194317184,-0.03513782089224482,-0.1711809802758364,0.1774546460228057,-0.6783644553523549,-0.47871398278230504,0.02272121490463097,-0.5047649289302389,0.26479596144873896,-0.32045436544054096,0.3113047940487379,-0.1535668648046895,0.9710114516962312],[-0.1790505106198006,0.8975962429865936,-0.46594560920034134,0.2873623499953055,0.8894362304584083,0.17973981232418468,0.49105791400707743,0.9990215581592679,0.49133473382040704,-0.7151884777228046,0.07478785545033317,-0.8672651994084235,0.450599300176334,0.35104802298560056,-0.24945505706767923,0.22925954469403154,-0.33208695871398675,0.6166574577055226,0.5730212324012205,-0.4194925751047054,0.054527683864544096,-0.15591931640565093,0.9266742559542833,0.888522581905147,0.6576203900699167,-0.48202394020369277,0.7509788029052338,-0.3104974571382815,0.7829797328120436,-0.15869049651427103,0.20173310976772196,0.6823342859396513,0.9325160601080682,0.24570884032596263,-0.6546108813337841,-0.14020032028377583,-0.8825687891702743,-0.21420166926412865,-0.5939885763232406,-0.7990574622230739,0.8325875503351796,-0.5956350140619129,0.12598048009007923,0.12340188733473134,-0.839435659309717,-0.16623481818728414,0.12028795301041662,-0.7994713170657952,0.2216721974907896,0.8407561415075087,-0.9325810772922609,-0.6411471147334535,0.9949216290375054,0.483048267470493,-0.8736297429070232,-0.36222771685582544,0.26397860162786957,0.45527588775737704,-0.9424989711186325,0.6251162293059616,-0.2307778924009991,0.6977871128979924,0.47004365892170585,0.6257738824362347,-0.6056572341069668,0.09985730624684575,-0.9755858424230182,0.40644848732968164,-0.7294587311376761,0.3496326193951331,0.37929821892417404,0.8402056881660709,-0.1806835799958202,0.766314307210441,0.865876513623024,-0.7113501219432434,-0.0932956557986735,-0.7042025810921411,0.47530696925672267,-0.4629102077669889]],"W2":[[-0.9996126872234177,-0.08573982501921895,-0.3812232026687308,-0.6890669703685022],[0.25415911467755015,-0.10024819268489127,0.3614756404325046,0.14508027508253818]],"W3":[[0.4109091750657461,0.03853098236933272],[0.38911994885223145,0.4014766166181287]],"b1":[[-0.9309578475799722],[0.7591795880911123],[0.06296957473213705],[0.786790093290086]]}}
-{"agentName":"3-1","fitness":45.256641236464176,"data":{"A1":[[0.5249676287186575,71.51488628762607,326.29715628240507,-0.5786868832156828]],"b2":[[0.23042774014795753],[0.6191882496201251]],"A2":[[0.9812111286078284,145.1640813609538]],"b3":[[-0.5405284677903648],[0.17884522225228028]],"A3":[[0.993286154389603,2.2819449104823202E-32]],"W1":[[0.4551273600657362,0.007159356555897611,-0.38256108933468047,-0.4458430198517267,0.33109790358914726,0.5216597736021635,-0.2624341731773887,-0.44850386111659524,-0.07269284838169332,0.5658035575800715,0.4913149749630017,-0.1270180511534269,-0.860277326554389,-0.22686625128130267,-0.6452430441812433,0.18869982177936828,-0.5804648622673358,0.651931743775642,-0.6555641246242951,0.1268986517604549,0.5025608135349202,0.14208069682973434,0.16004976900412138,0.505019897181302,-0.9371635223468384,-0.2841601610457427,0.41304209196175257,-0.1646249064941625,0.9480713629917628,0.42681251564645817,-0.4994368190521894,-0.4166870051763918,-0.29946646506145114,0.6409836467726933,-0.7439716673142398,-0.3675110562764785,-0.2794902492677298,-0.1306778297187794,0.5249072912902939,0.39215001883617906,-0.06195495876886281,-0.048320813087276315,-0.6979368909424835,0.060942700856587484,-0.07938725467767771,0.8558622325885823,-0.608071585153688,-0.6414531182501653,0.7313735926547045,-0.026818676347611925,-0.15805658673794265,-0.6547487772203857,0.3997172901343442,-0.3693430998846541,0.14324061105995334,-0.25797542063247825,-0.1484460921171027,-0.9811997368468401,0.8782018665273386,0.6307050068521085,0.39449745853945895,-0.8537533138667612,-0.6077058562362969,0.6182496334554788,0.2558665508269453,-0.5688746770986652,-0.38884168866510227,-0.7022804026958895,0.5288643233801469,-0.7474843534024693,-0.0945946325760949,-0.9453716674280683,-0.9270309666195007,-0.032312290091389695,-0.7404936009304737,-0.49510748520932113,0.8803449313707621,-0.6233567262129267,0.29246395759528565,0.5409312755478819],[0.7880855916368177,0.3217049431155692,0.9520689432368168,-0.845829774129496,-0.6041727739372253,-0.44235539500246457,0.7984106594591154,-0.2523277127589152,-0.1373808897290778,-0.3353514432305029,-0.3697050572653644,0.6593783978826002,-0.807098168238352,0.4903066124307711,-0.7019646128202126,-0.8619749890855313,-0.7204208094262783,0.8676906379376914,-0.42721784537912555,0.09666938346350307,-0.43560342773870375,0.9349906440170221,0.8090021580031235,-0.3121157071110545,-0.9718883630945336,0.6191882496201251,-0.2358219003943678,0.670311110015402,-0.6101406276364763,0.6534718680376703,0.11276440263810383,-0.7684997525607482,0.27653800161271924,0.7902845707138706,0.1852565669406332,-0.23483801763662826,0.8072501895004851,0.7085914685883126,-0.4796127376677324,0.9244724404994455,-0.2049276879687938,-0.11464089360698893,0.31638672033240867,0.643491115907358,0.3183669486383729,0.22821350958477082,0.9210457272560042,-0.2770587742156372,0.18934450539532244,0.7107229819632654,-0.3205057828114841,0.51605972926996,-0.533835190276116,0.01712446974606241,0.5508198371849293,0.46063248519950273,-0.6300791852713106,0.39418662792516,0.32024289816988416,0.6001217520150142,0.4508991072414843,-0.2175434951690829,0.6464818311502738,-0.7005449362447573,-0.15497746743367058,-0.7417466269908464,0.22818964839784495,-0.25123362706646457,-0.6945765138377225,0.06915201979238828,0.09798746565879424,-0.34288007110901964,0.440249350802451,-0.22440768392359534,-0.9695067570891225,-0.7942032659310758,-0.792286205517398,0.03707410390488852,0.7952676470618951,-0.45469090694085534],[-0.42791544663481895,0.6023685964407528,-0.15359663581829275,-0.8951865090520432,-0.2416258355340175,-0.6676656789571533,-0.03553655732400762,-0.03333947011476446,0.449117985679933,0.6779230776450962,0.35278245969741096,-0.9845631760153672,-0.20661318091010905,0.3697979495309094,-0.26102723928249216,0.010688215941416779,-0.4311544807877927,-0.5298395275757712,0.39554920787574743,-0.7549354840975826,-0.13079299081883855,0.0983382230287082,0.404977305063819,0.8774286357993033,-0.6779533652516021,-0.9289030925610586,0.7675261182370992,-0.2543488202081907,0.2927051050236915,0.680182444769418,0.41048687946340134,0.8266289890474885,0.22684501241708888,0.1726291966578266,0.6688237363576621,0.9993906921393696,0.1789490173139363,0.15598422797252187,0.8000590966291723,-0.8505720014852347,-0.008461200645088818,-0.648273596036564,-0.005334477339629995,0.3781469006858833,0.965218170323435,-0.2822867492866177,0.10175120738413801,0.5342432888482425,0.05146513075475534,-0.6459729964194652,0.42519013450094767,0.09441503345243984,-0.07898439043103522,-0.32207498048636474,-0.12831346258317322,0.5951317320731633,0.41000814588717693,-0.3926260640533046,0.2789036768568971,0.13163692286014528,0.03324842612749346,0.07055844751995122,0.2927180954190314,-0.682690342465275,0.3983414713797069,0.46000586508353614,-0.14408879184669354,-0.4640338194317184,-0.7001794298444595,0.7952336451814228,0.1774546460228057,-0.7202012741452006,-0.47871398278230504,0.02272121490463097,-0.5047649289302389,0.26479596144873896,-0.061766655837633744,0.3113047940487379,-0.1535668648046895,0.9710114516962312],[-0.1790505106198006,0.8409483054135343,-0.46594560920034134,0.2873623499953055,0.8894362304584083,0.265557504748144,0.49105791400707743,0.9990215581592679,-0.0804124466055729,-0.8082264223890936,0.07478785545033317,-0.8672651994084235,0.450599300176334,0.35104802298560056,0.1620807284452883,0.22244041071176035,-0.33208695871398675,0.9132489752451824,0.5730212324012205,-0.9327363199679581,-0.9481390733242798,-0.5282465540340324,-0.6943758863582654,0.888522581905147,0.6576203900699167,-0.48202394020369277,0.7509788029052338,0.241230188129544,-0.01199133038895095,-0.15869049651427103,-0.05723224635402513,0.6823342859396513,0.9325160601080682,-0.39716674166363797,-0.6546108813337841,-0.14020032028377583,-0.8825687891702743,-0.21420166926412865,-0.5939885763232406,-0.7990574622230739,0.8325875503351796,-0.5956350140619129,0.12598048009007923,0.12340188733473134,-0.839435659309717,-0.16623481818728414,0.12028795301041662,0.8297014820235209,-0.29873998888397546,0.8407561415075087,-0.9325810772922609,-0.6411471147334535,0.9949216290375054,0.483048267470493,-0.10934126185887805,-0.36222771685582544,0.26397860162786957,-0.06293281348945645,-0.9424989711186325,0.6251162293059616,-0.2307778924009991,-0.9479018046108676,0.10013925209542385,0.6257738824362347,-0.6056572341069668,0.09985730624684575,-0.9755858424230182,0.40644848732968164,-0.7294587311376761,0.3496326193951331,-0.6999823262974278,0.8402056881660709,-0.1806835799958202,-0.68937393675138,0.865876513623024,0.9775516645472899,-0.0932956557986735,0.21794027812892125,0.47530696925672267,-0.4629102077669889]],"W2":[[-0.9996126872234177,0.9423187750086648,-0.3812232026687308,-0.6890669703685022],[0.25415911467755015,-0.10024819268489127,0.3614756404325046,0.14508027508253818]],"W3":[[0.4109091750657461,0.03853098236933272],[0.38911994885223145,0.4014766166181287]],"b1":[[-0.9309578475799722],[-0.0054267825103209155],[0.06296957473213705],[0.7155854123266114]]}}
{"agentName":"4-7","fitness":52.49805882414182,"data":{"A1":[[-0.4816465984908378,71.51488628762607,326.29715628240507,0.159467891019776]],"b2":[[0.6120879312375436],[0.6191882496201251]],"A2":[[0.0,145.1640813609538]],"b3":[[-0.33256351182525323],[0.17884522225228028]],"A3":[[0.02112311329584493,2.2819449104823202E-32]],"W1":[[0.4551273600657362,0.007159356555897611,-0.5673980675574453,-0.4458430198517267,0.33109790358914726,0.8067445293443565,-0.2624341731773887,-0.44850386111659524,-0.07269284838169332,0.5658035575800715,0.9227974489869453,-0.1270180511534269,0.499812362510895,0.5211238349815532,-0.6452430441812433,0.18869982177936828,-0.5804648622673358,0.651931743775642,-0.6555641246242951,0.17485476357259122,0.5025608135349202,0.14208069682973434,0.16004976900412138,0.505019897181302,-0.9371635223468384,-0.2841601610457427,0.41304209196175257,-0.1646249064941625,0.9480713629917628,-0.6597755949659374,-0.0388509668871313,-0.4166870051763918,-0.29946646506145114,0.6409836467726933,-0.6535421157731358,-0.3675110562764785,-0.2794902492677298,-0.1306778297187794,-0.6510118878242057,-0.05462315824828923,-0.06195495876886281,0.5741118602286623,0.9511113810718446,-0.005726211355399746,-0.07938725467767771,-0.43885601665437957,-0.608071585153688,-0.7904296809245985,0.6484479797015996,0.8480146105655197,-0.15805658673794265,0.26573958270655806,-0.21543906560461257,-0.3693430998846541,0.14324061105995334,-0.18217141223208877,0.7436291919296774,0.13378729961531666,-0.09507531972437189,0.6307050068521085,-0.6814645543452467,-0.8537533138667612,-0.6077058562362969,0.6182496334554788,0.2558665508269453,-0.5688746770986652,-0.480143985616041,-0.7022804026958895,0.5288643233801469,-0.7474843534024693,-0.0945946325760949,-0.9453716674280683,-0.9270309666195007,-0.032312290091389695,-0.7404936009304737,-0.49510748520932113,0.8803449313707621,-0.5752654949992362,0.29246395759528565,0.5409312755478819],[0.7880855916368177,0.19767407429003536,0.9520689432368168,-0.8739539995127266,0.901391140600005,0.6414879023769138,0.7984106594591154,-0.10916194026337833,-0.1373808897290778,-0.9002597518082316,-0.3697050572653644,0.6593783978826002,0.26905435106766684,-0.7497504983973413,-0.787244137122584,0.6107814398427647,-0.7204208094262783,-0.8141063661170889,-0.5655303397489064,0.09666938346350307,-0.43560342773870375,0.9349906440170221,0.8090021580031235,-0.3121157071110545,-0.9718883630945336,0.6191882496201251,-0.2358219003943678,-0.1775590004353944,0.16692329718223786,0.8289402390332328,-0.6479777751831968,0.9608203334917029,0.4901468330457204,0.7902845707138706,0.2529503304079441,-0.23483801763662826,0.9326466370811413,0.6673992021927047,-0.4796127376677324,0.9244724404994455,-0.2049276879687938,0.458707165315708,0.31638672033240867,0.643491115907358,0.3183669486383729,0.7197006453228563,-0.023605251086149304,-0.2770587742156372,0.18934450539532244,-0.05371964117604744,-0.4448385969831834,0.6770452731118886,-0.533835190276116,0.01712446974606241,0.5508198371849293,0.783821109228263,-0.9665136866462685,-0.609247091491945,0.32024289816988416,0.6001217520150142,0.4508991072414843,0.589749448443134,0.6464818311502738,0.7005669004769028,-0.15497746743367058,0.7670938510094756,0.22818964839784495,0.6142403879467699,-0.6945765138377225,0.06915201979238828,0.09798746565879424,-0.34288007110901964,0.6759641797683078,-0.22440768392359534,0.16100467016651243,-0.7942032659310758,-0.792286205517398,0.03707410390488852,0.878553049899653,-0.1622831617066689],[-0.42791544663481895,-0.38509394816666465,0.12957152581272569,-0.8145770495567961,-0.2416258355340175,-0.6676656789571533,-0.03553655732400762,-0.03333947011476446,-0.06314632187803482,0.4223352065067103,-0.3806022493155945,0.7022211035026023,-0.569587565933642,0.3697979495309094,-0.26102723928249216,0.7231263230661127,-0.4311544807877927,-0.5298395275757712,0.39554920787574743,-0.7549354840975826,-0.13079299081883855,0.9079264251243968,0.15347083875928424,0.45212047581102754,0.1921083467305864,0.6361110540492223,0.7675261182370992,-0.2543488202081907,0.2927051050236915,0.680182444769418,0.41048687946340134,0.8266289890474885,-0.9017426140635829,0.1726291966578266,-0.5018638379924159,0.9993906921393696,0.1789490173139363,0.5584053824232391,0.03495894704368174,-0.8505720014852347,-0.008461200645088818,-0.648273596036564,-0.07363126541576714,0.2627488686624624,0.965218170323435,-0.2822867492866177,-0.32905876951355184,0.054025139927694754,0.33338497625082075,-0.6459729964194652,-0.5693281014419205,0.09441503345243984,-0.07898439043103522,-0.30992333932279115,-0.12831346258317322,0.7041322862188764,0.41000814588717693,0.16754745776949087,0.2789036768568971,0.13163692286014528,0.03324842612749346,0.07055844751995122,0.2927180954190314,0.9317486136262996,0.3983414713797069,-0.48474380418387053,0.8903958708312025,-0.4640338194317184,0.5562097905275232,-0.6580066669196927,0.1774546460228057,-0.49821705737569744,-0.47871398278230504,0.02272121490463097,-0.5047649289302389,0.26479596144873896,-0.13701485047536122,0.1842502687026386,-0.1535668648046895,0.9710114516962312],[-0.8816618710610231,-0.2241749281454799,-0.46594560920034134,0.2873623499953055,0.8894362304584083,-0.16433072975013618,0.5540933965918087,0.9990215581592679,0.49133473382040704,-0.9096861996790901,0.5910742656873051,-0.35225626757531026,0.03199079048699671,0.13158235499016757,-0.19335226995820287,0.22925954469403154,-0.9483852681584453,-0.9624429967501338,0.5730212324012205,-0.4194925751047054,-0.9997192198946714,-0.17313280586225344,0.9266742559542833,0.888522581905147,-0.9394610956000455,0.18510420633940416,0.7509788029052338,-0.9249621129952961,0.7829797328120436,-0.15869049651427103,0.20173310976772196,0.6823342859396513,0.9325160601080682,0.06084184392911163,0.07735866753253773,-0.14020032028377583,-0.8825687891702743,-0.21420166926412865,-0.08864643089022617,-0.7990574622230739,0.6395365923282779,-0.5174003451311471,0.12598048009007923,-0.7302492470555266,-0.839435659309717,-0.16623481818728414,0.815334906750415,-0.7994713170657952,0.2216721974907896,0.8407561415075087,-0.9325810772922609,-0.6411471147334535,0.2961612750846765,0.483048267470493,-0.6792392410626649,-0.36222771685582544,0.26397860162786957,0.45527588775737704,-0.9424989711186325,0.9538256119791035,-0.2307778924009991,0.6977871128979924,0.47004365892170585,0.6257738824362347,-0.9228263982896849,0.48644584827872284,-0.9755858424230182,-0.24237093987679725,-0.7294587311376761,-0.3682827109616611,0.5772013110831062,0.8402056881660709,-0.1806835799958202,-0.6545130320998385,-0.4757387461948077,-0.7113501219432434,-0.0932956557986735,-0.7042025810921411,0.06829188488018545,-0.5728615763962999]],"W2":[[-0.9996126872234177,0.7218700535860703,-0.3812232026687308,-0.6890669703685022],[0.25415911467755015,-0.907543955080597,0.9622363987318447,0.3571527816099933]],"W3":[[0.4109091750657461,0.03853098236933272],[0.38911994885223145,0.4014766166181287]],"b1":[[0.9802643374418876],[0.7591795880911123],[0.06441057193611766],[0.786790093290086]]}}
{"agentName":"4-6","fitness":52.49805882414182,"data":{"A1":[[-0.4816465984908378,71.51488628762607,326.29715628240507,0.159467891019776]],"b2":[[0.6120879312375436],[0.6191882496201251]],"A2":[[0.0,145.1640813609538]],"b3":[[-0.33256351182525323],[0.17884522225228028]],"A3":[[0.02112311329584493,2.2819449104823202E-32]],"W1":[[0.4551273600657362,0.007159356555897611,-0.5673980675574453,-0.4458430198517267,0.33109790358914726,0.8067445293443565,-0.2624341731773887,-0.44850386111659524,-0.07269284838169332,0.5658035575800715,0.9227974489869453,-0.1270180511534269,0.499812362510895,0.5211238349815532,-0.6452430441812433,0.18869982177936828,-0.5804648622673358,0.651931743775642,-0.6555641246242951,0.17485476357259122,0.5025608135349202,0.14208069682973434,0.16004976900412138,0.505019897181302,-0.9371635223468384,-0.2841601610457427,0.41304209196175257,-0.1646249064941625,0.9480713629917628,-0.6597755949659374,-0.0388509668871313,-0.4166870051763918,-0.29946646506145114,0.6409836467726933,-0.6535421157731358,-0.3675110562764785,-0.2794902492677298,-0.1306778297187794,-0.6510118878242057,-0.05462315824828923,-0.06195495876886281,0.5741118602286623,0.9511113810718446,-0.005726211355399746,-0.07938725467767771,-0.43885601665437957,-0.608071585153688,-0.7904296809245985,0.6484479797015996,0.8480146105655197,-0.15805658673794265,0.26573958270655806,-0.21543906560461257,-0.3693430998846541,0.14324061105995334,-0.18217141223208877,0.7436291919296774,0.13378729961531666,-0.09507531972437189,0.6307050068521085,-0.6814645543452467,-0.8537533138667612,-0.6077058562362969,0.6182496334554788,0.2558665508269453,-0.5688746770986652,-0.480143985616041,-0.7022804026958895,0.5288643233801469,-0.7474843534024693,-0.0945946325760949,-0.9453716674280683,-0.9270309666195007,-0.032312290091389695,-0.7404936009304737,-0.49510748520932113,0.8803449313707621,-0.5752654949992362,0.29246395759528565,0.5409312755478819],[0.7880855916368177,0.19767407429003536,0.9520689432368168,-0.8739539995127266,0.901391140600005,0.6414879023769138,0.7984106594591154,-0.10916194026337833,-0.1373808897290778,-0.9002597518082316,-0.3697050572653644,0.6593783978826002,0.26905435106766684,-0.7497504983973413,-0.787244137122584,0.6107814398427647,-0.7204208094262783,-0.8141063661170889,-0.5655303397489064,0.09666938346350307,-0.43560342773870375,0.9349906440170221,0.8090021580031235,-0.3121157071110545,-0.9718883630945336,0.6191882496201251,-0.2358219003943678,-0.1775590004353944,0.16692329718223786,0.8289402390332328,-0.6479777751831968,0.9608203334917029,0.4901468330457204,0.7902845707138706,0.2529503304079441,-0.23483801763662826,0.9326466370811413,0.6673992021927047,-0.4796127376677324,0.9244724404994455,-0.2049276879687938,0.458707165315708,0.31638672033240867,0.643491115907358,0.3183669486383729,0.7197006453228563,-0.023605251086149304,-0.2770587742156372,0.18934450539532244,-0.05371964117604744,-0.4448385969831834,0.6770452731118886,-0.533835190276116,0.01712446974606241,0.5508198371849293,0.783821109228263,-0.9665136866462685,-0.609247091491945,0.32024289816988416,0.6001217520150142,0.4508991072414843,0.589749448443134,0.6464818311502738,0.7005669004769028,-0.15497746743367058,0.7670938510094756,0.22818964839784495,0.6142403879467699,-0.6945765138377225,0.06915201979238828,0.09798746565879424,-0.34288007110901964,0.6759641797683078,-0.22440768392359534,0.16100467016651243,-0.7942032659310758,-0.792286205517398,0.03707410390488852,0.878553049899653,-0.1622831617066689],[-0.42791544663481895,-0.38509394816666465,0.12957152581272569,-0.8145770495567961,-0.2416258355340175,-0.6676656789571533,-0.03553655732400762,-0.03333947011476446,-0.06314632187803482,0.4223352065067103,-0.3806022493155945,0.7022211035026023,-0.569587565933642,0.3697979495309094,-0.26102723928249216,0.7231263230661127,-0.4311544807877927,-0.5298395275757712,0.39554920787574743,-0.7549354840975826,-0.13079299081883855,0.9079264251243968,0.15347083875928424,0.45212047581102754,0.1921083467305864,0.6361110540492223,0.7675261182370992,-0.2543488202081907,0.2927051050236915,0.680182444769418,0.41048687946340134,0.8266289890474885,-0.9017426140635829,0.1726291966578266,-0.5018638379924159,0.9993906921393696,0.1789490173139363,0.5584053824232391,0.03495894704368174,-0.8505720014852347,-0.008461200645088818,-0.648273596036564,-0.07363126541576714,0.2627488686624624,0.965218170323435,-0.2822867492866177,-0.32905876951355184,0.054025139927694754,0.33338497625082075,-0.6459729964194652,-0.5693281014419205,0.09441503345243984,-0.07898439043103522,-0.30992333932279115,-0.12831346258317322,0.7041322862188764,0.41000814588717693,0.16754745776949087,0.2789036768568971,0.13163692286014528,0.03324842612749346,0.07055844751995122,0.2927180954190314,0.9317486136262996,0.3983414713797069,-0.48474380418387053,0.8903958708312025,-0.4640338194317184,0.5562097905275232,-0.6580066669196927,0.1774546460228057,-0.49821705737569744,-0.47871398278230504,0.02272121490463097,-0.5047649289302389,0.26479596144873896,-0.13701485047536122,0.1842502687026386,-0.1535668648046895,0.9710114516962312],[-0.8816618710610231,-0.2241749281454799,-0.46594560920034134,0.2873623499953055,0.8894362304584083,-0.16433072975013618,0.5540933965918087,0.9990215581592679,0.49133473382040704,-0.9096861996790901,0.5910742656873051,-0.35225626757531026,0.03199079048699671,0.13158235499016757,-0.19335226995820287,0.22925954469403154,-0.9483852681584453,-0.9624429967501338,0.5730212324012205,-0.4194925751047054,-0.9997192198946714,-0.17313280586225344,0.9266742559542833,0.888522581905147,-0.9394610956000455,0.18510420633940416,0.7509788029052338,-0.9249621129952961,0.7829797328120436,-0.15869049651427103,0.20173310976772196,0.6823342859396513,0.9325160601080682,0.06084184392911163,0.07735866753253773,-0.14020032028377583,-0.8825687891702743,-0.21420166926412865,-0.08864643089022617,-0.7990574622230739,0.6395365923282779,-0.5174003451311471,0.12598048009007923,-0.7302492470555266,-0.839435659309717,-0.16623481818728414,0.815334906750415,-0.7994713170657952,0.2216721974907896,0.8407561415075087,-0.9325810772922609,-0.6411471147334535,0.2961612750846765,0.483048267470493,-0.6792392410626649,-0.36222771685582544,0.26397860162786957,0.45527588775737704,-0.9424989711186325,0.9538256119791035,-0.2307778924009991,0.6977871128979924,0.47004365892170585,0.6257738824362347,-0.9228263982896849,0.48644584827872284,-0.9755858424230182,-0.24237093987679725,-0.7294587311376761,-0.3682827109616611,0.5772013110831062,0.8402056881660709,-0.1806835799958202,-0.6545130320998385,-0.4757387461948077,-0.7113501219432434,-0.0932956557986735,-0.7042025810921411,0.06829188488018545,-0.5728615763962999]],"W2":[[-0.9996126872234177,0.7218700535860703,-0.3812232026687308,-0.6890669703685022],[0.25415911467755015,-0.907543955080597,0.9622363987318447,0.3571527816099933]],"W3":[[0.4109091750657461,0.03853098236933272],[0.38911994885223145,0.4014766166181287]],"b1":[[0.9802643374418876],[0.7591795880911123],[0.06441057193611766],[0.786790093290086]]}}
-------------{"agentName":"19-3","fitness":52.5765653389295,"data":{"A1":[[0.5282679723459902,71.51488628762607,326.29715628240507,0.9414870793995529]],"b2":[[0.7171399618693157],[0.6191882496201251]],"A2":[[0.0,-0.26325821079686174]],"b3":[[-0.7240962924756991],[0.17884522225228028]],"A3":[[0.02112311329584493,2.2819449104823202E-32]],"W1":[[-0.4014936836190677,0.007159356555897611,-0.5673980675574453,-0.6526348768243591,0.33109790358914726,0.7399522309216373,-0.2658712543670607,-0.44850386111659524,-0.746552284877616,-0.9820730884038711,-0.5848823745429581,-0.1270180511534269,0.499812362510895,0.5211238349815532,0.43781964511265126,0.18869982177936828,-0.5804648622673358,-0.002210409615282849,-0.34760956297832557,-0.31094457961257205,-0.8133895587661149,-0.7302567616768034,-0.6221962736343427,0.5436598947574072,-0.9371635223468384,-0.2841601610457427,-0.5528646541675168,-0.1646249064941625,-0.7475851557558573,0.1436002892731041,-0.0388509668871313,-0.4166870051763918,-0.29946646506145114,0.5020002194077944,-0.6535421157731358,0.055576888188878515,0.3536025507261382,0.42115404916055743,-0.9044586677405309,0.2545371529215501,-0.06195495876886281,-0.022032449612437555,0.9511113810718446,-0.005726211355399746,-0.12274188050901103,-0.6337851933979155,-0.608071585153688,-0.8631813858629853,0.05608131179484155,-0.3396964706690011,-0.15805658673794265,-0.7498233130152003,-0.21543906560461257,-0.848906030019279,0.14324061105995334,0.6921633092370152,-0.6728859632183339,-0.2533444426098874,-0.899503291543859,0.6307050068521085,-0.220703043413645,-0.2749578032390767,0.7591914645035303,0.8523073976836457,0.2558665508269453,-0.5688746770986652,0.44571570164004526,-0.7452412920922853,0.6061535747761331,-0.7474843534024693,0.12473432501273263,-0.39578559064716545,-0.9270309666195007,-0.032312290091389695,0.6034705550839483,-0.37242832977292695,0.8803449313707621,-0.5752654949992362,0.68786467992064,-0.8649967957904292],[-0.9324631928580587,-0.7156897524579577,-0.793471860592625,-0.8739539995127266,-0.614189093591897,0.6414879023769138,0.7984106594591154,-0.4125141425786727,-0.1373808897290778,-0.8968358699183181,0.3400130359727589,-0.506639560309849,0.26905435106766684,-0.7497504983973413,-0.787244137122584,0.490208647389768,0.5583667181400389,0.23241684341597524,-0.5655303397489064,0.09666938346350307,-0.43560342773870375,-0.2800490278613972,-0.9595557036060283,-0.3121157071110545,-0.8535269669903407,0.8086583592535093,0.22059327288136843,0.1640240365836101,0.16692329718223786,0.014766164873400767,-0.6479777751831968,0.0601448350120124,-0.10789269457168915,-0.3733120408544528,0.2529503304079441,-0.7240048429593053,0.9326466370811413,-0.5948005980040307,-0.4796127376677324,0.5603690284287024,-0.8138253145655168,0.458707165315708,0.31638672033240867,0.2689565282281938,0.2980755028041884,0.7197006453228563,0.6731734625686638,0.9210969362816834,-0.21846803059153008,-0.05371964117604744,0.531334713873119,-0.7358692306934491,-0.47949011126500185,0.01712446974606241,0.5508198371849293,0.16552437513584417,-0.8838891220336735,-0.609247091491945,-0.8664834702921458,0.004179464939407351,0.4508991072414843,-0.6970155127935744,-0.005699559153765632,-0.49650877186232956,-0.5335057695249892,-0.8055650686748332,-0.3253473830008271,0.6142403879467699,-0.6945765138377225,0.06915201979238828,0.09798746565879424,-0.014240143608770683,-0.5998230567781488,-0.7139412189431946,0.704886072730063,-0.17958982186436478,-0.24330595543340516,0.03707410390488852,0.3230518288676347,0.4450140104796907],[-0.42791544663481895,-0.38509394816666465,0.27819247684806525,-0.4329176015947418,-0.2416258355340175,-0.6676656789571533,-0.6707872496715752,-0.2605888288714071,0.272088601541818,0.4223352065067103,-0.6683925923362082,-0.10200810519437264,-0.569587565933642,-0.36138681131690187,0.8785162309180938,0.7231263230661127,0.05524927129705448,-0.5298395275757712,0.39554920787574743,-0.7549354840975826,-0.9086727856539794,0.9280851077643242,-0.2114004032729293,-0.6687837107527164,0.04160311476255196,0.16976798341359967,-0.46337011436366726,0.3146825510696072,0.2927051050236915,0.9898321046780854,0.21444520501150954,-0.5691038227186942,-0.1281085450838757,0.1726291966578266,-0.5018638379924159,-0.902138885271373,0.17861768954281398,0.5584053824232391,0.03495894704368174,-0.8505720014852347,0.9503067775438887,-0.219394407573277,0.4714610628103395,0.9813659214740331,0.965218170323435,-0.9082451879617752,-0.32905876951355184,0.054025139927694754,0.33338497625082075,-0.6459729964194652,-0.5693281014419205,-0.27693203262612065,-0.07898439043103522,0.9277099789464565,-0.12831346258317322,0.7041322862188764,-0.18387115064445592,0.916662982263462,0.2789036768568971,0.13163692286014528,-0.5698230665452813,0.07055844751995122,-0.9104603574797909,-0.4251976996854758,0.33158663648062214,-0.31126156096536617,0.654900384281442,-0.4640338194317184,0.6959081212171871,-0.6580066669196927,0.1774546460228057,-0.49821705737569744,0.9162158662049202,0.02272121490463097,-0.2981992379207097,-0.1553214695806353,0.874037308521729,-0.1615006903002445,-0.1535668648046895,-0.7335362658374884],[-0.37036566484355027,-0.6733577015326146,-0.46594560920034134,0.8148168309673218,0.8894362304584083,-0.3531512382465074,0.14163887132557718,-0.5654618009263099,0.49133473382040704,-0.9096861996790901,-0.427863420585771,-0.35225626757531026,0.03199079048699671,0.5326463813837192,0.9889843040011348,0.22925954469403154,-0.11550483063217021,-0.9624429967501338,-0.15757715335708355,-0.867914761502097,0.4705489531743179,0.5742281974849925,0.9266742559542833,0.888522581905147,-0.9394610956000455,0.18510420633940416,-0.7492332838523825,-0.9249621129952961,-0.6193958813608462,-0.15869049651427103,-0.7122756644931394,0.6823342859396513,-0.3171233698191116,-0.40735845716905894,0.07735866753253773,-0.14020032028377583,-0.65697068640327,-0.21420166926412865,-0.08864643089022617,0.1943795991669246,0.6395365923282779,0.8586527573064293,0.12598048009007923,0.35625082138613307,0.3200747352819724,-0.9292958751961022,0.5329709220322698,-0.7849715856036128,0.942735052810155,0.6761011077753627,0.36162707791054793,-0.6411471147334535,0.5765597941643383,0.8609999518627773,0.41577955391034416,-0.36222771685582544,0.20308995208397684,0.45527588775737704,-0.10753292230770284,0.8878836331934494,-0.2307778924009991,0.6977871128979924,-0.22838247033377268,0.6257738824362347,0.08616196121739073,0.48644584827872284,-0.9755858424230182,-0.24237093987679725,-0.7294587311376761,-0.3682827109616611,0.5772013110831062,0.5841146228207585,-0.8542603946877116,0.7555974443372038,0.8869813007945309,0.5335570931823717,0.4825604419838334,-0.7012788821925011,0.8806558879309774,0.8841811834569633]],"W2":[[0.6423670175617091,0.6446394042847354,0.7640478470670724,-0.6890669703685022],[0.25415911467755015,0.8534391744733063,0.9622363987318447,0.3571527816099933]],"W3":[[0.58822056816771,0.03853098236933272],[0.018145690262044045,0.9162028579017831]],"b1":[[0.9802643374418876],[0.7591795880911123],[-0.7665553019354427],[0.786790093290086]]}}
--{"agentName":"19-2","fitness":52.5765653389295,"data":{"A1":[[0.5282679723459902,71.51488628762607,326.29715628240507,0.9414870793995529]],"b2":[[0.7171399618693157],[0.6191882496201251]],"A2":[[0.0,-0.26325821079686174]],"b3":[[-0.7240962924756991],[0.17884522225228028]],"A3":[[0.02112311329584493,2.2819449104823202E-32]],"W1":[[-0.4014936836190677,0.007159356555897611,-0.5673980675574453,-0.6526348768243591,0.33109790358914726,0.7399522309216373,-0.2658712543670607,-0.44850386111659524,-0.746552284877616,-0.9820730884038711,-0.5848823745429581,-0.1270180511534269,0.499812362510895,0.5211238349815532,0.43781964511265126,0.18869982177936828,-0.5804648622673358,-0.002210409615282849,-0.34760956297832557,-0.31094457961257205,-0.8133895587661149,-0.7302567616768034,-0.6221962736343427,0.5436598947574072,-0.9371635223468384,-0.2841601610457427,-0.5528646541675168,-0.1646249064941625,-0.7475851557558573,0.1436002892731041,-0.0388509668871313,-0.4166870051763918,-0.29946646506145114,0.5020002194077944,-0.6535421157731358,0.055576888188878515,0.3536025507261382,0.42115404916055743,-0.9044586677405309,0.2545371529215501,-0.06195495876886281,-0.022032449612437555,0.9511113810718446,-0.005726211355399746,-0.12274188050901103,-0.6337851933979155,-0.608071585153688,-0.8631813858629853,0.05608131179484155,-0.3396964706690011,-0.15805658673794265,-0.7498233130152003,-0.21543906560461257,-0.848906030019279,0.14324061105995334,0.6921633092370152,-0.6728859632183339,-0.2533444426098874,-0.899503291543859,0.6307050068521085,-0.220703043413645,-0.2749578032390767,0.7591914645035303,0.8523073976836457,0.2558665508269453,-0.5688746770986652,0.44571570164004526,-0.7452412920922853,0.6061535747761331,-0.7474843534024693,0.12473432501273263,-0.39578559064716545,-0.9270309666195007,-0.032312290091389695,0.6034705550839483,-0.37242832977292695,0.8803449313707621,-0.5752654949992362,0.68786467992064,-0.8649967957904292],[-0.9324631928580587,-0.7156897524579577,-0.793471860592625,-0.8739539995127266,-0.614189093591897,0.6414879023769138,0.7984106594591154,-0.4125141425786727,-0.1373808897290778,-0.8968358699183181,0.3400130359727589,-0.506639560309849,0.26905435106766684,-0.7497504983973413,-0.787244137122584,0.490208647389768,0.5583667181400389,0.23241684341597524,-0.5655303397489064,0.09666938346350307,-0.43560342773870375,-0.2800490278613972,-0.9595557036060283,-0.3121157071110545,-0.8535269669903407,0.8086583592535093,0.22059327288136843,0.1640240365836101,0.16692329718223786,0.014766164873400767,-0.6479777751831968,0.0601448350120124,-0.10789269457168915,-0.3733120408544528,0.2529503304079441,-0.7240048429593053,0.9326466370811413,-0.5948005980040307,-0.4796127376677324,0.5603690284287024,-0.8138253145655168,0.458707165315708,0.31638672033240867,0.2689565282281938,0.2980755028041884,0.7197006453228563,0.6731734625686638,0.9210969362816834,-0.21846803059153008,-0.05371964117604744,0.531334713873119,-0.7358692306934491,-0.47949011126500185,0.01712446974606241,0.5508198371849293,0.16552437513584417,-0.8838891220336735,-0.609247091491945,-0.8664834702921458,0.004179464939407351,0.4508991072414843,-0.6970155127935744,-0.005699559153765632,-0.49650877186232956,-0.5335057695249892,-0.8055650686748332,-0.3253473830008271,0.6142403879467699,-0.6945765138377225,0.06915201979238828,0.09798746565879424,-0.014240143608770683,-0.5998230567781488,-0.7139412189431946,0.704886072730063,-0.17958982186436478,-0.24330595543340516,0.03707410390488852,0.3230518288676347,0.4450140104796907],[-0.42791544663481895,-0.38509394816666465,0.27819247684806525,-0.4329176015947418,-0.2416258355340175,-0.6676656789571533,-0.6707872496715752,-0.2605888288714071,0.272088601541818,0.4223352065067103,-0.6683925923362082,-0.10200810519437264,-0.569587565933642,-0.36138681131690187,0.8785162309180938,0.7231263230661127,0.05524927129705448,-0.5298395275757712,0.39554920787574743,-0.7549354840975826,-0.9086727856539794,0.9280851077643242,-0.2114004032729293,-0.6687837107527164,0.04160311476255196,0.16976798341359967,-0.46337011436366726,0.3146825510696072,0.2927051050236915,0.9898321046780854,0.21444520501150954,-0.5691038227186942,-0.1281085450838757,0.1726291966578266,-0.5018638379924159,-0.902138885271373,0.17861768954281398,0.5584053824232391,0.03495894704368174,-0.8505720014852347,0.9503067775438887,-0.219394407573277,0.4714610628103395,0.9813659214740331,0.965218170323435,-0.9082451879617752,-0.32905876951355184,0.054025139927694754,0.33338497625082075,-0.6459729964194652,-0.5693281014419205,-0.27693203262612065,-0.07898439043103522,0.9277099789464565,-0.12831346258317322,0.7041322862188764,-0.18387115064445592,0.916662982263462,0.2789036768568971,0.13163692286014528,-0.5698230665452813,0.07055844751995122,-0.9104603574797909,-0.4251976996854758,0.33158663648062214,-0.31126156096536617,0.654900384281442,-0.4640338194317184,0.6959081212171871,-0.6580066669196927,0.1774546460228057,-0.49821705737569744,0.9162158662049202,0.02272121490463097,-0.2981992379207097,-0.1553214695806353,0.874037308521729,-0.1615006903002445,-0.1535668648046895,-0.7335362658374884],[-0.37036566484355027,-0.6733577015326146,-0.46594560920034134,0.8148168309673218,0.8894362304584083,-0.3531512382465074,0.14163887132557718,-0.5654618009263099,0.49133473382040704,-0.9096861996790901,-0.427863420585771,-0.35225626757531026,0.03199079048699671,0.5326463813837192,0.9889843040011348,0.22925954469403154,-0.11550483063217021,-0.9624429967501338,-0.15757715335708355,-0.867914761502097,0.4705489531743179,0.5742281974849925,0.9266742559542833,0.888522581905147,-0.9394610956000455,0.18510420633940416,-0.7492332838523825,-0.9249621129952961,-0.6193958813608462,-0.15869049651427103,-0.7122756644931394,0.6823342859396513,-0.3171233698191116,-0.40735845716905894,0.07735866753253773,-0.14020032028377583,-0.65697068640327,-0.21420166926412865,-0.08864643089022617,0.1943795991669246,0.6395365923282779,0.8586527573064293,0.12598048009007923,0.35625082138613307,0.3200747352819724,-0.9292958751961022,0.5329709220322698,-0.7849715856036128,0.942735052810155,0.6761011077753627,0.36162707791054793,-0.6411471147334535,0.5765597941643383,0.8609999518627773,0.41577955391034416,-0.36222771685582544,0.20308995208397684,0.45527588775737704,-0.10753292230770284,0.8878836331934494,-0.2307778924009991,0.6977871128979924,-0.22838247033377268,0.6257738824362347,0.08616196121739073,0.48644584827872284,-0.9755858424230182,-0.24237093987679725,-0.7294587311376761,-0.3682827109616611,0.5772013110831062,0.5841146228207585,-0.8542603946877116,0.7555974443372038,0.8869813007945309,0.5335570931823717,0.4825604419838334,-0.7012788821925011,0.8806558879309774,0.8841811834569633]],"W2":[[0.6423670175617091,0.6446394042847354,0.7640478470670724,-0.6890669703685022],[0.25415911467755015,0.8534391744733063,0.9622363987318447,0.3571527816099933]],"W3":[[0.58822056816771,0.03853098236933272],[0.018145690262044045,0.9162028579017831]],"b1":[[0.9802643374418876],[0.7591795880911123],[-0.7665553019354427],[0.786790093290086]]}}
-----{"agentName":"28-16","fitness":52.629977365891136,"data":{"A1":[[-0.08078836324792604,-0.48617218900228165,0.5284115869624355,0.0]],"b2":[[-0.3693143843224689],[0.6191882496201251]],"A2":[[0.042657132184198865,145.1640813609538]],"b3":[[-0.6526213924176885],[0.17884522225228028]],"A3":[[0.11693526110612407,2.2819449104823202E-32]],"W1":[[0.4551273600657362,-0.4848000608616998,-0.38256108933468047,-0.36115914884198697,0.33109790358914726,-0.4812907394550443,-0.18841650401467147,0.5038055806485118,-0.07269284838169332,0.9628373740385407,0.2725745387283789,-0.5726091992147697,-0.33291736997241794,-0.22686625128130267,0.48799515590957165,-0.49684670452006174,0.11868994990722292,-0.29400439433344716,-0.6555641246242951,-0.038925802356802874,-0.03766278741888507,-0.3776224654599696,0.8319528770294002,-0.28784079016247754,-0.2109047758247493,-0.2841601610457427,0.41304209196175257,-0.18944077530861891,0.2766306970145902,0.42681251564645817,-0.0388509668871313,-0.4166870051763918,0.21547404748550636,-0.3194266964209893,0.0399100104521215,0.7289057734106867,-0.3977475962712398,-0.1306778297187794,-0.08536581111046115,0.07941993795848568,-0.06195495876886281,-0.5413028056409548,-0.6979368909424835,-0.6543161226581007,0.33933182806593254,-0.43885601665437957,-0.608071585153688,-0.6414531182501653,0.5720658676947366,-0.026818676347611925,-0.15805658673794265,-0.25565065220934136,0.3997172901343442,0.7188145271197304,0.09381168054009459,-0.25797542063247825,0.7436291919296774,0.36378364276600994,-0.06052361339084311,0.9292838168365958,0.39449745853945895,-0.00785065928883455,0.6412798899419556,-0.6261809871713275,0.15524809032347342,-0.5688746770986652,-0.38884168866510227,0.056965076935934,-0.6654477585822962,0.891301979493176,-0.0945946325760949,-0.4715369341518434,0.2812942791074682,0.21190244460983276,0.794774221151151,-0.49510748520932113,0.8803449313707621,0.4610134502825909,-0.09145608872776445,-0.2567769698673561],[0.7880855916368177,0.19767407429003536,0.8300660464537652,-0.845829774129496,-0.7538014404966786,-0.44235539500246457,-0.8859521014918994,-0.16798249188139258,-0.1373808897290778,-0.3353514432305029,-0.6158574200582141,-0.9620490525793037,-0.807098168238352,0.4903066124307711,-0.6368584207082408,0.6107814398427647,0.5774045645140911,0.8527556462352184,-0.9459402662357332,0.7007167290027605,-0.43560342773870375,0.14370398382609761,-0.9289164514881083,-0.3121157071110545,-0.17418108907959584,-0.2347003835350694,-0.7988962474470138,0.670311110015402,-0.32982318582724335,-0.01963288172045341,-0.26619980739379345,-0.7580464471259449,0.1770172737885798,-0.6787207119579008,-0.7733231708307613,-0.678176710052022,0.8072501895004851,0.11066116058976494,0.044613716659130276,-0.450782055644088,0.5104691351527548,-0.5378586176228259,0.31638672033240867,0.994745362403977,0.573671286252831,0.3236643541153952,-0.023605251086149304,-0.2770587742156372,0.18934450539532244,0.9520321492756956,-0.030168314804529528,0.5195429228763937,-0.533835190276116,-0.4046929321728574,-0.0904666959637832,0.24174098600453742,-0.9665136866462685,0.39418662792516,-0.817156869255764,-0.2658208719123114,0.4508991072414843,0.6038541546018898,0.4988496655228023,0.7005669004769028,0.7990919424115372,0.2929082779606287,-0.8738221813585587,0.9262887108729796,0.28433688478464303,0.06915201979238828,0.09798746565879424,-0.7697248755225696,0.440249350802451,-0.8093140427273706,-0.9695067570891225,0.4999257643051618,-0.792286205517398,0.8604404468821607,0.7952676470618951,-0.1622831617066689],[-0.6643678241637354,0.6023685964407528,0.6725942400259204,0.4178048995774917,-0.2416258355340175,-0.34067989238821905,-0.6623412329094567,-0.11901063342192408,0.449117985679933,-0.4711978135406447,-0.9109544765243496,0.5527731362190564,-0.05295345385116357,-0.9166686077693964,-0.11981302181227949,0.010688215941416779,-0.4311544807877927,0.8261648906568324,-0.18320869718649369,-0.7549354840975826,-0.13079299081883855,0.0983382230287082,0.15347083875928424,-0.08366215419712009,0.1921083467305864,0.6361110540492223,-0.548757075073969,-0.5748008261911199,0.2927051050236915,-0.1982040069014721,-0.1728848080840586,0.785308221411815,0.07990547304614148,-0.3251529206726651,-0.9425806328316222,0.9993906921393696,0.1789490173139363,0.6533202149674238,-0.4733519331964753,-0.8507460091067447,0.9383376663091474,0.7899811722649468,-0.7142777734045693,0.10476035649466464,0.19442730469621994,-0.2822867492866177,-0.26160925497764653,0.5342432888482425,0.05146513075475534,-0.018304223224549387,0.42519013450094767,0.855800166845311,-0.07898439043103522,-0.32207498048636474,-0.952294213515531,0.5951317320731633,0.7135841252224437,-0.3926260640533046,-0.0049053528959532855,0.11821327194947973,0.8564942863855198,0.07055844751995122,0.2927180954190314,-0.682690342465275,0.22712164933462575,-0.3906240514635124,-0.8350077125674966,-0.8323426219250718,-0.03513782089224482,0.841965274143258,0.1774546460228057,0.38282813854058384,0.02615108858044235,-0.05060246567067672,0.39671417061139014,0.8388279687188764,-0.32045436544054096,0.4514394485691844,0.9535721780231914,-0.2691920721138963],[-0.9035024901801227,0.14397960610666338,-0.49509026867478534,0.2873623499953055,-0.2110918318263324,-0.9679319194847682,0.206017976017127,-0.28960891026466706,-0.5652413051894807,-0.8445810841738137,0.07478785545033317,-0.8672651994084235,-0.3911339119516637,-0.8814069223037719,0.7315714155345516,0.22925954469403154,-0.7823896883629113,0.6166574577055226,0.5730212324012205,0.7010440878495212,0.7141876818720085,-0.15591931640565093,0.5292681495931992,-0.8882153246428122,0.6576203900699167,0.6516162733561786,-0.6482593292245911,-0.3104974571382815,0.7829797328120436,0.6354552660847237,-0.7482825607800228,-0.2155701751347563,0.9325160601080682,0.9185869935527755,-0.6546108813337841,0.48688665926240815,0.8592978945302514,0.03862820310221715,0.6746882063572122,-0.7990574622230739,0.8325875503351796,-0.8544983035956715,0.258836010255995,-0.0718456658394031,-0.3458488991553037,-0.9185731783203583,0.8875532439778198,-0.7994713170657952,0.34801609594654637,-0.8405760567589939,-0.35767523451065664,0.5144620697163067,0.9949216290375054,0.483048267470493,-0.8736297429070232,-0.34243332247254,0.26397860162786957,0.6914505041497905,-0.9424989711186325,0.7742036038828863,-0.7101289363127972,-0.1761716972380576,0.15192107075425243,0.6257738824362347,-0.25901298342582457,0.09985730624684575,-0.9755858424230182,0.6422760598166235,-0.8308939932007191,-0.8386065792860617,-0.9174862121957779,-0.5847827140767041,0.08512005989141369,0.766314307210441,-0.9783132865564199,0.39845211503087974,0.8276716293734436,0.7882576091850215,-0.8800962233760921,-0.638126764258941]],"W2":[[-0.9996126872234177,-0.7837335383736086,-0.6036354442322514,0.8065908063261797],[0.25415911467755015,-0.10024819268489127,0.3614756404325046,0.14508027508253818]],"W3":[[0.8524389829290191,0.28827280737445893],[0.38911994885223145,0.4627595891710137]],"b1":[[0.3262527147058403],[0.5029882278970008],[0.8798593958475067],[0.2455305260485907]]}}
{"agentName":"28-17","fitness":52.629977365891136,"data":{"A1":[[-0.08078836324792604,-0.48617218900228165,0.5284115869624355,0.0]],"b2":[[-0.3693143843224689],[0.6191882496201251]],"A2":[[0.042657132184198865,145.1640813609538]],"b3":[[-0.6526213924176885],[0.17884522225228028]],"A3":[[0.11693526110612407,2.2819449104823202E-32]],"W1":[[0.4551273600657362,-0.4848000608616998,-0.38256108933468047,-0.36115914884198697,0.33109790358914726,-0.4812907394550443,-0.18841650401467147,0.5038055806485118,-0.07269284838169332,0.9628373740385407,0.2725745387283789,-0.5726091992147697,-0.33291736997241794,-0.22686625128130267,0.48799515590957165,-0.49684670452006174,0.11868994990722292,-0.29400439433344716,-0.6555641246242951,-0.038925802356802874,-0.03766278741888507,-0.3776224654599696,0.8319528770294002,-0.28784079016247754,-0.2109047758247493,-0.2841601610457427,0.41304209196175257,-0.18944077530861891,0.2766306970145902,0.42681251564645817,-0.0388509668871313,-0.4166870051763918,0.21547404748550636,-0.3194266964209893,0.0399100104521215,0.7289057734106867,-0.3977475962712398,-0.1306778297187794,-0.08536581111046115,0.07941993795848568,-0.06195495876886281,-0.5413028056409548,-0.6979368909424835,-0.6543161226581007,0.33933182806593254,-0.43885601665437957,-0.608071585153688,-0.6414531182501653,0.5720658676947366,-0.026818676347611925,-0.15805658673794265,-0.25565065220934136,0.3997172901343442,0.7188145271197304,0.09381168054009459,-0.25797542063247825,0.7436291919296774,0.36378364276600994,-0.06052361339084311,0.9292838168365958,0.39449745853945895,-0.00785065928883455,0.6412798899419556,-0.6261809871713275,0.15524809032347342,-0.5688746770986652,-0.38884168866510227,0.056965076935934,-0.6654477585822962,0.891301979493176,-0.0945946325760949,-0.4715369341518434,0.2812942791074682,0.21190244460983276,0.794774221151151,-0.49510748520932113,0.8803449313707621,0.4610134502825909,-0.09145608872776445,-0.2567769698673561],[0.7880855916368177,0.19767407429003536,0.8300660464537652,-0.845829774129496,-0.7538014404966786,-0.44235539500246457,-0.8859521014918994,-0.16798249188139258,-0.1373808897290778,-0.3353514432305029,-0.6158574200582141,-0.9620490525793037,-0.807098168238352,0.4903066124307711,-0.6368584207082408,0.6107814398427647,0.5774045645140911,0.8527556462352184,-0.9459402662357332,0.7007167290027605,-0.43560342773870375,0.14370398382609761,-0.9289164514881083,-0.3121157071110545,-0.17418108907959584,-0.2347003835350694,-0.7988962474470138,0.670311110015402,-0.32982318582724335,-0.01963288172045341,-0.26619980739379345,-0.7580464471259449,0.1770172737885798,-0.6787207119579008,-0.7733231708307613,-0.678176710052022,0.8072501895004851,0.11066116058976494,0.044613716659130276,-0.450782055644088,0.5104691351527548,-0.5378586176228259,0.31638672033240867,0.994745362403977,0.573671286252831,0.3236643541153952,-0.023605251086149304,-0.2770587742156372,0.18934450539532244,0.9520321492756956,-0.030168314804529528,0.5195429228763937,-0.533835190276116,-0.4046929321728574,-0.0904666959637832,0.24174098600453742,-0.9665136866462685,0.39418662792516,-0.817156869255764,-0.2658208719123114,0.4508991072414843,0.6038541546018898,0.4988496655228023,0.7005669004769028,0.7990919424115372,0.2929082779606287,-0.8738221813585587,0.9262887108729796,0.28433688478464303,0.06915201979238828,0.09798746565879424,-0.7697248755225696,0.440249350802451,-0.8093140427273706,-0.9695067570891225,0.4999257643051618,-0.792286205517398,0.8604404468821607,0.7952676470618951,-0.1622831617066689],[-0.6643678241637354,0.6023685964407528,0.6725942400259204,0.4178048995774917,-0.2416258355340175,-0.34067989238821905,-0.6623412329094567,-0.11901063342192408,0.449117985679933,-0.4711978135406447,-0.9109544765243496,0.5527731362190564,-0.05295345385116357,-0.9166686077693964,-0.11981302181227949,0.010688215941416779,-0.4311544807877927,0.8261648906568324,-0.18320869718649369,-0.7549354840975826,-0.13079299081883855,0.0983382230287082,0.15347083875928424,-0.08366215419712009,0.1921083467305864,0.6361110540492223,-0.548757075073969,-0.5748008261911199,0.2927051050236915,-0.1982040069014721,-0.1728848080840586,0.785308221411815,0.07990547304614148,-0.3251529206726651,-0.9425806328316222,0.9993906921393696,0.1789490173139363,0.6533202149674238,-0.4733519331964753,-0.8507460091067447,0.9383376663091474,0.7899811722649468,-0.7142777734045693,0.10476035649466464,0.19442730469621994,-0.2822867492866177,-0.26160925497764653,0.5342432888482425,0.05146513075475534,-0.018304223224549387,0.42519013450094767,0.855800166845311,-0.07898439043103522,-0.32207498048636474,-0.952294213515531,0.5951317320731633,0.7135841252224437,-0.3926260640533046,-0.0049053528959532855,0.11821327194947973,0.8564942863855198,0.07055844751995122,0.2927180954190314,-0.682690342465275,0.22712164933462575,-0.3906240514635124,-0.8350077125674966,-0.8323426219250718,-0.03513782089224482,0.841965274143258,0.1774546460228057,0.38282813854058384,0.02615108858044235,-0.05060246567067672,0.39671417061139014,0.8388279687188764,-0.32045436544054096,0.4514394485691844,0.9535721780231914,-0.2691920721138963],[-0.9035024901801227,0.14397960610666338,-0.49509026867478534,0.2873623499953055,-0.2110918318263324,-0.9679319194847682,0.206017976017127,-0.28960891026466706,-0.5652413051894807,-0.8445810841738137,0.07478785545033317,-0.8672651994084235,-0.3911339119516637,-0.8814069223037719,0.7315714155345516,0.22925954469403154,-0.7823896883629113,0.6166574577055226,0.5730212324012205,0.7010440878495212,0.7141876818720085,-0.15591931640565093,0.5292681495931992,-0.8882153246428122,0.6576203900699167,0.6516162733561786,-0.6482593292245911,-0.3104974571382815,0.7829797328120436,0.6354552660847237,-0.7482825607800228,-0.2155701751347563,0.9325160601080682,0.9185869935527755,-0.6546108813337841,0.48688665926240815,0.8592978945302514,0.03862820310221715,0.6746882063572122,-0.7990574622230739,0.8325875503351796,-0.8544983035956715,0.258836010255995,-0.0718456658394031,-0.3458488991553037,-0.9185731783203583,0.8875532439778198,-0.7994713170657952,0.34801609594654637,-0.8405760567589939,-0.35767523451065664,0.5144620697163067,0.9949216290375054,0.483048267470493,-0.8736297429070232,-0.34243332247254,0.26397860162786957,0.6914505041497905,-0.9424989711186325,0.7742036038828863,-0.7101289363127972,-0.1761716972380576,0.15192107075425243,0.6257738824362347,-0.25901298342582457,0.09985730624684575,-0.9755858424230182,0.6422760598166235,-0.8308939932007191,-0.8386065792860617,-0.9174862121957779,-0.5847827140767041,0.08512005989141369,0.766314307210441,-0.9783132865564199,0.39845211503087974,0.8276716293734436,0.7882576091850215,-0.8800962233760921,-0.638126764258941]],"W2":[[-0.9996126872234177,-0.7837335383736086,-0.6036354442322514,0.8065908063261797],[0.25415911467755015,-0.10024819268489127,0.3614756404325046,0.14508027508253818]],"W3":[[0.8524389829290191,0.28827280737445893],[0.38911994885223145,0.4627595891710137]],"b1":[[0.3262527147058403],[0.5029882278970008],[0.8798593958475067],[0.2455305260485907]]}}
-------