
{"agentName":"0-0","fitness":38.647233411073685,"data":{"A1":[[190.8290187430037,31.77754742368672,277.5872704126835,0.0]],"b2":[[0.23042774014795753],[0.4164348685332022]],"A2":[[0.0,146.82273729531536]],"b3":[[-0.596467768575587],[0.17884522225228028]],"A3":[[0.9936991912210865,9.905519142669692E-33]],"W1":[[0.4551273600657362,0.36644694351969087,-0.38256108933468047,-0.4458430198517267,0.33109790358914726,0.8067445293443565,-0.2624341731773887,-0.44850386111659524,-0.07269284838169332,0.5658035575800715,0.8386555657374337,-0.1270180511534269,0.499812362510895,-0.22686625128130267,-0.6452430441812433,0.18869982177936828,-0.5804648622673358,0.651931743775642,-0.6555641246242951,0.17485476357259122,0.5025608135349202,0.14208069682973434,0.16004976900412138,0.505019897181302,-0.9371635223468384,-0.2841601610457427,0.6355938616712786,-0.1646249064941625,0.9480713629917628,0.42681251564645817,-0.0388509668871313,-0.4166870051763918,0.8997202693189332,0.6409836467726933,0.273289095712564,-0.26175701211620517,-0.2794902492677298,-0.1306778297187794,-0.08536581111046115,-0.05462315824828923,-0.06195495876886281,0.6546448480299902,-0.6979368909424835,0.6677324708883314,-0.07938725467767771,-0.43885601665437957,-0.608071585153688,-0.6414531182501653,0.7313735926547045,-0.026818676347611925,-0.15805658673794265,0.26573958270655806,0.3997172901343442,-0.3693430998846541,0.14324061105995334,-0.25797542063247825,0.7436291919296774,0.6114618853239959,0.2324273700703574,-0.25128128782199144,0.39449745853945895,0.817229160415142,-0.6077058562362969,0.6182496334554788,0.2558665508269453,-0.07320145794330979,-0.38884168866510227,0.07981886851873865,0.27022202891277614,-0.7474843534024693,-0.005346215048158909,-0.9453716674280683,-0.9270309666195007,-0.032312290091389695,0.31010676221964206,-0.20846743965751569,0.8803449313707621,-0.23077831216541722,0.29246395759528565,0.5409312755478819],[0.7880855916368177,0.19767407429003536,0.9520689432368168,-0.845829774129496,0.5502413918543512,-0.44235539500246457,0.7984106594591154,-0.2523277127589152,-0.1373808897290778,-0.3353514432305029,-0.3697050572653644,-0.11452811582755928,-0.807098168238352,0.4903066124307711,-0.6582805242342049,0.6107814398427647,-0.7204208094262783,-0.8141063661170889,-0.9459402662357332,0.09666938346350307,-0.43560342773870375,0.9349906440170221,0.8090021580031235,-0.3121157071110545,-0.9718883630945336,0.6191882496201251,0.0429886073795116,0.670311110015402,0.16692329718223786,0.37649213869502973,0.11276440263810383,-0.7684997525607482,0.1770172737885798,0.7902845707138706,0.2529503304079441,-0.23483801763662826,0.8072501895004851,0.6673992021927047,-0.4796127376677324,0.9244724404994455,-0.2049276879687938,0.1470694373531216,-0.48366999792166787,0.643491115907358,0.3183669486383729,0.22821350958477082,-0.023605251086149304,-0.2770587742156372,0.47596326458377436,0.7107229819632654,-0.3205057828114841,0.51605972926996,0.45215640988181516,0.01712446974606241,0.5508198371849293,-0.2478254241316491,0.7256483175955235,0.39418662792516,-0.6797384914236382,0.6001217520150142,0.4508991072414843,0.589749448443134,0.6464818311502738,0.7005669004769028,0.9699584106930381,-0.7417466269908464,0.22818964839784495,0.08574936236270037,-0.6945765138377225,0.06915201979238828,0.09798746565879424,-0.34288007110901964,0.440249350802451,-0.22440768392359534,-0.9695067570891225,-0.7942032659310758,-0.792286205517398,-0.6535487038528798,0.7952676470618951,-0.1622831617066689],[0.6949189734965766,-0.32697929564739403,-0.15359663581829275,-0.8951865090520432,0.2057889391931318,-0.6676656789571533,-0.03553655732400762,0.14550349954571096,0.034600542078191854,0.4223352065067103,0.35278245969741096,0.7022211035026023,0.5686638754605697,-0.4202155290448111,-0.26102723928249216,0.010688215941416779,-0.4311544807877927,0.9500151672991208,0.14380635780710693,-0.7549354840975826,-0.13079299081883855,0.0983382230287082,0.15347083875928424,0.45507300685816965,0.1921083467305864,0.6361110540492223,0.7675261182370992,-0.2543488202081907,0.2927051050236915,0.680182444769418,-0.8062832278617296,0.8266289890474885,0.22684501241708888,0.1726291966578266,-0.6778773666126594,0.9993906921393696,0.1789490173139363,0.5584053824232391,0.03495894704368174,-0.8505720014852347,-0.008461200645088818,-0.648273596036564,-0.005334477339629995,0.3781469006858833,0.30565234666790686,-0.2822867492866177,0.10175120738413801,0.5342432888482425,0.05146513075475534,-0.6459729964194652,0.42519013450094767,0.09441503345243984,-0.07898439043103522,-0.32207498048636474,-0.9180071861219266,0.5951317320731633,0.41000814588717693,-0.3926260640533046,0.2789036768568971,0.13163692286014528,0.03324842612749346,0.07055844751995122,-0.47199515597021113,-0.682690342465275,0.3983414713797069,-0.2136729393256811,-0.09066563475481249,-0.4640338194317184,-0.03513782089224482,-0.1711809802758364,0.1774546460228057,-0.6783644553523549,-0.47871398278230504,0.02272121490463097,-0.5047649289302389,0.26479596144873896,-0.32045436544054096,0.3113047940487379,0.6269418147567556,0.9710114516962312],[0.01715676997104909,0.8975962429865936,-0.46594560920034134,0.2873623499953055,0.8894362304584083,0.17973981232418468,0.49105791400707743,-0.7359842740294882,0.38941133808001127,-0.7151884777228046,0.07478785545033317,-0.8672651994084235,0.450599300176334,0.35104802298560056,0.6797318185095045,-0.03891997518827006,-0.33208695871398675,0.6166574577055226,0.5730212324012205,-0.4194925751047054,0.054527683864544096,-0.15591931640565093,0.9266742559542833,0.888522581905147,0.6576203900699167,0.6417770212400336,0.7509788029052338,-0.3104974571382815,0.7234744267051683,-0.15869049651427103,0.20173310976772196,0.8657502566551409,0.9325160601080682,0.24570884032596263,-0.6546108813337841,-0.14020032028377583,-0.8825687891702743,-0.21420166926412865,-0.8600275184792756,-0.7990574622230739,0.8325875503351796,-0.5956350140619129,0.12598048009007923,0.12340188733473134,-0.839435659309717,-0.16623481818728414,0.12028795301041662,-0.7994713170657952,0.2216721974907896,0.8407561415075087,-0.9325810772922609,-0.6411471147334535,0.9949216290375054,0.483048267470493,-0.8736297429070232,-0.36222771685582544,0.26397860162786957,0.45527588775737704,-0.9424989711186325,0.6251162293059616,-0.2307778924009991,0.6977871128979924,0.022830408261390822,0.6257738824362347,0.9770979848265122,0.09985730624684575,-0.9755858424230182,-0.689969833240031,-0.7294587311376761,0.3496326193951331,0.37929821892417404,0.8402056881660709,-0.1806835799958202,0.766314307210441,0.865876513623024,-0.7113501219432434,-0.0932956557986735,-0.7042025810921411,0.47530696925672267,-0.4629102077669889]],"W2":[[-0.9527998391625465,-0.08573982501921895,-0.3812232026687308,-0.6890669703685022],[0.25415911467755015,-0.07664746267502509,0.3614756404325046,0.14508027508253818]],"W3":[[0.4109091750657461,0.03853098236933272],[0.38911994885223145,-0.5031309357181766]],"b1":[[-0.9309578475799722],[0.7591795880911123],[0.06296957473213705],[0.786790093290086]]}}
{"agentName":"1-0","fitness":52.56205794811249,"data":{"A1":[[190.8290187430037,31.77754742368672,277.5872704126835,0.0]],"b2":[[0.23042774014795753],[0.4164348685332022]],"A2":[[0.0,146.82273729531536]],"b3":[[-0.596467768575587],[0.17884522225228028]],"A3":[[0.9936991912210865,9.905519142669692E-33]],"W1":[[0.4551273600657362,0.36644694351969087,-0.38256108933468047,-0.48202394020369277,0.33109790358914726,0.8067445293443565,-0.2624341731773887,-0.44850386111659524,-0.07269284838169332,0.5658035575800715,0.8386555657374337,-0.1270180511534269,-0.20925958437085557,-0.22686625128130267,-0.6452430441812433,0.18869982177936828,-0.5804648622673358,0.651931743775642,-0.6555641246242951,0.17485476357259122,0.5025608135349202,0.14208069682973434,0.16004976900412138,0.505019897181302,-0.9371635223468384,-0.2841601610457427,0.6355938616712786,-0.1646249064941625,0.9480713629917628,0.42681251564645817,-0.0388509668871313,-0.4166870051763918,0.8997202693189332,0.6409836467726933,0.273289095712564,-0.26175701211620517,-0.2794902492677298,-0.1306778297187794,-0.08536581111046115,-0.05462315824828923,0.47004365892170585,0.6546448480299902,-0.6056572341069668,0.6677324708883314,-0.07938725467767771,-0.4112675899658855,-0.608071585153688,-0.6414531182501653,0.7313735926547045,-0.026818676347611925,-0.15805658673794265,0.26573958270655806,0.3997172901343442,-0.3693430998846541,0.25750538376376975,0.9105674676753848,0.7436291919296774,0.6114618853239959,0.2324273700703574,0.007159356555897611,0.39449745853945895,0.817229160415142,-0.6077058562362969,0.6182496334554788,0.2558665508269453,-0.07320145794330979,-0.38884168866510227,0.07981886851873865,0.27022202891277614,-0.7474843534024693,-0.005346215048158909,-0.9453716674280683,-0.9270309666195007,-0.032312290091389695,0.31010676221964206,-0.20846743965751569,0.8803449313707621,-0.23077831216541722,0.29246395759528565,0.5409312755478819],[0.7880855916368177,0.19767407429003536,0.9520689432368168,-0.845829774129496,0.41304209196175257,-0.44235539500246457,0.7984106594591154,-0.2523277127589152,-0.1373808897290778,-0.3353514432305029,-0.29946646506145114,-0.11452811582755928,-0.7439716673142398,-0.3675110562764785,-0.6582805242342049,0.6107814398427647,-0.7204208094262783,-0.8141063661170889,-0.9459402662357332,0.09666938346350307,-0.43560342773870375,0.9349906440170221,0.8090021580031235,-0.3121157071110545,-0.9718883630945336,0.6191882496201251,0.0429886073795116,0.670311110015402,0.16692329718223786,0.37649213869502973,0.11276440263810383,-0.7684997525607482,0.1770172737885798,0.7902845707138706,0.2529503304079441,-0.9811997368468401,0.8782018665273386,0.6307050068521085,-0.4796127376677324,-0.8537533138667612,-0.2049276879687938,0.1470694373531216,-0.48366999792166787,-0.5688746770986652,0.3183669486383729,-0.7022804026958895,0.5288643233801469,-0.2770587742156372,-0.0945946325760949,0.7107229819632654,-0.3205057828114841,0.51605972926996,-0.7404936009304737,-0.49510748520932113,0.5508198371849293,0.4610134502825909,0.7256483175955235,0.39418662792516,-0.6797384914236382,0.6001217520150142,0.4508991072414843,0.589749448443134,0.6464818311502738,0.7005669004769028,0.9699584106930381,-0.7417466269908464,0.22818964839784495,0.08574936236270037,-0.6945765138377225,0.6593783978826002,0.09798746565879424,-0.34288007110901964,0.440249350802451,-0.22440768392359534,-0.9695067570891225,-0.7942032659310758,-0.792286205517398,-0.6535487038528798,0.7952676470618951,-0.1622831617066689],[0.6949189734965766,-0.32697929564739403,-0.15359663581829275,-0.8951865090520432,-0.2358219003943678,-0.6676656789571533,-0.03553655732400762,0.14550349954571096,0.034600542078191854,0.4223352065067103,0.35278245969741096,0.7022211035026023,0.5686638754605697,-0.4202155290448111,-0.26102723928249216,0.010688215941416779,-0.4311544807877927,0.9500151672991208,0.14380635780710693,-0.7549354840975826,0.31638672033240867,0.0983382230287082,0.15347083875928424,0.45507300685816965,0.1921083467305864,0.6361110540492223,0.18934450539532244,-0.2543488202081907,0.2927051050236915,0.680182444769418,-0.533835190276116,0.8266289890474885,0.22684501241708888,0.1726291966578266,-0.9665136866462685,0.9993906921393696,0.32024289816988416,0.5584053824232391,0.03495894704368174,-0.8505720014852347,-0.008461200645088818,-0.648273596036564,-0.15497746743367058,0.3781469006858833,0.30565234666790686,-0.2822867492866177,0.10175120738413801,0.5342432888482425,0.05146513075475534,-0.6459729964194652,0.42519013450094767,0.09441503345243984,-0.07898439043103522,-0.32207498048636474,-0.9180071861219266,0.03707410390488852,0.41000814588717693,-0.3926260640533046,-0.42791544663481895,0.6023685964407528,0.03324842612749346,0.07055844751995122,-0.2416258355340175,-0.682690342465275,0.3983414713797069,-0.03333947011476446,0.449117985679933,-0.4640338194317184,-0.03513782089224482,-0.1711809802758364,-0.569587565933642,0.3697979495309094,-0.47871398278230504,0.02272121490463097,-0.5047649289302389,-0.5298395275757712,0.39554920787574743,0.3113047940487379,0.6269418147567556,0.9710114516962312],[0.01715676997104909,0.8774286357993033,-0.46594560920034134,0.2873623499953055,0.8894362304584083,0.17973981232418468,0.49105791400707743,-0.7359842740294882,0.41048687946340134,-0.7151884777228046,0.07478785545033317,-0.8672651994084235,0.450599300176334,0.35104802298560056,0.6797318185095045,-0.03891997518827006,-0.33208695871398675,0.6166574577055226,0.5730212324012205,-0.4194925751047054,0.054527683864544096,-0.15591931640565093,0.965218170323435,0.888522581905147,0.6576203900699167,0.6417770212400336,0.7509788029052338,-0.3104974571382815,0.7234744267051683,-0.15869049651427103,0.20173310976772196,0.8657502566551409,-0.12831346258317322,0.24570884032596263,-0.6546108813337841,-0.14020032028377583,-0.8825687891702743,-0.21420166926412865,-0.8600275184792756,-0.7990574622230739,0.2927180954190314,-0.5956350140619129,0.12598048009007923,-0.3906240514635124,-0.14408879184669354,-0.16623481818728414,0.12028795301041662,-0.7994713170657952,0.2216721974907896,0.8407561415075087,-0.9325810772922609,-0.6411471147334535,0.9949216290375054,0.483048267470493,-0.8736297429070232,-0.36222771685582544,-0.1535668648046895,0.45527588775737704,-0.1790505106198006,0.6251162293059616,-0.2307778924009991,0.6977871128979924,0.022830408261390822,0.6257738824362347,0.9770979848265122,0.9990215581592679,0.49133473382040704,-0.689969833240031,-0.7294587311376761,0.3496326193951331,0.37929821892417404,0.8402056881660709,-0.24945505706767923,0.22925954469403154,0.865876513623024,-0.7113501219432434,-0.0932956557986735,-0.7042025810921411,0.47530696925672267,-0.4629102077669889]],"W2":[[-0.9527998391625465,-0.08573982501921895,-0.5939885763232406,-0.6890669703685022],[0.25415911467755015,-0.07664746267502509,0.3614756404325046,0.14508027508253818]],"W3":[[0.4109091750657461,0.03853098236933272],[0.38911994885223145,0.40644848732968164]],"b1":[[-0.9309578475799722],[0.7591795880911123],[0.17678612698428053],[0.786790093290086]]}}
{"agentName":"1-1","fitness":52.56205794811249,"data":{"A1":[[190.8290187430037,31.77754742368672,277.5872704126835,0.0]],"b2":[[0.23042774014795753],[0.4164348685332022]],"A2":[[0.0,146.82273729531536]],"b3":[[-0.596467768575587],[0.17884522225228028]],"A3":[[0.9936991912210865,9.905519142669692E-33]],"W1":[[0.4551273600657362,0.36644694351969087,-0.38256108933468047,-0.48202394020369277,0.33109790358914726,0.8067445293443565,-0.2624341731773887,-0.44850386111659524,-0.07269284838169332,0.5658035575800715,0.8386555657374337,-0.1270180511534269,-0.20925958437085557,-0.22686625128130267,-0.6452430441812433,0.18869982177936828,-0.5804648622673358,0.651931743775642,-0.6555641246242951,0.17485476357259122,0.5025608135349202,0.14208069682973434,0.16004976900412138,0.505019897181302,-0.9371635223468384,-0.2841601610457427,0.6355938616712786,-0.1646249064941625,0.9480713629917628,0.42681251564645817,-0.0388509668871313,-0.4166870051763918,0.8997202693189332,0.6409836467726933,0.273289095712564,-0.26175701211620517,-0.2794902492677298,-0.1306778297187794,-0.08536581111046115,-0.05462315824828923,0.47004365892170585,0.6546448480299902,-0.6056572341069668,0.6677324708883314,-0.07938725467767771,-0.4112675899658855,-0.608071585153688,-0.6414531182501653,0.7313735926547045,-0.026818676347611925,-0.15805658673794265,0.26573958270655806,0.3997172901343442,-0.3693430998846541,0.25750538376376975,0.9105674676753848,0.7436291919296774,0.6114618853239959,0.2324273700703574,0.007159356555897611,0.39449745853945895,0.817229160415142,-0.6077058562362969,0.6182496334554788,0.2558665508269453,-0.07320145794330979,-0.38884168866510227,0.07981886851873865,0.27022202891277614,-0.7474843534024693,-0.005346215048158909,-0.9453716674280683,-0.9270309666195007,-0.032312290091389695,0.31010676221964206,-0.20846743965751569,0.8803449313707621,-0.23077831216541722,0.29246395759528565,0.5409312755478819],[0.7880855916368177,0.19767407429003536,0.9520689432368168,-0.845829774129496,0.41304209196175257,-0.44235539500246457,0.7984106594591154,-0.2523277127589152,-0.1373808897290778,-0.3353514432305029,-0.29946646506145114,-0.11452811582755928,-0.7439716673142398,-0.3675110562764785,-0.6582805242342049,0.6107814398427647,-0.7204208094262783,-0.8141063661170889,-0.9459402662357332,0.09666938346350307,-0.43560342773870375,0.9349906440170221,0.8090021580031235,-0.3121157071110545,-0.9718883630945336,0.6191882496201251,0.0429886073795116,0.670311110015402,0.16692329718223786,0.37649213869502973,0.11276440263810383,-0.7684997525607482,0.1770172737885798,0.7902845707138706,0.2529503304079441,-0.9811997368468401,0.8782018665273386,0.6307050068521085,-0.4796127376677324,-0.8537533138667612,-0.2049276879687938,0.1470694373531216,-0.48366999792166787,-0.5688746770986652,0.3183669486383729,-0.7022804026958895,0.5288643233801469,-0.2770587742156372,-0.0945946325760949,0.7107229819632654,-0.3205057828114841,0.51605972926996,-0.7404936009304737,-0.49510748520932113,0.5508198371849293,0.4610134502825909,0.7256483175955235,0.39418662792516,-0.6797384914236382,0.6001217520150142,0.4508991072414843,0.589749448443134,0.6464818311502738,0.7005669004769028,0.9699584106930381,-0.7417466269908464,0.22818964839784495,0.08574936236270037,-0.6945765138377225,0.6593783978826002,0.09798746565879424,-0.34288007110901964,0.440249350802451,-0.22440768392359534,-0.9695067570891225,-0.7942032659310758,-0.792286205517398,-0.6535487038528798,0.7952676470618951,-0.1622831617066689],[0.6949189734965766,-0.32697929564739403,-0.15359663581829275,-0.8951865090520432,-0.2358219003943678,-0.6676656789571533,-0.03553655732400762,0.14550349954571096,0.034600542078191854,0.4223352065067103,0.35278245969741096,0.7022211035026023,0.5686638754605697,-0.4202155290448111,-0.26102723928249216,0.010688215941416779,-0.4311544807877927,0.9500151672991208,0.14380635780710693,-0.7549354840975826,0.31638672033240867,0.0983382230287082,0.15347083875928424,0.45507300685816965,0.1921083467305864,0.6361110540492223,0.18934450539532244,-0.2543488202081907,0.2927051050236915,0.680182444769418,-0.533835190276116,0.8266289890474885,0.22684501241708888,0.1726291966578266,-0.9665136866462685,0.9993906921393696,0.32024289816988416,0.5584053824232391,0.03495894704368174,-0.8505720014852347,-0.008461200645088818,-0.648273596036564,-0.15497746743367058,0.3781469006858833,0.30565234666790686,-0.2822867492866177,0.10175120738413801,0.5342432888482425,0.05146513075475534,-0.6459729964194652,0.42519013450094767,0.09441503345243984,-0.07898439043103522,-0.32207498048636474,-0.9180071861219266,0.03707410390488852,0.41000814588717693,-0.3926260640533046,-0.42791544663481895,0.6023685964407528,0.03324842612749346,0.07055844751995122,-0.2416258355340175,-0.682690342465275,0.3983414713797069,-0.03333947011476446,0.449117985679933,-0.4640338194317184,-0.03513782089224482,-0.1711809802758364,-0.569587565933642,0.3697979495309094,-0.47871398278230504,0.02272121490463097,-0.5047649289302389,-0.5298395275757712,0.39554920787574743,0.3113047940487379,0.6269418147567556,0.9710114516962312],[0.01715676997104909,0.8774286357993033,-0.46594560920034134,0.2873623499953055,0.8894362304584083,0.17973981232418468,0.49105791400707743,-0.7359842740294882,0.41048687946340134,-0.7151884777228046,0.07478785545033317,-0.8672651994084235,0.450599300176334,0.35104802298560056,0.6797318185095045,-0.03891997518827006,-0.33208695871398675,0.6166574577055226,0.5730212324012205,-0.4194925751047054,0.054527683864544096,-0.15591931640565093,0.965218170323435,0.888522581905147,0.6576203900699167,0.6417770212400336,0.7509788029052338,-0.3104974571382815,0.7234744267051683,-0.15869049651427103,0.20173310976772196,0.8657502566551409,-0.12831346258317322,0.24570884032596263,-0.6546108813337841,-0.14020032028377583,-0.8825687891702743,-0.21420166926412865,-0.8600275184792756,-0.7990574622230739,0.2927180954190314,-0.5956350140619129,0.12598048009007923,-0.3906240514635124,-0.14408879184669354,-0.16623481818728414,0.12028795301041662,-0.7994713170657952,0.2216721974907896,0.8407561415075087,-0.9325810772922609,-0.6411471147334535,0.9949216290375054,0.483048267470493,-0.8736297429070232,-0.36222771685582544,-0.1535668648046895,0.45527588775737704,-0.1790505106198006,0.6251162293059616,-0.2307778924009991,0.6977871128979924,0.022830408261390822,0.6257738824362347,0.9770979848265122,0.9990215581592679,0.49133473382040704,-0.689969833240031,-0.7294587311376761,0.3496326193951331,0.37929821892417404,0.8402056881660709,-0.24945505706767923,0.22925954469403154,0.865876513623024,-0.7113501219432434,-0.0932956557986735,-0.7042025810921411,0.47530696925672267,-0.4629102077669889]],"W2":[[-0.9527998391625465,-0.08573982501921895,-0.5939885763232406,-0.6890669703685022],[0.25415911467755015,-0.07664746267502509,0.3614756404325046,0.14508027508253818]],"W3":[[0.4109091750657461,0.03853098236933272],[0.38911994885223145,0.40644848732968164]],"b1":[[-0.9309578475799722],[0.7591795880911123],[0.17678612698428053],[0.786790093290086]]}}
-{"agentName":"4-0","fitness":52.56205794811249,"data":{"A1":[[190.8290187430037,31.77754742368672,277.5872704126835,0.0]],"b2":[[0.23042774014795753],[0.4164348685332022]],"A2":[[0.0,146.82273729531536]],"b3":[[-0.2553309096117602],[0.17884522225228028]],"A3":[[0.9936991912210865,9.905519142669692E-33]],"W1":[[0.4551273600657362,0.36644694351969087,-0.38256108933468047,0.5578451496406656,0.33109790358914726,0.3723042867181403,-0.2624341731773887,0.31837010262135435,-0.07269284838169332,0.5658035575800715,0.8386555657374337,-0.1270180511534269,-0.20925958437085557,-0.8137389137130824,-0.6452430441812433,0.18869982177936828,-0.5804648622673358,0.651931743775642,-0.6555641246242951,0.17485476357259122,0.5025608135349202,0.14208069682973434,0.16004976900412138,0.505019897181302,-0.9371635223468384,-0.2841601610457427,-0.48566197253788834,-0.1646249064941625,0.9480713629917628,0.42681251564645817,-0.0388509668871313,-0.4166870051763918,0.8997202693189332,0.6409836467726933,0.273289095712564,-0.26175701211620517,-0.2794902492677298,-0.1306778297187794,-0.08536581111046115,-0.05462315824828923,0.47004365892170585,0.6546448480299902,-0.6056572341069668,0.6677324708883314,-0.07938725467767771,-0.4112675899658855,-0.608071585153688,-0.6414531182501653,0.7313735926547045,-0.026818676347611925,-0.4302874062301336,0.26573958270655806,0.3997172901343442,-0.3693430998846541,0.25750538376376975,-0.3514482545960185,0.7436291919296774,0.6114618853239959,-0.2575792912368702,0.007159356555897611,0.39449745853945895,0.817229160415142,-0.6077058562362969,0.6182496334554788,0.2558665508269453,-0.07320145794330979,-0.38884168866510227,0.07981886851873865,0.27022202891277614,-0.7474843534024693,-0.005346215048158909,-0.9453716674280683,-0.018480541959607244,-0.032312290091389695,0.31010676221964206,-0.20846743965751569,-0.27287209471868445,-0.23077831216541722,0.29246395759528565,0.5409312755478819],[0.7880855916368177,0.19767407429003536,0.9520689432368168,0.18988997497168025,0.41304209196175257,-0.6176203385203134,0.7984106594591154,-0.2523277127589152,-0.1373808897290778,-0.3353514432305029,-0.29946646506145114,-0.11452811582755928,-0.7439716673142398,-0.3675110562764785,-0.933330067282963,0.6107814398427647,-0.7204208094262783,-0.8141063661170889,-0.9459402662357332,0.09666938346350307,-0.43560342773870375,-0.7028497124867663,0.5398905109406806,-0.40339154825471857,-0.9718883630945336,0.6191882496201251,0.0429886073795116,0.670311110015402,0.16692329718223786,0.37649213869502973,0.43268986565373635,-0.7684997525607482,0.1770172737885798,0.7902845707138706,0.2529503304079441,-0.9811997368468401,0.8782018665273386,0.6307050068521085,0.5244083449307946,-0.8537533138667612,-0.2049276879687938,0.1470694373531216,-0.48366999792166787,-0.5688746770986652,0.3183669486383729,-0.7022804026958895,0.5288643233801469,-0.2770587742156372,-0.949390243337694,0.7107229819632654,-0.3205057828114841,0.51605972926996,-0.7404936009304737,-0.49510748520932113,0.5508198371849293,0.4610134502825909,-0.10169482856285383,0.39418662792516,-0.6797384914236382,0.6001217520150142,0.4508991072414843,0.589749448443134,-0.35322920407578207,0.7005669004769028,-0.6277341209609997,-0.7417466269908464,0.7146451857291418,0.08574936236270037,0.04981350561934583,0.6593783978826002,0.09798746565879424,-0.34288007110901964,0.440249350802451,-0.7552519286725965,-0.9695067570891225,0.5169530282202459,-0.792286205517398,-0.6535487038528798,-0.11020601153665632,-0.1622831617066689],[0.6949189734965766,-0.32697929564739403,-0.15359663581829275,-0.8951865090520432,-0.2358219003943678,-0.6676656789571533,-0.03553655732400762,0.14550349954571096,0.034600542078191854,-0.5528320626338876,0.35278245969741096,0.9588783659157063,0.5686638754605697,-0.4202155290448111,-0.26102723928249216,-0.3464214139694939,0.9216978259799538,0.9500151672991208,0.14380635780710693,-0.7549354840975826,-0.4005694173186485,0.0983382230287082,0.15347083875928424,0.08104111128235547,0.1921083467305864,0.6361110540492223,0.18934450539532244,-0.2543488202081907,0.2927051050236915,0.680182444769418,-0.533835190276116,0.8266289890474885,-0.39906014345793617,0.1726291966578266,-0.9665136866462685,0.03590644899397577,0.32024289816988416,0.5584053824232391,0.03495894704368174,-0.7758497489388401,-0.008461200645088818,-0.648273596036564,-0.15497746743367058,0.3781469006858833,0.30565234666790686,-0.2822867492866177,0.10175120738413801,0.5342432888482425,0.05146513075475534,-0.6459729964194652,-0.952907343540565,0.09441503345243984,-0.07898439043103522,-0.32207498048636474,-0.9180071861219266,0.39922658982009573,0.44284125602329283,0.218086338076241,0.5996766648402283,0.6023685964407528,0.03324842612749346,-0.4431282278951072,-0.2416258355340175,-0.682690342465275,0.3983414713797069,-0.03333947011476446,0.449117985679933,-0.3814896029747141,-0.03513782089224482,-0.9855994310591207,-0.569587565933642,0.3697979495309094,-0.47871398278230504,-0.5913556184905389,0.10347332648416585,-0.5298395275757712,0.39554920787574743,0.3113047940487379,0.6269418147567556,0.9710114516962312],[0.01715676997104909,0.8774286357993033,-0.46594560920034134,0.2873623499953055,0.7334047738989382,-0.30577530147160004,-0.6005960416763974,-0.7359842740294882,0.41048687946340134,-0.7151884777228046,0.07478785545033317,-0.8672651994084235,0.7514259214273453,-0.7337284846874992,0.6797318185095045,-0.03891997518827006,0.3201191074773617,0.6166574577055226,0.5730212324012205,-0.4194925751047054,0.054527683864544096,-0.15591931640565093,0.965218170323435,0.888522581905147,0.6576203900699167,0.6417770212400336,0.058957507935514464,-0.3104974571382815,0.7234744267051683,-0.15869049651427103,0.20173310976772196,0.8657502566551409,0.056995011091034664,0.3674035637513968,-0.6546108813337841,-0.14020032028377583,0.31566937795505967,-0.21420166926412865,-0.8600275184792756,-0.7990574622230739,0.2927180954190314,0.5927048908815398,0.09412586721020877,-0.3906240514635124,-0.14408879184669354,-0.0831665245816875,0.12028795301041662,-0.7994713170657952,0.3872093133146062,-0.3323280634994612,-0.9325810772922609,-0.6411471147334535,0.9949216290375054,0.483048267470493,-0.8736297429070232,-0.36222771685582544,-0.1535668648046895,0.45527588775737704,-0.1790505106198006,0.5033209357391073,-0.2307778924009991,0.6977871128979924,0.022830408261390822,0.6257738824362347,0.9770979848265122,0.9990215581592679,0.49133473382040704,-0.689969833240031,-0.7294587311376761,0.3496326193951331,0.37929821892417404,0.8402056881660709,-0.24945505706767923,0.22925954469403154,0.865876513623024,-0.7113501219432434,-0.0932956557986735,-0.4910359375164499,0.47530696925672267,-0.4629102077669889]],"W2":[[0.6686290707181846,-0.447256453665541,-0.5939885763232406,-0.6890669703685022],[0.25415911467755015,-0.07664746267502509,0.3614756404325046,0.14508027508253818]],"W3":[[0.4109091750657461,0.03853098236933272],[-0.2735012626242348,0.40644848732968164]],"b1":[[-0.18589979820562297],[-0.42743252049353986],[0.17678612698428053],[0.786790093290086]]}}
