public static final int[] INPUT_DIMENSIONS = {5, 8, 10}; // (start_row, width, height) where width and height are in number of tiles
public static final int[] OUTPUT_ACTIONS = {
MarioActions.LEFT.getValue(),
MarioActions.RIGHT.getValue(),
MarioActions.DOWN.getValue(),
MarioActions.SPEED.getValue(),
MarioActions.JUMP.getValue()}; // Actions to be taken by the agent
public static final List<Integer> LAYER_NODES = List.of(INPUT_DIMENSIONS[1] * INPUT_DIMENSIONS[2], 20, 10, OUTPUT_ACTIONS.length);

public static final int RANDOM_SEED = 42;
public static Random rand = new Random(RANDOM_SEED);

public static final String HIDDEN_ACTIVATION = "relu";
public static final String OUTPUT_ACTIVATION = "sigmoid";

public static final String LEVEL_STRING = "1-1";

public static final int POPULATION_SIZE = 20;
public static final int MAX_GENERATIONS = 1000;
public static final int TOURNAMENT_SIZE = 8;
public static final int ELITISM_SIZE = 4;
public static final double CROSSOVER_PROBABILITY = 0.9;
public static final double MUTATION_PROBABILITY = 0.1;

public static final boolean VISUALS = false;
public static final boolean RUN_ALL_LEVELS = true;
public static final String LOAD_DATA_PATH = "";

{"agentName":"0-10","fitness":28.202736377716064,"data":{"A1":[[356.42555757771447,90.59591317582158,504.83066977912415,0.0,0.0,479.5593191360371,653.2970433747605,0.0,0.0,601.3549679280655,139.17130558999986,0.0,0.0,193.17759816215724,251.65598608449997,0.0,0.0,0.0,154.05518447851782,0.0]],"b2":[[-0.92707280355555],[-0.9307772570299944],[-0.11971873660640964],[0.5140245291069254],[0.5751145648836897],[-0.43850910073502347],[-0.7872208869913662],[-0.3087975452145404],[-0.4645849758749403],[-0.1563641826381328]],"A2":[[689.5499965318705,151.92568504885543,567.8237684451009,0.0,0.0,1130.987291278459,1312.7077088105664,0.0,0.0,0.0]],"b3":[[-0.4564689661727537],[-0.4315414033069003],[0.09676404446694242],[0.6024645727173434],[0.20466090997530606]],"A3":[[1.4503688531500669E-165,1.0,1.0,1.0,1.0]],"W1":[[0.4551273600657362,0.36644694351969087,-0.38256108933468047,-0.4458430198517267,0.33109790358914726,0.8067445293443565,-0.2624341731773887,-0.44850386111659524,-0.07269284838169332,0.5658035575800715,0.8386555657374337,-0.1270180511534269,0.499812362510895,-0.22686625128130267,-0.6452430441812433,0.18869982177936828,-0.5804648622673358,0.651931743775642,-0.6555641246242951,0.17485476357259122,0.5025608135349202,0.14208069682973434,0.16004976900412138,0.505019897181302,-0.9371635223468384,-0.2841601610457427,0.6355938616712786,-0.1646249064941625,0.9480713629917628,0.42681251564645817,-0.0388509668871313,-0.4166870051763918,0.8997202693189332,0.6409836467726933,0.273289095712564,-0.26175701211620517,-0.2794902492677298,-0.1306778297187794,-0.08536581111046115,-0.05462315824828923,-0.06195495876886281,0.6546448480299902,-0.6979368909424835,0.6677324708883314,-0.07938725467767771,-0.43885601665437957,-0.608071585153688,-0.6414531182501653,0.7313735926547045,-0.026818676347611925,-0.15805658673794265,0.26573958270655806,0.3997172901343442,-0.3693430998846541,0.14324061105995334,-0.25797542063247825,0.7436291919296774,0.6114618853239959,0.2324273700703574,-0.25128128782199144,0.39449745853945895,0.817229160415142,-0.6077058562362969,0.6182496334554788,0.2558665508269453,-0.07320145794330979,-0.38884168866510227,0.07981886851873865,0.27022202891277614,-0.7474843534024693,-0.005346215048158909,-0.9453716674280683,-0.9270309666195007,-0.032312290091389695,0.31010676221964206,-0.20846743965751569,0.8803449313707621,-0.23077831216541722,0.29246395759528565,0.5409312755478819],[0.7880855916368177,0.19767407429003536,0.9520689432368168,-0.845829774129496,0.5502413918543512,-0.44235539500246457,0.7984106594591154,-0.2523277127589152,-0.1373808897290778,-0.3353514432305029,-0.3697050572653644,-0.11452811582755928,-0.807098168238352,0.4903066124307711,-0.6582805242342049,0.6107814398427647,-0.7204208094262783,-0.8141063661170889,-0.9459402662357332,0.09666938346350307,-0.43560342773870375,0.9349906440170221,0.8090021580031235,-0.3121157071110545,-0.9718883630945336,0.6191882496201251,0.0429886073795116,0.670311110015402,0.16692329718223786,0.37649213869502973,0.11276440263810383,-0.7684997525607482,0.1770172737885798,0.7902845707138706,0.2529503304079441,-0.23483801763662826,0.8072501895004851,0.6673992021927047,-0.4796127376677324,0.9244724404994455,-0.2049276879687938,0.1470694373531216,-0.48366999792166787,0.643491115907358,0.3183669486383729,0.22821350958477082,-0.023605251086149304,-0.2770587742156372,0.47596326458377436,0.7107229819632654,-0.3205057828114841,0.51605972926996,0.45215640988181516,0.01712446974606241,0.5508198371849293,-0.2478254241316491,0.7256483175955235,0.39418662792516,-0.6797384914236382,0.6001217520150142,0.4508991072414843,0.589749448443134,0.6464818311502738,0.7005669004769028,0.9699584106930381,-0.7417466269908464,0.22818964839784495,0.08574936236270037,-0.6945765138377225,0.06915201979238828,0.09798746565879424,-0.34288007110901964,0.440249350802451,-0.22440768392359534,-0.9695067570891225,-0.7942032659310758,-0.792286205517398,-0.6535487038528798,0.7952676470618951,-0.1622831617066689],[0.6949189734965766,-0.32697929564739403,-0.15359663581829275,-0.8951865090520432,0.2057889391931318,-0.6676656789571533,-0.03553655732400762,0.14550349954571096,0.034600542078191854,0.4223352065067103,0.35278245969741096,0.7022211035026023,0.5686638754605697,-0.4202155290448111,-0.26102723928249216,0.010688215941416779,-0.4311544807877927,0.9500151672991208,0.14380635780710693,-0.7549354840975826,-0.13079299081883855,0.0983382230287082,0.15347083875928424,0.45507300685816965,0.1921083467305864,0.6361110540492223,0.7675261182370992,-0.2543488202081907,0.2927051050236915,0.680182444769418,-0.8062832278617296,0.8266289890474885,0.22684501241708888,0.1726291966578266,-0.6778773666126594,0.9993906921393696,0.1789490173139363,0.5584053824232391,0.03495894704368174,-0.8505720014852347,-0.008461200645088818,-0.648273596036564,-0.005334477339629995,0.3781469006858833,0.30565234666790686,-0.2822867492866177,0.10175120738413801,0.5342432888482425,0.05146513075475534,-0.6459729964194652,0.42519013450094767,0.09441503345243984,-0.07898439043103522,-0.32207498048636474,-0.9180071861219266,0.5951317320731633,0.41000814588717693,-0.3926260640533046,0.2789036768568971,0.13163692286014528,0.03324842612749346,0.07055844751995122,-0.47199515597021113,-0.682690342465275,0.3983414713797069,-0.2136729393256811,-0.09066563475481249,-0.4640338194317184,-0.03513782089224482,-0.1711809802758364,0.1774546460228057,-0.6783644553523549,-0.47871398278230504,0.02272121490463097,-0.5047649289302389,0.26479596144873896,-0.32045436544054096,0.3113047940487379,0.6269418147567556,0.9710114516962312],[0.01715676997104909,0.8975962429865936,-0.46594560920034134,0.2873623499953055,0.8894362304584083,0.17973981232418468,0.49105791400707743,-0.7359842740294882,0.38941133808001127,-0.7151884777228046,0.07478785545033317,-0.8672651994084235,0.450599300176334,0.35104802298560056,0.6797318185095045,-0.03891997518827006,-0.33208695871398675,0.6166574577055226,0.5730212324012205,-0.4194925751047054,0.054527683864544096,-0.15591931640565093,0.9266742559542833,0.888522581905147,0.6576203900699167,0.6417770212400336,0.7509788029052338,-0.3104974571382815,0.7234744267051683,-0.15869049651427103,0.20173310976772196,0.8657502566551409,0.9325160601080682,0.24570884032596263,-0.6546108813337841,-0.14020032028377583,-0.8825687891702743,-0.21420166926412865,-0.8600275184792756,-0.7990574622230739,0.8325875503351796,-0.5956350140619129,0.12598048009007923,0.12340188733473134,-0.839435659309717,-0.16623481818728414,0.12028795301041662,-0.7994713170657952,0.2216721974907896,0.8407561415075087,-0.9325810772922609,-0.6411471147334535,0.9949216290375054,0.483048267470493,-0.8736297429070232,-0.36222771685582544,0.26397860162786957,0.45527588775737704,-0.9424989711186325,0.6251162293059616,-0.2307778924009991,0.6977871128979924,0.022830408261390822,0.6257738824362347,0.9770979848265122,0.09985730624684575,-0.9755858424230182,-0.689969833240031,-0.7294587311376761,0.3496326193951331,0.37929821892417404,0.8402056881660709,-0.1806835799958202,0.766314307210441,0.865876513623024,-0.7113501219432434,-0.0932956557986735,-0.7042025810921411,0.47530696925672267,-0.4629102077669889],[-0.9309578475799722,0.7591795880911123,0.06296957473213705,0.786790093290086,-0.9527998391625465,-0.08573982501921895,-0.3812232026687308,-0.6890669703685022,0.25415911467755015,-0.07664746267502509,0.3614756404325046,0.14508027508253818,0.23042774014795753,0.4164348685332022,0.4109091750657461,0.03853098236933272,0.38911994885223145,-0.5031309357181766,-0.596467768575587,0.17884522225228028,0.24508864174863,0.7576193329655578,0.09030511120334461,0.9537528991778741,-0.7224092160621338,-0.34089385162121943,0.6924170720838818,0.32912306214891784,-0.4064624712125904,-0.5344662061201593,0.5891192531479754,0.29862103742464274,-0.36153976712796343,-0.6552669564323226,-0.22672513691161766,0.3001336202535376,0.34490251346382617,0.2072633053920192,-0.5659371284058774,0.49599636156628835,0.31302496164254223,-0.6062773982342133,-0.9874007658402217,-0.6214904627601421,-0.11421073677207683,-0.5850843421161205,0.1250679146774638,-0.7108170726393621,-0.6888351241194393,0.6077343683084389,-0.1407178879203672,0.12960233233004925,-0.4236196478321872,0.7903078296084356,-0.8755754953628643,-0.2062360260394529,-0.045680124889026175,0.783182093429277,-0.02995737262668463,-0.33382351650328435,-0.1802575775708093,-0.991006951265341,-0.9107951763247621,0.9069820084047908,-0.12691921206803047,-0.7087012119383593,-0.9179510577925369,0.18480349982718325,-0.4478459144114004,-0.5560585660624608,0.4797855980916854,0.01997502546020402,-0.8827928315487465,0.2755107907750989,0.015544482147298977,0.9652687138748801,0.6622667860970648,-0.7708138539912186,0.17728148663006627,0.47818190728952925],[0.1358843437335564,0.03643446587894239,-0.31070823939673287,0.5283033206569152,0.3469111543845367,-0.5162518174930761,0.24270234207184016,0.7352292800096338,0.8860322286740037,0.6748068653962045,-0.4683538422180036,0.1469540185936138,0.9113612952591796,-0.9838482669789823,0.4506466371133697,0.6456121712599778,0.8264783725578371,0.562664168655115,-0.8299281852090683,0.40690300256653256,-0.9781302074883151,0.32984303335155785,0.7303430847899663,0.841481297188956,0.05580773881989276,0.7130788298702062,-0.218087116119847,-0.9889494995220598,0.9182854134226501,-0.7501751701020942,0.146854160091757,-0.3611508707370965,0.3517016971654914,0.6187697988029395,-0.010768583697787548,0.5236725885871243,0.5945666964145524,-0.009180562740628506,-0.44474762415618274,0.41852743519493685,-0.6304209277071555,-0.37010359785263813,-0.3194739026510125,-0.750533359080716,0.45500303301733114,-0.012727544364283805,-0.43941651856862274,0.927108876532093,-0.24164903158058149,0.44134972919002124,-0.35785764991284363,0.942797043714243,0.4539569191274251,-0.6944903010994341,-0.08357221983075225,0.4433049548665855,-0.5488972050023557,-0.24014623658145773,-0.6178118485382511,-0.4575463952834564,0.22693864400257335,-0.041639691095668674,0.9948726461115123,-0.7450471554938383,-0.1114847126717804,-0.27881184842402673,0.029766812446276214,-0.3727649352432578,-0.7791732805568077,0.9425576681069683,0.4607090007225536,-0.6079961642969514,-0.5671626932935381,0.12784576080614185,-0.30766031989910236,-0.21232963505711555,0.3310463755850872,-0.6807682731528943,0.7826634145951483,0.0608057623636995],[-0.2697769964284986,0.07743737732312428,-0.8459687499864881,0.6091901514177853,-0.9464815428211699,0.15780407422581533,-0.28552052619478996,-0.27500859181806403,-0.7207541548282903,0.05215593729084533,0.29768927445620164,-0.5379390525163252,0.6591913001003027,0.6635992348010928,0.3786594651413009,-0.7217135278882543,0.9634013908615768,0.03961253903778861,0.1335121312144949,0.7933944303463509,0.39896823489212285,0.30948413101894023,0.08568060094378493,-0.7454513450113371,0.8054125831421357,-0.24464240413169347,-0.18294406588625112,-0.883455504399858,0.2468431033653562,-0.708151566382103,-0.4785033857256795,0.520350718059089,-0.2988515012130126,-0.46260150057299754,0.5394344995663083,0.39320468081626836,0.1890560923345248,0.13123799325264507,0.43613839380760355,0.39541998419731494,0.3909705814857716,0.9830271975811611,0.672523651785939,0.0035177223850744177,0.567082732451311,-0.2620454326881394,0.46622578556708105,0.646246879249865,0.4263175536668733,0.8982696975276223,-0.9480167656870653,-4.888270196095057E-4,0.48226844071577646,-0.23706663537631645,0.22420266627462127,0.2981747607694978,0.3893425967975348,0.6302701381298614,-0.21909113816064196,0.8371697958140494,-0.2300790371078303,-0.4457883630748676,0.28710853302295325,0.7112839743052013,-0.8765858382640623,-0.6470779468607217,0.4369262584371727,-0.7175412028407337,0.5506733477278882,0.5393007189573547,0.21769855012808215,0.8653818331675485,0.2322943113578111,0.3760591265797468,0.06554014167292377,0.6866096712933549,0.866929973115441,-0.6462263417217329,0.2507247465275353,-0.7005877782050307],[0.6058055248984549,0.048517868234337014,-0.15744912875924877,0.32598079708869365,-0.587791997223768,-0.4636187312118474,0.7771908559246068,-0.349403853888719,0.229800030145503,-0.674614818934488,-0.21164946152466801,-0.9981936663594053,0.8611869575187896,0.11100891297254312,-0.7406067304729631,-0.7613837395522254,-0.9617573325708704,0.5697426971647488,-0.5830879716990833,0.5951448538064159,-0.19172117564625735,-0.12421304883392126,0.7095605786791346,0.6401582292398038,-0.9347790209840108,0.6592209285686903,0.702282297844389,-0.22765902007749528,-0.17746922342943816,0.7196663432778121,0.36490454976480846,0.6991204480538957,0.6546945560337121,-0.032324845758738174,0.2453935969836043,0.5363119225093116,0.6266741350524205,-0.2132266305382322,-0.308105870487996,-0.08219413867616465,-0.014204168485027147,-0.7077035677144325,0.024004217785642767,0.818971992516166,0.9081305263471056,0.808854493237229,-0.6474336785461867,-0.32559288177031465,-0.32850453072496055,-0.7035310416695784,0.6085817977516599,0.8101072412357928,0.7697891508923966,-0.5738750389864677,-0.734314989863889,-0.7879014492215499,0.6884442838920775,-0.46131231930402383,-0.7730585954271005,-0.7819874019145132,0.3283668768730639,-0.18316686990068187,0.3955614099142126,0.8450470350842108,0.3958042901611589,0.6578475571960676,-0.4395488558075096,0.15720430113495376,-0.5318362828977672,0.45585285255232044,-0.5986521145193395,0.3266542215286443,-0.09911773729611917,-0.21478254478908676,0.6546175049764293,-0.1414796368932345,0.25802631337510085,-0.6773828562539816,-0.22038193899258718,-0.17465737306657902],[0.5293763924477841,-0.24658868331583683,0.8268631648872109,0.8969207203400265,0.03933229861213983,-0.6212951181360529,-0.36695460282178205,-0.5468014636386027,-0.3419492829414976,-0.8273314086998671,0.9543096383762801,0.13230023957687176,-0.3071929861496465,-0.3646067841449696,0.6979929890816723,-0.20721664168809228,0.6676482547655365,0.944757051233543,0.024377296173674567,-0.9413728609667691,0.09198647857985232,-0.3685113649452161,-0.2361728930325453,0.3674268130607439,0.27385598384498344,-0.7151900241735676,0.3310154476154119,-0.24328111897361682,0.2511378679668912,-0.35825141175578934,0.11676665169094824,-0.49968608916548307,0.9941342810313298,-0.17858967215374988,0.1993744673440312,0.14596837574280297,-0.8245495433125194,-0.5637934691545672,-0.8589185806222286,-0.4923216901915597,-0.9917770074538397,-0.1547651813493751,0.621733177563484,0.7303326279246298,-0.0786900332560696,0.9107127797641994,0.7104513024299466,-0.32858522942354407,0.17013652749847386,0.27656984316288824,0.6874932143640391,-0.46610293161038907,0.8744681017967024,0.40900365224695956,-0.49770054448432055,-0.0635770754462921,-0.5705387648707747,-0.577988250149829,-0.8099463063934682,0.42132700180827354,-0.24607974991258308,-0.943388538022258,0.8679112109377674,0.7779951176637694,-0.5802336023276593,-0.9093352471884992,0.29337797938742316,0.498519874589175,0.3493034812120912,-0.07307210651399076,0.3911519359353859,-0.8154393787235621,0.47194271125243237,0.14014792298759593,-0.3589345913619957,0.7887695409762479,0.49962792312858895,-0.6402670146359797,-0.2314041601683119,-0.798901341175887],[0.810279303469398,-0.9772756877199589,-0.20925958437085557,0.8797562461102444,0.3211532423260066,0.25250279470783754,0.14387831263435813,-0.021466789385169882,0.18909293657271564,-0.5981349964027893,0.3565715672082048,0.7366743237221687,0.1922233582434527,-0.3551925780624561,0.5290849503909634,0.7744214641246749,0.7277215028580597,-0.590440215391044,0.7427328184290733,-0.6231904162251609,0.5028717258135624,-0.5838871888624848,-0.5540116561110324,0.8502487679795261,-0.7983061034328727,-0.3853123296389005,-0.1493800684643869,0.6008798629354264,-0.32299062155495406,-0.5827019502242026,0.41994681418237345,0.7106426870657483,-0.45211033467567696,-0.7272406549392239,-0.35736594496490737,0.4764507578985955,-0.5249912641281373,0.8562010912051132,0.45927621623833637,-0.3701817429794385,0.8414999442459015,0.9273442862476728,-0.054654787893199774,-0.23126134156257327,-0.9155048245317694,0.25750538376376975,-0.8470916763665326,0.9105674676753848,0.5026028522378054,-0.06650501561108468,0.37484830603001607,-0.9858854245832975,0.007159356555897611,0.8172796295244154,0.519147377529164,0.8211049991970722,0.9901658817979146,-0.026519560032641998,-0.2328762488733862,0.43161994187258035,0.24940246021565793,0.47248358864259177,0.23833814894291105,-0.3449172512379757,0.7412869866239866,0.1351422898741914,-0.003784141556894216,-0.6321917152754075,0.8246267827865776,0.5057520480449009,-0.5977424405191092,-0.13991362149785713,0.613487896720806,-0.37681525320218157,-0.4369592282569783,0.4702242879506955,0.07498463532645339,-0.9942304127133292,0.41304209196175257,0.6799250665519481],[-0.41212838137243835,0.6737124633791323,0.8376369191216593,0.2848328781926128,-0.17960265353296,0.0035488712665472377,-0.8355355482928055,-0.7439716673142398,-0.009043467128117433,0.7423272515054122,-0.662329643040616,0.4727113884417973,-0.15734218732411365,-0.3950754785173889,0.13837083076070011,0.633261314089351,0.9929998062307679,-0.4639028424346423,-0.073992579817449,0.3413166410117088,-0.2875719791707101,0.9395753700232541,-0.45090801750966314,-0.384528069378699,-0.35937736478702753,0.9597102694501136,-0.6898325123180971,-0.11436012866371303,-0.5330550575952768,0.24688769932037258,0.16864051681940984,-0.08391828256018252,-0.8184503043836224,0.5461252511055263,0.7264676659099087,-0.9654384426822686,-0.8537533138667612,0.9189716013058653,-0.03449322582531389,0.5490329745887035,0.9392753294760656,-0.5579682000156501,-0.8083270703362093,-0.7022804026958895,-0.30426803430649896,0.8211432527140852,-0.8101343265051797,-0.0945946325760949,0.49546915718101814,0.5184327698839013,0.20496323995364651,0.5082017540304999,0.2428646053751764,0.7101854338863274,-0.9619925264660094,0.4610134502825909,-0.5620669052678122,0.6766614078376236,-0.7169693435782278,-0.14362322382035164,-0.7441633083637054,0.07069898351187809,-0.47119552972566336,-0.43970155900871344,0.43192289605353973,-0.0798550143899397,0.2111188135787776,0.9101748615761336,-0.4079984876629721,-0.8101424982394589,0.7250263461647963,0.22182621035333838,-0.12735342714215725,0.26222861719040624,0.3928174057935714,0.817131411734006,-0.056109765698795,0.7908779197353637,-0.06768319505245768,0.4107045608924882],[0.876751634787073,0.04037085575852295,0.18142385658771398,0.38350565074271903,-0.30937664332011905,-0.9544807672006823,0.008643477632712449,-0.27676843472226276,-0.12938540988602476,-0.2929762262661819,-0.4243149295090465,0.22578711943818686,0.662530786460152,0.28592235843136105,0.4170345231441832,0.9290881132120887,0.5332443368002588,-0.33248958421809927,0.16273139830495942,0.6899022585936985,-0.1732078452611825,0.2361029542296429,-0.8455867017505336,0.31638672033240867,-0.648387667144986,-0.7647886103837449,0.6910155501192978,-0.2665663102538198,-0.5980899570876459,-0.9165896495676276,0.18934450539532244,-0.715110505416745,-0.453777527810155,0.2743741252197758,-0.8439310405443103,-0.533835190276116,-0.5911710854054728,0.21026462628920695,-0.45849607678093585,0.1327074179200407,0.624731930687735,-0.39914395421723015,0.781887900750925,0.5442619051596436,0.16651193067479153,0.9064846121246533,-0.3643159594276202,-0.5182065337246469,-0.6785628247191553,0.7111152852903913,-0.21923785332346513,0.11340668617783778,0.7397883986253251,-0.11748081084695605,0.06314872700777197,-0.7124574845946587,0.18043581960897104,-0.09023925260092103,-0.7256417560118238,-0.5038088673851804,-0.15271598143132215,0.9038942665552285,-0.6168514099878155,-0.12219038322317011,0.5402785935596728,0.4059744401803913,0.258870596734184,0.3190881033039108,0.2372469007313076,0.367188299614863,-0.9025895351376971,-0.03333947011476446,-0.8220776066161464,0.449117985679933,0.9970519437779266,0.27430911004640457,0.039081352882204046,-0.8621514950929796,-0.569587565933642,-0.9118346349929578],[0.3697979495309094,0.07383664120111888,0.7199366131785143,0.2118625428869032,-0.9015976323216077,-0.5298395275757712,-0.9517419542156635,0.39554920787574743,-0.3721957439110324,-0.4750272836396878,0.02106845330888185,0.7571245678782959,0.8034228830223251,0.32968340513846917,-0.6510386482911554,0.2710115488605187,-0.1319580272290235,0.932600992666184,0.8260461527035414,-0.8507648952138052,0.41048687946340134,0.9384639988086239,0.4569555844323441,-0.3084729082645552,-0.7299010284877061,-0.6925012997779212,-0.6798013915257548,-0.504368104320321,-0.6234398059664716,0.8633407902005543,0.5546381825677706,0.7959405841824887,0.584699836289184,-0.5726371777829862,-0.2827976152663936,0.138034013875719,-0.2935080791661324,-0.5323479091625714,0.6837641044797451,0.5986680812032501,0.14753220510180776,-0.31591341855048327,-0.748545617199091,0.3251888821665734,0.8228589483149358,0.046659706976506676,-0.35049927996132624,0.2953170004605874,-0.6429374177050204,0.4624083116836044,-0.7229883396779724,0.8876940454894067,-0.033794226589695775,0.46700071356381523,0.1599557295166274,-0.8944619785248653,-0.1258464584151997,-0.8797551785991506,-0.14408879184669354,0.11020655997336015,-0.366507395597937,0.630480481240723,-0.16600801981741609,0.09842042773854076,0.30129535029579047,0.14102166298628882,-0.28131788612036623,0.49635295715686234,0.0625636989631968,-0.41748132718912,-0.7898597726154271,-0.05425577320946573,0.5992645759265662,-0.4716868549309716,-0.020137302700854676,0.6216515277233232,-0.7295510954484412,-0.41443875567123967,-0.610576632050404,-0.9515988311377204],[0.9990215581592679,-0.9868954542412269,0.49133473382040704,0.7697599878561228,-0.34668939907967267,0.9777705993519483,0.4449043102759509,0.9812971199646168,0.6666598587737487,0.14398842572598514,0.21628799185444336,-0.4526390568867018,0.6558486691929235,0.13730688681492142,0.23076986155942736,0.7020484017619715,-0.12077999528458938,0.8306084972447003,-0.49337323198621563,-0.8270028152572872,-0.48202394020369277,-0.6274878708695264,-0.27623674153600697,-0.5312153415813432,-0.030820182786174044,-0.5893370965577813,0.6666315120904487,-0.36482991729570036,0.6065771813692735,0.05831057330788525,-0.4702220250018212,0.9123705796362889,-0.2045657170490376,-0.18922063450309534,-0.31431213362503163,0.4150130060120387,0.34016193625941127,0.8391374136299805,0.6884250315764333,-0.7916408854251566,-0.0014232315621649505,-0.1284246813729939,0.5228953023175369,0.9688522449007109,-0.7857721219549156,-0.7812922263391038,-0.5916136652814756,0.793988610184206,0.7982949061274296,-0.592785473963741,-0.17363144173810174,-0.3340314573781735,0.9351424971322297,-0.6430601902397572,-0.13363305808148818,-0.42446359566938585,-0.4093070316761178,-0.9302259781839204,0.47004365892170585,-0.6231289889808045,-0.8296410705737971,-0.6056572341069668,-0.2975417404042737,0.07134138175064741,-0.8966463747179154,-0.4112675899658855,0.7908013478009401,0.407396254566472,0.9227769302156879,0.12418427404473764,-0.6552751548581366,-0.5641921108932855,-0.6340486345063014,-0.5441069121131075,0.908720622198947,-0.026054643814348077,0.03706191653058433,-0.6672524338819317,0.7958274915288801,-0.19029619970124023],[-0.7457695999520562,-0.3739453132549577,0.01327423342620393,-0.08482897201178563,0.84573456086082,0.6279927575103963,0.014494803555804125,0.9420647557771027,-0.13484113287285893,0.3037405853352888,0.9982796018306028,0.8354271779265348,0.46284321795736116,0.07693347919601745,-0.4753440408996932,-0.47098252868073787,0.4810729184846003,-0.6136990339205741,-0.6715833036640317,-0.6247058955319091,0.7330323083522969,0.47204204993669197,0.3850471475752122,0.21483460195167958,0.3806220122265147,0.6336993433402796,-0.47987416364572,-0.195509010865196,-0.6561820282562041,-0.45300480439842894,-0.847895844561626,-0.29946646506145114,0.25432868082106497,0.1352958872054535,-0.8803017974303002,-0.3675110562764785,0.10888496324899721,0.9620737605396772,-0.031046632561323895,-0.09466883461500908,-0.5174248135588373,0.14394061894828014,0.5613709266711013,-0.5678634944326011,0.930216209978763,-0.6204727890080077,0.4133141749872311,0.6262685035917408,0.03382924477926896,-0.15231139191832854,-0.2117605577769197,-0.4283897136887762,0.44686767473401035,-0.5507826261358746,0.237124956028401,0.6413157520982717,0.2409214827604571,-0.8505503638033114,-0.9811997368468401,-0.9499963936664035,0.8782018665273386,-0.9751473570197167,0.6307050068521085,0.7012721336851997,0.21318736263512283,0.024885128053773853,-0.4580644243558505,0.1318650007251434,-0.9306090092992167,-0.5688746770986652,0.14426537998360645,0.3557716894181753,-0.8577143134654568,0.5288643233801469,0.9231529738221469,0.975999712077738,0.24700404691888678,0.10206517527052283,-0.10041951294847062,-0.9412918491876225],[-0.7404936009304737,-0.9792071376296605,-0.49510748520932113,0.9538460112904268,-0.5075114153141447,-0.5890791308058669,-0.775366087491284,0.4983912525892249,-0.2976197956132913,0.6791258030468514,-0.41628618754613345,-0.1472602552309057,0.44136102233464025,0.011882653940414434,-0.6559502840386595,-0.4022529016339016,0.048402312931387526,0.8753776623326166,-0.8528247288266961,0.6593783978826002,-0.7840827624854878,-0.4860418508208426,-0.7418773161179972,0.129874781837924,-0.22631682294184796,0.47794208013755024,0.5532183426143056,0.11879859459306741,0.09927630694484524,-0.19268618891399636,0.44325986644475646,-0.6057278708888592,0.3943381582091723,0.6560336238050575,-0.9651308100517204,-0.2358219003943678,-0.04143043460232465,0.8623951169233035,-0.4933545255502605,0.8990427200454263,-0.4515707618788496,-0.745936099912899,0.41307003181926794,0.6127760492402428,0.9250878169732681,-0.6778628527469126,0.42794190420905753,0.4943969797578971,0.7762709104958854,-0.6932349268610041,-0.0995467494040092,-0.7766769414838959,-0.6608009972582911,0.7075788021090594,0.5208396359138381,-0.09724033794207299,-0.743087245352148,0.765372791789753,0.3788699859744704,-0.6898257995055466,-0.5321510657026671,0.5571925538006008,0.747268102801854,0.09079641165917596,0.25861122989509266,-0.9948187479498878,-0.9665136866462685,-0.3904629432867681,-0.9975425877998279,0.32024289816988416,-0.4829199170694627,-0.5713285263827719,-0.43889652467111184,0.18478247261988967,-0.27374063120041225,-0.8069125377696931,-0.15497746743367058,0.32448521325998714,-0.39397735035206227,0.08184957956614292],[-0.39250489761445895,0.02730338852529557,0.9916055514435305,-0.07571433435055064,0.19024527726403728,0.6385182319185971,0.32480605537471297,0.5807543325220577,-0.35642510103381153,-0.9060482769392468,0.03707410390488852,0.2527049166981137,0.4114872952854447,-0.8508977901757795,-0.42791544663481895,-0.9864047295390463,0.6023685964407528,0.12018443688097036,-0.36816249877130414,-0.9583147535652901,-0.2416258355340175,0.6737553249072334,0.9041602191361382,-0.2123232797997281,-0.008255188002961988,-0.5151894064136904,-0.7341877977528246,0.624625272218277,-0.6261434804192929,-0.5710586715741532,-0.7457768645184579,-0.5954998103421847,0.5428846769211537,-0.6176587961491775,0.46222150678166574,0.7852238239427731,-0.3614580530629148,-0.325840253127059,-0.5660596710348922,-0.8060263366626401,0.8774286357993033,-0.23110126319781088,0.6264134914476072,-0.143015582616014,0.350109539755298,-0.147747167834422,0.05020570422182824,-0.5469605849960337,0.951112567977048,-0.34800121380288185,0.31374599099683476,-0.36270498808879115,0.7456203273799138,0.046239858938568856,-0.030136501929084014,-0.06596637210739509,-0.46829487815816484,-0.2054839116368734,-0.7006480295111763,-0.6886047709544985,0.8745354279105222,-0.9270067504840309,0.965218170323435,0.12808957052353698,-0.5309399625085234,-0.5968520990090951,-0.667403236513185,0.08154410986660832,0.33025488397543934,0.03406708067839537,0.6731426721418288,-0.7111023070261273,-0.9849054116048603,-0.12831346258317322,-0.04095946352836921,0.6967001556166801,0.8479895229743999,-0.35600791972899404,0.5005979045264868,0.6421341979636503],[-0.04849233571020073,-0.8505855619911602,0.2927180954190314,0.5780268040086791,-0.22322207765417268,-0.8436513934568071,-0.3906240514635124,0.7258714963093444,-0.21695043530813085,0.8049335285918169,0.12154833675098842,-0.26446415445316673,-0.06653791221669247,-0.7920694887292259,0.6128791496627621,-0.6927179137980173,-0.24584418172709932,0.3557416365779935,0.22868636757755234,-0.8288196322549064,-0.1535668648046895,-0.59868738365189,-0.8822518703008675,-0.1790505106198006,0.9467581256591948,-0.0661313762905984,0.31263046332923694,-0.03628894224569357,0.8969599435828515,-0.05386674051170348,-0.2568492063716883,0.7740976197426315,-0.7829158104387535,0.8578846037465748,-0.6111039318672586,-0.26939268282639306,0.3659136640533909,-0.8205938562638555,-0.24945505706767923,-0.935948184861368,0.22925954469403154,0.18159238246979537,0.05607027262862396,-0.3376037702047998,-0.10630000583678934,-0.7148277241201622,-0.08327294541727137,0.6532439360618307,0.34352364313237294,-0.21028242388807916,0.509058184822212,-0.17532831457577935,-0.6387880909085213,-0.966194650702529,0.7829797328120436,0.5470735549914605,-0.38312745239682333,-0.8890923931840893,0.6823342859396513,0.9231260597729121,0.6996156678090684,0.8612833977834464,0.9131301694042417,0.5199385192744859,-0.32605907950755086,-0.9816465962348846,-0.5939885763232406,-0.7730924566676425,0.6367821449954114,0.10873812383881054,0.2933324921347933,-0.4652534314332506,-0.2940640558090537,0.9883453215038367,-0.042460731786114314,-0.15438550895912062,-0.11182397625560592,0.7425954283250873,0.5063859049644963,0.3012211854180429],[0.3554353390157281,0.08707592690448718,-0.10815435665633877,0.05524046679762784,0.8000157491787581,0.3756193347272323,-0.18659830666742527,-0.08168623764933125,-0.2551379303720174,0.8560030587463281,-0.4672678144441864,0.868381965588082,-0.04748335609643428,-0.0908285508827269,-0.22436865911994275,-0.953965287326564,0.40644848732968164,-0.33391575325981115,0.008337907338700212,-0.45597904754961416,0.7310287890171705,-0.38300115058116324,0.5492682498036086,0.552016070316655,0.3715022458396897,-0.3888040017277252,0.21348231125683648,0.23219558685722874,-0.6271161253492459,-0.009137052604519136,0.48603550488592284,-0.9218820771919889,0.17678612698428053,0.5110501870908806,0.5817010201164554,0.4488707800038747,0.4977618637956498,0.1683214570038094,0.17237242672259323,-0.5276084644007359,0.04582517188512947,-0.9060800653779759,0.049786270132956556,-0.4236784487542993,0.6293910028372613,-0.7370237043436467,-0.4599678991281728,0.5317111095323057,0.0029525239228334055,0.9294876800738165,-0.9023553189306839,0.08434165073970856,0.7163931103395633,0.41749986495957914,-0.8190972970472759,-0.9996126872234177,0.1779075727741255,0.18212754689351862,0.24628508239298963,0.667589863190412,-0.8399129036462931,-0.10024819268489127,-0.5011350892733817,-0.7299256348863585,-0.9412022985072928,-0.245064895931544,-0.1032512650854267,0.9943863256441088,-0.6429371028855466,0.062299742931960056,-0.16850226855111905,0.7262839202089402,-0.04876255055071854,0.8948164957242868,-0.10720585418953132,0.2622719447841948,0.26433837506661373,-0.5143449147399106,0.17444585508955002,-0.813182163328944],[0.4014766166181287,-0.1710502754125871,-0.309850483152607,0.255642456909988,0.9949117714165621,0.12553772251510864,0.6412602805648968,-0.6225679446416825,-0.15867011477056936,-0.4970695349036196,0.5151452174260762,0.10077064818539072,0.9515221270405545,-0.21551878535257907,0.29152528087481366,-0.10995497026133605,-0.7872786530801681,0.9909149980139627,-0.6044617953251021,0.4135285912642448,-0.493569696351595,0.7280914440594639,-0.5399160539735497,0.5688018985826291,0.8296550361854862,-0.3519274619833537,-0.5536583684230114,-0.9648774930921231,-0.2649670832738824,-0.2337289004188019,0.22017490770298553,0.7693082799289328,-0.7645745307823122,-0.4243400515554365,-0.7065281515163817,-0.9488470141298047,-0.7888781431404843,-0.38027758953310964,0.11329243985448345,-0.5636550498916204,0.3128791250125589,0.4690308315665288,-0.9819748103687955,0.28931283693913223,-0.6283983933456656,-0.10795935596621975,0.7785831799196448,0.4453768248295542,0.4055410615499917,-0.581108383985806,0.5039970331368235,-0.008965105921562966,-0.5415225380115054,0.4677111860370293,-0.3854089758945243,-0.8468317339287676,-0.29258253017713587,0.7361173598968789,0.5722561668394952,0.8524030171340933,-0.45407356732165205,0.6563221064539377,-0.8938366926767671,0.6028173420234533,0.6792881349943096,-0.6295604812779405,-0.21641416912497213,-0.8703620515028858,-0.3397362922228042,-0.0966947467107604,0.9493308195854675,0.3285214661535252,0.749300278016316,-0.006681618268088219,0.2936055273341429,0.0044706790416966236,0.5006172205470896,0.38751814960349473,0.6069735922707928,-0.794612882855285]],"W2":[[-0.8035156105848074,-0.5344928236067734,0.6105404604447127,-0.7538635525543969,0.9836765037886612,-0.5700253195942724,0.9232380985458313,-0.26374377078100464,0.9079431466301682,0.8404281771949533,0.220453181647285,-0.03105792440486077,-0.17131282366411926,-0.41800060634660485,-0.1477564564540963,0.055537469469941536,-0.8092076926316594,-0.29815112444525727,-0.20030580647762464,0.337865838755971],[-0.32052868280788616,0.954507993011956,0.38642226954792824,0.9240442034609888,-0.46077559741256824,-0.7991393493824104,0.9396232321156679,-0.2486930151964184,-0.6256485833035617,0.14861843824730103,-0.4684215762946897,0.07873308388585198,-0.3589594894052015,0.14284662079329458,-0.8936272055527841,0.5647217242826741,0.49613233215723507,-0.501698787526992,-0.46710107378968724,0.898517179577361],[-0.8147610562690222,0.21104006948075482,0.42405323019132957,-0.667965573810795,-0.267026607469405,0.7949752815579358,-0.07664414977654532,-0.6023087644686556,-0.659375887511856,0.459735946423397,0.08405646515942733,-0.40009448092691446,-0.39831245310544094,0.8794137836499942,-0.04788565812369017,-0.06763019434549333,0.41324877265674065,0.39746868847324146,-0.986729367280818,0.7001677710291752],[0.29127970805530157,0.6712715787317827,0.27575757044478477,0.31525054647682804,0.6905016168465983,-0.5195319089267731,-0.06598129860341295,-0.5142554034519407,-0.11546331150946942,-0.2934524891698944,-0.7048583334456604,-0.46598491327111247,-0.02034722477413209,-0.663294196316965,0.4485329128582778,0.4553619594861118,0.7154814909138205,0.7532937661147989,0.020693077287389894,-0.23131986644633207],[-0.1513298744027669,-0.4591544337339648,-0.7192219559850723,0.21236658135317632,0.12050445497328166,-0.42411528242712127,-0.15103925528861595,0.9032115729799512,-0.9228817525021624,0.2604090001033641,0.3084355607627949,0.7029638272178733,0.34098344122299573,-0.5818421369891376,0.1332356708082485,0.22671316744441716,-0.6750469752494854,-0.4065302428716193,-0.48213803977370073,0.17918596677210186],[0.8352061350259052,0.2757393215770836,0.9310504392364667,0.519503546762708,0.5270245209143005,-0.08181154800488488,0.5148324302455536,-0.6680946101511949,0.7574060703813035,-0.4721334895419935,0.8113709439821006,0.21939305063309278,0.02109986546311826,0.07450107676582762,0.723883853128624,0.5392035186380486,-0.1382740221237464,0.9990201540159807,0.10429329766137108,-0.1365266408862309],[-0.08278037549320039,0.6982730989138761,0.9090685953368327,0.6754092061339365,0.5889199822482736,0.020678619551471433,0.47605785660672084,-0.49926771127869873,-0.28380077002944093,0.5282319276258469,-0.8510680074642156,0.42611818262128476,0.593607821624947,0.5635067468583634,0.2121930523769171,0.2708063180622071,-0.31491113345871735,0.005990053407278095,0.8985259402559085,-0.44549339042232794],[-0.53010692413621,-0.9897084749945524,-0.9083978261828305,-0.15581655583739495,0.9974035542095165,0.9894717992956665,-0.7287287537245402,0.06425127137526943,-0.06684164745938337,-0.3600621883071937,-0.7655958349167471,-0.08083170734199419,-0.8540636958251198,-0.09994429443696973,0.1734809016500265,-0.29563180244063325,0.2158497607364409,-0.6071644305523003,0.8063426715403785,0.47092299197899345],[-0.36403312429467216,0.1237451136826817,-0.5756427605741237,0.7612833636750866,0.9350628314096134,-0.012087843264624754,-0.03742573515965031,-0.05210460803183037,-0.5333214800203341,-0.013320030179712505,-0.5057250557539077,-0.41655319851679495,0.1897431234740683,-0.038318717640150046,0.9136495575471062,-0.8890525036858237,0.40859501498633377,-0.8746985847539293,-0.005836984002720369,0.7838036026237987],[-0.8546867577633044,-0.3003980324850013,0.49649883896876834,0.710496747220617,0.5848510480601048,0.5714826756665468,0.5487975165953451,0.5654333402837335,0.863539315599626,-0.9699410102494574,0.13323548063028934,-0.3030177580658542,-0.6358920925969869,0.3729380701923921,-0.8131818118430312,0.11567152703716288,-0.3645508535812394,-0.5487213252460876,0.5605886387366952,-0.8400308993051686]],"W3":[[-0.6334394121009499,-0.9008086683014112,-0.2678892493467009,0.7626514243443427,0.6406493676995701,0.3669245573649391,-0.052050629941784665,0.6713394117904852,-0.11458974566378233,-0.25949626043219576],[-0.5195354431261132,0.8080357948412571,0.8498613208566037,0.044766977500795946,-0.9031972948753286,0.284006053218262,0.9640004956647206,-0.04090127960289358,0.44190479952918427,-0.7359820144913463],[0.9409739656166973,0.17053032210347996,-0.5735271206214345,0.2713064952443933,-0.11725988807909005,0.34413389399753047,-0.2987734110474076,-0.5436538528015331,-0.06578668798680076,0.7901644743575837],[0.9665344025238449,0.1395514751689353,0.954697162791015,0.2093601878355722,-0.42841737775246336,-0.02877209657213764,-0.8382526163632971,-0.03773878779258388,-0.3751775119106411,0.6477987464528951],[0.25143109618049353,-0.06463696557011112,-0.3324862332340037,-0.7184623449423757,-0.8897217937178385,-0.7336278194091297,0.8547631637534296,-0.7582613025929346,0.9080481791309838,0.9427850135311773]],"b1":[[-0.9443232811926943],[0.3153126492983107],[0.6423843271417344],[-0.09528333043829118],[-0.2318773828230698],[0.32597909562645766],[0.42808555740416065],[0.2895959316734451],[-0.5106491076955746],[-0.2917418155655722],[-0.13844025039418084],[-0.024638102806725293],[0.6114514176076162],[-0.6939316676972749],[-0.036549673716341324],[0.0942395290460385],[0.7943411369475493],[0.7025693796408046],[-0.21822635487138853],[-0.6045250179827362]]}}
{"agentName":"1-9","fitness":47.65656492233276,"data":{"A1":[[356.42555757771447,90.59591317582158,-0.464470608488301,0.0,-0.9270845631100539,479.5593191360371,653.2970433747605,0.0,0.0,601.3549679280655,139.17130558999986,0.0,0.0,-0.9477974148376507,251.65598608449997,0.0,-0.7365508832724705,0.0,-0.27179323690188606,0.0]],"b2":[[-0.92707280355555],[-0.9307772570299944],[0.013664325660449173],[0.5140245291069254],[0.5751145648836897],[-0.43850910073502347],[-0.7872208869913662],[-0.3087975452145404],[-0.4645849758749403],[-0.1563641826381328]],"A2":[[689.5499965318705,151.92568504885543,567.8237684451009,0.0,0.0,1130.987291278459,1312.7077088105664,0.0,0.0,0.0]],"b3":[[-0.4564689661727537],[-0.4315414033069003],[0.09676404446694242],[0.6024645727173434],[0.20466090997530606]],"A3":[[-0.2797587286364802,1.0,-0.1999323346750479,1.0,-0.6088799978291832]],"W1":[[0.4551273600657362,0.36644694351969087,-0.08831350469706956,-0.4458430198517267,0.33109790358914726,0.9749647130661898,-0.2624341731773887,-0.44850386111659524,0.24404267389860657,0.5658035575800715,0.8386555657374337,0.5167389475577331,0.24834860790865676,-0.22686625128130267,-0.5259256580896572,0.18869982177936828,-0.5804648622673358,0.651931743775642,-0.6555641246242951,0.17485476357259122,-0.1213037188320365,0.14208069682973434,0.9584569374873539,0.505019897181302,-0.9371635223468384,-0.2841601610457427,0.14651943570674364,0.23346389670341483,0.23482889150931485,0.42681251564645817,-0.0388509668871313,-0.4166870051763918,-0.012438536502255904,-0.34391230721518906,0.273289095712564,-0.26175701211620517,-0.2794902492677298,-0.1306778297187794,-0.08536581111046115,-0.05462315824828923,-0.06195495876886281,0.6546448480299902,-0.6979368909424835,-0.5453884036092318,0.4345853852249353,-0.43885601665437957,-0.5173366211438317,-0.6414531182501653,0.7313735926547045,-0.026818676347611925,-0.15805658673794265,0.26573958270655806,0.3997172901343442,-0.3693430998846541,0.14324061105995334,-0.25797542063247825,0.7436291919296774,0.6114618853239959,0.2324273700703574,0.7850933705750178,0.39449745853945895,0.817229160415142,-0.6077058562362969,0.6182496334554788,0.2558665508269453,-0.07320145794330979,-0.38884168866510227,0.07981886851873865,-0.5543403061326919,-0.35433816986519284,0.6598461726561489,-0.9453716674280683,-0.9270309666195007,-0.032312290091389695,0.31010676221964206,-0.20846743965751569,-0.013748878991617364,-0.23077831216541722,0.29246395759528565,0.34939936576709085],[0.7880855916368177,0.5769765543024983,-0.8213480580192283,-0.845829774129496,0.5502413918543512,-0.44235539500246457,0.7984106594591154,-0.2523277127589152,-0.6881493015546474,0.6914694686110197,-0.3697050572653644,-0.11452811582755928,-0.807098168238352,0.4903066124307711,0.06951408761486455,0.6107814398427647,-0.7204208094262783,-0.8141063661170889,-0.9459402662357332,-0.7728768497251399,-0.43560342773870375,0.9349906440170221,0.8090021580031235,0.1736820410833071,-0.9718883630945336,0.6191882496201251,0.0429886073795116,0.670311110015402,0.16692329718223786,0.37649213869502973,-0.3980263486032769,0.2680844303476315,0.1770172737885798,0.7902845707138706,0.2529503304079441,-0.23483801763662826,0.8072501895004851,0.6673992021927047,-0.4796127376677324,0.11912418308284178,-0.2049276879687938,0.1470694373531216,-0.48366999792166787,0.643491115907358,0.3183669486383729,0.22821350958477082,-0.023605251086149304,-0.2770587742156372,0.07022497227589652,0.7107229819632654,-0.3205057828114841,0.51605972926996,0.45215640988181516,0.01712446974606241,0.5508198371849293,-0.2478254241316491,0.7256483175955235,0.39418662792516,-0.6797384914236382,0.6001217520150142,0.4508991072414843,0.34851429775295717,-0.4757776756269658,0.4528262913936143,0.9699584106930381,0.13331211273114119,0.22818964839784495,0.08574936236270037,-0.6945765138377225,0.1921634886952519,0.09798746565879424,-0.34288007110901964,0.9284094594976764,-0.22440768392359534,-0.9695067570891225,0.9651423017637462,-0.14671151250122794,-0.6535487038528798,0.7952676470618951,-0.1622831617066689],[0.6949189734965766,-0.32697929564739403,-0.15359663581829275,-0.8951865090520432,0.2057889391931318,-0.8828708564935019,-0.03553655732400762,0.14550349954571096,0.034600542078191854,0.4223352065067103,0.35278245969741096,0.7022211035026023,0.5686638754605697,-0.7974894096741822,-0.7466861267512221,0.010688215941416779,-0.4311544807877927,0.9500151672991208,0.14380635780710693,-0.7549354840975826,-0.13079299081883855,0.0983382230287082,0.15347083875928424,0.45507300685816965,0.1921083467305864,0.6361110540492223,0.7675261182370992,-0.2543488202081907,0.04855465440317541,0.680182444769418,-0.8062832278617296,-0.17528833226535778,-0.40035933843604066,0.1726291966578266,-0.6778773666126594,0.9993906921393696,0.8149532947988409,0.5584053824232391,0.03495894704368174,0.10807118540078475,-0.008461200645088818,-0.648273596036564,-0.005334477339629995,0.3781469006858833,0.30565234666790686,-0.2822867492866177,0.10175120738413801,0.5342432888482425,0.05146513075475534,-0.6459729964194652,-0.8472824115139301,0.09441503345243984,-0.943020589792448,-0.31510985386976254,-0.9180071861219266,0.5951317320731633,0.41000814588717693,-0.3926260640533046,0.2789036768568971,0.13163692286014528,-0.05573240112965161,-0.04340983421906164,-0.47199515597021113,-0.682690342465275,0.3983414713797069,-0.2136729393256811,-0.09066563475481249,-0.4640338194317184,0.8493770864233015,-0.1711809802758364,0.585122823177699,-0.6783644553523549,-0.47871398278230504,0.02272121490463097,-0.5047649289302389,0.7988928621962459,-0.32045436544054096,0.010563265623595663,0.6269418147567556,0.5185917951454977],[0.01715676997104909,0.5813424027104777,-0.46594560920034134,-0.9641647986944977,0.8894362304584083,0.17973981232418468,-0.28732455030177895,-0.7359842740294882,0.38941133808001127,-0.7151884777228046,0.07478785545033317,-0.8672651994084235,0.450599300176334,0.35104802298560056,0.6797318185095045,-0.03891997518827006,0.19094433285246115,0.6166574577055226,0.5730212324012205,-0.4194925751047054,0.054527683864544096,0.7650456908377572,0.9266742559542833,0.888522581905147,0.6576203900699167,0.6417770212400336,0.7509788029052338,-0.3104974571382815,0.7234744267051683,-0.15869049651427103,0.20173310976772196,0.8657502566551409,0.9325160601080682,0.24570884032596263,-0.6546108813337841,-0.14020032028377583,-0.8825687891702743,-0.21420166926412865,-0.8600275184792756,0.5590811181809816,0.8325875503351796,-0.5956350140619129,0.12598048009007923,0.12340188733473134,-0.839435659309717,-0.43511461207302893,0.12028795301041662,-0.7994713170657952,0.2216721974907896,0.8407561415075087,-0.9325810772922609,-0.6411471147334535,0.9949216290375054,0.483048267470493,-0.8736297429070232,-0.36222771685582544,0.26397860162786957,0.45527588775737704,-0.9424989711186325,0.6251162293059616,0.35025432882300134,-0.061034582799364134,0.022830408261390822,0.6257738824362347,0.9770979848265122,0.09985730624684575,-0.7416393256744074,-0.7888433921156639,0.14948978940791302,0.3496326193951331,0.37929821892417404,0.8402056881660709,-0.1806835799958202,0.766314307210441,0.865876513623024,0.4831919824051156,-0.0932956557986735,-0.7042025810921411,0.47530696925672267,-0.4629102077669889],[-0.9309578475799722,0.7591795880911123,0.16030372340736365,0.786790093290086,-0.9527998391625465,0.4244020243127644,-0.3812232026687308,-0.6890669703685022,0.25415911467755015,0.8574437906475771,0.3614756404325046,-0.4282618985689193,0.23042774014795753,-0.06509135316242798,0.4109091750657461,0.03853098236933272,0.38911994885223145,-0.5031309357181766,-0.596467768575587,0.6280355994529954,0.24508864174863,-0.15349395583077619,0.09030511120334461,0.9537528991778741,-0.7242479520019607,-0.34089385162121943,0.6924170720838818,-0.7697316736906199,-0.4064624712125904,-0.5344662061201593,0.5891192531479754,0.29862103742464274,-0.36153976712796343,-0.6552669564323226,-0.22672513691161766,0.3001336202535376,0.34490251346382617,0.2072633053920192,-0.5659371284058774,0.49599636156628835,0.31302496164254223,-0.6062773982342133,-0.9874007658402217,-0.6214904627601421,-0.11421073677207683,0.17478627586106854,0.1250679146774638,-0.2738410033737557,-0.6888351241194393,0.6077343683084389,-0.1407178879203672,0.12960233233004925,-0.4236196478321872,0.7903078296084356,-0.8755754953628643,-0.2062360260394529,-0.045680124889026175,0.783182093429277,-0.02995737262668463,-0.33382351650328435,-0.1802575775708093,-0.991006951265341,-0.5668768449153467,0.9069820084047908,0.9961325973169981,0.41833187769591484,-0.9179510577925369,0.18480349982718325,-0.4478459144114004,-0.5560585660624608,0.4797855980916854,0.01997502546020402,-0.5238011917356769,0.2755107907750989,0.015544482147298977,-0.5716315663035543,0.6622667860970648,-0.7708138539912186,0.17728148663006627,0.47818190728952925],[0.1358843437335564,0.03643446587894239,-0.31070823939673287,0.5283033206569152,0.3469111543845367,0.723315671216471,0.24270234207184016,0.7352292800096338,0.8860322286740037,0.6748068653962045,-0.4683538422180036,0.1469540185936138,0.9113612952591796,-0.9838482669789823,0.8592965738148837,0.6456121712599778,0.8264783725578371,-0.40547155903722776,-0.8299281852090683,0.40690300256653256,0.16852396192641605,0.32984303335155785,0.7303430847899663,0.841481297188956,0.05580773881989276,-0.41130248678630177,-0.218087116119847,-0.9889494995220598,0.9182854134226501,-0.7501751701020942,0.7182684761693474,-0.3611508707370965,0.3517016971654914,0.6187697988029395,-0.010768583697787548,0.09655312799855054,0.5945666964145524,-0.009180562740628506,-0.44474762415618274,0.41852743519493685,-0.685340477051207,-0.03663045964536593,-0.3194739026510125,-0.750533359080716,0.45500303301733114,-0.012727544364283805,0.8001569685180066,0.927108876532093,-0.24164903158058149,0.44134972919002124,-0.4993591543428251,0.942797043714243,0.4539569191274251,-0.6944903010994341,-0.08357221983075225,0.4433049548665855,-0.5488972050023557,0.46663788497502234,-0.6178118485382511,-0.4575463952834564,-0.8017315554950961,-0.041639691095668674,0.4221453896620575,-0.6666540572913555,-0.1114847126717804,-0.27881184842402673,0.029766812446276214,-0.4697873900491809,0.8741414804942018,-0.28016492373689283,0.4607090007225536,0.647682646795178,-0.5671626932935381,0.12784576080614185,-0.30766031989910236,-0.21232963505711555,0.3310463755850872,-0.6807682731528943,0.7826634145951483,0.0608057623636995],[-0.2697769964284986,0.07743737732312428,-0.8459687499864881,0.6091901514177853,-0.9464815428211699,0.15780407422581533,-0.28552052619478996,0.34264843893539076,-0.7207541548282903,0.05215593729084533,0.29768927445620164,-0.5379390525163252,0.6591913001003027,0.6635992348010928,0.3786594651413009,-0.7217135278882543,-0.5573669968185833,0.03961253903778861,0.25215961251212105,0.7933944303463509,0.39896823489212285,0.30948413101894023,0.3475115694337043,-0.573039776123238,0.8054125831421357,-0.24464240413169347,-0.18294406588625112,-0.5501228733424128,0.2468431033653562,-0.708151566382103,-0.4785033857256795,-0.190763527305152,-0.2988515012130126,-0.46260150057299754,0.5394344995663083,0.39320468081626836,0.005869979583257967,0.13123799325264507,0.43613839380760355,0.39541998419731494,0.5649215034844928,0.9830271975811611,0.9572022615525315,0.0035177223850744177,0.567082732451311,-0.2620454326881394,0.46622578556708105,0.646246879249865,0.4263175536668733,0.8982696975276223,-0.9480167656870653,-4.888270196095057E-4,0.48226844071577646,-0.23706663537631645,0.22420266627462127,0.2981747607694978,0.3893425967975348,0.6302701381298614,0.2991413982953097,0.8371697958140494,-0.2300790371078303,-0.4457883630748676,0.28710853302295325,0.7112839743052013,-0.8765858382640623,-0.6470779468607217,0.7585543305099485,0.09094111055258547,0.5506733477278882,0.5393007189573547,-0.5086195715369071,0.8653818331675485,0.2322943113578111,0.3760591265797468,0.06554014167292377,0.6866096712933549,0.044411766453879675,-0.6462263417217329,0.2507247465275353,-0.7005877782050307],[0.6058055248984549,0.048517868234337014,-0.15744912875924877,0.32598079708869365,-0.21010182457636417,-0.4636187312118474,0.7771908559246068,-0.349403853888719,0.3986914385575351,-0.674614818934488,-0.21164946152466801,-0.9981936663594053,-0.7859356059229665,0.11100891297254312,-0.7406067304729631,-0.20707957565615676,0.3238705288447261,0.5697426971647488,-0.8655317753626999,0.5951448538064159,-0.19172117564625735,0.04614858477520034,0.7095605786791346,0.6401582292398038,-0.1943553669642455,0.6592209285686903,0.702282297844389,0.4908479215453787,-0.17746922342943816,0.7196663432778121,0.36490454976480846,0.6991204480538957,0.6546945560337121,-0.032324845758738174,0.2453935969836043,0.0814111233763728,0.6266741350524205,-0.2132266305382322,-0.308105870487996,0.0417544346789811,-0.014204168485027147,0.4888344853180231,0.024004217785642767,0.10693948266030207,0.9081305263471056,0.808854493237229,-0.6474336785461867,-0.32559288177031465,-0.32850453072496055,-0.7035310416695784,0.6085817977516599,0.8101072412357928,0.7697891508923966,-0.5738750389864677,-0.734314989863889,-0.7879014492215499,0.6884442838920775,-0.46131231930402383,-0.7730585954271005,-0.7819874019145132,0.3283668768730639,-0.9967588033660923,0.3955614099142126,0.8450470350842108,0.534679871504121,0.6578475571960676,-0.4395488558075096,0.15720430113495376,-0.5318362828977672,0.45585285255232044,-0.5986521145193395,0.3266542215286443,-0.09911773729611917,-0.21478254478908676,0.6546175049764293,-0.1414796368932345,0.25802631337510085,-0.6773828562539816,-0.22038193899258718,-0.6666402206745266],[0.5293763924477841,-0.24658868331583683,0.8268631648872109,0.8969207203400265,0.03933229861213983,-0.6212951181360529,-0.25090365472407417,-0.0334222394316086,-0.3419492829414976,-0.8273314086998671,0.11701249880494724,0.13230023957687176,0.9411521694492275,-0.3646067841449696,0.6979929890816723,-0.20721664168809228,0.6676482547655365,0.944757051233543,0.024377296173674567,-0.9413728609667691,0.09198647857985232,-0.7750862751167567,0.30763988074842263,0.3674268130607439,0.27385598384498344,-0.7151900241735676,0.3310154476154119,0.9540091079137978,0.8513102082379358,-0.35825141175578934,0.11676665169094824,-0.49968608916548307,0.9941342810313298,-0.17858967215374988,0.1993744673440312,0.14596837574280297,-0.8245495433125194,-0.5637934691545672,-0.8589185806222286,0.09932743288719403,0.4588578976105786,-0.1547651813493751,-0.2985012404580636,0.7303326279246298,-0.0786900332560696,0.9107127797641994,0.6333561813287645,-0.32858522942354407,0.17013652749847386,0.27656984316288824,0.6874932143640391,-0.46610293161038907,0.8744681017967024,0.40900365224695956,0.7942055069633389,-0.0635770754462921,-0.5705387648707747,-0.577988250149829,-0.8099463063934682,0.42132700180827354,-0.6646484862801485,-0.943388538022258,0.8679112109377674,0.7779951176637694,-0.5802336023276593,-0.9093352471884992,0.29337797938742316,0.498519874589175,0.3493034812120912,-0.07307210651399076,0.3911519359353859,-0.8154393787235621,0.47194271125243237,-0.6694240126582884,-0.3589345913619957,0.1742568278543506,0.49962792312858895,-0.6402670146359797,-0.2314041601683119,-0.798901341175887],[0.810279303469398,-0.9772756877199589,-0.7315020087838682,0.8797562461102444,0.3211532423260066,0.25250279470783754,-0.8803712608590415,-0.021466789385169882,0.18909293657271564,-0.5981349964027893,0.3565715672082048,0.7366743237221687,0.1922233582434527,-0.3551925780624561,0.5290849503909634,0.7923344825978593,0.7277215028580597,-0.590440215391044,0.7427328184290733,-0.6231904162251609,0.5028717258135624,-0.5838871888624848,-0.5540116561110324,0.8502487679795261,-0.7983061034328727,-0.3853123296389005,-0.1493800684643869,0.6008798629354264,-0.32299062155495406,-0.5827019502242026,0.41994681418237345,0.7106426870657483,-0.45211033467567696,-0.7272406549392239,0.10995046958426302,0.4764507578985955,-0.5249912641281373,0.8562010912051132,0.45927621623833637,-0.3701817429794385,0.8414999442459015,0.9273442862476728,-0.054654787893199774,-0.23126134156257327,-0.9155048245317694,0.25750538376376975,-0.8470916763665326,0.9105674676753848,0.5026028522378054,-0.06650501561108468,0.37484830603001607,-0.9858854245832975,0.007159356555897611,0.8172796295244154,0.519147377529164,0.8211049991970722,0.9901658817979146,-0.026519560032641998,-0.2328762488733862,-0.708964254478593,0.24940246021565793,0.47248358864259177,-0.289599248587707,0.3439216707690633,0.7412869866239866,0.1351422898741914,-0.003784141556894216,-0.6321917152754075,0.056196592683014135,0.5057520480449009,-0.5977424405191092,0.5575828037301553,0.613487896720806,-0.37681525320218157,-0.979791889708888,0.4702242879506955,0.07498463532645339,-0.9942304127133292,0.41304209196175257,0.6799250665519481],[-0.41212838137243835,-0.7422635099065522,0.8376369191216593,0.2848328781926128,-0.17960265353296,0.0035488712665472377,-0.8355355482928055,-0.7439716673142398,-0.009043467128117433,0.47152593760204975,-0.662329643040616,0.6713326173160603,-0.15734218732411365,-0.3950754785173889,0.13837083076070011,0.633261314089351,-0.3918141800801833,-0.4639028424346423,-0.073992579817449,0.3413166410117088,-0.2875719791707101,0.9395753700232541,-0.45090801750966314,-0.384528069378699,-0.08061917439673794,0.9597102694501136,-0.6898325123180971,-0.11436012866371303,-0.5330550575952768,0.13155860256800933,0.16864051681940984,-0.08391828256018252,-0.7435971533132388,0.5461252511055263,0.7264676659099087,-0.10100688208217945,-0.8537533138667612,0.9189716013058653,-0.03449322582531389,0.3889167281848791,-0.6478583682568455,-0.5579682000156501,-0.8083270703362093,-0.7022804026958895,-0.30426803430649896,-0.4293499172115314,-0.8101343265051797,-0.0945946325760949,0.49546915718101814,0.8476250543509039,0.20496323995364651,0.5082017540304999,0.2428646053751764,-0.5364221839111762,-0.9619925264660094,0.4610134502825909,-0.5620669052678122,0.6766614078376236,-0.7169693435782278,-0.14362322382035164,-0.7441633083637054,0.07069898351187809,-0.7355959808219472,-0.43970155900871344,-0.6971625489330595,-0.0798550143899397,0.2111188135787776,0.9101748615761336,-0.4079984876629721,-0.8101424982394589,0.7250263461647963,0.22182621035333838,-0.12735342714215725,0.26222861719040624,0.0706504658737801,0.817131411734006,-0.056109765698795,0.7908779197353637,-0.06768319505245768,0.4107045608924882],[0.876751634787073,0.04037085575852295,0.18142385658771398,0.38350565074271903,-0.30937664332011905,-0.9544807672006823,0.008643477632712449,-0.27676843472226276,-0.12938540988602476,-0.2929762262661819,-0.4243149295090465,0.22578711943818686,0.662530786460152,0.28592235843136105,0.5904119154817529,0.9290881132120887,0.5332443368002588,0.5431262882011847,-0.5940975657610152,-0.9053848585068769,-0.1732078452611825,0.2361029542296429,-0.8455867017505336,0.31638672033240867,-0.648387667144986,-0.7647886103837449,0.6910155501192978,-0.2665663102538198,-0.5980899570876459,-0.9165896495676276,0.18934450539532244,-0.715110505416745,-0.453777527810155,0.2743741252197758,-0.11384079522197466,-0.533835190276116,-0.5911710854054728,0.21026462628920695,-0.45849607678093585,0.1327074179200407,0.624731930687735,-0.39914395421723015,0.781887900750925,0.5442619051596436,0.16651193067479153,0.9064846121246533,-0.3643159594276202,0.7441200186753953,-0.6785628247191553,-0.9684048406515122,-0.21923785332346513,0.11340668617783778,0.7397883986253251,-0.11748081084695605,-0.8112924618599286,-0.7124574845946587,0.5465510901311696,-0.09023925260092103,0.0387307190255608,0.2164841894628171,-0.15271598143132215,0.9038942665552285,-0.6168514099878155,0.4192673391008628,0.5402785935596728,0.4059744401803913,0.21002869972697047,0.3190881033039108,0.2372469007313076,0.367188299614863,-0.9025895351376971,-0.03333947011476446,-0.8220776066161464,0.449117985679933,0.9970519437779266,0.27430911004640457,-0.759974694960158,-0.8621514950929796,-0.569587565933642,0.2614376461958643],[0.3697979495309094,0.07383664120111888,0.7199366131785143,0.2118625428869032,-0.17923889567785567,-0.5298395275757712,-0.9517419542156635,0.39554920787574743,0.06052907914036654,0.9351336173234543,0.02106845330888185,0.7571245678782959,0.8034228830223251,0.32968340513846917,-0.6510386482911554,0.2710115488605187,-0.1319580272290235,0.932600992666184,0.5450821442881701,-0.8507648952138052,0.41048687946340134,0.9384639988086239,-0.2260139896158473,-0.3084729082645552,-0.7299010284877061,-0.6925012997779212,-0.6798013915257548,-0.504368104320321,-0.6234398059664716,0.8633407902005543,0.5546381825677706,0.7959405841824887,0.584699836289184,-0.5726371777829862,-0.2827976152663936,0.138034013875719,-0.2935080791661324,-0.5323479091625714,0.6837641044797451,0.5986680812032501,0.14753220510180776,-0.31591341855048327,-0.748545617199091,0.0769461022735054,0.8228589483149358,0.7230220519167481,0.17083818252141447,0.2953170004605874,-0.6429374177050204,0.4624083116836044,-0.7229883396779724,0.8876940454894067,-0.033794226589695775,0.46700071356381523,0.1599557295166274,-0.8944619785248653,-0.1258464584151997,-0.8797551785991506,-0.14408879184669354,0.11020655997336015,-0.366507395597937,0.630480481240723,-0.16600801981741609,0.06019617717228054,0.30129535029579047,-0.9895686170862081,-0.28131788612036623,0.49635295715686234,0.0625636989631968,-0.41748132718912,-0.7898597726154271,-0.05425577320946573,0.5992645759265662,-0.4716868549309716,-0.020137302700854676,-0.959821807726214,-0.7295510954484412,-0.41443875567123967,-0.610576632050404,-0.8334929156692024],[0.9990215581592679,-0.9868954542412269,0.49133473382040704,0.7697599878561228,0.45723955658021787,0.9777705993519483,0.4449043102759509,0.9812971199646168,0.6666598587737487,0.14398842572598514,0.21628799185444336,-0.4526390568867018,-0.5844645920003164,0.13730688681492142,0.23076986155942736,0.7020484017619715,-0.12077999528458938,-0.12431702346308016,-0.49337323198621563,-0.6564865275707232,-0.48202394020369277,-0.6274878708695264,-0.27623674153600697,-0.5312153415813432,-0.030820182786174044,-0.5893370965577813,0.6666315120904487,-0.36482991729570036,0.6065771813692735,0.05831057330788525,-0.4702220250018212,0.9123705796362889,-0.2045657170490376,-0.18922063450309534,-0.31431213362503163,0.4150130060120387,-0.027110177785963252,0.8391374136299805,-0.9246526745085502,-0.7916408854251566,-0.23111664720909797,-0.1284246813729939,0.5228953023175369,0.9688522449007109,-0.7857721219549156,-0.7812922263391038,0.34186021879225215,0.793988610184206,-0.36179419807586366,-0.592785473963741,-0.17363144173810174,0.12570724757488394,0.9351424971322297,-0.6430601902397572,-0.13363305808148818,0.6967815147468792,-0.4093070316761178,-0.9302259781839204,0.9298551462618574,-0.6231289889808045,-0.8296410705737971,0.06993158205460848,-0.2975417404042737,0.07134138175064741,-0.8966463747179154,-0.4112675899658855,0.7908013478009401,0.407396254566472,0.9227769302156879,0.12418427404473764,-0.6552751548581366,-0.5641921108932855,-0.6340486345063014,-0.5441069121131075,0.05043412496554667,0.49057044650139336,0.03706191653058433,-0.6672524338819317,0.7958274915288801,-0.19029619970124023],[-0.7457695999520562,-0.3739453132549577,-0.7106570200484446,-0.08482897201178563,0.84573456086082,0.6279927575103963,0.014494803555804125,0.3252519173617645,-0.13484113287285893,0.3037405853352888,0.9982796018306028,0.8354271779265348,0.46284321795736116,0.07693347919601745,-0.4753440408996932,-0.47098252868073787,0.4810729184846003,-0.6136990339205741,-0.6715833036640317,-0.6247058955319091,0.7330323083522969,0.47204204993669197,0.3850471475752122,0.21483460195167958,0.3806220122265147,0.6336993433402796,-0.47987416364572,-0.195509010865196,0.8782352534383409,-0.45300480439842894,-0.847895844561626,-0.24927024935891384,-0.2459401413834097,0.1352958872054535,-0.6707393458266329,-0.3675110562764785,0.10888496324899721,0.9620737605396772,-0.031046632561323895,-0.09466883461500908,-0.5174248135588373,0.14394061894828014,0.5613709266711013,0.898511167499572,0.930216209978763,-0.6204727890080077,0.4133141749872311,0.6262685035917408,0.03382924477926896,-0.15231139191832854,0.5822366592910124,-0.4283897136887762,0.79167872559358,-0.5507826261358746,0.237124956028401,0.6413157520982717,-0.6940894243906046,-0.8505503638033114,-0.9811997368468401,-0.9499963936664035,0.8782018665273386,0.9518922834667223,0.6307050068521085,-0.10940543718748552,0.21318736263512283,-0.4875247690061073,-0.9123575407507356,0.1318650007251434,-0.9306090092992167,-0.5688746770986652,0.14426537998360645,0.3557716894181753,0.8776581763888074,0.5288643233801469,0.9231529738221469,0.975999712077738,0.24700404691888678,-0.2868952701936649,-0.10041951294847062,-0.9412918491876225],[-0.7404936009304737,-0.5394959953991361,-0.49510748520932113,0.9538460112904268,-0.5075114153141447,-0.5890791308058669,-0.775366087491284,0.4983912525892249,-0.2976197956132913,0.6791258030468514,-0.41628618754613345,-0.1472602552309057,0.44136102233464025,0.011882653940414434,-0.6559502840386595,-0.7896411993757202,0.048402312931387526,0.8753776623326166,-0.8528247288266961,-0.11435218903370004,-0.7840827624854878,-0.4860418508208426,-0.7418773161179972,0.6288896495586245,-0.22631682294184796,0.47794208013755024,0.5532183426143056,0.11879859459306741,0.09927630694484524,-0.19268618891399636,-0.4704591571561232,-0.6057278708888592,0.3943381582091723,0.7297245159225987,-0.21043548880523555,-0.2358219003943678,-0.04143043460232465,0.8623951169233035,-0.4933545255502605,0.8990427200454263,-0.4515707618788496,-0.745936099912899,0.41307003181926794,0.6127760492402428,0.9250878169732681,-0.6778628527469126,0.42794190420905753,0.0820647027731276,0.7762709104958854,-0.6932349268610041,-0.0995467494040092,-0.0772100586565887,-0.6608009972582911,0.7075788021090594,0.5208396359138381,-0.09724033794207299,-0.743087245352148,0.765372791789753,0.3788699859744704,-0.6898257995055466,0.06691164228247959,0.5571925538006008,0.747268102801854,0.1274052860924666,0.25861122989509266,0.04631845531668399,-0.2800681046345448,-0.3904629432867681,-0.9975425877998279,0.32024289816988416,-0.4829199170694627,-0.5713285263827719,-0.43889652467111184,0.3718860035059741,-0.27374063120041225,-0.8069125377696931,0.13292934557255665,0.32448521325998714,-0.39397735035206227,0.08184957956614292],[-0.39250489761445895,0.02730338852529557,0.9916055514435305,-0.07571433435055064,0.19024527726403728,-0.963442445033388,0.4290069521949247,0.5807543325220577,-0.35642510103381153,-0.9060482769392468,0.03707410390488852,0.689950389208472,0.4114872952854447,-0.8508977901757795,-0.42791544663481895,-0.9864047295390463,0.6023685964407528,0.12018443688097036,0.27914194374125967,-0.9583147535652901,-0.2416258355340175,0.6737553249072334,0.9041602191361382,-0.2123232797997281,0.5369188243497296,-0.5151894064136904,-0.7341877977528246,0.624625272218277,-0.6261434804192929,-0.5710586715741532,-0.7457768645184579,-0.5954998103421847,-0.9169952929125902,-0.6176587961491775,0.46222150678166574,0.7852238239427731,-0.3614580530629148,0.6789453719738321,-0.5660596710348922,0.23292874431369204,0.8774286357993033,-0.23110126319781088,0.6264134914476072,-0.143015582616014,0.350109539755298,-0.147747167834422,-0.9990809024453697,-0.5469605849960337,0.951112567977048,-0.34800121380288185,0.31374599099683476,-0.36270498808879115,0.7456203273799138,0.046239858938568856,-0.030136501929084014,-0.06596637210739509,0.7268000562682362,-0.2054839116368734,-0.7006480295111763,-0.16026736902439986,0.8745354279105222,-0.9270067504840309,0.965218170323435,0.12808957052353698,-0.2762234347612078,0.7864962703455971,-0.667403236513185,-0.8773917042778123,0.33025488397543934,0.03406708067839537,0.20918711199027462,-0.7111023070261273,-0.9849054116048603,-0.12831346258317322,-0.04095946352836921,0.6967001556166801,0.8479895229743999,0.8008176418927551,0.5005979045264868,0.6421341979636503],[-0.04849233571020073,-0.8505855619911602,0.2927180954190314,0.5780268040086791,-0.22322207765417268,-0.8543241552762906,-0.3906240514635124,0.7258714963093444,-0.21695043530813085,0.9356040949169226,0.12154833675098842,-0.26446415445316673,-0.06653791221669247,-0.7920694887292259,-0.9323188934125484,-0.6927179137980173,-0.24584418172709932,0.3557416365779935,0.22868636757755234,-0.8288196322549064,-0.1535668648046895,-0.59868738365189,-0.8822518703008675,-0.1790505106198006,0.9467581256591948,-0.0661313762905984,0.31263046332923694,-0.03628894224569357,-0.16765369528407748,0.6906264441686556,-0.2568492063716883,0.7740976197426315,-0.7829158104387535,0.8578846037465748,-0.6111039318672586,-0.26939268282639306,0.3659136640533909,-0.8205938562638555,-0.24945505706767923,-0.2910811297270841,0.22925954469403154,0.18159238246979537,0.05607027262862396,-0.3376037702047998,-0.10630000583678934,-0.7148277241201622,-0.08327294541727137,0.6532439360618307,0.34352364313237294,-0.21028242388807916,0.5476390109073717,-0.17532831457577935,0.5585807856889122,-0.966194650702529,0.3230869779752059,0.5470735549914605,-0.38312745239682333,-0.8890923931840893,-0.488905714570846,0.9231260597729121,0.6996156678090684,0.8612833977834464,0.2985791849530668,0.5199385192744859,-0.32605907950755086,-0.9816465962348846,-0.5939885763232406,-0.7730924566676425,0.030528567900762527,0.10873812383881054,0.2933324921347933,-0.4652534314332506,-0.2940640558090537,0.9883453215038367,-0.042460731786114314,-0.15438550895912062,-0.11182397625560592,0.038030636987722355,0.5063859049644963,0.3012211854180429],[0.3554353390157281,0.08707592690448718,0.3761475771119973,0.05524046679762784,0.8893218011388058,0.3756193347272323,-0.18659830666742527,-0.08168623764933125,-0.2551379303720174,0.8560030587463281,-0.4672678144441864,0.868381965588082,-0.04748335609643428,-0.0908285508827269,-0.22436865911994275,-0.953965287326564,0.7968291098936087,-0.1905813612825653,0.008337907338700212,0.165096445497392,0.7310287890171705,-0.8944036832701483,0.5492682498036086,-0.6857477108657974,0.3715022458396897,0.928127223048812,0.21348231125683648,0.23219558685722874,-0.6271161253492459,-0.009137052604519136,0.48603550488592284,-0.9218820771919889,0.17678612698428053,0.5110501870908806,0.5817010201164554,0.4488707800038747,0.4977618637956498,0.1683214570038094,0.17237242672259323,-0.5276084644007359,-0.4623324548982495,-0.9060800653779759,0.049786270132956556,-0.4236784487542993,0.6293910028372613,0.8619019474135734,-0.4599678991281728,0.5317111095323057,0.0029525239228334055,0.9294876800738165,0.3503212606657138,0.08434165073970856,0.7163931103395633,0.8477762882062716,-0.8190972970472759,-0.9996126872234177,0.1779075727741255,0.18212754689351862,0.24628508239298963,0.667589863190412,-0.8399129036462931,-0.10024819268489127,-0.5011350892733817,-0.7299256348863585,-0.9412022985072928,-0.245064895931544,0.862771680056932,0.9943863256441088,-0.6429371028855466,0.11933191790798858,-0.16850226855111905,-0.018179879453168457,0.34942681565122746,0.8948164957242868,-0.10720585418953132,0.2622719447841948,0.26433837506661373,-0.5143449147399106,0.17444585508955002,-0.813182163328944],[0.4014766166181287,-0.1710502754125871,-0.8810714419025896,0.027506929281268855,0.9949117714165621,-0.5698211869425691,0.6412602805648968,-0.6225679446416825,-0.15867011477056936,-0.4970695349036196,-0.7392148455683454,0.10077064818539072,0.9515221270405545,0.3486516239524462,0.29152528087481366,-0.10995497026133605,-0.7872786530801681,0.9909149980139627,-0.6044617953251021,0.4135285912642448,-0.493569696351595,0.7280914440594639,0.16600434762725547,0.5688018985826291,0.8296550361854862,-0.3519274619833537,-0.5536583684230114,-0.6563970693244308,0.13807756427512885,-0.2337289004188019,0.22017490770298553,-0.9960215416631231,-0.005659777974791114,-0.3517588217844949,-0.7065281515163817,-0.9488470141298047,-0.7888781431404843,0.7939883508665919,0.11329243985448345,-0.5636550498916204,0.3128791250125589,0.4690308315665288,-0.9819748103687955,0.16908079593144665,-0.6283983933456656,-0.10795935596621975,0.7785831799196448,0.4453768248295542,0.4055410615499917,-0.581108383985806,0.5039970331368235,-0.008965105921562966,-0.5415225380115054,0.4677111860370293,-0.3854089758945243,0.15970026796114234,-0.29258253017713587,0.7361173598968789,-0.5896345666894351,0.8524030171340933,-0.45407356732165205,0.6563221064539377,-0.8938366926767671,0.6028173420234533,0.6792881349943096,-0.6295604812779405,-0.4953069138627093,-0.8703620515028858,-0.3397362922228042,-0.0966947467107604,0.9493308195854675,0.3285214661535252,0.749300278016316,-0.006681618268088219,-0.9868202070882446,0.0044706790416966236,0.5006172205470896,0.38751814960349473,0.6069735922707928,-0.794612882855285]],"W2":[[-0.8035156105848074,-0.5344928236067734,-0.5829327686191281,-0.7538635525543969,0.9836765037886612,-0.5700253195942724,0.9232380985458313,-0.26374377078100464,0.9079431466301682,0.8404281771949533,-0.8087570254841763,0.32640651054059555,-0.17131282366411926,-0.7782111242108654,-0.1477564564540963,0.055537469469941536,-0.8092076926316594,-0.29815112444525727,-0.20030580647762464,0.337865838755971],[-0.32052868280788616,0.954507993011956,0.38642226954792824,0.9240442034609888,-0.46077559741256824,-0.7991393493824104,0.9396232321156679,-0.2486930151964184,-0.6256485833035617,0.14861843824730103,-0.4684215762946897,0.07873308388585198,-0.4732952637987802,0.9743254862463182,-0.8936272055527841,0.5647217242826741,0.49613233215723507,-0.501698787526992,-0.46710107378968724,0.898517179577361],[-0.8147610562690222,0.21104006948075482,0.42405323019132957,-0.667965573810795,0.9530620793474875,0.7949752815579358,-0.7849929227026593,-0.6023087644686556,-0.659375887511856,0.459735946423397,0.08405646515942733,-0.40009448092691446,-0.305462725595103,0.8794137836499942,-0.04788565812369017,-0.06763019434549333,0.41324877265674065,-0.5743045434116167,-0.986729367280818,-0.8636936566440099],[0.29127970805530157,0.6712715787317827,0.27575757044478477,0.31525054647682804,0.6905016168465983,-0.5195319089267731,-0.06598129860341295,-0.5142554034519407,-0.11546331150946942,-0.2934524891698944,-0.7048583334456604,0.9946846033576151,0.14506466665950302,-0.663294196316965,0.4485329128582778,0.4553619594861118,0.7154814909138205,0.7532937661147989,0.020693077287389894,-0.8600226867572149],[-0.1513298744027669,0.10464357614207054,-0.7192219559850723,0.21236658135317632,0.12050445497328166,-0.2536279370129244,-0.15103925528861595,0.9032115729799512,-0.9228817525021624,0.5512906851486301,0.3084355607627949,0.7029638272178733,0.34098344122299573,-0.5818421369891376,0.1332356708082485,0.22671316744441716,-0.6750469752494854,-0.4065302428716193,0.6511627718174153,0.17918596677210186],[0.8352061350259052,0.2757393215770836,0.9310504392364667,0.519503546762708,0.5270245209143005,-0.08181154800488488,0.5148324302455536,-0.6680946101511949,0.7574060703813035,-0.4721334895419935,0.8113709439821006,0.21939305063309278,-0.29753506190274503,0.07450107676582762,0.723883853128624,-0.011457953473368532,-0.1382740221237464,0.9990201540159807,0.10429329766137108,-0.1365266408862309],[-0.08278037549320039,0.6982730989138761,-0.6525137881205811,0.6754092061339365,0.5889199822482736,0.5054847946292962,0.47605785660672084,-0.49926771127869873,-0.28380077002944093,0.5282319276258469,-0.8510680074642156,0.42611818262128476,0.593607821624947,0.5635067468583634,0.2121930523769171,0.2708063180622071,-0.31491113345871735,0.005990053407278095,0.8985259402559085,-0.44549339042232794],[-0.53010692413621,-0.9897084749945524,-0.9083978261828305,0.49835224996909955,-0.8386992355912786,0.9894717992956665,-0.7287287537245402,0.06425127137526943,-0.06684164745938337,-0.3600621883071937,-0.7655958349167471,0.4169024053700503,-0.8540636958251198,-0.09994429443696973,0.1734809016500265,0.7076768449222823,0.2158497607364409,0.07852142327315215,0.8063426715403785,0.47092299197899345],[-0.36403312429467216,0.1237451136826817,-0.5756427605741237,0.7612833636750866,0.9350628314096134,-0.04739001406952026,-0.03742573515965031,-0.6271093602756359,-0.5333214800203341,-0.013320030179712505,-0.5057250557539077,0.6972022950433363,-0.3560717005247578,-0.038318717640150046,0.13021292493425918,-0.7001714371627699,0.40859501498633377,-0.8746985847539293,-0.005836984002720369,0.07148962163372174],[-0.8546867577633044,-0.3003980324850013,0.49649883896876834,0.710496747220617,0.5848510480601048,0.5714826756665468,0.5487975165953451,0.5654333402837335,0.863539315599626,-0.9699410102494574,0.13323548063028934,-0.3030177580658542,-0.6358920925969869,0.3729380701923921,-0.8131818118430312,0.11567152703716288,-0.3645508535812394,-0.5487213252460876,0.5605886387366952,-0.8400308993051686]],"W3":[[-0.6334394121009499,-0.9008086683014112,-0.2678892493467009,0.7626514243443427,0.8874117331695022,-0.9570185851370963,-0.2530834498930845,0.6713394117904852,0.14456387342794907,-0.25949626043219576],[-0.5195354431261132,0.8080357948412571,0.8498613208566037,-0.21819304914921367,-0.9031972948753286,0.284006053218262,0.657403324633723,0.9303499699611406,0.44190479952918427,0.16161525665743914],[0.9409739656166973,0.17053032210347996,-0.5735271206214345,0.2713064952443933,0.7140593886456357,0.34413389399753047,-0.2987734110474076,-0.5436538528015331,-0.06578668798680076,0.7901644743575837],[0.9665344025238449,0.1395514751689353,0.954697162791015,0.2093601878355722,-0.42841737775246336,-0.02877209657213764,-0.8382526163632971,-0.03773878779258388,-0.3751775119106411,0.6477987464528951],[0.25143109618049353,-0.06463696557011112,-0.3324862332340037,-0.7184623449423757,-0.8897217937178385,-0.7336278194091297,0.8547631637534296,-0.7582613025929346,0.9080481791309838,0.9427850135311773]],"b1":[[-0.9443232811926943],[0.3153126492983107],[0.6399952158843012],[-0.46902209717990684],[-0.6007434975474846],[0.32597909562645766],[0.42808555740416065],[0.2895959316734451],[-0.5106491076955746],[-0.2917418155655722],[-0.13844025039418084],[-0.024638102806725293],[0.6114514176076162],[-0.6939316676972749],[-0.036549673716341324],[0.0942395290460385],[0.7943411369475493],[0.7025693796408046],[-0.21822635487138853],[-0.6045250179827362]]}}
{"agentName":"0-10","fitness":34.52058318948745,"data":{"A1":[[98.88255277742162,3.8437455072770783,601.7183953336748,0.0,0.0,595.3648889764245,626.3120265519349,0.0,0.0,528.2348777533385,223.62699246597734,0.0,0.0,376.5844395230899,0.0,0.0,0.0,0.0,113.3188547823819,0.0]],"b2":[[-0.92707280355555],[-0.9307772570299944],[-0.11971873660640964],[0.5140245291069254],[0.5751145648836897],[-0.43850910073502347],[-0.7872208869913662],[-0.3087975452145404],[-0.4645849758749403],[-0.1563641826381328]],"A2":[[836.9320963318964,290.8948129180531,1081.5880200184474,0.0,0.0,889.098284339111,1253.923161543074,0.0,0.0,618.2933785338129]],"b3":[[-0.4564689661727537],[-0.4315414033069003],[0.09676404446694242],[0.6024645727173434],[0.20466090997530606]],"A3":[[0.0,1.0,1.0,1.0,1.0]],"W1":[[0.4551273600657362,0.36644694351969087,-0.38256108933468047,-0.4458430198517267,0.33109790358914726,0.8067445293443565,-0.2624341731773887,-0.44850386111659524,-0.07269284838169332,0.5658035575800715,0.8386555657374337,-0.1270180511534269,0.499812362510895,-0.22686625128130267,-0.6452430441812433,0.18869982177936828,-0.5804648622673358,0.651931743775642,-0.6555641246242951,0.17485476357259122,0.5025608135349202,0.14208069682973434,0.16004976900412138,0.505019897181302,-0.9371635223468384,-0.2841601610457427,0.6355938616712786,-0.1646249064941625,0.9480713629917628,0.42681251564645817,-0.0388509668871313,-0.4166870051763918,0.8997202693189332,0.6409836467726933,0.273289095712564,-0.26175701211620517,-0.2794902492677298,-0.1306778297187794,-0.08536581111046115,-0.05462315824828923,-0.06195495876886281,0.6546448480299902,-0.6979368909424835,0.6677324708883314,-0.07938725467767771,-0.43885601665437957,-0.608071585153688,-0.6414531182501653,0.7313735926547045,-0.026818676347611925,-0.15805658673794265,0.26573958270655806,0.3997172901343442,-0.3693430998846541,0.14324061105995334,-0.25797542063247825,0.7436291919296774,0.6114618853239959,0.2324273700703574,-0.25128128782199144,0.39449745853945895,0.817229160415142,-0.6077058562362969,0.6182496334554788,0.2558665508269453,-0.07320145794330979,-0.38884168866510227,0.07981886851873865,0.27022202891277614,-0.7474843534024693,-0.005346215048158909,-0.9453716674280683,-0.9270309666195007,-0.032312290091389695,0.31010676221964206,-0.20846743965751569,0.8803449313707621,-0.23077831216541722,0.29246395759528565,0.5409312755478819],[0.7880855916368177,0.19767407429003536,0.9520689432368168,-0.845829774129496,0.5502413918543512,-0.44235539500246457,0.7984106594591154,-0.2523277127589152,-0.1373808897290778,-0.3353514432305029,-0.3697050572653644,-0.11452811582755928,-0.807098168238352,0.4903066124307711,-0.6582805242342049,0.6107814398427647,-0.7204208094262783,-0.8141063661170889,-0.9459402662357332,0.09666938346350307,-0.43560342773870375,0.9349906440170221,0.8090021580031235,-0.3121157071110545,-0.9718883630945336,0.6191882496201251,0.0429886073795116,0.670311110015402,0.16692329718223786,0.37649213869502973,0.11276440263810383,-0.7684997525607482,0.1770172737885798,0.7902845707138706,0.2529503304079441,-0.23483801763662826,0.8072501895004851,0.6673992021927047,-0.4796127376677324,0.9244724404994455,-0.2049276879687938,0.1470694373531216,-0.48366999792166787,0.643491115907358,0.3183669486383729,0.22821350958477082,-0.023605251086149304,-0.2770587742156372,0.47596326458377436,0.7107229819632654,-0.3205057828114841,0.51605972926996,0.45215640988181516,0.01712446974606241,0.5508198371849293,-0.2478254241316491,0.7256483175955235,0.39418662792516,-0.6797384914236382,0.6001217520150142,0.4508991072414843,0.589749448443134,0.6464818311502738,0.7005669004769028,0.9699584106930381,-0.7417466269908464,0.22818964839784495,0.08574936236270037,-0.6945765138377225,0.06915201979238828,0.09798746565879424,-0.34288007110901964,0.440249350802451,-0.22440768392359534,-0.9695067570891225,-0.7942032659310758,-0.792286205517398,-0.6535487038528798,0.7952676470618951,-0.1622831617066689],[0.6949189734965766,-0.32697929564739403,-0.15359663581829275,-0.8951865090520432,0.2057889391931318,-0.6676656789571533,-0.03553655732400762,0.14550349954571096,0.034600542078191854,0.4223352065067103,0.35278245969741096,0.7022211035026023,0.5686638754605697,-0.4202155290448111,-0.26102723928249216,0.010688215941416779,-0.4311544807877927,0.9500151672991208,0.14380635780710693,-0.7549354840975826,-0.13079299081883855,0.0983382230287082,0.15347083875928424,0.45507300685816965,0.1921083467305864,0.6361110540492223,0.7675261182370992,-0.2543488202081907,0.2927051050236915,0.680182444769418,-0.8062832278617296,0.8266289890474885,0.22684501241708888,0.1726291966578266,-0.6778773666126594,0.9993906921393696,0.1789490173139363,0.5584053824232391,0.03495894704368174,-0.8505720014852347,-0.008461200645088818,-0.648273596036564,-0.005334477339629995,0.3781469006858833,0.30565234666790686,-0.2822867492866177,0.10175120738413801,0.5342432888482425,0.05146513075475534,-0.6459729964194652,0.42519013450094767,0.09441503345243984,-0.07898439043103522,-0.32207498048636474,-0.9180071861219266,0.5951317320731633,0.41000814588717693,-0.3926260640533046,0.2789036768568971,0.13163692286014528,0.03324842612749346,0.07055844751995122,-0.47199515597021113,-0.682690342465275,0.3983414713797069,-0.2136729393256811,-0.09066563475481249,-0.4640338194317184,-0.03513782089224482,-0.1711809802758364,0.1774546460228057,-0.6783644553523549,-0.47871398278230504,0.02272121490463097,-0.5047649289302389,0.26479596144873896,-0.32045436544054096,0.3113047940487379,0.6269418147567556,0.9710114516962312],[0.01715676997104909,0.8975962429865936,-0.46594560920034134,0.2873623499953055,0.8894362304584083,0.17973981232418468,0.49105791400707743,-0.7359842740294882,0.38941133808001127,-0.7151884777228046,0.07478785545033317,-0.8672651994084235,0.450599300176334,0.35104802298560056,0.6797318185095045,-0.03891997518827006,-0.33208695871398675,0.6166574577055226,0.5730212324012205,-0.4194925751047054,0.054527683864544096,-0.15591931640565093,0.9266742559542833,0.888522581905147,0.6576203900699167,0.6417770212400336,0.7509788029052338,-0.3104974571382815,0.7234744267051683,-0.15869049651427103,0.20173310976772196,0.8657502566551409,0.9325160601080682,0.24570884032596263,-0.6546108813337841,-0.14020032028377583,-0.8825687891702743,-0.21420166926412865,-0.8600275184792756,-0.7990574622230739,0.8325875503351796,-0.5956350140619129,0.12598048009007923,0.12340188733473134,-0.839435659309717,-0.16623481818728414,0.12028795301041662,-0.7994713170657952,0.2216721974907896,0.8407561415075087,-0.9325810772922609,-0.6411471147334535,0.9949216290375054,0.483048267470493,-0.8736297429070232,-0.36222771685582544,0.26397860162786957,0.45527588775737704,-0.9424989711186325,0.6251162293059616,-0.2307778924009991,0.6977871128979924,0.022830408261390822,0.6257738824362347,0.9770979848265122,0.09985730624684575,-0.9755858424230182,-0.689969833240031,-0.7294587311376761,0.3496326193951331,0.37929821892417404,0.8402056881660709,-0.1806835799958202,0.766314307210441,0.865876513623024,-0.7113501219432434,-0.0932956557986735,-0.7042025810921411,0.47530696925672267,-0.4629102077669889],[-0.9309578475799722,0.7591795880911123,0.06296957473213705,0.786790093290086,-0.9527998391625465,-0.08573982501921895,-0.3812232026687308,-0.6890669703685022,0.25415911467755015,-0.07664746267502509,0.3614756404325046,0.14508027508253818,0.23042774014795753,0.4164348685332022,0.4109091750657461,0.03853098236933272,0.38911994885223145,-0.5031309357181766,-0.596467768575587,0.17884522225228028,0.24508864174863,0.7576193329655578,0.09030511120334461,0.9537528991778741,-0.7224092160621338,-0.34089385162121943,0.6924170720838818,0.32912306214891784,-0.4064624712125904,-0.5344662061201593,0.5891192531479754,0.29862103742464274,-0.36153976712796343,-0.6552669564323226,-0.22672513691161766,0.3001336202535376,0.34490251346382617,0.2072633053920192,-0.5659371284058774,0.49599636156628835,0.31302496164254223,-0.6062773982342133,-0.9874007658402217,-0.6214904627601421,-0.11421073677207683,-0.5850843421161205,0.1250679146774638,-0.7108170726393621,-0.6888351241194393,0.6077343683084389,-0.1407178879203672,0.12960233233004925,-0.4236196478321872,0.7903078296084356,-0.8755754953628643,-0.2062360260394529,-0.045680124889026175,0.783182093429277,-0.02995737262668463,-0.33382351650328435,-0.1802575775708093,-0.991006951265341,-0.9107951763247621,0.9069820084047908,-0.12691921206803047,-0.7087012119383593,-0.9179510577925369,0.18480349982718325,-0.4478459144114004,-0.5560585660624608,0.4797855980916854,0.01997502546020402,-0.8827928315487465,0.2755107907750989,0.015544482147298977,0.9652687138748801,0.6622667860970648,-0.7708138539912186,0.17728148663006627,0.47818190728952925],[0.1358843437335564,0.03643446587894239,-0.31070823939673287,0.5283033206569152,0.3469111543845367,-0.5162518174930761,0.24270234207184016,0.7352292800096338,0.8860322286740037,0.6748068653962045,-0.4683538422180036,0.1469540185936138,0.9113612952591796,-0.9838482669789823,0.4506466371133697,0.6456121712599778,0.8264783725578371,0.562664168655115,-0.8299281852090683,0.40690300256653256,-0.9781302074883151,0.32984303335155785,0.7303430847899663,0.841481297188956,0.05580773881989276,0.7130788298702062,-0.218087116119847,-0.9889494995220598,0.9182854134226501,-0.7501751701020942,0.146854160091757,-0.3611508707370965,0.3517016971654914,0.6187697988029395,-0.010768583697787548,0.5236725885871243,0.5945666964145524,-0.009180562740628506,-0.44474762415618274,0.41852743519493685,-0.6304209277071555,-0.37010359785263813,-0.3194739026510125,-0.750533359080716,0.45500303301733114,-0.012727544364283805,-0.43941651856862274,0.927108876532093,-0.24164903158058149,0.44134972919002124,-0.35785764991284363,0.942797043714243,0.4539569191274251,-0.6944903010994341,-0.08357221983075225,0.4433049548665855,-0.5488972050023557,-0.24014623658145773,-0.6178118485382511,-0.4575463952834564,0.22693864400257335,-0.041639691095668674,0.9948726461115123,-0.7450471554938383,-0.1114847126717804,-0.27881184842402673,0.029766812446276214,-0.3727649352432578,-0.7791732805568077,0.9425576681069683,0.4607090007225536,-0.6079961642969514,-0.5671626932935381,0.12784576080614185,-0.30766031989910236,-0.21232963505711555,0.3310463755850872,-0.6807682731528943,0.7826634145951483,0.0608057623636995],[-0.2697769964284986,0.07743737732312428,-0.8459687499864881,0.6091901514177853,-0.9464815428211699,0.15780407422581533,-0.28552052619478996,-0.27500859181806403,-0.7207541548282903,0.05215593729084533,0.29768927445620164,-0.5379390525163252,0.6591913001003027,0.6635992348010928,0.3786594651413009,-0.7217135278882543,0.9634013908615768,0.03961253903778861,0.1335121312144949,0.7933944303463509,0.39896823489212285,0.30948413101894023,0.08568060094378493,-0.7454513450113371,0.8054125831421357,-0.24464240413169347,-0.18294406588625112,-0.883455504399858,0.2468431033653562,-0.708151566382103,-0.4785033857256795,0.520350718059089,-0.2988515012130126,-0.46260150057299754,0.5394344995663083,0.39320468081626836,0.1890560923345248,0.13123799325264507,0.43613839380760355,0.39541998419731494,0.3909705814857716,0.9830271975811611,0.672523651785939,0.0035177223850744177,0.567082732451311,-0.2620454326881394,0.46622578556708105,0.646246879249865,0.4263175536668733,0.8982696975276223,-0.9480167656870653,-4.888270196095057E-4,0.48226844071577646,-0.23706663537631645,0.22420266627462127,0.2981747607694978,0.3893425967975348,0.6302701381298614,-0.21909113816064196,0.8371697958140494,-0.2300790371078303,-0.4457883630748676,0.28710853302295325,0.7112839743052013,-0.8765858382640623,-0.6470779468607217,0.4369262584371727,-0.7175412028407337,0.5506733477278882,0.5393007189573547,0.21769855012808215,0.8653818331675485,0.2322943113578111,0.3760591265797468,0.06554014167292377,0.6866096712933549,0.866929973115441,-0.6462263417217329,0.2507247465275353,-0.7005877782050307],[0.6058055248984549,0.048517868234337014,-0.15744912875924877,0.32598079708869365,-0.587791997223768,-0.4636187312118474,0.7771908559246068,-0.349403853888719,0.229800030145503,-0.674614818934488,-0.21164946152466801,-0.9981936663594053,0.8611869575187896,0.11100891297254312,-0.7406067304729631,-0.7613837395522254,-0.9617573325708704,0.5697426971647488,-0.5830879716990833,0.5951448538064159,-0.19172117564625735,-0.12421304883392126,0.7095605786791346,0.6401582292398038,-0.9347790209840108,0.6592209285686903,0.702282297844389,-0.22765902007749528,-0.17746922342943816,0.7196663432778121,0.36490454976480846,0.6991204480538957,0.6546945560337121,-0.032324845758738174,0.2453935969836043,0.5363119225093116,0.6266741350524205,-0.2132266305382322,-0.308105870487996,-0.08219413867616465,-0.014204168485027147,-0.7077035677144325,0.024004217785642767,0.818971992516166,0.9081305263471056,0.808854493237229,-0.6474336785461867,-0.32559288177031465,-0.32850453072496055,-0.7035310416695784,0.6085817977516599,0.8101072412357928,0.7697891508923966,-0.5738750389864677,-0.734314989863889,-0.7879014492215499,0.6884442838920775,-0.46131231930402383,-0.7730585954271005,-0.7819874019145132,0.3283668768730639,-0.18316686990068187,0.3955614099142126,0.8450470350842108,0.3958042901611589,0.6578475571960676,-0.4395488558075096,0.15720430113495376,-0.5318362828977672,0.45585285255232044,-0.5986521145193395,0.3266542215286443,-0.09911773729611917,-0.21478254478908676,0.6546175049764293,-0.1414796368932345,0.25802631337510085,-0.6773828562539816,-0.22038193899258718,-0.17465737306657902],[0.5293763924477841,-0.24658868331583683,0.8268631648872109,0.8969207203400265,0.03933229861213983,-0.6212951181360529,-0.36695460282178205,-0.5468014636386027,-0.3419492829414976,-0.8273314086998671,0.9543096383762801,0.13230023957687176,-0.3071929861496465,-0.3646067841449696,0.6979929890816723,-0.20721664168809228,0.6676482547655365,0.944757051233543,0.024377296173674567,-0.9413728609667691,0.09198647857985232,-0.3685113649452161,-0.2361728930325453,0.3674268130607439,0.27385598384498344,-0.7151900241735676,0.3310154476154119,-0.24328111897361682,0.2511378679668912,-0.35825141175578934,0.11676665169094824,-0.49968608916548307,0.9941342810313298,-0.17858967215374988,0.1993744673440312,0.14596837574280297,-0.8245495433125194,-0.5637934691545672,-0.8589185806222286,-0.4923216901915597,-0.9917770074538397,-0.1547651813493751,0.621733177563484,0.7303326279246298,-0.0786900332560696,0.9107127797641994,0.7104513024299466,-0.32858522942354407,0.17013652749847386,0.27656984316288824,0.6874932143640391,-0.46610293161038907,0.8744681017967024,0.40900365224695956,-0.49770054448432055,-0.0635770754462921,-0.5705387648707747,-0.577988250149829,-0.8099463063934682,0.42132700180827354,-0.24607974991258308,-0.943388538022258,0.8679112109377674,0.7779951176637694,-0.5802336023276593,-0.9093352471884992,0.29337797938742316,0.498519874589175,0.3493034812120912,-0.07307210651399076,0.3911519359353859,-0.8154393787235621,0.47194271125243237,0.14014792298759593,-0.3589345913619957,0.7887695409762479,0.49962792312858895,-0.6402670146359797,-0.2314041601683119,-0.798901341175887],[0.810279303469398,-0.9772756877199589,-0.20925958437085557,0.8797562461102444,0.3211532423260066,0.25250279470783754,0.14387831263435813,-0.021466789385169882,0.18909293657271564,-0.5981349964027893,0.3565715672082048,0.7366743237221687,0.1922233582434527,-0.3551925780624561,0.5290849503909634,0.7744214641246749,0.7277215028580597,-0.590440215391044,0.7427328184290733,-0.6231904162251609,0.5028717258135624,-0.5838871888624848,-0.5540116561110324,0.8502487679795261,-0.7983061034328727,-0.3853123296389005,-0.1493800684643869,0.6008798629354264,-0.32299062155495406,-0.5827019502242026,0.41994681418237345,0.7106426870657483,-0.45211033467567696,-0.7272406549392239,-0.35736594496490737,0.4764507578985955,-0.5249912641281373,0.8562010912051132,0.45927621623833637,-0.3701817429794385,0.8414999442459015,0.9273442862476728,-0.054654787893199774,-0.23126134156257327,-0.9155048245317694,0.25750538376376975,-0.8470916763665326,0.9105674676753848,0.5026028522378054,-0.06650501561108468,0.37484830603001607,-0.9858854245832975,0.007159356555897611,0.8172796295244154,0.519147377529164,0.8211049991970722,0.9901658817979146,-0.026519560032641998,-0.2328762488733862,0.43161994187258035,0.24940246021565793,0.47248358864259177,0.23833814894291105,-0.3449172512379757,0.7412869866239866,0.1351422898741914,-0.003784141556894216,-0.6321917152754075,0.8246267827865776,0.5057520480449009,-0.5977424405191092,-0.13991362149785713,0.613487896720806,-0.37681525320218157,-0.4369592282569783,0.4702242879506955,0.07498463532645339,-0.9942304127133292,0.41304209196175257,0.6799250665519481],[-0.41212838137243835,0.6737124633791323,0.8376369191216593,0.2848328781926128,-0.17960265353296,0.0035488712665472377,-0.8355355482928055,-0.7439716673142398,-0.009043467128117433,0.7423272515054122,-0.662329643040616,0.4727113884417973,-0.15734218732411365,-0.3950754785173889,0.13837083076070011,0.633261314089351,0.9929998062307679,-0.4639028424346423,-0.073992579817449,0.3413166410117088,-0.2875719791707101,0.9395753700232541,-0.45090801750966314,-0.384528069378699,-0.35937736478702753,0.9597102694501136,-0.6898325123180971,-0.11436012866371303,-0.5330550575952768,0.24688769932037258,0.16864051681940984,-0.08391828256018252,-0.8184503043836224,0.5461252511055263,0.7264676659099087,-0.9654384426822686,-0.8537533138667612,0.9189716013058653,-0.03449322582531389,0.5490329745887035,0.9392753294760656,-0.5579682000156501,-0.8083270703362093,-0.7022804026958895,-0.30426803430649896,0.8211432527140852,-0.8101343265051797,-0.0945946325760949,0.49546915718101814,0.5184327698839013,0.20496323995364651,0.5082017540304999,0.2428646053751764,0.7101854338863274,-0.9619925264660094,0.4610134502825909,-0.5620669052678122,0.6766614078376236,-0.7169693435782278,-0.14362322382035164,-0.7441633083637054,0.07069898351187809,-0.47119552972566336,-0.43970155900871344,0.43192289605353973,-0.0798550143899397,0.2111188135787776,0.9101748615761336,-0.4079984876629721,-0.8101424982394589,0.7250263461647963,0.22182621035333838,-0.12735342714215725,0.26222861719040624,0.3928174057935714,0.817131411734006,-0.056109765698795,0.7908779197353637,-0.06768319505245768,0.4107045608924882],[0.876751634787073,0.04037085575852295,0.18142385658771398,0.38350565074271903,-0.30937664332011905,-0.9544807672006823,0.008643477632712449,-0.27676843472226276,-0.12938540988602476,-0.2929762262661819,-0.4243149295090465,0.22578711943818686,0.662530786460152,0.28592235843136105,0.4170345231441832,0.9290881132120887,0.5332443368002588,-0.33248958421809927,0.16273139830495942,0.6899022585936985,-0.1732078452611825,0.2361029542296429,-0.8455867017505336,0.31638672033240867,-0.648387667144986,-0.7647886103837449,0.6910155501192978,-0.2665663102538198,-0.5980899570876459,-0.9165896495676276,0.18934450539532244,-0.715110505416745,-0.453777527810155,0.2743741252197758,-0.8439310405443103,-0.533835190276116,-0.5911710854054728,0.21026462628920695,-0.45849607678093585,0.1327074179200407,0.624731930687735,-0.39914395421723015,0.781887900750925,0.5442619051596436,0.16651193067479153,0.9064846121246533,-0.3643159594276202,-0.5182065337246469,-0.6785628247191553,0.7111152852903913,-0.21923785332346513,0.11340668617783778,0.7397883986253251,-0.11748081084695605,0.06314872700777197,-0.7124574845946587,0.18043581960897104,-0.09023925260092103,-0.7256417560118238,-0.5038088673851804,-0.15271598143132215,0.9038942665552285,-0.6168514099878155,-0.12219038322317011,0.5402785935596728,0.4059744401803913,0.258870596734184,0.3190881033039108,0.2372469007313076,0.367188299614863,-0.9025895351376971,-0.03333947011476446,-0.8220776066161464,0.449117985679933,0.9970519437779266,0.27430911004640457,0.039081352882204046,-0.8621514950929796,-0.569587565933642,-0.9118346349929578],[0.3697979495309094,0.07383664120111888,0.7199366131785143,0.2118625428869032,-0.9015976323216077,-0.5298395275757712,-0.9517419542156635,0.39554920787574743,-0.3721957439110324,-0.4750272836396878,0.02106845330888185,0.7571245678782959,0.8034228830223251,0.32968340513846917,-0.6510386482911554,0.2710115488605187,-0.1319580272290235,0.932600992666184,0.8260461527035414,-0.8507648952138052,0.41048687946340134,0.9384639988086239,0.4569555844323441,-0.3084729082645552,-0.7299010284877061,-0.6925012997779212,-0.6798013915257548,-0.504368104320321,-0.6234398059664716,0.8633407902005543,0.5546381825677706,0.7959405841824887,0.584699836289184,-0.5726371777829862,-0.2827976152663936,0.138034013875719,-0.2935080791661324,-0.5323479091625714,0.6837641044797451,0.5986680812032501,0.14753220510180776,-0.31591341855048327,-0.748545617199091,0.3251888821665734,0.8228589483149358,0.046659706976506676,-0.35049927996132624,0.2953170004605874,-0.6429374177050204,0.4624083116836044,-0.7229883396779724,0.8876940454894067,-0.033794226589695775,0.46700071356381523,0.1599557295166274,-0.8944619785248653,-0.1258464584151997,-0.8797551785991506,-0.14408879184669354,0.11020655997336015,-0.366507395597937,0.630480481240723,-0.16600801981741609,0.09842042773854076,0.30129535029579047,0.14102166298628882,-0.28131788612036623,0.49635295715686234,0.0625636989631968,-0.41748132718912,-0.7898597726154271,-0.05425577320946573,0.5992645759265662,-0.4716868549309716,-0.020137302700854676,0.6216515277233232,-0.7295510954484412,-0.41443875567123967,-0.610576632050404,-0.9515988311377204],[0.9990215581592679,-0.9868954542412269,0.49133473382040704,0.7697599878561228,-0.34668939907967267,0.9777705993519483,0.4449043102759509,0.9812971199646168,0.6666598587737487,0.14398842572598514,0.21628799185444336,-0.4526390568867018,0.6558486691929235,0.13730688681492142,0.23076986155942736,0.7020484017619715,-0.12077999528458938,0.8306084972447003,-0.49337323198621563,-0.8270028152572872,-0.48202394020369277,-0.6274878708695264,-0.27623674153600697,-0.5312153415813432,-0.030820182786174044,-0.5893370965577813,0.6666315120904487,-0.36482991729570036,0.6065771813692735,0.05831057330788525,-0.4702220250018212,0.9123705796362889,-0.2045657170490376,-0.18922063450309534,-0.31431213362503163,0.4150130060120387,0.34016193625941127,0.8391374136299805,0.6884250315764333,-0.7916408854251566,-0.0014232315621649505,-0.1284246813729939,0.5228953023175369,0.9688522449007109,-0.7857721219549156,-0.7812922263391038,-0.5916136652814756,0.793988610184206,0.7982949061274296,-0.592785473963741,-0.17363144173810174,-0.3340314573781735,0.9351424971322297,-0.6430601902397572,-0.13363305808148818,-0.42446359566938585,-0.4093070316761178,-0.9302259781839204,0.47004365892170585,-0.6231289889808045,-0.8296410705737971,-0.6056572341069668,-0.2975417404042737,0.07134138175064741,-0.8966463747179154,-0.4112675899658855,0.7908013478009401,0.407396254566472,0.9227769302156879,0.12418427404473764,-0.6552751548581366,-0.5641921108932855,-0.6340486345063014,-0.5441069121131075,0.908720622198947,-0.026054643814348077,0.03706191653058433,-0.6672524338819317,0.7958274915288801,