public static final int[] INPUT_DIMENSIONS = {5, 8, 10}; // (start_row, width, height) where width and height are in number of tiles
public static final int[] OUTPUT_ACTIONS = {
MarioActions.JUMP.getValue()}; // Actions to be taken by the agent
public static final List<Integer> LAYER_NODES = List.of(INPUT_DIMENSIONS[1] * INPUT_DIMENSIONS[2], 2, OUTPUT_ACTIONS.length);

public static final int RANDOM_SEED = 42;
public static Random rand = new Random(RANDOM_SEED);

public static final String HIDDEN_ACTIVATION = "relu";
public static final String OUTPUT_ACTIVATION = "sigmoid";

public static final String LEVEL_STRING = "1-1";

public static final int POPULATION_SIZE = 20;
public static final int MAX_GENERATIONS = 100;
public static final int TOURNAMENT_SIZE = 8;
public static final int ELITISM_SIZE = 4;
public static final double CROSSOVER_PROBABILITY = 0.9;
public static final double MUTATION_PROBABILITY = 0.1;

public static final boolean VISUALS = false;
public static final boolean RUN_ALL_LEVELS = false;
public static final String LOAD_DATA_PATH = "";
        
{"agentName":"0-10","fitness":28.647233411073685,"data":{"A1":[[192.45489556408026,30.691388539948214]],"b2":[[0.2057889391931318]],"A2":[[2.0864724011187056E-25]],"W1":[[0.4551273600657362,0.36644694351969087,-0.38256108933468047,-0.4458430198517267,0.33109790358914726,0.8067445293443565,-0.2624341731773887,-0.44850386111659524,-0.07269284838169332,0.5658035575800715,0.8386555657374337,-0.1270180511534269,0.499812362510895,-0.22686625128130267,-0.6452430441812433,0.18869982177936828,-0.5804648622673358,0.651931743775642,-0.6555641246242951,0.17485476357259122,0.5025608135349202,0.14208069682973434,0.16004976900412138,0.505019897181302,-0.9371635223468384,-0.2841601610457427,0.6355938616712786,-0.1646249064941625,0.9480713629917628,0.42681251564645817,-0.0388509668871313,-0.4166870051763918,0.8997202693189332,0.6409836467726933,0.273289095712564,-0.26175701211620517,-0.2794902492677298,-0.1306778297187794,-0.08536581111046115,-0.05462315824828923,-0.06195495876886281,0.6546448480299902,-0.6979368909424835,0.6677324708883314,-0.07938725467767771,-0.43885601665437957,-0.608071585153688,-0.6414531182501653,0.7313735926547045,-0.026818676347611925,-0.15805658673794265,0.26573958270655806,0.3997172901343442,-0.3693430998846541,0.14324061105995334,-0.25797542063247825,0.7436291919296774,0.6114618853239959,0.2324273700703574,-0.25128128782199144,0.39449745853945895,0.817229160415142,-0.6077058562362969,0.6182496334554788,0.2558665508269453,-0.07320145794330979,-0.38884168866510227,0.07981886851873865,0.27022202891277614,-0.7474843534024693,-0.005346215048158909,-0.9453716674280683,-0.9270309666195007,-0.032312290091389695,0.31010676221964206,-0.20846743965751569,0.8803449313707621,-0.23077831216541722,0.29246395759528565,0.5409312755478819],[0.7880855916368177,0.19767407429003536,0.9520689432368168,-0.845829774129496,0.5502413918543512,-0.44235539500246457,0.7984106594591154,-0.2523277127589152,-0.1373808897290778,-0.3353514432305029,-0.3697050572653644,-0.11452811582755928,-0.807098168238352,0.4903066124307711,-0.6582805242342049,0.6107814398427647,-0.7204208094262783,-0.8141063661170889,-0.9459402662357332,0.09666938346350307,-0.43560342773870375,0.9349906440170221,0.8090021580031235,-0.3121157071110545,-0.9718883630945336,0.6191882496201251,0.0429886073795116,0.670311110015402,0.16692329718223786,0.37649213869502973,0.11276440263810383,-0.7684997525607482,0.1770172737885798,0.7902845707138706,0.2529503304079441,-0.23483801763662826,0.8072501895004851,0.6673992021927047,-0.4796127376677324,0.9244724404994455,-0.2049276879687938,0.1470694373531216,-0.48366999792166787,0.643491115907358,0.3183669486383729,0.22821350958477082,-0.023605251086149304,-0.2770587742156372,0.47596326458377436,0.7107229819632654,-0.3205057828114841,0.51605972926996,0.45215640988181516,0.01712446974606241,0.5508198371849293,-0.2478254241316491,0.7256483175955235,0.39418662792516,-0.6797384914236382,0.6001217520150142,0.4508991072414843,0.589749448443134,0.6464818311502738,0.7005669004769028,0.9699584106930381,-0.7417466269908464,0.22818964839784495,0.08574936236270037,-0.6945765138377225,0.06915201979238828,0.09798746565879424,-0.34288007110901964,0.440249350802451,-0.22440768392359534,-0.9695067570891225,-0.7942032659310758,-0.792286205517398,-0.6535487038528798,0.7952676470618951,-0.1622831617066689]],"W2":[[-0.15359663581829275,-0.8951865090520432]],"b1":[[0.6949189734965766],[-0.32697929564739403]]}}
{"agentName":"1-5","fitness":42.708285241127015,"data":{"A1":[[192.45489556408026,30.691388539948214]],"b2":[[0.2057889391931318]],"A2":[[2.0864724011187056E-25]],"W1":[[0.11567152703716288,0.36644694351969087,-0.38256108933468047,-0.4458430198517267,-0.92707280355555,-0.11971873660640964,-0.2624341731773887,-0.44850386111659524,-0.07269284838169332,0.5658035575800715,0.8386555657374337,-0.1270180511534269,0.499812362510895,-0.22686625128130267,-0.2678892493467009,0.18869982177936828,-0.5804648622673358,0.651931743775642,-0.6555641246242951,0.17485476357259122,0.5025608135349202,0.14208069682973434,0.16004976900412138,0.505019897181302,-0.9371635223468384,-0.2841601610457427,0.284006053218262,-0.1646249064941625,0.09950684183685454,0.42681251564645817,-0.6724983095526844,-0.4166870051763918,0.8997202693189332,0.6409836467726933,0.273289095712564,-0.26175701211620517,-0.2794902492677298,-0.1306778297187794,-0.08536581111046115,-0.4605180615474036,-0.06195495876886281,0.6546448480299902,-0.6979368909424835,0.6677324708883314,-0.07938725467767771,0.43854302140351065,-0.608071585153688,-0.03773878779258388,0.7313735926547045,-0.026818676347611925,-0.15805658673794265,0.5754655536186164,0.3997172901343442,-0.8690739610562535,-0.7336278194091297,-0.25797542063247825,0.7436291919296774,-0.41404309625298485,0.2324273700703574,-0.25128128782199144,0.39449745853945895,0.817229160415142,-0.6077058562362969,0.6182496334554788,0.2558665508269453,-0.07320145794330979,-0.38884168866510227,-0.9547237660069134,0.27022202891277614,-0.7474843534024693,-0.005346215048158909,-0.9453716674280683,-0.9270309666195007,-0.58300134324846,0.9065754202428946,-0.20846743965751569,0.8803449313707621,-0.23077831216541722,0.29246395759528565,-0.752854859129851],[-0.4763092428375775,0.19767407429003536,0.9520689432368168,0.8914359296658816,0.5502413918543512,-0.44235539500246457,0.7984106594591154,-0.2523277127589152,-0.1373808897290778,0.6431180783847401,-0.3697050572653644,-0.11452811582755928,-0.807098168238352,-0.4333426289849791,-0.6582805242342049,0.6107814398427647,-0.5757086910974862,-0.8141063661170889,-0.22044646197773576,0.09666938346350307,-0.43560342773870375,0.9349906440170221,0.8090021580031235,-0.3121157071110545,-0.9718883630945336,-0.6118772896807114,0.0429886073795116,0.670311110015402,0.16692329718223786,0.37649213869502973,0.11276440263810383,-0.7684997525607482,0.1770172737885798,0.7902845707138706,0.19830469052767397,-0.23483801763662826,0.8072501895004851,0.6673992021927047,-0.4796127376677324,0.9244724404994455,-0.2049276879687938,0.1470694373531216,-0.48366999792166787,0.643491115907358,0.3183669486383729,0.22821350958477082,-0.5863884932327266,-0.2770587742156372,0.47596326458377436,0.7107229819632654,-0.3205057828114841,0.51605972926996,0.45215640988181516,0.01712446974606241,-0.3777762313579811,-0.2478254241316491,0.7256483175955235,0.39418662792516,-0.7904038212853011,-0.8297271715190588,0.4508991072414843,0.589749448443134,0.6464818311502738,0.7005669004769028,-0.765583403709019,-0.7417466269908464,0.22818964839784495,0.08574936236270037,-0.2673180325645341,0.07396877198841345,0.09798746565879424,-0.34288007110901964,0.440249350802451,-0.22440768392359534,-0.9695067570891225,-0.7942032659310758,-0.792286205517398,-0.6535487038528798,0.7952676470618951,-0.2547160991750408]],"W2":[[0.42566546089913326,-0.8968075137250837]],"b1":[[0.6949189734965766],[-0.32697929564739403]]}}
{"agentName":"2-13","fitness":73.47636818885803,"data":{"A1":[[192.45489556408026,-0.3854913854818778]],"b2":[[0.2057889391931318]],"A2":[[2.0864724011187056E-25]],"W1":[[0.4551273600657362,0.322117053679978,-0.38256108933468047,-0.9429543410209738,0.33109790358914726,0.8067445293443565,-0.2624341731773887,-0.44850386111659524,-0.07269284838169332,0.320912176724957,0.8386555657374337,-0.1270180511534269,0.499812362510895,-0.22686625128130267,-0.6452430441812433,0.18869982177936828,-0.5804648622673358,0.651931743775642,-0.6555641246242951,0.17485476357259122,0.5025608135349202,0.14208069682973434,0.16004976900412138,-0.6342907522337677,-0.9371635223468384,-0.7599310370609886,-0.6187255782143934,0.6438355625000165,0.9480713629917628,0.42681251564645817,-0.0388509668871313,-0.4166870051763918,0.8997202693189332,0.6409836467726933,0.273289095712564,-0.26175701211620517,-0.8382571960076421,-0.1306778297187794,-0.08536581111046115,-0.05462315824828923,-0.06195495876886281,0.6546448480299902,-0.6979368909424835,0.6677324708883314,-0.07938725467767771,-0.43885601665437957,-0.608071585153688,-0.6414531182501653,0.7313735926547045,-0.026818676347611925,-0.15805658673794265,0.26573958270655806,0.3997172901343442,-0.7555004430831966,0.14324061105995334,-0.25797542063247825,-0.8758663074063169,0.6114618853239959,0.2324273700703574,-0.25128128782199144,0.39449745853945895,0.817229160415142,-0.6077058562362969,-0.44363021588476115,0.79643207906596,-0.07320145794330979,-0.853394010406054,0.07981886851873865,0.27022202891277614,-0.7474843534024693,-0.005346215048158909,-0.16832401195034863,-0.9171627098568893,-0.032312290091389695,0.31010676221964206,-0.32666348055954497,0.8803449313707621,-0.23077831216541722,0.29246395759528565,0.5409312755478819],[0.8846421320106665,-0.053256899982173644,0.9520689432368168,-0.10930061767969734,0.5502413918543512,-0.44235539500246457,0.7984106594591154,0.8536938313901223,-0.11271471146581447,-0.3353514432305029,-0.3697050572653644,-0.11452811582755928,-0.807098168238352,0.4903066124307711,-0.6582805242342049,0.6107814398427647,-0.4792096695015049,-0.8141063661170889,-0.9459402662357332,0.09666938346350307,-0.43560342773870375,0.9349906440170221,-0.927781177051689,-0.3121157071110545,-0.9718883630945336,0.6191882496201251,-0.7639159659587225,0.670311110015402,0.5861802920764536,-0.27332965274163845,0.11276440263810383,-0.7684997525607482,-0.5073915380974245,0.7902845707138706,0.2529503304079441,-0.23483801763662826,0.8072501895004851,-0.0970403243726472,-0.4796127376677324,0.9244724404994455,-0.2049276879687938,0.1470694373531216,-0.4557268645144079,0.643491115907358,0.3183669486383729,0.22821350958477082,-0.023605251086149304,-0.2770587742156372,0.47596326458377436,0.48413376459648494,-0.3205057828114841,0.51605972926996,-0.03488081221949013,0.40305031616252984,0.5508198371849293,-0.2478254241316491,0.7256483175955235,0.39418662792516,-0.6797384914236382,-0.24480420287969706,0.4508991072414843,0.6222470753531273,0.6464818311502738,0.7005669004769028,0.9699584106930381,-0.7417466269908464,0.22818964839784495,0.08574936236270037,-0.6945765138377225,0.06915201979238828,0.09798746565879424,-0.34288007110901964,0.8207620275636744,-0.22440768392359534,-0.9695067570891225,-0.7942032659310758,-0.792286205517398,-0.6535487038528798,0.7952676470618951,-0.1622831617066689]],"W2":[[-0.15359663581829275,-0.8951865090520432]],"b1":[[0.6949189734965766],[0.47262434066165304]]}}
{"agentName":"2-12","fitness":73.47636818885803,"data":{"A1":[[192.45489556408026,-0.3854913854818778]],"b2":[[0.2057889391931318]],"A2":[[2.0864724011187056E-25]],"W1":[[0.4551273600657362,0.322117053679978,-0.38256108933468047,-0.9429543410209738,0.33109790358914726,0.8067445293443565,-0.2624341731773887,-0.44850386111659524,-0.07269284838169332,0.320912176724957,0.8386555657374337,-0.1270180511534269,0.499812362510895,-0.22686625128130267,-0.6452430441812433,0.18869982177936828,-0.5804648622673358,0.651931743775642,-0.6555641246242951,0.17485476357259122,0.5025608135349202,0.14208069682973434,0.16004976900412138,-0.6342907522337677,-0.9371635223468384,-0.7599310370609886,-0.6187255782143934,0.6438355625000165,0.9480713629917628,0.42681251564645817,-0.0388509668871313,-0.4166870051763918,0.8997202693189332,0.6409836467726933,0.273289095712564,-0.26175701211620517,-0.8382571960076421,-0.1306778297187794,-0.08536581111046115,-0.05462315824828923,-0.06195495876886281,0.6546448480299902,-0.6979368909424835,0.6677324708883314,-0.07938725467767771,-0.43885601665437957,-0.608071585153688,-0.6414531182501653,0.7313735926547045,-0.026818676347611925,-0.15805658673794265,0.26573958270655806,0.3997172901343442,-0.7555004430831966,0.14324061105995334,-0.25797542063247825,-0.8758663074063169,0.6114618853239959,0.2324273700703574,-0.25128128782199144,0.39449745853945895,0.817229160415142,-0.6077058562362969,-0.44363021588476115,0.79643207906596,-0.07320145794330979,-0.853394010406054,0.07981886851873865,0.27022202891277614,-0.7474843534024693,-0.005346215048158909,-0.16832401195034863,-0.9171627098568893,-0.032312290091389695,0.31010676221964206,-0.32666348055954497,0.8803449313707621,-0.23077831216541722,0.29246395759528565,0.5409312755478819],[0.8846421320106665,-0.053256899982173644,0.9520689432368168,-0.10930061767969734,0.5502413918543512,-0.44235539500246457,0.7984106594591154,0.8536938313901223,-0.11271471146581447,-0.3353514432305029,-0.3697050572653644,-0.11452811582755928,-0.807098168238352,0.4903066124307711,-0.6582805242342049,0.6107814398427647,-0.4792096695015049,-0.8141063661170889,-0.9459402662357332,0.09666938346350307,-0.43560342773870375,0.9349906440170221,-0.927781177051689,-0.3121157071110545,-0.9718883630945336,0.6191882496201251,-0.7639159659587225,0.670311110015402,0.5861802920764536,-0.27332965274163845,0.11276440263810383,-0.7684997525607482,-0.5073915380974245,0.7902845707138706,0.2529503304079441,-0.23483801763662826,0.8072501895004851,-0.0970403243726472,-0.4796127376677324,0.9244724404994455,-0.2049276879687938,0.1470694373531216,-0.4557268645144079,0.643491115907358,0.3183669486383729,0.22821350958477082,-0.023605251086149304,-0.2770587742156372,0.47596326458377436,0.48413376459648494,-0.3205057828114841,0.51605972926996,-0.03488081221949013,0.40305031616252984,0.5508198371849293,-0.2478254241316491,0.7256483175955235,0.39418662792516,-0.6797384914236382,-0.24480420287969706,0.4508991072414843,0.6222470753531273,0.6464818311502738,0.7005669004769028,0.9699584106930381,-0.7417466269908464,0.22818964839784495,0.08574936236270037,-0.6945765138377225,0.06915201979238828,0.09798746565879424,-0.34288007110901964,0.8207620275636744,-0.22440768392359534,-0.9695067570891225,-0.7942032659310758,-0.792286205517398,-0.6535487038528798,0.7952676470618951,-0.1622831617066689]],"W2":[[-0.15359663581829275,-0.8951865090520432]],"b1":[[0.6949189734965766],[0.47262434066165304]]}}
--{"agentName":"5-14","fitness":73.47636818885803,"data":{"A1":[[192.45489556408026,-0.18958277323146544]],"b2":[[0.2057889391931318]],"A2":[[2.0864724011187056E-25]],"W1":[[-0.8515828859488435,-0.423338645566363,-0.1701061234125223,-0.06662957897980193,0.33109790358914726,0.8067445293443565,-0.5083286279596029,-0.44850386111659524,-0.07269284838169332,0.320912176724957,0.8386555657374337,-0.1270180511534269,-0.45974376929144367,-0.8506364845267596,-0.6452430441812433,0.18869982177936828,0.5021647973883525,0.651931743775642,-0.4028293573562465,0.17485476357259122,0.5025608135349202,-0.4327952537940625,0.4206122530681242,-0.6342907522337677,-0.9371635223468384,-0.7599310370609886,-0.6187255782143934,0.6438355625000165,0.9480713629917628,0.5618717451962265,-0.0388509668871313,0.7427717942588692,0.8997202693189332,0.6409836467726933,0.8698146196359549,-0.26175701211620517,-0.8382571960076421,-0.1306778297187794,-0.49819538734281066,-0.05462315824828923,-0.06195495876886281,0.6546448480299902,-0.23388612104303386,0.6677324708883314,-0.07938725467767771,-0.43885601665437957,-0.608071585153688,-0.6414531182501653,0.7313735926547045,0.6195171431840558,-0.030264818338074484,0.26573958270655806,0.3997172901343442,-0.7555004430831966,0.14324061105995334,-0.25797542063247825,-0.8758663074063169,0.6114618853239959,-0.6644598454003052,-0.25128128782199144,0.39449745853945895,0.6203306379728315,-0.44963421090601274,-0.44363021588476115,0.79643207906596,-0.07320145794330979,-0.853394010406054,0.07981886851873865,0.27022202891277614,0.8394150259784443,-0.005346215048158909,-0.16832401195034863,-0.8125766824417473,-0.32605420585886336,-0.22188558679347015,-0.32666348055954497,0.8803449313707621,-0.23077831216541722,-0.6053268306651607,0.5409312755478819],[0.8846421320106665,-0.053256899982173644,0.9520689432368168,-0.10930061767969734,0.5502413918543512,-0.44235539500246457,0.7984106594591154,0.8642262803611296,0.6515469177903563,-0.3353514432305029,-0.3697050572653644,-0.08713611023227696,-0.807098168238352,-0.3345512179511412,-0.6582805242342049,-0.8494783724445603,0.3565371766596708,-0.6109676042603591,-0.9459402662357332,0.9952036607188539,0.1291202315663793,0.9349906440170221,-0.35818583795772496,-0.3121157071110545,-0.9718883630945336,0.6191882496201251,-0.4189649176148287,0.670311110015402,0.5861802920764536,-0.27332965274163845,0.11276440263810383,-0.7684997525607482,-0.5073915380974245,-0.5640828930067301,0.2529503304079441,-0.23483801763662826,0.8072501895004851,-0.0970403243726472,-0.4796127376677324,0.9244724404994455,-0.2049276879687938,0.1470694373531216,-0.4557268645144079,0.2556267416776894,0.3183669486383729,0.22821350958477082,-0.5831400579700012,-0.9137513321079456,0.45867156461091874,0.48413376459648494,-0.3205057828114841,-0.48609616619773166,-0.41325542430887197,0.40305031616252984,-0.2553309096117602,-0.2478254241316491,-0.4529094844733901,0.39418662792516,-0.6797384914236382,-0.24480420287969706,0.4508991072414843,0.6222470753531273,0.6464818311502738,0.7005669004769028,0.9699584106930381,-0.7417466269908464,0.22818964839784495,0.08574936236270037,-0.6945765138377225,0.008655991407005015,0.09798746565879424,-0.34288007110901964,0.8207620275636744,-0.22440768392359534,-0.0660672946137113,-0.7942032659310758,-0.792286205517398,0.8940368882292142,0.888859098517909,-0.19819037962653363]],"W2":[[-0.07929029948175059,0.45511083184982093]],"b1":[[0.6949189734965766],[-0.4480244616748825]]}}
{"agentName":"2-13","fitness":73.47636818885803,"data":{"A1":[[192.45489556408026,-0.3854913854818778]],"b2":[[0.2057889391931318]],"A2":[[2.0864724011187056E-25]],"W1":[[0.4551273600657362,0.322117053679978,-0.38256108933468047,-0.9429543410209738,0.33109790358914726,0.8067445293443565,-0.2624341731773887,-0.44850386111659524,-0.07269284838169332,0.320912176724957,0.8386555657374337,-0.1270180511534269,0.499812362510895,-0.22686625128130267,-0.6452430441812433,0.18869982177936828,-0.5804648622673358,0.651931743775642,-0.6555641246242951,0.17485476357259122,0.5025608135349202,0.14208069682973434,0.16004976900412138,-0.6342907522337677,-0.9371635223468384,-0.7599310370609886,-0.6187255782143934,0.6438355625000165,0.9480713629917628,0.42681251564645817,-0.0388509668871313,-0.4166870051763918,0.8997202693189332,0.6409836467726933,0.273289095712564,-0.26175701211620517,-0.8382571960076421,-0.1306778297187794,-0.08536581111046115,-0.05462315824828923,-0.06195495876886281,0.6546448480299902,-0.6979368909424835,0.6677324708883314,-0.07938725467767771,-0.43885601665437957,-0.608071585153688,-0.6414531182501653,0.7313735926547045,-0.026818676347611925,-0.15805658673794265,0.26573958270655806,0.3997172901343442,-0.7555004430831966,0.14324061105995334,-0.25797542063247825,-0.8758663074063169,0.6114618853239959,0.2324273700703574,-0.25128128782199144,0.39449745853945895,0.817229160415142,-0.6077058562362969,-0.44363021588476115,0.79643207906596,-0.07320145794330979,-0.853394010406054,0.07981886851873865,0.27022202891277614,-0.7474843534024693,-0.005346215048158909,-0.16832401195034863,-0.9171627098568893,-0.032312290091389695,0.31010676221964206,-0.32666348055954497,0.8803449313707621,-0.23077831216541722,0.29246395759528565,0.5409312755478819],[0.8846421320106665,-0.053256899982173644,0.9520689432368168,-0.10930061767969734,0.5502413918543512,-0.44235539500246457,0.7984106594591154,0.8536938313901223,-0.11271471146581447,-0.3353514432305029,-0.3697050572653644,-0.11452811582755928,-0.807098168238352,0.4903066124307711,-0.6582805242342049,0.6107814398427647,-0.4792096695015049,-0.8141063661170889,-0.9459402662357332,0.09666938346350307,-0.43560342773870375,0.9349906440170221,-0.927781177051689,-0.3121157071110545,-0.9718883630945336,0.6191882496201251,-0.7639159659587225,0.670311110015402,0.5861802920764536,-0.27332965274163845,0.11276440263810383,-0.7684997525607482,-0.5073915380974245,0.7902845707138706,0.2529503304079441,-0.23483801763662826,0.8072501895004851,-0.0970403243726472,-0.4796127376677324,0.9244724404994455,-0.2049276879687938,0.1470694373531216,-0.4557268645144079,0.643491115907358,0.3183669486383729,0.22821350958477082,-0.023605251086149304,-0.2770587742156372,0.47596326458377436,0.48413376459648494,-0.3205057828114841,0.51605972926996,-0.03488081221949013,0.40305031616252984,0.5508198371849293,-0.2478254241316491,0.7256483175955235,0.39418662792516,-0.6797384914236382,-0.24480420287969706,0.4508991072414843,0.6222470753531273,0.6464818311502738,0.7005669004769028,0.9699584106930381,-0.7417466269908464,0.22818964839784495,0.08574936236270037,-0.6945765138377225,0.06915201979238828,0.09798746565879424,-0.34288007110901964,0.8207620275636744,-0.22440768392359534,-0.9695067570891225,-0.7942032659310758,-0.792286205517398,-0.6535487038528798,0.7952676470618951,-0.1622831617066689]],"W2":[[-0.15359663581829275,-0.8951865090520432]],"b1":[[0.6949189734965766],[0.47262434066165304]]}}
-{"agentName":"7-3","fitness":73.47636818885803,"data":{"A1":[[192.45489556408026,-0.3854913854818778]],"b2":[[0.2057889391931318]],"A2":[[2.0864724011187056E-25]],"W1":[[0.4551273600657362,0.322117053679978,-0.38256108933468047,-0.9429543410209738,0.33109790358914726,0.8067445293443565,-0.2624341731773887,0.1913266334857393,0.7504844991201323,0.320912176724957,0.8386555657374337,-0.1270180511534269,0.499812362510895,-0.22686625128130267,-0.3003023136163723,0.18869982177936828,-0.5804648622673358,-0.2853896338198805,-0.38429971590038936,0.015326209723593998,-0.7704275121866588,0.14208069682973434,0.16004976900412138,-0.44807715033119977,-0.9371635223468384,-0.7599310370609886,-0.6187255782143934,0.6438355625000165,-0.19506026045974822,0.42681251564645817,-0.9805794423077288,-0.4166870051763918,0.8997202693189332,-0.5947308202398227,0.273289095712564,-0.26175701211620517,-0.8382571960076421,-0.1306778297187794,-0.08536581111046115,-0.05462315824828923,-0.06195495876886281,-0.2988414267582433,-0.8965642504461155,0.6677324708883314,-0.07938725467767771,-0.43885601665437957,-0.608071585153688,-0.5853359288156468,0.7313735926547045,-0.026818676347611925,-0.15805658673794265,0.26573958270655806,0.3305379940975699,-0.7555004430831966,0.14324061105995334,-0.25797542063247825,-0.8758663074063169,0.6114618853239959,0.2324273700703574,-0.25128128782199144,0.39449745853945895,0.817229160415142,-0.6077058562362969,-0.9929267690851111,0.79643207906596,-0.07320145794330979,-0.853394010406054,0.07981886851873865,0.27022202891277614,-0.7474843534024693,-0.005346215048158909,-0.16832401195034863,-0.9171627098568893,0.628649655970676,0.31010676221964206,-0.32666348055954497,0.8803449313707621,-0.23077831216541722,0.29246395759528565,0.5409312755478819],[-0.4029591484440469,-0.053256899982173644,0.9520689432368168,-0.10930061767969734,0.5502413918543512,-0.44235539500246457,0.7984106594591154,0.8536938313901223,-0.11271471146581447,-0.3353514432305029,-0.3697050572653644,-0.11452811582755928,-0.807098168238352,0.4903066124307711,-0.6582805242342049,0.6107814398427647,-0.4792096695015049,-0.8141063661170889,-0.9459402662357332,0.09666938346350307,-0.43560342773870375,0.9349906440170221,-0.927781177051689,-0.3121157071110545,-0.9718883630945336,0.6191882496201251,-0.7639159659587225,0.670311110015402,0.5861802920764536,-0.27332965274163845,0.11276440263810383,-0.08994643407181324,-0.5073915380974245,0.7902845707138706,0.139056495207309,-0.23483801763662826,0.8072501895004851,-0.0970403243726472,-0.12295235230608426,0.5270121867031778,-0.2049276879687938,0.1470694373531216,-0.4557268645144079,0.643491115907358,0.3183669486383729,0.22821350958477082,-0.023605251086149304,-0.2770587742156372,0.594151168264879,0.48413376459648494,-0.3205057828114841,0.51605972926996,-0.03488081221949013,0.40305031616252984,0.5508198371849293,-0.7675694617599094,-0.4754990568428099,0.39418662792516,-0.6797384914236382,-0.24480420287969706,0.4508991072414843,0.6222470753531273,0.6464818311502738,0.7005669004769028,0.9699584106930381,-0.7417466269908464,0.22818964839784495,0.08574936236270037,-0.6945765138377225,0.06915201979238828,0.09798746565879424,-0.34288007110901964,0.8207620275636744,-0.22440768392359534,-0.9695067570891225,-0.7720130378030712,-0.8113810109553283,-0.6535487038528798,0.7952676470618951,-0.1622831617066689]],"W2":[[-0.15359663581829275,-0.47576458034044156]],"b1":[[0.6949189734965766],[0.47262434066165304]]}}
{"agentName":"2-12","fitness":73.47636818885803,"data":{"A1":[[192.45489556408026,-0.3854913854818778]],"b2":[[0.2057889391931318]],"A2":[[2.0864724011187056E-25]],"W1":[[0.4551273600657362,0.322117053679978,-0.38256108933468047,-0.9429543410209738,0.33109790358914726,0.8067445293443565,-0.2624341731773887,-0.44850386111659524,-0.07269284838169332,0.320912176724957,0.8386555657374337,-0.1270180511534269,0.499812362510895,-0.22686625128130267,-0.6452430441812433,0.18869982177936828,-0.5804648622673358,0.651931743775642,-0.6555641246242951,0.17485476357259122,0.5025608135349202,0.14208069682973434,0.16004976900412138,-0.6342907522337677,-0.9371635223468384,-0.7599310370609886,-0.6187255782143934,0.6438355625000165,0.9480713629917628,0.42681251564645817,-0.0388509668871313,-0.4166870051763918,0.8997202693189332,0.6409836467726933,0.273289095712564,-0.26175701211620517,-0.8382571960076421,-0.1306778297187794,-0.08536581111046115,-0.05462315824828923,-0.06195495876886281,0.6546448480299902,-0.6979368909424835,0.6677324708883314,-0.07938725467767771,-0.43885601665437957,-0.608071585153688,-0.6414531182501653,0.7313735926547045,-0.026818676347611925,-0.15805658673794265,0.26573958270655806,0.3997172901343442,-0.7555004430831966,0.14324061105995334,-0.25797542063247825,-0.8758663074063169,0.6114618853239959,0.2324273700703574,-0.25128128782199144,0.39449745853945895,0.817229160415142,-0.6077058562362969,-0.44363021588476115,0.79643207906596,-0.07320145794330979,-0.853394010406054,0.07981886851873865,0.27022202891277614,-0.7474843534024693,-0.005346215048158909,-0.16832401195034863,-0.9171627098568893,-0.032312290091389695,0.31010676221964206,-0.32666348055954497,0.8803449313707621,-0.23077831216541722,0.29246395759528565,0.5409312755478819],[0.8846421320106665,-0.053256899982173644,0.9520689432368168,-0.10930061767969734,0.5502413918543512,-0.44235539500246457,0.7984106594591154,0.8536938313901223,-0.11271471146581447,-0.3353514432305029,-0.3697050572653644,-0.11452811582755928,-0.807098168238352,0.4903066124307711,-0.6582805242342049,0.6107814398427647,-0.4792096695015049,-0.8141063661170889,-0.9459402662357332,0.09666938346350307,-0.43560342773870375,0.9349906440170221,-0.927781177051689,-0.3121157071110545,-0.9718883630945336,0.6191882496201251,-0.7639159659587225,0.670311110015402,0.5861802920764536,-0.27332965274163845,0.11276440263810383,-0.7684997525607482,-0.5073915380974245,0.7902845707138706,0.2529503304079441,-0.23483801763662826,0.8072501895004851,-0.0970403243726472,-0.4796127376677324,0.9244724404994455,-0.2049276879687938,0.1470694373531216,-0.4557268645144079,0.643491115907358,0.3183669486383729,0.22821350958477082,-0.023605251086149304,-0.2770587742156372,0.47596326458377436,0.48413376459648494,-0.3205057828114841,0.51605972926996,-0.03488081221949013,0.40305031616252984,0.5508198371849293,-0.2478254241316491,0.7256483175955235,0.39418662792516,-0.6797384914236382,-0.24480420287969706,0.4508991072414843,0.6222470753531273,0.6464818311502738,0.7005669004769028,0.9699584106930381,-0.7417466269908464,0.22818964839784495,0.08574936236270037,-0.6945765138377225,0.06915201979238828,0.09798746565879424,-0.34288007110901964,0.8207620275636744,-0.22440768392359534,-0.9695067570891225,-0.7942032659310758,-0.792286205517398,-0.6535487038528798,0.7952676470618951,-0.1622831617066689]],"W2":[[-0.15359663581829275,-0.8951865090520432]],"b1":[[0.6949189734965766],[0.47262434066165304]]}}
{"agentName":"11-18","fitness":87.66626684188843,"data":{"A1":[[-0.6163811293992283,0.6310520244205771]],"b2":[[0.14036559830391626]],"A2":[[-0.5138301369533138]],"W1":[[0.11567152703716288,0.869362379516893,-0.38256108933468047,-0.4458430198517267,-0.17594552497856109,-0.7650789687340165,-0.2624341731773887,-0.4737719210361617,-0.6398590028785496,-0.3693143843224689,-0.4140216156980294,-0.7817647176055291,-0.5478339283723341,-0.4570695204181501,0.6172200781434594,0.16176582452665622,-0.5129322300484287,0.651931743775642,0.9091720160603323,-0.2832966717028853,0.17411101951674168,0.4334638021227204,0.16004976900412138,0.645082645510225,-0.6119655371328692,-0.2841601610457427,0.7819482026561215,0.05010203411170289,-0.27622195759413226,-0.3865446386051681,-0.6724983095526844,-0.4166870051763918,0.5871666997683023,-0.7411250967438219,-0.4640968877628766,-0.9273384634731092,-0.2794902492677298,-0.1306778297187794,-0.7340195780767131,-0.4605180615474036,-0.3905291514704463,-0.31920625115098167,-0.6979368909424835,0.2658340369778214,0.37300564415537174,0.43854302140351065,0.6613148021930815,-0.03773878779258388,-0.928532336893418,-0.026818676347611925,0.5929380538376474,-0.9508672905347013,-0.08520206709125033,-0.932490723709146,0.02736878061817305,-0.25797542063247825,0.6070028425009408,-0.41404309625298485,0.04824006333980102,-0.06929816127622734,0.39449745853945895,0.817229160415142,0.36802582603584866,-0.46177261452343177,0.8962560058750573,-0.35646670891680876,-0.38884168866510227,0.05755658072144354,-0.9902267695629581,0.28275380738915645,0.4838937917910162,0.2811601433824158,-0.9270309666195007,-0.04188935314706965,-0.04668373902227474,-0.20846743965751569,0.8875446792372295,-0.3630122214803513,0.29246395759528565,0.8864415297929205],[-0.4763092428375775,-0.19356228775217077,-0.9168896568071507,-0.7293756474535911,0.2350487335467255,0.048013615102622254,0.3442166509614837,-0.9919406403613069,0.03512845714050594,-0.054500333565198344,0.28690555245687643,0.07500497681982421,0.6410199220858221,-0.2346185939946437,-0.16655039594413568,0.6676203887363217,-0.5757086910974862,-0.8141063661170889,-0.4671957598167318,-0.2391965034983532,-0.7853955299636433,-0.936264996974238,0.5971095049541677,-0.9316788658103008,-0.9718883630945336,-0.6118772896807114,-0.5759957446790516,-0.6492095162031197,-0.8387243231693802,0.35327644378030376,0.09981879137487182,0.5319672040271692,0.5732142407641263,-0.6665896570325256,-0.11445838366572847,-0.23483801763662826,-0.007112482366801398,0.7490267423927119,-0.4796127376677324,-0.5087146924788242,-0.45382581659670307,0.1470694373531216,-0.48366999792166787,-0.19140587256364405,0.3202586864373109,-0.013505301276123705,0.54402556115888,-0.663395684751791,0.47596326458377436,0.7107229819632654,-0.3205057828114841,0.5214412283683159,-0.9230489170908927,-0.8032608052859527,-0.2132674225457316,-0.7468056138459824,0.3268698826953791,-0.8472424215409644,0.46174116864576975,0.38673630021393035,-0.508939390248303,0.589749448443134,0.6464818311502738,-0.49092468232480546,0.6542913908224062,0.2907221966123039,-0.7837758179156218,0.08574936236270037,-0.7326353773603713,0.3295364840593902,-0.0021019250932996503,-0.34288007110901964,0.440249350802451,0.9474629458261761,-0.9695067570891225,-0.7942032659310758,-0.08737363967762302,-0.6535487038528798,0.7952676470618951,-0.13510092512396366]],"W2":[[0.42566546089913326,-0.9892806617436021]],"b1":[[-0.11350647360306376],[-0.8883512243016429]]}}
{"agentName":"11-19","fitness":87.66626684188843,"data":{"A1":[[-0.6163811293992283,0.6310520244205771]],"b2":[[0.14036559830391626]],"A2":[[-0.5138301369533138]],"W1":[[0.11567152703716288,0.869362379516893,-0.38256108933468047,-0.4458430198517267,-0.17594552497856109,-0.7650789687340165,-0.2624341731773887,-0.4737719210361617,-0.6398590028785496,-0.3693143843224689,-0.4140216156980294,-0.7817647176055291,-0.5478339283723341,-0.4570695204181501,0.6172200781434594,0.16176582452665622,-0.5129322300484287,0.651931743775642,0.9091720160603323,-0.2832966717028853,0.17411101951674168,0.4334638021227204,0.16004976900412138,0.645082645510225,-0.6119655371328692,-0.2841601610457427,0.7819482026561215,0.05010203411170289,-0.27622195759413226,-0.3865446386051681,-0.6724983095526844,-0.4166870051763918,0.5871666997683023,-0.7411250967438219,-0.4640968877628766,-0.9273384634731092,-0.2794902492677298,-0.1306778297187794,-0.7340195780767131,-0.4605180615474036,-0.3905291514704463,-0.31920625115098167,-0.6979368909424835,0.2658340369778214,0.37300564415537174,0.43854302140351065,0.6613148021930815,-0.03773878779258388,-0.928532336893418,-0.026818676347611925,0.5929380538376474,-0.9508672905347013,-0.08520206709125033,-0.932490723709146,0.02736878061817305,-0.25797542063247825,0.6070028425009408,-0.41404309625298485,0.04824006333980102,-0.06929816127622734,0.39449745853945895,0.817229160415142,0.36802582603584866,-0.46177261452343177,0.8962560058750573,-0.35646670891680876,-0.38884168866510227,0.05755658072144354,-0.9902267695629581,0.28275380738915645,0.4838937917910162,0.2811601433824158,-0.9270309666195007,-0.04188935314706965,-0.04668373902227474,-0.20846743965751569,0.8875446792372295,-0.3630122214803513,0.29246395759528565,0.8864415297929205],[-0.4763092428375775,-0.19356228775217077,-0.9168896568071507,-0.7293756474535911,0.2350487335467255,0.048013615102622254,0.3442166509614837,-0.9919406403613069,0.03512845714050594,-0.054500333565198344,0.28690555245687643,0.07500497681982421,0.6410199220858221,-0.2346185939946437,-0.16655039594413568,0.6676203887363217,-0.5757086910974862,-0.8141063661170889,-0.4671957598167318,-0.2391965034983532,-0.7853955299636433,-0.936264996974238,0.5971095049541677,-0.9316788658103008,-0.9718883630945336,-0.6118772896807114,-0.5759957446790516,-0.6492095162031197,-0.8387243231693802,0.35327644378030376,0.09981879137487182,0.5319672040271692,0.5732142407641263,-0.6665896570325256,-0.11445838366572847,-0.23483801763662826,-0.007112482366801398,0.7490267423927119,-0.4796127376677324,-0.5087146924788242,-0.45382581659670307,0.1470694373531216,-0.48366999792166787,-0.19140587256364405,0.3202586864373109,-0.013505301276123705,0.54402556115888,-0.663395684751791,0.47596326458377436,0.7107229819632654,-0.3205057828114841,0.5214412283683159,-0.9230489170908927,-0.8032608052859527,-0.2132674225457316,-0.7468056138459824,0.3268698826953791,-0.8472424215409644,0.46174116864576975,0.38673630021393035,-0.508939390248303,0.589749448443134,0.6464818311502738,-0.49092468232480546,0.6542913908224062,0.2907221966123039,-0.7837758179156218,0.08574936236270037,-0.7326353773603713,0.3295364840593902,-0.0021019250932996503,-0.34288007110901964,0.440249350802451,0.9474629458261761,-0.9695067570891225,-0.7942032659310758,-0.08737363967762302,-0.6535487038528798,0.7952676470618951,-0.13510092512396366]],"W2":[[0.42566546089913326,-0.9892806617436021]],"b1":[[-0.11350647360306376],[-0.8883512243016429]]}}
{"agentName":"13-0","fitness":108.48,"data":{"A1":[[-0.6163811293992283,0.5947498196446894]],"b2":[[0.14036559830391626]],"A2":[[-0.5138301369533138]],"W1":[[0.11567152703716288,0.869362379516893,-0.38256108933468047,-0.4458430198517267,-0.17594552497856109,-0.7650789687340165,0.21432074830213277,-0.4737719210361617,-0.6398590028785496,-0.3693143843224689,-0.4140216156980294,-0.7817647176055291,-0.5478339283723341,-0.6628099949806581,0.6172200781434594,-0.33817572226229276,-0.5129322300484287,0.651931743775642,0.9091720160603323,-0.2832966717028853,0.17411101951674168,0.4334638021227204,0.16004976900412138,0.645082645510225,-0.40458276805771787,-0.8050464479298192,0.7819482026561215,-0.3082090368447077,-0.27622195759413226,-0.3865446386051681,-0.6724983095526844,-0.4166870051763918,-0.9805146630661004,-0.7411250967438219,-0.4640968877628766,-0.9828552466309748,-0.2794902492677298,0.863349603008198,-0.7340195780767131,-0.4605180615474036,0.39175776477683466,-0.31920625115098167,-0.6979368909424835,0.2658340369778214,0.37300564415537174,0.43854302140351065,-0.0030815686273053533,-0.03773878779258388,-0.928532336893418,-0.026818676347611925,0.5929380538376474,-0.9508672905347013,-0.08520206709125033,-0.932490723709146,0.8358867095705136,-0.25797542063247825,0.6070028425009408,-0.41404309625298485,0.04824006333980102,-0.06929816127622734,0.39449745853945895,0.817229160415142,0.2834175947667217,0.060290975770040944,0.8962560058750573,0.7357974203643807,-0.38884168866510227,0.05755658072144354,-0.9902267695629581,-0.9918918178460248,0.4838937917910162,0.2811601433824158,-0.9270309666195007,-0.04188935314706965,-0.04668373902227474,-0.20846743965751569,0.8875446792372295,-0.3630122214803513,0.29246395759528565,0.8864415297929205],[-0.4763092428375775,-0.19356228775217077,-0.9168896568071507,-0.7293756474535911,0.2350487335467255,0.4754602748597312,0.09998565555566707,0.5438292838962173,0.03512845714050594,-0.054500333565198344,0.28690555245687643,0.07500497681982421,0.6410199220858221,-0.2346185939946437,0.7821856501246673,0.6676203887363217,-0.5757086910974862,-0.8141063661170889,-0.4671957598167318,-0.2391965034983532,0.6192089550490512,-0.936264996974238,0.5971095049541677,-0.9316788658103008,-0.9718883630945336,-0.6118772896807114,-0.5759957446790516,-0.6492095162031197,-0.8387243231693802,0.35327644378030376,0.9879843803508748,0.5319672040271692,0.5732142407641263,-0.6665896570325256,-0.11445838366572847,-0.23483801763662826,-0.007112482366801398,0.7490267423927119,-0.4796127376677324,-0.5087146924788242,-0.45382581659670307,0.1470694373531216,-0.48366999792166787,-0.19140587256364405,0.3202586864373109,-0.013505301276123705,0.54402556115888,-0.663395684751791,0.47596326458377436,0.7107229819632654,-0.3205057828114841,0.5214412283683159,-0.9230489170908927,-0.8032608052859527,0.601154684645318,-0.7468056138459824,0.3268698826953791,-0.8472424215409644,0.46174116864576975,0.38673630021393035,-0.5107483119869474,0.589749448443134,0.6464818311502738,-0.49092468232480546,0.6542913908224062,0.2907221966123039,-0.7837758179156218,0.08574936236270037,-0.7326353773603713,0.3726128210869284,-0.0021019250932996503,-0.34288007110901964,0.440249350802451,0.9474629458261761,-0.9695067570891225,-0.7942032659310758,-0.08737363967762302,-0.6535487038528798,0.7952676470618951,-0.13510092512396366]],"W2":[[0.42566546089913326,-0.9892806617436021]],"b1":[[-0.11350647360306376],[-0.8883512243016429]]}}
{"agentName":"13-1","fitness":108.48,"data":{"A1":[[-0.6163811293992283,0.5947498196446894]],"b2":[[0.14036559830391626]],"A2":[[-0.5138301369533138]],"W1":[[0.11567152703716288,0.869362379516893,-0.38256108933468047,-0.4458430198517267,-0.17594552497856109,-0.7650789687340165,0.21432074830213277,-0.4737719210361617,-0.6398590028785496,-0.3693143843224689,-0.4140216156980294,-0.7817647176055291,-0.5478339283723341,-0.6628099949806581,0.6172200781434594,-0.33817572226229276,-0.5129322300484287,0.651931743775642,0.9091720160603323,-0.2832966717028853,0.17411101951674168,0.4334638021227204,0.16004976900412138,0.645082645510225,-0.40458276805771787,-0.8050464479298192,0.7819482026561215,-0.3082090368447077,-0.27622195759413226,-0.3865446386051681,-0.6724983095526844,-0.4166870051763918,-0.9805146630661004,-0.7411250967438219,-0.4640968877628766,-0.9828552466309748,-0.2794902492677298,0.863349603008198,-0.7340195780767131,-0.4605180615474036,0.39175776477683466,-0.31920625115098167,-0.6979368909424835,0.2658340369778214,0.37300564415537174,0.43854302140351065,-0.0030815686273053533,-0.03773878779258388,-0.928532336893418,-0.026818676347611925,0.5929380538376474,-0.9508672905347013,-0.08520206709125033,-0.932490723709146,0.8358867095705136,-0.25797542063247825,0.6070028425009408,-0.41404309625298485,0.04824006333980102,-0.06929816127622734,0.39449745853945895,0.817229160415142,0.2834175947667217,0.060290975770040944,0.8962560058750573,0.7357974203643807,-0.38884168866510227,0.05755658072144354,-0.9902267695629581,-0.9918918178460248,0.4838937917910162,0.2811601433824158,-0.9270309666195007,-0.04188935314706965,-0.04668373902227474,-0.20846743965751569,0.8875446792372295,-0.3630122214803513,0.29246395759528565,0.8864415297929205],[-0.4763092428375775,-0.19356228775217077,-0.9168896568071507,-0.7293756474535911,0.2350487335467255,0.4754602748597312,0.09998565555566707,0.5438292838962173,0.03512845714050594,-0.054500333565198344,0.28690555245687643,0.07500497681982421,0.6410199220858221,-0.2346185939946437,0.7821856501246673,0.6676203887363217,-0.5757086910974862,-0.8141063661170889,-0.4671957598167318,-0.2391965034983532,0.6192089550490512,-0.936264996974238,0.5971095049541677,-0.9316788658103008,-0.9718883630945336,-0.6118772896807114,-0.5759957446790516,-0.6492095162031197,-0.8387243231693802,0.35327644378030376,0.9879843803508748,0.5319672040271692,0.5732142407641263,-0.6665896570325256,-0.11445838366572847,-0.23483801763662826,-0.007112482366801398,0.7490267423927119,-0.4796127376677324,-0.5087146924788242,-0.45382581659670307,0.1470694373531216,-0.48366999792166787,-0.19140587256364405,0.3202586864373109,-0.013505301276123705,0.54402556115888,-0.663395684751791,0.47596326458377436,0.7107229819632654,-0.3205057828114841,0.5214412283683159,-0.9230489170908927,-0.8032608052859527,0.601154684645318,-0.7468056138459824,0.3268698826953791,-0.8472424215409644,0.46174116864576975,0.38673630021393035,-0.5107483119869474,0.589749448443134,0.6464818311502738,-0.49092468232480546,0.6542913908224062,0.2907221966123039,-0.7837758179156218,0.08574936236270037,-0.7326353773603713,0.3726128210869284,-0.0021019250932996503,-0.34288007110901964,0.440249350802451,0.9474629458261761,-0.9695067570891225,-0.7942032659310758,-0.08737363967762302,-0.6535487038528798,0.7952676470618951,-0.13510092512396366]],"W2":[[0.42566546089913326,-0.9892806617436021]],"b1":[[-0.11350647360306376],[-0.8883512243016429]]}}
--{"agentName":"17-0","fitness":108.51,"data":{"A1":[[-0.6163811293992283,0.5947498196446894]],"b2":[[0.14036559830391626]],"A2":[[-0.5138301369533138]],"W1":[[-0.0889885881249437,0.869362379516893,-0.6149958093738157,-0.4458430198517267,-0.17594552497856109,-0.7650789687340165,0.21432074830213277,-0.4737719210361617,-0.6398590028785496,-0.3693143843224689,-0.4140216156980294,-0.7817647176055291,-0.5478339283723341,-0.6628099949806581,0.9192619475075428,-0.33817572226229276,-0.5129322300484287,0.21080365627353226,0.9091720160603323,-0.2832966717028853,0.17411101951674168,-0.6268348458241881,0.16004976900412138,-0.43433159721529235,-0.40458276805771787,-0.8050464479298192,0.7819482026561215,-0.3082090368447077,-0.27622195759413226,-0.3865446386051681,-0.6724983095526844,0.053868308168905976,-0.9805146630661004,-0.7411250967438219,-0.4640968877628766,-0.9828552466309748,0.670185624243699,0.863349603008198,0.036496769385195416,-0.4605180615474036,0.39175776477683466,-0.31920625115098167,-0.6979368909424835,0.2658340369778214,0.37300564415537174,0.43854302140351065,-0.5064248140115091,-0.03773878779258388,-0.928532336893418,-0.026818676347611925,0.5929380538376474,-0.9508672905347013,0.6352532171936149,-0.932490723709146,0.8358867095705136,0.2916583998132436,0.6070028425009408,-0.41404309625298485,0.04824006333980102,-0.06929816127622734,0.39449745853945895,-0.06218235259968519,0.2834175947667217,0.060290975770040944,0.8962560058750573,0.7357974203643807,-0.8780813041742541,-0.5596828272315386,-0.9902267695629581,-0.9918918178460248,-0.7495029875727852,0.2811601433824158,-0.9270309666195007,-0.42911956906782134,-0.04668373902227474,-0.20846743965751569,0.17533411436073543,-0.3630122214803513,0.29246395759528565,0.8864415297929205],[-0.4763092428375775,-0.943576087776067,-0.0487350960779358,-0.7293756474535911,0.2350487335467255,-0.8341936735993052,0.09998565555566707,0.5438292838962173,0.03512845714050594,-0.054500333565198344,0.28690555245687643,0.07500497681982421,0.6410199220858221,-0.5399485947328782,0.7821856501246673,0.6676203887363217,-0.5757086910974862,-0.8141063661170889,-0.4671957598167318,-0.2391965034983532,0.6192089550490512,-0.936264996974238,0.5971095049541677,-0.9316788658103008,-0.9718883630945336,-0.6118772896807114,-0.5759957446790516,-0.6492095162031197,-0.01877408473825737,0.35327644378030376,0.9879843803508748,0.5319672040271692,0.5732142407641263,-0.6665896570325256,-0.11445838366572847,-0.23483801763662826,-0.007112482366801398,0.7490267423927119,-0.4796127376677324,-0.5087146924788242,-0.45382581659670307,0.1470694373531216,-0.48366999792166787,-0.19140587256364405,0.3202586864373109,-0.013505301276123705,0.54402556115888,-0.663395684751791,0.47596326458377436,0.7107229819632654,-0.3205057828114841,0.5214412283683159,-0.9230489170908927,-0.8032608052859527,0.601154684645318,-0.7468056138459824,-0.26437461641497806,-0.8472424215409644,0.46174116864576975,0.8486218123180846,-0.5107483119869474,0.589749448443134,0.6222368561139819,-0.49092468232480546,0.6542913908224062,0.2907221966123039,-0.7837758179156218,0.08574936236270037,-0.7326353773603713,0.3726128210869284,-0.0021019250932996503,0.9967964818009922,0.440249350802451,0.9474629458261761,-0.9695067570891225,-0.7942032659310758,-0.08737363967762302,-0.7897076590639116,0.7952676470618951,-0.13510092512396366]],"W2":[[0.42566546089913326,-0.9892806617436021]],"b1":[[-0.11350647360306376],[-0.8883512243016429]]}}
--{"agentName":"20-3","fitness":108.69,"data":{"A1":[[-0.45713191685902843,0.5947498196446894]],"b2":[[0.14036559830391626]],"A2":[[-0.5138301369533138]],"W1":[[0.11567152703716288,0.869362379516893,-0.4440249829002936,-0.4458430198517267,-0.17594552497856109,-0.7650789687340165,0.21432074830213277,-0.4737719210361617,-0.6398590028785496,-0.3693143843224689,-0.4140216156980294,-0.7817647176055291,-0.5478339283723341,-0.6628099949806581,0.6172200781434594,-0.33817572226229276,-0.5129322300484287,0.651931743775642,0.9091720160603323,-0.2832966717028853,0.17411101951674168,-0.02774253208105959,0.16004976900412138,0.645082645510225,-0.40458276805771787,-0.7420649400666202,0.7819482026561215,-0.3082090368447077,-0.27622195759413226,0.4794021298220632,-0.6724983095526844,-0.4166870051763918,-0.607392885374082,-0.7411250967438219,-0.4640968877628766,-0.9828552466309748,-0.2794902492677298,-0.6094338265449952,-0.7340195780767131,-0.4605180615474036,0.39175776477683466,-0.31920625115098167,-0.6979368909424835,0.2658340369778214,0.37300564415537174,0.43854302140351065,-0.0030815686273053533,-0.03773878779258388,-0.928532336893418,-0.026818676347611925,0.5929380538376474,-0.9508672905347013,0.5987944934322889,-0.932490723709146,0.8358867095705136,-0.25797542063247825,0.6070028425009408,-0.41404309625298485,0.04824006333980102,-0.06929816127622734,0.39449745853945895,-0.10164684186817685,0.2834175947667217,0.060290975770040944,0.8962560058750573,0.7357974203643807,-0.38884168866510227,0.05755658072144354,-0.3711980102934067,-0.9918918178460248,0.4838937917910162,0.3283822911986696,-0.9270309666195007,-0.6503884744556825,-0.04668373902227474,0.7354858697975049,0.8875446792372295,-0.3630122214803513,0.29246395759528565,0.8864415297929205],[-0.4763092428375775,-0.19356228775217077,-0.9168896568071507,-0.7293756474535911,0.2350487335467255,0.4754602748597312,0.09998565555566707,-0.708312299298403,0.03512845714050594,-0.054500333565198344,0.28690555245687643,0.07500497681982421,0.6410199220858221,-0.2346185939946437,0.7821856501246673,0.6676203887363217,-0.5757086910974862,-0.8141063661170889,-0.4671957598167318,-0.2391965034983532,0.6192089550490512,-0.936264996974238,0.5971095049541677,-0.9316788658103008,-0.9718883630945336,-0.6118772896807114,-0.5759957446790516,-0.14674011460592506,-0.8387243231693802,0.35327644378030376,0.9879843803508748,0.5319672040271692,-0.936870897119864,-0.6665896570325256,-0.11445838366572847,-0.23483801763662826,-0.007112482366801398,-0.8649922806790962,-0.4796127376677324,-0.5087146924788242,-0.45382581659670307,0.77791106906474,-0.48366999792166787,-0.7851773997197837,0.3202586864373109,-0.013505301276123705,0.54402556115888,-0.663395684751791,0.47596326458377436,0.5157799240363006,0.8296823302481044,0.9222231449936276,-0.8408441010768675,-0.8032608052859527,0.601154684645318,-0.7066154309996875,0.3268698826953791,-0.8472424215409644,0.8429702177590264,0.38673630021393035,-0.5107483119869474,0.589749448443134,0.6464818311502738,-0.49092468232480546,0.6542913908224062,0.2907221966123039,-0.7837758179156218,0.08574936236270037,-0.7326353773603713,0.3726128210869284,-0.0021019250932996503,-0.34288007110901964,0.6701076175540686,0.9474629458261761,-0.9695067570891225,-0.7942032659310758,-0.08737363967762302,-0.6535487038528798,0.7952676470618951,-0.13510092512396366]],"W2":[[0.42566546089913326,-0.9892806617436021]],"b1":[[-0.11350647360306376],[-0.8883512243016429]]}}
---{"agentName":"20-2","fitness":108.69,"data":{"A1":[[-0.45713191685902843,0.5947498196446894]],"b2":[[0.14036559830391626]],"A2":[[-0.5138301369533138]],"W1":[[0.11567152703716288,0.869362379516893,-0.4440249829002936,-0.4458430198517267,-0.17594552497856109,-0.7650789687340165,0.21432074830213277,-0.4737719210361617,-0.6398590028785496,-0.3693143843224689,-0.4140216156980294,-0.7817647176055291,-0.5478339283723341,-0.6628099949806581,0.6172200781434594,-0.33817572226229276,-0.5129322300484287,0.651931743775642,0.9091720160603323,-0.2832966717028853,0.17411101951674168,-0.02774253208105959,0.16004976900412138,0.645082645510225,-0.40458276805771787,-0.7420649400666202,0.7819482026561215,-0.3082090368447077,-0.27622195759413226,0.4794021298220632,-0.6724983095526844,-0.4166870051763918,-0.607392885374082,-0.7411250967438219,-0.4640968877628766,-0.9828552466309748,-0.2794902492677298,-0.6094338265449952,-0.7340195780767131,-0.4605180615474036,0.39175776477683466,-0.31920625115098167,-0.6979368909424835,0.2658340369778214,0.37300564415537174,0.43854302140351065,-0.0030815686273053533,-0.03773878779258388,-0.928532336893418,-0.026818676347611925,0.5929380538376474,-0.9508672905347013,0.5987944934322889,-0.932490723709146,0.8358867095705136,-0.25797542063247825,0.6070028425009408,-0.41404309625298485,0.04824006333980102,-0.06929816127622734,0.39449745853945895,-0.10164684186817685,0.2834175947667217,0.060290975770040944,0.8962560058750573,0.7357974203643807,-0.38884168866510227,0.05755658072144354,-0.3711980102934067,-0.9918918178460248,0.4838937917910162,0.3283822911986696,-0.9270309666195007,-0.6503884744556825,-0.04668373902227474,0.7354858697975049,0.8875446792372295,-0.3630122214803513,0.29246395759528565,0.8864415297929205],[-0.4763092428375775,-0.19356228775217077,-0.9168896568071507,-0.7293756474535911,0.2350487335467255,0.4754602748597312,0.09998565555566707,-0.708312299298403,0.03512845714050594,-0.054500333565198344,0.28690555245687643,0.07500497681982421,0.6410199220858221,-0.2346185939946437,0.7821856501246673,0.6676203887363217,-0.5757086910974862,-0.8141063661170889,-0.4671957598167318,-0.2391965034983532,0.6192089550490512,-0.936264996974238,0.5971095049541677,-0.9316788658103008,-0.9718883630945336,-0.6118772896807114,-0.5759957446790516,-0.14674011460592506,-0.8387243231693802,0.35327644378030376,0.9879843803508748,0.5319672040271692,-0.936870897119864,-0.6665896570325256,-0.11445838366572847,-0.23483801763662826,-0.007112482366801398,-0.8649922806790962,-0.4796127376677324,-0.5087146924788242,-0.45382581659670307,0.77791106906474,-0.48366999792166787,-0.7851773997197837,0.3202586864373109,-0.013505301276123705,0.54402556115888,-0.663395684751791,0.47596326458377436,0.5157799240363006,0.8296823302481044,0.9222231449936276,-0.8408441010768675,-0.8032608052859527,0.601154684645318,-0.7066154309996875,0.3268698826953791,-0.8472424215409644,0.8429702177590264,0.38673630021393035,-0.5107483119869474,0.589749448443134,0.6464818311502738,-0.49092468232480546,0.6542913908224062,0.2907221966123039,-0.7837758179156218,0.08574936236270037,-0.7326353773603713,0.3726128210869284,-0.0021019250932996503,-0.34288007110901964,0.6701076175540686,0.9474629458261761,-0.9695067570891225,-0.7942032659310758,-0.08737363967762302,-0.6535487038528798,0.7952676470618951,-0.13510092512396366]],"W2":[[0.42566546089913326,-0.9892806617436021]],"b1":[[-0.11350647360306376],[-0.8883512243016429]]}}
--------{"agentName":"33-12","fitness":108.9,"data":{"A1":[[-0.6163811293992283,0.6310520244205771]],"b2":[[0.14036559830391626]],"A2":[[-0.5138301369533138]],"W1":[[0.11567152703716288,0.869362379516893,0.8320817340641848,-0.8130871839790945,-0.7473013854532702,-0.7904596245455462,-0.2624341731773887,-0.9710319360914941,-0.6398590028785496,-0.3693143843224689,0.16270420441522093,-0.2641734172126602,-0.7061125559792856,-0.4570695204181501,0.6172200781434594,0.16176582452665622,0.7443928568900826,0.651931743775642,0.9091720160603323,-0.8291398841161137,0.17411101951674168,0.964066461894018,0.16004976900412138,0.645082645510225,-0.6119655371328692,0.010478239167050818,0.7819482026561215,0.41989613767174827,0.5462327919398307,-0.35702423031134756,-0.4317873482610113,-0.25613930703053955,0.07063713424601037,-0.7411250967438219,-0.4640968877628766,-0.28815945686126687,0.4679429253750793,-0.1306778297187794,-0.3198213461685169,0.16164462353420506,-0.6892614585615655,-0.02328116662798596,0.08838539869786821,-0.45218803109485517,-0.25672369057041267,-0.6433811234704707,0.6613148021930815,0.6846824309542925,-0.6584783846876374,-0.026818676347611925,0.5929380538376474,-0.5635791298424011,0.6448172084744412,-0.3598533939635835,0.02736878061817305,-0.8965777168982854,0.6070028425009408,0.5423753563626919,-0.1778227345480674,-0.7048330569144334,0.39449745853945895,0.817229160415142,-0.4592138786434552,0.7031281903303372,-0.6739983968219896,-0.35646670891680876,-0.38884168866510227,0.05755658072144354,-0.9902267695629581,0.28275380738915645,-0.47714046660314424,0.2811601433824158,0.4963830301482939,0.4990924750976251,-0.33878989426521566,-0.26891976466558853,0.2358558503765371,-0.7667183504072002,-0.43815679901007076,0.8864415297929205],[0.4200254503422238,-0.19356228775217077,-0.038810831088093245,-0.7293756474535911,0.2350487335467255,0.048013615102622254,0.27345279686546675,-0.9919406403613069,0.03512845714050594,0.7611346554479883,-0.5435634004258048,-0.3924381809267672,-0.7003348831455041,-0.2346185939946437,-0.9004884697110871,0.6676203887363217,-0.40894890804482986,0.9740583019998688,-0.48675268156263707,-0.11625313493784906,-0.7853955299636433,-0.9659553978502295,0.5971095049541677,-0.9316788658103008,-0.9718883630945336,-0.6118772896807114,-0.43482906455063497,-0.6492095162031197,0.03891692291277793,-0.9645209714176202,0.26081346101385305,-0.8400483962290484,0.5732142407641263,-0.6665896570325256,0.8773033791101901,-0.23483801763662826,-0.12006472430039117,-0.1998414000168578,0.8255320518340634,-0.9378015045451782,0.8639299481531777,-0.8124919659020995,-0.4951107314113412,-0.19140587256364405,0.7936517085298014,0.5040035804253624,0.0339467673725915,-0.663395684751791,0.6044817302090384,0.7107229819632654,-0.3205057828114841,0.5214412283683159,-0.9230489170908927,0.48423377636516185,-0.21889117149041804,0.5837386003200147,0.031523688691030616,-0.8472424215409644,-0.07309902268564716,0.38673630021393035,-0.0943009858488193,0.38098935635423836,-0.08325460798548945,-0.7361801640035777,-0.29232794767792103,0.2907221966123039,-0.593977180865555,0.2435299264429729,-0.7326353773603713,0.3295364840593902,-0.0021019250932996503,-0.34288007110901964,-0.3231818075055537,0.9474629458261761,-0.9695067570891225,-0.805514463493233,0.8373264398246127,-0.6535487038528798,-0.5971036797880254,0.10076730256794253]],"W2":[[0.42566546089913326,-0.9892806617436021]],"b1":[[-0.11350647360306376],[0.7360190631386512]]}}
-{"agentName":"33-13","fitness":108.9,"data":{"A1":[[-0.6163811293992283,0.6310520244205771]],"b2":[[0.14036559830391626]],"A2":[[-0.5138301369533138]],"W1":[[0.11567152703716288,0.869362379516893,0.8320817340641848,-0.8130871839790945,-0.7473013854532702,-0.7904596245455462,-0.2624341731773887,-0.9710319360914941,-0.6398590028785496,-0.3693143843224689,0.16270420441522093,-0.2641734172126602,-0.7061125559792856,-0.4570695204181501,0.6172200781434594,0.16176582452665622,0.7443928568900826,0.651931743775642,0.9091720160603323,-0.8291398841161137,0.17411101951674168,0.964066461894018,0.16004976900412138,0.645082645510225,-0.6119655371328692,0.010478239167050818,0.7819482026561215,0.41989613767174827,0.5462327919398307,-0.35702423031134756,-0.4317873482610113,-0.25613930703053955,0.07063713424601037,-0.7411250967438219,-0.4640968877628766,-0.28815945686126687,0.4679429253750793,-0.1306778297187794,-0.3198213461685169,0.16164462353420506,-0.6892614585615655,-0.02328116662798596,0.08838539869786821,-0.45218803109485517,-0.25672369057041267,-0.6433811234704707,0.6613148021930815,0.6846824309542925,-0.6584783846876374,-0.026818676347611925,0.5929380538376474,-0.5635791298424011,0.6448172084744412,-0.3598533939635835,0.02736878061817305,-0.8965777168982854,0.6070028425009408,0.5423753563626919,-0.1778227345480674,-0.7048330569144334,0.39449745853945895,0.817229160415142,-0.4592138786434552,0.7031281903303372,-0.6739983968219896,-0.35646670891680876,-0.38884168866510227,0.05755658072144354,-0.9902267695629581,0.28275380738915645,-0.47714046660314424,0.2811601433824158,0.4963830301482939,0.4990924750976251,-0.33878989426521566,-0.26891976466558853,0.2358558503765371,-0.7667183504072002,-0.43815679901007076,0.8864415297929205],[0.4200254503422238,-0.19356228775217077,-0.038810831088093245,-0.7293756474535911,0.2350487335467255,0.048013615102622254,0.27345279686546675,-0.9919406403613069,0.03512845714050594,0.7611346554479883,-0.5435634004258048,-0.3924381809267672,-0.7003348831455041,-0.2346185939946437,-0.9004884697110871,0.6676203887363217,-0.40894890804482986,0.9740583019998688,-0.48675268156263707,-0.11625313493784906,-0.7853955299636433,-0.9659553978502295,0.5971095049541677,-0.9316788658103008,-0.9718883630945336,-0.6118772896807114,-0.43482906455063497,-0.6492095162031197,0.03891692291277793,-0.9645209714176202,0.26081346101385305,-0.8400483962290484,0.5732142407641263,-0.6665896570325256,0.8773033791101901,-0.23483801763662826,-0.12006472430039117,-0.1998414000168578,0.8255320518340634,-0.9378015045451782,0.8639299481531777,-0.8124919659020995,-0.4951107314113412,-0.19140587256364405,0.7936517085298014,0.5040035804253624,0.0339467673725915,-0.663395684751791,0.6044817302090384,0.7107229819632654,-0.3205057828114841,0.5214412283683159,-0.9230489170908927,0.48423377636516185,-0.21889117149041804,0.5837386003200147,0.031523688691030616,-0.8472424215409644,-0.07309902268564716,0.38673630021393035,-0.0943009858488193,0.38098935635423836,-0.08325460798548945,-0.7361801640035777,-0.29232794767792103,0.2907221966123039,-0.593977180865555,0.2435299264429729,-0.7326353773603713,0.3295364840593902,-0.0021019250932996503,-0.34288007110901964,-0.3231818075055537,0.9474629458261761,-0.9695067570891225,-0.805514463493233,0.8373264398246127,-0.6535487038528798,-0.5971036797880254,0.10076730256794253]],"W2":[[0.42566546089913326,-0.9892806617436021]],"b1":[[-0.11350647360306376],[0.7360190631386512]]}}
---------------------------{"agentName":"63-9","fitness":108.93,"data":{"A1":[[-0.4087956046405372,0.9485483012134968]],"b2":[[0.14036559830391626]],"A2":[[-0.5138301369533138]],"W1":[[0.11567152703716288,0.869362379516893,-0.5772122400793769,-0.4458430198517267,-0.17594552497856109,-0.7650789687340165,0.21432074830213277,-0.4737719210361617,-0.5367916995805011,-0.3693143843224689,0.9798741275038292,-0.09615579281882769,-0.5478339283723341,0.24940367427565313,-0.34426515219527243,-0.33817572226229276,-0.5129322300484287,0.48857536174811944,-0.07441315748017852,0.30206650940073954,0.17411101951674168,-0.02774253208105959,0.12511827208174364,0.645082645510225,-0.40458276805771787,-0.7420649400666202,0.9353222808851491,-0.3082090368447077,0.7092502580744224,0.4794021298220632,0.6424771775982079,-0.05189376446301042,-0.6169964145072329,-0.7411250967438219,0.5576502639691561,-0.9828552466309748,-0.2794902492677298,0.4971723856336032,-0.7340195780767131,-0.4605180615474036,0.34563770883922684,-0.31920625115098167,-0.6979368909424835,-0.05455973893618493,0.37300564415537174,-0.7246775987371306,-0.0030815686273053533,-0.03773878779258388,-0.25175274405464076,-0.026818676347611925,0.5929380538376474,-0.9336039635770637,0.5987944934322889,0.47074292431570286,0.8358867095705136,-0.25797542063247825,0.6389796482414207,-0.41404309625298485,0.04824006333980102,-0.06929816127622734,0.39449745853945895,0.9765600497568623,0.8724450707238633,0.060290975770040944,0.5726589158054047,0.16081003553033812,0.27844228696945383,0.05755658072144354,-0.3711980102934067,0.46140870953397584,0.3147620165359202,0.6688867573729733,-0.9270309666195007,-0.6503884744556825,-0.2891695062636175,0.7354858697975049,0.8875446792372295,-0.3630122214803513,0.41565891484286843,0.8864415297929205],[-0.4763092428375775,-0.19356228775217077,-0.9168896568071507,0.42148987006588334,0.2350487335467255,0.08062761483345282,0.09998565555566707,-0.708312299298403,0.03512845714050594,0.27920349247308063,0.28690555245687643,-0.9641833297787068,0.12784553093844964,-0.8130549285005524,-0.7863665805227034,-0.3839019195371929,-0.8799083489333834,-0.8141063661170889,-0.7041123576017048,-0.21150042570106642,-0.9089039802657546,0.7841767925852285,-0.2818422931764091,-0.4542060798350862,-0.8783373373719117,0.9587798830387804,0.3998509469739384,-0.14674011460592506,0.47628074314815616,-0.4807465831545443,0.23770576100802376,0.11180336239515021,-0.936870897119864,-0.6665896570325256,-0.11445838366572847,-0.23483801763662826,-0.007112482366801398,-0.8649922806790962,-0.4796127376677324,-0.5087146924788242,-0.45382581659670307,0.77791106906474,-0.48366999792166787,0.08249360425127317,0.11573315667249884,-0.013505301276123705,0.54402556115888,-0.663395684751791,0.47596326458377436,0.5157799240363006,0.8296823302481044,0.19099807422351955,0.4609628108709727,-0.8032608052859527,-0.9080737573465174,-0.7066154309996875,0.3268698826953791,-0.8472424215409644,0.8429702177590264,0.38673630021393035,0.12081291221631996,0.589749448443134,0.6464818311502738,-0.49092468232480546,0.6542913908224062,0.2907221966123039,-0.0688605630316157,0.08574936236270037,-0.7326353773603713,0.5540897093297399,-0.0021019250932996503,-0.34288007110901964,0.6701076175540686,0.9474629458261761,4.0578844804106673E-4,-0.7942032659310758,-0.8036331088960493,-0.6535487038528798,0.7952676470618951,-0.13510092512396366]],"W2":[[0.42566546089913326,-0.9892806617436021]],"b1":[[-0.11350647360306376],[-0.8883512243016429]]}}
-{"agentName":"63-8","fitness":108.93,"data":{"A1":[[-0.4087956046405372,0.9485483012134968]],"b2":[[0.14036559830391626]],"A2":[[-0.5138301369533138]],"W1":[[0.11567152703716288,0.869362379516893,-0.5772122400793769,-0.4458430198517267,-0.17594552497856109,-0.7650789687340165,0.21432074830213277,-0.4737719210361617,-0.5367916995805011,-0.3693143843224689,0.9798741275038292,-0.09615579281882769,-0.5478339283723341,0.24940367427565313,-0.34426515219527243,-0.33817572226229276,-0.5129322300484287,0.48857536174811944,-0.07441315748017852,0.30206650940073954,0.17411101951674168,-0.02774253208105959,0.12511827208174364,0.645082645510225,-0.40458276805771787,-0.7420649400666202,0.9353222808851491,-0.3082090368447077,0.7092502580744224,0.4794021298220632,0.6424771775982079,-0.05189376446301042,-0.6169964145072329,-0.7411250967438219,0.5576502639691561,-0.9828552466309748,-0.2794902492677298,0.4971723856336032,-0.7340195780767131,-0.4605180615474036,0.34563770883922684,-0.31920625115098167,-0.6979368909424835,-0.05455973893618493,0.37300564415537174,-0.7246775987371306,-0.0030815686273053533,-0.03773878779258388,-0.25175274405464076,-0.026818676347611925,0.5929380538376474,-0.9336039635770637,0.5987944934322889,0.47074292431570286,0.8358867095705136,-0.25797542063247825,0.6389796482414207,-0.41404309625298485,0.04824006333980102,-0.06929816127622734,0.39449745853945895,0.9765600497568623,0.8724450707238633,0.060290975770040944,0.5726589158054047,0.16081003553033812,0.27844228696945383,0.05755658072144354,-0.3711980102934067,0.46140870953397584,0.3147620165359202,0.6688867573729733,-0.9270309666195007,-0.6503884744556825,-0.2891695062636175,0.7354858697975049,0.8875446792372295,-0.3630122214803513,0.41565891484286843,0.8864415297929205],[-0.4763092428375775,-0.19356228775217077,-0.9168896568071507,0.42148987006588334,0.2350487335467255,0.08062761483345282,0.09998565555566707,-0.708312299298403,0.03512845714050594,0.27920349247308063,0.28690555245687643,-0.9641833297787068,0.12784553093844964,-0.8130549285005524,-0.7863665805227034,-0.3839019195371929,-0.8799083489333834,-0.8141063661170889,-0.7041123576017048,-0.21150042570106642,-0.9089039802657546,0.7841767925852285,-0.2818422931764091,-0.4542060798350862,-0.8783373373719117,0.9587798830387804,0.3998509469739384,-0.14674011460592506,0.47628074314815616,-0.4807465831545443,0.23770576100802376,0.11180336239515021,-0.936870897119864,-0.6665896570325256,-0.11445838366572847,-0.23483801763662826,-0.007112482366801398,-0.8649922806790962,-0.4796127376677324,-0.5087146924788242,-0.45382581659670307,0.77791106906474,-0.48366999792166787,0.08249360425127317,0.11573315667249884,-0.013505301276123705,0.54402556115888,-0.663395684751791,0.47596326458377436,0.5157799240363006,0.8296823302481044,0.19099807422351955,0.4609628108709727,-0.8032608052859527,-0.9080737573465174,-0.7066154309996875,0.3268698826953791,-0.8472424215409644,0.8429702177590264,0.38673630021393035,0.12081291221631996,0.589749448443134,0.6464818311502738,-0.49092468232480546,0.6542913908224062,0.2907221966123039,-0.0688605630316157,0.08574936236270037,-0.7326353773603713,0.5540897093297399,-0.0021019250932996503,-0.34288007110901964,0.6701076175540686,0.9474629458261761,4.0578844804106673E-4,-0.7942032659310758,-0.8036331088960493,-0.6535487038528798,0.7952676470618951,-0.13510092512396366]],"W2":[[0.42566546089913326,-0.9892806617436021]],"b1":[[-0.11350647360306376],[-0.8883512243016429]]}}
--------{"agentName":"74-4","fitness":109.14,"data":{"A1":[[-0.45713191685902843,-0.7978796083254382]],"b2":[[0.14036559830391626]],"A2":[[-0.5138301369533138]],"W1":[[0.11567152703716288,0.869362379516893,0.8110856037985079,-0.22676403289191094,-0.17594552497856109,-0.7032188333551355,0.21432074830213277,-0.4737719210361617,-0.6398590028785496,-0.6458869374936136,-0.856645175053822,-0.21272601567069405,-0.5478339283723341,-0.6628099949806581,0.6172200781434594,-0.33817572226229276,-0.5129322300484287,0.651931743775642,0.9091720160603323,-0.2832966717028853,0.17411101951674168,-0.02774253208105959,0.16004976900412138,0.645082645510225,-0.40458276805771787,-0.7420649400666202,0.7819482026561215,-0.3082090368447077,-0.27622195759413226,0.4794021298220632,-0.6724983095526844,-0.4166870051763918,-0.607392885374082,-0.7411250967438219,-0.4640968877628766,0.5290829873665106,-0.2794902492677298,-0.826587052600843,-0.7340195780767131,-0.4605180615474036,0.39175776477683466,-0.31920625115098167,-0.6979368909424835,0.2658340369778214,0.3792790841827671,0.3629943406648446,-0.36292251900270456,-0.03773878779258388,-0.928532336893418,-0.026818676347611925,-0.6923018795778115,-0.9508672905347013,0.5987944934322889,-0.932490723709146,0.8594280410934929,-0.25797542063247825,0.257131052198156,-0.41404309625298485,0.04824006333980102,-0.06929816127622734,0.39449745853945895,0.35318877910847823,0.2834175947667217,0.4713117241930691,0.8962560058750573,0.7357974203643807,-0.2681937857039389,0.05755658072144354,-0.3711980102934067,-0.9918918178460248,0.4838937917910162,0.3283822911986696,-0.9270309666195007,0.8997718532119949,-0.04668373902227474,-0.5483226669912193,0.8875446792372295,-0.3630122214803513,0.29246395759528565,0.8864415297929205],[-0.4763092428375775,-0.19356228775217077,-0.9168896568071507,0.21558404279880028,0.17235433665371191,0.4754602748597312,-0.7755066728579414,-0.708312299298403,0.03512845714050594,-0.054500333565198344,0.28690555245687643,0.07500497681982421,0.6410199220858221,-0.2346185939946437,0.21574408549518242,0.6676203887363217,-0.5757086910974862,-0.8141063661170889,-0.4671957598167318,0.4126538700451847,0.6192089550490512,-0.936264996974238,0.5971095049541677,-0.9316788658103008,-0.9718883630945336,-0.6118772896807114,-0.5759957446790516,-0.14674011460592506,-0.8387243231693802,0.35327644378030376,0.9879843803508748,0.013076562328316221,-0.936870897119864,-0.6665896570325256,-0.11445838366572847,0.007450634895150854,-0.007112482366801398,-0.8649922806790962,-0.4796127376677324,-0.7827366555314497,0.8649656025720815,0.77791106906474,-0.6645108449743089,-0.7851773997197837,0.3202586864373109,-0.013505301276123705,0.54402556115888,-0.6182185032258614,0.47596326458377436,0.5157799240363006,0.9694426413820714,0.9222231449936276,-0.8408441010768675,-0.26442410967838037,-0.03895660286203473,0.34058224391794667,0.3268698826953791,-0.8472424215409644,0.8429702177590264,0.38673630021393035,-0.5107483119869474,-0.36181000872378544,0.6464818311502738,-0.49092468232480546,0.6542913908224062,0.2907221966123039,-0.7837758179156218,0.08574936236270037,-0.3769434187129246,0.3726128210869284,-0.0021019250932996503,-0.34288007110901964,0.6701076175540686,0.9474629458261761,-0.9695067570891225,-0.7942032659310758,-0.08737363967762302,-0.6535487038528798,0.7952676470618951,-0.13510092512396366]],"W2":[[0.42566546089913326,-0.9892806617436021]],"b1":[[-0.11350647360306376],[-0.2667688368450487]]}}
{"agentName":"74-5","fitness":109.14,"data":{"A1":[[-0.45713191685902843,-0.7978796083254382]],"b2":[[0.14036559830391626]],"A2":[[-0.5138301369533138]],"W1":[[0.11567152703716288,0.869362379516893,0.8110856037985079,-0.22676403289191094,-0.17594552497856109,-0.7032188333551355,0.21432074830213277,-0.4737719210361617,-0.6398590028785496,-0.6458869374936136,-0.856645175053822,-0.21272601567069405,-0.5478339283723341,-0.6628099949806581,0.6172200781434594,-0.33817572226229276,-0.5129322300484287,0.651931743775642,0.9091720160603323,-0.2832966717028853,0.17411101951674168,-0.02774253208105959,0.16004976900412138,0.645082645510225,-0.40458276805771787,-0.7420649400666202,0.7819482026561215,-0.3082090368447077,-0.27622195759413226,0.4794021298220632,-0.6724983095526844,-0.4166870051763918,-0.607392885374082,-0.7411250967438219,-0.4640968877628766,0.5290829873665106,-0.2794902492677298,-0.826587052600843,-0.7340195780767131,-0.4605180615474036,0.39175776477683466,-0.31920625115098167,-0.6979368909424835,0.2658340369778214,0.3792790841827671,0.3629943406648446,-0.36292251900270456,-0.03773878779258388,-0.928532336893418,-0.026818676347611925,-0.6923018795778115,-0.9508672905347013,0.5987944934322889,-0.932490723709146,0.8594280410934929,-0.25797542063247825,0.257131052198156,-0.41404309625298485,0.04824006333980102,-0.06929816127622734,0.39449745853945895,0.35318877910847823,0.2834175947667217,0.4713117241930691,0.8962560058750573,0.7357974203643807,-0.2681937857039389,0.05755658072144354,-0.3711980102934067,-0.9918918178460248,0.4838937917910162,0.3283822911986696,-0.9270309666195007,0.8997718532119949,-0.04668373902227474,-0.5483226669912193,0.8875446792372295,-0.3630122214803513,0.29246395759528565,0.8864415297929205],[-0.4763092428375775,-0.19356228775217077,-0.9168896568071507,0.21558404279880028,0.17235433665371191,0.4754602748597312,-0.7755066728579414,-0.708312299298403,0.03512845714050594,-0.054500333565198344,0.28690555245687643,0.07500497681982421,0.6410199220858221,-0.2346185939946437,0.21574408549518242,0.6676203887363217,-0.5757086910974862,-0.8141063661170889,-0.4671957598167318,0.4126538700451847,0.6192089550490512,-0.936264996974238,0.5971095049541677,-0.9316788658103008,-0.9718883630945336,-0.6118772896807114,-0.5759957446790516,-0.14674011460592506,-0.8387243231693802,0.35327644378030376,0.9879843803508748,0.013076562328316221,-0.936870897119864,-0.6665896570325256,-0.11445838366572847,0.007450634895150854,-0.007112482366801398,-0.8649922806790962,-0.4796127376677324,-0.7827366555314497,0.8649656025720815,0.77791106906474,-0.6645108449743089,-0.7851773997197837,0.3202586864373109,-0.013505301276123705,0.54402556115888,-0.6182185032258614,0.47596326458377436,0.5157799240363006,0.9694426413820714,0.9222231449936276,-0.8408441010768675,-0.26442410967838037,-0.03895660286203473,0.34058224391794667,0.3268698826953791,-0.8472424215409644,0.8429702177590264,0.38673630021393035,-0.5107483119869474,-0.36181000872378544,0.6464818311502738,-0.49092468232480546,0.6542913908224062,0.2907221966123039,-0.7837758179156218,0.08574936236270037,-0.3769434187129246,0.3726128210869284,-0.0021019250932996503,-0.34288007110901964,0.6701076175540686,0.9474629458261761,-0.9695067570891225,-0.7942032659310758,-0.08737363967762302,-0.6535487038528798,0.7952676470618951,-0.13510092512396366]],"W2":[[0.42566546089913326,-0.9892806617436021]],"b1":[[-0.11350647360306376],[-0.2667688368450487]]}}
---{"agentName":"79-0","fitness":109.2,"data":{"A1":[[0.8967548147887532,-0.7978796083254382]],"b2":[[0.14036559830391626]],"A2":[[-0.5138301369533138]],"W1":[[0.11567152703716288,0.869362379516893,0.8110856037985079,-0.22676403289191094,-0.17594552497856109,-0.7032188333551355,0.21432074830213277,-0.4737719210361617,-0.6398590028785496,-0.6458869374936136,-0.856645175053822,-0.21272601567069405,0.02745465167208394,-0.6628099949806581,0.6172200781434594,-0.33817572226229276,0.19557670864644483,-0.09396148454133657,0.9091720160603323,-0.2832966717028853,0.17411101951674168,0.036704090949178036,0.10694932577075145,0.645082645510225,-0.40458276805771787,-0.7420649400666202,0.7819482026561215,-0.3082090368447077,-0.27622195759413226,0.4794021298220632,-0.6724983095526844,0.970141016734064,-0.607392885374082,-0.7411250967438219,-0.4640968877628766,0.5290829873665106,-0.2794902492677298,-0.826587052600843,-0.7340195780767131,-0.4605180615474036,0.39175776477683466,-0.31920625115098167,-0.6979368909424835,0.2658340369778214,0.3792790841827671,-0.07622832001693425,-0.36292251900270456,-0.03773878779258388,-0.928532336893418,-0.026818676347611925,-0.6923018795778115,-0.9508672905347013,0.5987944934322889,-0.932490723709146,-0.690018902428595,-0.25797542063247825,0.257131052198156,-0.41404309625298485,0.04824006333980102,-0.06929816127622734,0.39449745853945895,0.35318877910847823,0.2834175947667217,-0.7703840998148832,-0.4046912481177509,0.7357974203643807,-0.2681937857039389,0.05755658072144354,-0.3711980102934067,-0.9918918178460248,0.4838937917910162,0.3283822911986696,-0.36932875137387855,0.8997718532119949,-0.04668373902227474,-0.5483226669912193,0.8875446792372295,-0.3630122214803513,0.29246395759528565,0.8864415297929205],[-0.4763092428375775,0.15169575812849545,-0.9168896568071507,0.7883507055094827,0.17235433665371191,0.4754602748597312,-0.7755066728579414,-0.708312299298403,0.03512845714050594,-0.054500333565198344,0.28690555245687643,0.07500497681982421,0.6410199220858221,-0.2346185939946437,-0.017518740147131284,0.6676203887363217,-0.5757086910974862,-0.8141063661170889,-0.4671957598167318,0.4126538700451847,0.6192089550490512,-0.26636480692196085,0.5971095049541677,-0.9316788658103008,-0.9718883630945336,-0.9188420878443357,-0.5759957446790516,-0.14674011460592506,-0.8387243231693802,0.35327644378030376,0.9879843803508748,0.013076562328316221,-0.936870897119864,-0.6665896570325256,-0.11445838366572847,-0.7143099476312782,-0.007112482366801398,-0.8649922806790962,-0.4796127376677324,-0.7827366555314497,0.8649656025720815,0.77791106906474,-0.6645108449743089,0.15483393857326044,0.3202586864373109,-0.013505301276123705,0.54402556115888,-0.6182185032258614,0.47596326458377436,0.47516844483466114,0.9694426413820714,0.9222231449936276,-0.8408441010768675,-0.26442410967838037,-0.03895660286203473,0.03794004977619325,0.3268698826953791,-0.8472424215409644,0.8429702177590264,0.38673630021393035,-0.5107483119869474,-0.36181000872378544,0.6464818311502738,-0.49092468232480546,0.6542913908224062,0.2907221966123039,-0.7837758179156218,0.08574936236270037,-0.3769434187129246,0.3726128210869284,-0.0021019250932996503,-0.34288007110901964,0.6701076175540686,0.07781159227504175,-0.9695067570891225,-0.7942032659310758,-0.08737363967762302,-0.6535487038528798,0.7952676470618951,-0.13510092512396366]],"W2":[[0.40645379786348834,-0.9892806617436021]],"b1":[[-0.9028955942793078],[-0.2667688368450487]]}}
{"agentName":"79-1","fitness":109.2,"data":{"A1":[[0.8967548147887532,-0.7978796083254382]],"b2":[[0.14036559830391626]],"A2":[[-0.5138301369533138]],"W1":[[0.11567152703716288,0.869362379516893,0.8110856037985079,-0.22676403289191094,-0.17594552497856109,-0.7032188333551355,0.21432074830213277,-0.4737719210361617,-0.6398590028785496,-0.6458869374936136,-0.856645175053822,-0.21272601567069405,0.02745465167208394,-0.6628099949806581,0.6172200781434594,-0.33817572226229276,0.19557670864644483,-0.09396148454133657,0.9091720160603323,-0.2832966717028853,0.17411101951674168,0.036704090949178036,0.10694932577075145,0.645082645510225,-0.40458276805771787,-0.7420649400666202,0.7819482026561215,-0.3082090368447077,-0.27622195759413226,0.4794021298220632,-0.6724983095526844,0.970141016734064,-0.607392885374082,-0.7411250967438219,-0.4640968877628766,0.5290829873665106,-0.2794902492677298,-0.826587052600843,-0.7340195780767131,-0.4605180615474036,0.39175776477683466,-0.31920625115098167,-0.6979368909424835,0.2658340369778214,0.3792790841827671,-0.07622832001693425,-0.36292251900270456,-0.03773878779258388,-0.928532336893418,-0.026818676347611925,-0.6923018795778115,-0.9508672905347013,0.5987944934322889,-0.932490723709146,-0.690018902428595,-0.25797542063247825,0.257131052198156,-0.41404309625298485,0.04824006333980102,-0.06929816127622734,0.39449745853945895,0.35318877910847823,0.2834175947667217,-0.7703840998148832,-0.4046912481177509,0.7357974203643807,-0.2681937857039389,0.05755658072144354,-0.3711980102934067,-0.9918918178460248,0.4838937917910162,0.3283822911986696,-0.36932875137387855,0.8997718532119949,-0.04668373902227474,-0.5483226669912193,0.8875446792372295,-0.3630122214803513,0.29246395759528565,0.8864415297929205],[-0.4763092428375775,0.15169575812849545,-0.9168896568071507,0.7883507055094827,0.17235433665371191,0.4754602748597312,-0.7755066728579414,-0.708312299298403,0.03512845714050594,-0.054500333565198344,0.28690555245687643,0.07500497681982421,0.6410199220858221,-0.2346185939946437,-0.017518740147131284,0.6676203887363217,-0.5757086910974862,-0.8141063661170889,-0.4671957598167318,0.4126538700451847,0.6192089550490512,-0.26636480692196085,0.5971095049541677,-0.9316788658103008,-0.9718883630945336,-0.9188420878443357,-0.5759957446790516,-0.14674011460592506,-0.8387243231693802,0.35327644378030376,0.9879843803508748,0.013076562328316221,-0.936870897119864,-0.6665896570325256,-0.11445838366572847,-0.7143099476312782,-0.007112482366801398,-0.8649922806790962,-0.4796127376677324,-0.7827366555314497,0.8649656025720815,0.77791106906474,-0.6645108449743089,0.15483393857326044,0.3202586864373109,-0.013505301276123705,0.54402556115888,-0.6182185032258614,0.47596326458377436,0.47516844483466114,0.9694426413820714,0.9222231449936276,-0.8408441010768675,-0.26442410967838037,-0.03895660286203473,0.03794004977619325,0.3268698826953791,-0.8472424215409644,0.8429702177590264,0.38673630021393035,-0.5107483119869474,-0.36181000872378544,0.6464818311502738,-0.49092468232480546,0.6542913908224062,0.2907221966123039,-0.7837758179156218,0.08574936236270037,-0.3769434187129246,0.3726128210869284,-0.0021019250932996503,-0.34288007110901964,0.6701076175540686,0.07781159227504175,-0.9695067570891225,-0.7942032659310758,-0.08737363967762302,-0.6535487038528798,0.7952676470618951,-0.13510092512396366]],"W2":[[0.40645379786348834,-0.9892806617436021]],"b1":[[-0.9028955942793078],[-0.2667688368450487]]}}
--{"agentName":"83-16","fitness":109.2,"data":{"A1":[[0.5320918076325125,0.9485483012134968]],"b2":[[0.14036559830391626]],"A2":[[-0.5138301369533138]],"W1":[[0.11567152703716288,0.869362379516893,-0.5772122400793769,-0.4458430198517267,-0.17594552497856109,-0.7650789687340165,0.21432074830213277,-0.4737719210361617,-0.5367916995805011,-0.3693143843224689,0.5160082632682605,0.1852631946713863,-0.5478339283723341,0.6727568207275512,-0.34426515219527243,-0.33817572226229276,-0.5129322300484287,-0.9734655906867875,0.6209647508880325,-0.8867070651894822,0.17411101951674168,-0.02774253208105959,0.12511827208174364,0.645082645510225,-0.40458276805771787,-0.7420649400666202,0.9353222808851491,-0.3082090368447077,0.7092502580744224,0.4794021298220632,0.6424771775982079,-0.7867107769332018,-0.6169964145072329,-0.7411250967438219,0.5576502639691561,-0.9828552466309748,0.6245558488282106,-0.789653885483359,-0.7340195780767131,-0.4605180615474036,-0.8635012550829879,-0.31920625115098167,-0.6979368909424835,0.774559456410219,0.37300564415537174,-0.7246775987371306,-0.0030815686273053533,-0.03773878779258388,-0.25175274405464076,-0.026818676347611925,0.5929380538376474,-0.9336039635770637,0.5987944934322889,-0.932490723709146,0.8358867095705136,-0.25797542063247825,-0.372424864814904,0.9859828888388191,0.04824006333980102,-0.06929816127622734,0.30548210832321976,0.9765600497568623,0.8724450707238633,0.060290975770040944,0.8962560058750573,0.16081003553033812,0.27844228696945383,0.05755658072144354,0.639145123921218,-0.9918918178460248,0.3147620165359202,-0.5851144265369059,0.1925960706902421,-0.6503884744556825,-0.2891695062636175,0.7354858697975049,0.8875446792372295,-0.3630122214803513,0.29246395759528565,0.8864415297929205],[-0.4763092428375775,-0.8197259930281946,-0.9168896568071507,-0.1294556913386009,0.2350487335467255,0.08062761483345282,0.09998565555566707,-0.708312299298403,0.03512845714050594,-0.054500333565198344,0.28690555245687643,-0.9641833297787068,0.6410199220858221,-0.32210871227101423,-0.7863665805227034,-0.5796100120185093,-0.8799083489333834,-0.8141063661170889,-0.4671957598167318,-0.2391965034983532,-0.9089039802657546,0.7841767925852285,-0.2818422931764091,-0.4542060798350862,-0.8783373373719117,-0.5338872761585518,0.3998509469739384,-0.14674011460592506,0.47628074314815616,-0.4807465831545443,-0.8840242210079585,0.5319672040271692,-0.936870897119864,-0.6665896570325256,-0.3673833616234434,-0.23483801763662826,-0.007112482366801398,0.2469404227530001,-0.4796127376677324,-0.5087146924788242,-0.45382581659670307,0.77791106906474,-0.48366999792166787,-0.7851773997197837,0.11573315667249884,-0.013505301276123705,0.54402556115888,-0.663395684751791,0.47596326458377436,-0.16999718733360303,0.8945366902803946,0.8454077137921445,0.4609628108709727,-0.8032608052859527,-0.790017730176128,-0.7066154309996875,0.3268698826953791,-0.8472424215409644,0.8429702177590264,0.18641593811268953,0.6227498820973705,0.9758511310723084,0.6464818311502738,-0.49092468232480546,0.6542913908224062,0.2907221966123039,-0.0688605630316157,0.08574936236270037,-0.7326353773603713,0.5540897093297399,-0.0021019250932996503,-0.34288007110901964,0.6701076175540686,0.9474629458261761,4.0578844804106673E-4,-0.7942032659310758,-0.8036331088960493,-0.6535487038528798,0.3447006809302833,0.15172607954146144]],"W2":[[0.42566546089913326,-0.9892806617436021]],"b1":[[-0.11350647360306376],[-0.37671769458281257]]}}
--{"agentName":"79-0","fitness":109.2,"data":{"A1":[[0.8967548147887532,-0.7978796083254382]],"b2":[[0.14036559830391626]],"A2":[[-0.5138301369533138]],"W1":[[0.11567152703716288,0.869362379516893,0.8110856037985079,-0.22676403289191094,-0.17594552497856109,-0.7032188333551355,0.21432074830213277,-0.4737719210361617,-0.6398590028785496,-0.6458869374936136,-0.856645175053822,-0.21272601567069405,0.02745465167208394,-0.6628099949806581,0.6172200781434594,-0.33817572226229276,0.19557670864644483,-0.09396148454133657,0.9091720160603323,-0.2832966717028853,0.17411101951674168,0.036704090949178036,0.10694932577075145,0.645082645510225,-0.40458276805771787,-0.7420649400666202,0.7819482026561215,-0.3082090368447077,-0.27622195759413226,0.4794021298220632,-0.6724983095526844,0.970141016734064,-0.607392885374082,-0.7411250967438219,-0.4640968877628766,0.5290829873665106,-0.2794902492677298,-0.826587052600843,-0.7340195780767131,-0.4605180615474036,0.39175776477683466,-0.31920625115098167,-0.6979368909424835,0.2658340369778214,0.3792790841827671,-0.07622832001693425,-0.36292251900270456,-0.03773878779258388,-0.928532336893418,-0.026818676347611925,-0.6923018795778115,-0.9508672905347013,0.5987944934322889,-0.932490723709146,-0.690018902428595,-0.25797542063247825,0.257131052198156,-0.41404309625298485,0.04824006333980102,-0.06929816127622734,0.39449745853945895,0.35318877910847823,0.2834175947667217,-0.7703840998148832,-0.4046912481177509,0.7357974203643807,-0.2681937857039389,0.05755658072144354,-0.3711980102934067,-0.9918918178460248,0.4838937917910162,0.3283822911986696,-0.36932875137387855,0.8997718532119949,-0.04668373902227474,-0.5483226669912193,0.8875446792372295,-0.3630122214803513,0.29246395759528565,0.8864415297929205],[-0.4763092428375775,0.15169575812849545,-0.9168896568071507,0.7883507055094827,0.17235433665371191,0.4754602748597312,-0.7755066728579414,-0.708312299298403,0.03512845714050594,-0.054500333565198344,0.28690555245687643,0.07500497681982421,0.6410199220858221,-0.2346185939946437,-0.017518740147131284,0.6676203887363217,-0.5757086910974862,-0.8141063661170889,-0.4671957598167318,0.4126538700451847,0.6192089550490512,-0.26636480692196085,0.5971095049541677,-0.9316788658103008,-0.9718883630945336,-0.9188420878443357,-0.5759957446790516,-0.14674011460592506,-0.8387243231693802,0.35327644378030376,0.9879843803508748,0.013076562328316221,-0.936870897119864,-0.6665896570325256,-0.11445838366572847,-0.7143099476312782,-0.007112482366801398,-0.8649922806790962,-0.4796127376677324,-0.7827366555314497,0.8649656025720815,0.77791106906474,-0.6645108449743089,0.15483393857326044,0.3202586864373109,-0.013505301276123705,0.54402556115888,-0.6182185032258614,0.47596326458377436,0.47516844483466114,0.9694426413820714,0.9222231449936276,-0.8408441010768675,-0.26442410967838037,-0.03895660286203473,0.03794004977619325,0.3268698826953791,-0.8472424215409644,0.8429702177590264,0.38673630021393035,-0.5107483119869474,-0.36181000872378544,0.6464818311502738,-0.49092468232480546,0.6542913908224062,0.2907221966123039,-0.7837758179156218,0.08574936236270037,-0.3769434187129246,0.3726128210869284,-0.0021019250932996503,-0.34288007110901964,0.6701076175540686,0.07781159227504175,-0.9695067570891225,-0.7942032659310758,-0.08737363967762302,-0.6535487038528798,0.7952676470618951,-0.13510092512396366]],"W2":[[0.40645379786348834,-0.9892806617436021]],"b1":[[-0.9028955942793078],[-0.2667688368450487]]}}
{"agentName":"79-1","fitness":109.2,"data":{"A1":[[0.8967548147887532,-0.7978796083254382]],"b2":[[0.14036559830391626]],"A2":[[-0.5138301369533138]],"W1":[[0.11567152703716288,0.869362379516893,0.8110856037985079,-0.22676403289191094,-0.17594552497856109,-0.7032188333551355,0.21432074830213277,-0.4737719210361617,-0.6398590028785496,-0.6458869374936136,-0.856645175053822,-0.21272601567069405,0.02745465167208394,-0.6628099949806581,0.6172200781434594,-0.33817572226229276,0.19557670864644483,-0.09396148454133657,0.9091720160603323,-0.2832966717028853,0.17411101951674168,0.036704090949178036,0.10694932577075145,0.645082645510225,-0.40458276805771787,-0.7420649400666202,0.7819482026561215,-0.3082090368447077,-0.27622195759413226,0.4794021298220632,-0.6724983095526844,0.970141016734064,-0.607392885374082,-0.7411250967438219,-0.4640968877628766,0.5290829873665106,-0.2794902492677298,-0.826587052600843,-0.7340195780767131,-0.4605180615474036,0.39175776477683466,-0.31920625115098167,-0.6979368909424835,0.2658340369778214,0.3792790841827671,-0.07622832001693425,-0.36292251900270456,-0.03773878779258388,-0.928532336893418,-0.026818676347611925,-0.6923018795778115,-0.9508672905347013,0.5987944934322889,-0.932490723709146,-0.690018902428595,-0.25797542063247825,0.257131052198156,-0.41404309625298485,0.04824006333980102,-0.06929816127622734,0.39449745853945895,0.35318877910847823,0.2834175947667217,-0.7703840998148832,-0.4046912481177509,0.7357974203643807,-0.2681937857039389,0.05755658072144354,-0.3711980102934067,-0.9918918178460248,0.4838937917910162,0.3283822911986696,-0.36932875137387855,0.8997718532119949,-0.04668373902227474,-0.5483226669912193,0.8875446792372295,-0.3630122214803513,0.29246395759528565,0.8864415297929205],[-0.4763092428375775,0.15169575812849545,-0.9168896568071507,0.7883507055094827,0.17235433665371191,0.4754602748597312,-0.7755066728579414,-0.708312299298403,0.03512845714050594,-0.054500333565198344,0.28690555245687643,0.07500497681982421,0.6410199220858221,-0.2346185939946437,-0.017518740147131284,0.6676203887363217,-0.5757086910974862,-0.8141063661170889,-0.4671957598167318,0.4126538700451847,0.6192089550490512,-0.26636480692196085,0.5971095049541677,-0.9316788658103008,-0.9718883630945336,-0.9188420878443357,-0.5759957446790516,-0.14674011460592506,-0.8387243231693802,0.35327644378030376,0.9879843803508748,0.013076562328316221,-0.936870897119864,-0.6665896570325256,-0.11445838366572847,-0.7143099476312782,-0.007112482366801398,-0.8649922806790962,-0.4796127376677324,-0.7827366555314497,0.8649656025720815,0.77791106906474,-0.6645108449743089,0.15483393857326044,0.3202586864373109,-0.013505301276123705,0.54402556115888,-0.6182185032258614,0.47596326458377436,0.47516844483466114,0.9694426413820714,0.9222231449936276,-0.8408441010768675,-0.26442410967838037,-0.03895660286203473,0.03794004977619325,0.3268698826953791,-0.8472424215409644,0.8429702177590264,0.38673630021393035,-0.5107483119869474,-0.36181000872378544,0.6464818311502738,-0.49092468232480546,0.6542913908224062,0.2907221966123039,-0.7837758179156218,0.08574936236270037,-0.3769434187129246,0.3726128210869284,-0.0021019250932996503,-0.34288007110901964,0.6701076175540686,0.07781159227504175,-0.9695067570891225,-0.7942032659310758,-0.08737363967762302,-0.6535487038528798,0.7952676470618951,-0.13510092512396366]],"W2":[[0.40645379786348834,-0.9892806617436021]],"b1":[[-0.9028955942793078],[-0.2667688368450487]]}}
{"agentName":"83-17","fitness":109.2,"data":{"A1":[[0.5320918076325125,0.9485483012134968]],"b2":[[0.14036559830391626]],"A2":[[-0.5138301369533138]],"W1":[[0.11567152703716288,0.869362379516893,-0.5772122400793769,-0.4458430198517267,-0.17594552497856109,-0.7650789687340165,0.21432074830213277,-0.4737719210361617,-0.5367916995805011,-0.3693143843224689,0.5160082632682605,0.1852631946713863,-0.5478339283723341,0.6727568207275512,-0.34426515219527243,-0.33817572226229276,-0.5129322300484287,-0.9734655906867875,0.6209647508880325,-0.8867070651894822,0.17411101951674168,-0.02774253208105959,0.12511827208174364,0.645082645510225,-0.40458276805771787,-0.7420649400666202,0.9353222808851491,-0.3082090368447077,0.7092502580744224,0.4794021298220632,0.6424771775982079,-0.7867107769332018,-0.6169964145072329,-0.7411250967438219,0.5576502639691561,-0.9828552466309748,0.6245558488282106,-0.789653885483359,-0.7340195780767131,-0.4605180615474036,-0.8635012550829879,-0.31920625115098167,-0.6979368909424835,0.774559456410219,0.37300564415537174,-0.7246775987371306,-0.0030815686273053533,-0.03773878779258388,-0.25175274405464076,-0.026818676347611925,0.5929380538376474,-0.9336039635770637,0.5987944934322889,-0.932490723709146,0.8358867095705136,-0.25797542063247825,-0.372424864814904,0.9859828888388191,0.04824006333980102,-0.06929816127622734,0.30548210832321976,0.9765600497568623,0.8724450707238633,0.060290975770040944,0.8962560058750573,0.16081003553033812,0.27844228696945383,0.05755658072144354,0.639145123921218,-0.9918918178460248,0.3147620165359202,-0.5851144265369059,0.1925960706902421,-0.6503884744556825,-0.2891695062636175,0.7354858697975049,0.8875446792372295,-0.3630122214803513,0.29246395759528565,0.8864415297929205],[-0.4763092428375775,-0.8197259930281946,-0.9168896568071507,-0.1294556913386009,0.2350487335467255,0.08062761483345282,0.09998565555566707,-0.708312299298403,0.03512845714050594,-0.054500333565198344,0.28690555245687643,-0.9641833297787068,0.6410199220858221,-0.32210871227101423,-0.7863665805227034,-0.5796100120185093,-0.8799083489333834,-0.8141063661170889,-0.4671957598167318,-0.2391965034983532,-0.9089039802657546,0.7841767925852285,-0.2818422931764091,-0.4542060798350862,-0.8783373373719117,-0.5338872761585518,0.3998509469739384,-0.14674011460592506,0.47628074314815616,-0.4807465831545443,-0.8840242210079585,0.5319672040271692,-0.936870897119864,-0.6665896570325256,-0.3673833616234434,-0.23483801763662826,-0.007112482366801398,0.2469404227530001,-0.4796127376677324,-0.5087146924788242,-0.45382581659670307,0.77791106906474,-0.48366999792166787,-0.7851773997197837,0.11573315667249884,-0.013505301276123705,0.54402556115888,-0.663395684751791,0.47596326458377436,-0.16999718733360303,0.8945366902803946,0.8454077137921445,0.4609628108709727,-0.8032608052859527,-0.790017730176128,-0.7066154309996875,0.3268698826953791,-0.8472424215409644,0.8429702177590264,0.18641593811268953,0.6227498820973705,0.9758511310723084,0.6464818311502738,-0.49092468232480546,0.6542913908224062,0.2907221966123039,-0.0688605630316157,0.08574936236270037,-0.7326353773603713,0.5540897093297399,-0.0021019250932996503,-0.34288007110901964,0.6701076175540686,0.9474629458261761,4.0578844804106673E-4,-0.7942032659310758,-0.8036331088960493,-0.6535487038528798,0.3447006809302833,0.15172607954146144]],"W2":[[0.42566546089913326,-0.9892806617436021]],"b1":[[-0.11350647360306376],[-0.37671769458281257]]}}
{"agentName":"79-0","fitness":109.2,"data":{"A1":[[0.8967548147887532,-0.7978796083254382]],"b2":[[0.14036559830391626]],"A2":[[-0.5138301369533138]],"W1":[[0.11567152703716288,0.869362379516893,0.8110856037985079,-0.22676403289191094,-0.17594552497856109,-0.7032188333551355,0.21432074830213277,-0.4737719210361617,-0.6398590028785496,-0.6458869374936136,-0.856645175053822,-0.21272601567069405,0.02745465167208394,-0.6628099949806581,0.6172200781434594,-0.33817572226229276,0.19557670864644483,-0.09396148454133657,0.9091720160603323,-0.2832966717028853,0.17411101951674168,0.036704090949178036,0.10694932577075145,0.645082645510225,-0.40458276805771787,-0.7420649400666202,0.7819482026561215,-0.3082090368447077,-0.27622195759413226,0.4794021298220632,-0.6724983095526844,0.970141016734064,-0.607392885374082,-0.7411250967438219,-0.4640968877628766,0.5290829873665106,-0.2794902492677298,-0.826587052600843,-0.7340195780767131,-0.4605180615474036,0.39175776477683466,-0.31920625115098167,-0.6979368909424835,0.2658340369778214,0.3792790841827671,-0.07622832001693425,-0.36292251900270456,-0.03773878779258388,-0.928532336893418,-0.026818676347611925,-0.6923018795778115,-0.9508672905347013,0.5987944934322889,-0.932490723709146,-0.690018902428595,-0.25797542063247825,0.257131052198156,-0.41404309625298485,0.04824006333980102,-0.06929816127622734,0.39449745853945895,0.35318877910847823,0.2834175947667217,-0.7703840998148832,-0.4046912481177509,0.7357974203643807,-0.2681937857039389,0.05755658072144354,-0.3711980102934067,-0.9918918178460248,0.4838937917910162,0.3283822911986696,-0.36932875137387855,0.8997718532119949,-0.04668373902227474,-0.5483226669912193,0.8875446792372295,-0.3630122214803513,0.29246395759528565,0.8864415297929205],[-0.4763092428375775,0.15169575812849545,-0.9168896568071507,0.7883507055094827,0.17235433665371191,0.4754602748597312,-0.7755066728579414,-0.708312299298403,0.03512845714050594,-0.054500333565198344,0.28690555245687643,0.07500497681982421,0.6410199220858221,-0.2346185939946437,-0.017518740147131284,0.6676203887363217,-0.5757086910974862,-0.8141063661170889,-0.4671957598167318,0.4126538700451847,0.6192089550490512,-0.26636480692196085,0.5971095049541677,-0.9316788658103008,-0.9718883630945336,-0.9188420878443357,-0.5759957446790516,-0.14674011460592506,-0.8387243231693802,0.35327644378030376,0.9879843803508748,0.013076562328316221,-0.936870897119864,-0.6665896570325256,-0.11445838366572847,-0.7143099476312782,-0.007112482366801398,-0.8649922806790962,-0.4796127376677324,-0.7827366555314497,0.8649656025720815,0.77791106906474,-0.6645108449743089,0.15483393857326044,0.3202586864373109,-0.013505301276123705,0.54402556115888,-0.6182185032258614,0.47596326458377436,0.47516844483466114,0.9694426413820714,0.9222231449936276,-0.8408441010768675,-0.26442410967838037,-0.03895660286203473,0.03794004977619325,0.3268698826953791,-0.8472424215409644,0.8429702177590264,0.38673630021393035,-0.5107483119869474,-0.36181000872378544,0.6464818311502738,-0.49092468232480546,0.6542913908224062,0.2907221966123039,-0.7837758179156218,0.08574936236270037,-0.3769434187129246,0.3726128210869284,-0.0021019250932996503,-0.34288007110901964,0.6701076175540686,0.07781159227504175,-0.9695067570891225,-0.7942032659310758,-0.08737363967762302,-0.6535487038528798,0.7952676470618951,-0.13510092512396366]],"W2":[[0.40645379786348834,-0.9892806617436021]],"b1":[[-0.9028955942793078],[-0.2667688368450487]]}}
